tree
version=v4
num_class=1
num_tree_per_iteration=1
label_index=0
max_feature_idx=22
objective=regression
feature_names=base_price total_price diff relative_diff_base relative_diff_total is_featured_sku is_display_sku store_encoded sku_encoded store_id sku_id date end_week_serial month week_serial year weekday weeknum end_weekday end_month end_weeknum end_date end_year
feature_infos=[61.274999999999999:562.16250000000002] [41.325000000000003:562.16250000000002] [-106.875:250.79999999999998] [-0.51515151515151525:0.82370820668693001] [-0.34000000000000008:4.6724137931034475] -1:0:1 -1:0:1 [20.713245542336452:117.98501894501895] [16.914188184696659:98.84331373544488] -1:4:63:20:15:0:9:66:33:23:48:35:32:50:51:2:44:69:31:27:6:24:5:17:29:8:39:73:65:74:75:12:56:18:58:70:38:43:60:19:64:22:1:14:30:34:72:52:62:13:26:37:46:47:71:61:7:53:54:45:67:40:68:36:59:11:57:42:16:10:49:25:41:3:28:55 -1:7:0:8:13:10:5:11:1:2:3:14:12:16:18:15:20:24:9:4:6:21:17:27:23:25:19:26 [40.493269411669417:62.741029114977245] [21.964112956009508:94.366699162906059] [44.959153167006058:60.471934441324997] [21.964112956009508:94.366699162906059] [51.14699693713429:52.49144439492634] [51.096943921826252:52.368868246940146] [38.706855736056603:76.375106276013412] [51.096943921826252:52.368868246940146] [44.562938997184538:59.987631829708754] [39.712039321369772:67.598954187023352] [40.493269411669417:62.741029114977245] [51.193982718471815:52.459405848568387]
tree_sizes=2803 3073 3084 3098 2943 3078 3001 2971 3075 3063 3106 3115 3032 3108 3117 3089 2987 3116 2988 3138 3154 3087 3169 3133 2976 3109 3108 3124 3107 3132 2917 3086 3092 3078 3051 3092 3154 2966 3064 3168 3168 3099 3021 2962 3082 2847 2938 2929 3095 3086 2878 2946 2952 3072 3093 3072 3072 2852 2939 3052 2855 2875 3045 2997 3042 3070 3074 2919 3119 3044 3036 2929 2946 3105 3035 2958 3076 3095 2959 2942 2999 2945 2974 3091 3043 2921 3062 3149 3132 3159 2855 3038 3060 3043 3131 2966 3021 3087 2923 2971 2900 2989 3018 3021 2914 3114 3014 3057 2965 3080 2929 2965 3123 2957 3061 3144 2933 2874 3061 3070 2974 3046 3061 3085 3044 2947 3125 3018 2961 3082 3108 2923 2962 2915 3009 2925 2996 3007 3073 3064 2971 3070 3097 3007 3125 3072 3076 3104 2938 2927 2840 2978 2868 3108 3067 3057 3090 2961 2990 2937 2916 3017 2910 3088 3084 3099 3056 3075 3121 2919 3064 2924 2910 2895 2898 3076 3089 3004 3023 3076 3053 3037 3037 3088 2933 2927 3049 2994 3089 3105 3075 2948 2885 3169 3115 2912 3087 3096 2901 2924 3038 3123 3084 3108 2910 3022 3093 3079 3058 3088 3066 3129 2924 3076 3048 2960 3116 3044 2881 2939 3019 2928 2887 3059 3106 3112 2930 2948 3062 2934 2868 3053 3093 2985 3092 2915 3031 2970 2908 3042 3057 2913 2962 2930 3031 3056 2883 3097 3081 3001 2987 3096 2978 2938 2929 2890 3010 3148 3058 3084 2996 3060 3065 3046 2930 2911 3148 2932 2929 3053 3079 3022 2946 2952 3085 3081 2984 3070 3080 2911 2916 2877 2932 3012 2896 2945 2944 3046 2861 2983 2968 3044 3100 2941 3123 3095 3003 3099 3041 3072 2944 3021 3021 3050 3041 3082 3103 3005 3101 3052 3054 2997 2901 2916 3061 2897 2896 3047 3074 3039 2948 2888 2903 3082 2991 3129 3047 3109 2912 2925 2955 2939 3090 3135 2896 2987 2948 2932 3012 3121 3058 3073 3039 3144 2869 3030 2984 3046 3081 3112 3094 2921 2976 2982 3151 2892 3151 2946 2896 2899 2957 2945 3039 2923 2922 2949 3112 3053 3123 3066 2984 2909 3020 2916 2936 3072 2909 3063 3115 2934 3058 2998 3088 3066 2939 2919 3023 3057 3050 2884 3111 3102 2931 2954 3114 3019 3052 2900 3039 3042 3080 2890 2974 3038 3049 2933 2950 3085 2908 2983 3065 3129 3053 2875 3047 3089 2951 2978 3077 3102 2995 3055 3026 2918 3122 2898 2949 3021 2975 2936 3019 2867 3036 3076 3093 2994 2993 3127 2878 2964 3029 3019 3096 2889 2995 3003 2944 2866 2930 3040 2873 2907 3085 3026 3005 2971 3089 2947 2919 3052 3035 3088 3143 2980 2920 3130 3062 3034 2940 2963 2889 3066 2948 3032 2993 3095 2929 2921 3056 2912 3024 2948 2886 3011 3053 3010 2988 3080 2970 3006 3105 3168 3052 3098 2910 3018 2914 2979 2948 2892 3086 3018 2942 3047 3034 2899 3047 3111 2894 3024 2940 2926 2928 2937 3079 3132 2918 3054 3087 2952 3014 3147 3114 3151 3099 2985 2977 2859 3056 3092 3102 2892 2987 3028 3130 3086 2932 2989 3093 3088 3085 2963 3125 2952 2945 3030 2961 2904 3120 2854 3006 2978 3139 2976 2959 3101 3089 3049 2982 2978 2987 3171 3034 3032 2870 3127 2945 3085 3007 3078 3057 2924 2952 3136 3035

Tree=0
num_leaves=31
num_cat=11
split_feature=8 7 6 3 6 10 8 7 10 7 7 7 7 3 1 10 0 8 6 10 7 3 7 7 3 10 10 10 3 10
split_gain=19716.7 10465 4510 4096.4 2755.9 2108.79 1681.31 1515.75 1485.27 909.085 842.922 816.347 783.217 603.822 572.308 552.181 515.529 498.302 480.47 469.024 351.833 331.337 325.996 321.803 293.822 282.597 276.906 269.993 251.387 251.238
threshold=39.708180425858949 51.44843822863352 0 1.0000000180025095e-35 1 2 93.862546249527099 40.586359321892537 3 50.610171884367652 44.16219437820245 76.436232621604887 76.436232621604887 0.25166674074403311 226.93125000000001 4 179.19375000000005 47.154161696280447 5 6 66.035000790861275 0.25166674074403311 68.498479463233579 31.522378518072411 0.3344538099972883 7 8 9 0.33660612236467041 10
decision_type=2 2 1 2 1 9 2 2 9 2 2 2 2 2 2 9 2 2 1 9 2 2 2 2 2 9 9 9 2 9
left_child=3 2 6 8 5 11 7 14 10 18 -1 -3 25 -4 23 24 22 -6 -5 -11 27 -19 -12 -2 -9 -7 -25 -10 -27 -22
right_child=1 4 13 9 17 12 -8 15 20 19 16 -13 -14 -15 -16 -17 -18 21 -20 -21 29 -23 -24 26 -26 28 -28 -29 -30 -31
leaf_value=0.71575907342403344 0.74150024593637687 0.87199384355157417 0.86457458063458614 0.73409831837981254 0.86945363460800063 0.82948954115141071 0.84159087456197545 0.76316552571187779 0.70094406964600464 0.84833196982684633 0.77389023605600149 0.93235395116674813 0.86548057371719378 0.94655074930355987 0.72818287802899218 0.81198053754857646 0.74254091847701986 0.94343502588836392 0.79639630232699721 0.7834629064430394 0.7495185163747099 1.0188704184449016 0.84919301864720076 0.74559820205689498 0.94920206977854893 0.78963379895438512 0.78298612149412117 0.66737364267395649 1.0005611243590209 0.69507537330038904
leaf_weight=10128 4594 8232 4278 3348 939 5782 5158 4536 6100 3531 2322 4093 5282 1474 6131 12632 6072 3758 2752 2210 2003 876 1005 3061 106 4547 11430 6416 70 2269
leaf_count=10128 4594 8232 4278 3348 939 5782 5158 4536 6100 3531 2322 4093 5282 1474 6131 12632 6072 3758 2752 2210 2003 876 1005 3061 106 4547 11430 6416 70 2269
internal_value=0.79218 0.823574 0.793192 0.735477 0.87189 0.857774 0.782039 0.77481 0.717081 0.791895 0.737895 0.891958 0.830819 0.885582 0.757542 0.800016 0.76169 0.942827 0.762204 0.823443 0.692964 0.957695 0.796637 0.766974 0.767467 0.81325 0.77505 0.683562 0.79283 0.720275
internal_weight=135135 86979 53400 48156 33579 28006 47648 42490 36315 11841 19527 12325 15681 5752 25216 17274 9399 5573 6100 5741 16788 4634 3327 19085 4642 10399 14491 12516 4617 4272
internal_count=135135 86979 53400 48156 33579 28006 47648 42490 36315 11841 19527 12325 15681 5752 25216 17274 9399 5573 6100 5741 16788 4634 3327 19085 4642 10399 14491 12516 4617 4272
cat_boundaries=0 1 2 3 4 5 6 7 8 9 10 11
cat_threshold=1 1 1190 9699912 69888 1 33865736 10241 65568 16400 151011328
is_linear=0
shrinkage=0.220914


Tree=1
num_leaves=31
num_cat=21
split_feature=8 9 9 2 1 1 6 9 10 10 10 9 9 8 14 10 9 2 9 10 10 9 9 9 9 9 9 8 4 9
split_gain=4942.97 3205.22 1438.09 1148.57 1129.22 896.179 740.028 696.118 661.3 480.412 452.11 456.771 450.994 435.41 386.792 364.746 321.04 319.445 300.133 296.923 271.138 266.601 254.926 227.302 181.275 176.772 171.376 178.282 158.802 150.336
threshold=46.101411212096046 0 1 2.1375000000000104 202.70625000000004 365.15625000000006 2 3 4 5 6 7 8 70.325979842441498 59.380923300837104 9 10 117.20625000000004 11 12 13 14 15 16 17 18 19 24.728489810206458 0.030943793686763931 20
decision_type=2 9 9 2 2 2 1 9 9 9 9 9 9 2 2 9 9 2 9 9 9 9 9 9 9 9 9 2 2 9
left_child=2 4 17 7 8 6 10 13 25 14 11 -4 -10 -3 -5 24 -11 26 -12 21 23 -9 -17 -7 -6 -2 -1 -28 -14 -8
right_child=1 3 5 9 15 20 29 19 12 16 18 -13 28 -15 -16 22 -18 -19 -20 -21 -22 -23 -24 -25 -26 -27 27 -29 -30 -31
leaf_value=-0.072647367286651929 0.10156987342803257 -0.0084197520341449169 0.02853857355596718 0.035494433802809498 0.014405106754756487 -0.01100002212096233 0.050232236155623951 -0.069359105321266212 0.058777248917401721 -0.014745191116465734 -0.0064946115221377844 -0.0120969840219516 0.012932272475086017 0.024386398205496259 0.11078763787384567 0.040911008353751034 0.028666026068495415 0.017487379075395611 -0.040129503934710965 -0.039064756908722298 -0.073995188289253569 -0.0049792198925897486 0.01119980555829558 -0.04900022463480444 -0.0458262229336074 0.066300555676082659 -0.064847861091147735 -0.037825161381138409 0.042941365727954345 0.015012095463823996
leaf_weight=3498 2290 12917 4044 2147 825 2936 2134 715 7049 2725 4424 9079 5037 6007 1020 4780 4685 682 6905 8722 2051 6518 7592 3537 1295 4635 3700 7470 2770 2946
leaf_count=3498 2290 12917 4044 2147 825 2936 2134 715 7049 2725 4424 9079 5037 6007 1020 4780 4685 682 6905 8722 2051 6518 7592 3537 1295 4635 3700 7470 2770 2946
internal_value=-1.03546e-05 0.0155538 -0.0238288 -0.0022589 0.0378663 -0.0133239 -0.00502753 -0.0110718 0.0523655 0.0268005 -0.0122913 0.000437515 0.040293 0.00199277 0.0595562 0.0161006 0.0127034 -0.0498315 -0.0270123 -0.026552 -0.0420828 -0.0114303 0.0227027 -0.0318078 -0.0224296 0.0780933 -0.0529955 -0.0467344 0.0235496 0.0299358
internal_weight=135135 81729 53406 45456 36273 38056 29532 34879 21781 10577 24452 13123 14856 18924 3167 14492 7410 15350 11329 15955 8524 7233 12372 6473 2120 6925 14668 11170 7807 5080
internal_count=135135 81729 53406 45456 36273 38056 29532 34879 21781 10577 24452 13123 14856 18924 3167 14492 7410 15350 11329 15955 8524 7233 12372 6473 2120 6925 14668 11170 7807 5080
cat_boundaries=0 3 6 7 10 11 12 13 16 19 20 23 26 27 28 30 33 36 39 42 45 48
cat_threshold=2903937845 2769035329 1479 3523284102 676367341 648 1 12607554 270752910 2600 6530 12416 44417032 621166881 2449743872 2 2164654385 2148278272 1090 4096 302582920 1221626624 8 1753601 335896576 53 8323 49152 8 8388608 2701263649 2147483648 1282 613429569 2148335616 1287 1081877 1 262 2701263137 2148270080 2 33556608 139461124 8 621809921 2148343808 359
is_linear=0
shrinkage=0.100672


Tree=2
num_leaves=31
num_cat=20
split_feature=5 10 9 10 9 10 1 9 10 10 12 9 9 12 8 9 9 9 9 9 10 9 9 12 1 8 0 8 9 0
split_gain=2286.55 1174.21 1143.2 633.488 415.374 371.01 356.565 311.3 256.317 231.022 223.155 204.368 199.651 176.584 174.62 158.373 154.892 145.04 142.328 125.73 129.237 118.66 115.468 105.698 101.896 99.3281 97.9087 85.6242 137.056 125.697
threshold=0 1 2 3 4 5 236.90625000000003 6 7 8 37.986095714630203 9 10 34.999026749112957 46.101411212096046 11 12 13 14 15 16 17 18 58.644716404285376 375.84375000000006 21.90643572527344 212.68125000000001 80.520461747512357 19 89.418750000000017
decision_type=1 9 9 9 9 9 2 9 9 9 2 9 9 2 2 9 9 9 9 9 9 9 9 2 2 2 2 2 9 2
left_child=1 2 5 17 8 18 22 9 21 16 -7 -12 -5 -9 -15 26 -4 23 -1 -8 -21 -3 -6 -2 -14 -24 -10 -16 29 -29
right_child=3 4 7 12 6 10 19 13 15 -11 11 -13 24 14 27 -17 -18 -19 -20 20 -22 -23 25 -25 -26 -27 -28 28 -30 -31
leaf_value=0.066179682184464461 0.096203362988867544 -0.025561844732005238 -0.038099992259382556 0.00011560610157763914 0.011065076434383887 -0.07852851799251763 -0.059286539240603578 -0.084662385786072714 0.015621669374105477 -0.046828305466457602 0.05011052923506893 0.0084877275097219214 0.053739932886220435 -0.04377455819267502 -0.0036283393389717543 -0.041728572270568233 0.016116889853021669 0.071199981416701447 0.033000397763098842 -0.0079621993251119908 -0.04841447435176606 -0.074396975389415171 -0.05421304282310923 0.1588216763978797 -0.0016131818479809816 -0.0073661948268417708 -0.023575420715458768 -0.059312741956866373 0.031638435529683297 0.0079142992047362293
leaf_weight=3119 1360 1220 1600 2760 6947 496 2845 487 1794 6385 2495 17019 4288 1749 21268 6715 2460 3062 10686 3591 2468 4242 891 787 718 13812 3435 679 3636 2121
leaf_count=3119 1360 1220 1600 2760 6947 496 2845 487 1794 6385 2495 17019 4288 1749 21268 6715 2460 3062 10686 3591 2468 4242 891 787 718 13812 3435 679 3636 2121
internal_value=-8.17935e-06 -0.00577325 0.00494637 0.0542701 -0.0223542 0.0233899 -0.0127919 -0.0104986 -0.0391225 -0.0307029 0.0115442 0.0138395 0.0295266 -0.00344218 -0.00210038 -0.0279054 -0.00529048 0.0909284 0.0405392 -0.0357037 -0.0244922 -0.0635557 -0.00337487 0.118604 0.0457094 -0.0101982 -0.0101081 0.000530577 0.0142739 -0.00835841
internal_weight=135135 122160 74200 12975 47960 33815 30554 40385 17406 10445 20010 19514 7766 29940 29453 11944 4060 5209 13805 8904 6059 5462 21650 2147 5006 14703 5229 27704 6436 2800
internal_count=135135 122160 74200 12975 47960 33815 30554 40385 17406 10445 20010 19514 7766 29940 29453 11944 4060 5209 13805 8904 6059 5462 21650 2147 5006 14703 5229 27704 6436 2800
cat_boundaries=0 1 2 5 6 9 10 13 14 15 18 21 24 27 30 33 36 37 39 42 45
cat_threshold=1 77223 2912293747 2769104968 1602 13702 2219646094 727321261 1112 166 302058496 146803456 272 154533888 8321 257 2147483648 2 311119504 407919532 532 2214596614 689438848 1096 268503040 8388608 16 85242161 2838341705 1450 2165309441 67633152 2 327303184 1342230848 2688 67158016 262272 2089 285229569 2147496208 295 1073750024 1076003844 2185
is_linear=0
shrinkage=0.13599


Tree=3
num_leaves=31
num_cat=21
split_feature=6 10 9 10 9 14 9 9 14 14 10 9 9 9 10 9 10 8 2 9 1 9 10 9 9 8 9 9 2 7
split_gain=532.555 344.367 419.15 173.264 159.487 146.382 140.065 127.808 115.033 103.827 94.4457 160.243 102.584 90.0359 76.456 102.137 75.0915 74.6559 74.3276 74.0247 67.9774 58.4211 57.353 77.7538 55.489 45.4696 67.4537 51.5604 44.9406 42.6209
threshold=0 1 2 3 4 27.129630197388817 5 6 34.999026749112957 37.986095714630203 7 8 9 10 11 12 13 93.862546249527099 60.918749999999996 14 199.14375000000004 15 16 17 18 93.862546249527099 19 20 12.825000000000012 21.288824874620332
decision_type=1 9 9 9 9 2 9 9 2 2 9 9 9 9 9 9 9 2 2 9 2 9 9 9 9 2 9 9 2 2
left_child=1 2 8 24 -5 -3 16 -7 -1 -8 11 -9 -12 -10 15 20 -4 19 22 -6 -11 -16 23 -15 -2 27 -27 -17 -14 -18
right_child=3 5 6 4 17 7 9 10 13 14 12 -13 28 18 21 25 29 -19 -20 -21 -22 -23 -24 -25 -26 26 -28 -29 -30 -31
leaf_value=-0.043554208899499243 0.012374750797308058 -0.098965746173034844 -0.054357943237753163 0.0058070337523680928 0.054571480933216121 -0.019235803330021915 -0.045041657819825255 -0.042012918571705714 0.032391994189193349 0.02461466514975048 0.011874013797936627 -0.003510292425566934 -0.010941881838739806 0.027736346084801598 -0.00090922735579285923 -0.034782529540654812 -0.048496107172259731 0.083938266155989108 0.050260842833240837 0.027051187777388679 -0.0096724316922877501 -0.012795887441206792 0.0043993167526604855 0.0089545121618695572 -0.014450246529245519 -0.01759124558181599 0.029294420795205445 -0.0032830442205279537 0.011029846946004429 -0.01109779659767512
leaf_weight=550 2346 289 1130 3921 1892 17638 901 2557 3274 4331 6276 4489 9585 5031 13172 1229 555 454 708 7147 1092 11847 14224 9868 2287 809 1058 2156 1645 2674
leaf_count=550 2346 289 1130 3921 1892 17638 901 2557 3274 4331 6276 4489 9585 5031 13172 1229 555 454 708 7147 1092 11847 14224 9868 2287 809 1058 2156 1645 2674
internal_value=-5.50972e-06 -0.00303227 0.00199367 0.019632 0.0266937 -0.0118574 -0.00635024 -0.0112635 0.012146 -0.00386757 -0.00552617 -0.0175227 -0.000690442 0.0130751 -0.00282932 0.00586957 -0.0271364 0.0353055 0.0109405 0.0329019 0.0176779 -0.00654066 0.00998838 0.015311 -0.000869546 -0.0063336 0.00904082 -0.0148321 -0.00771653 -0.0174717
internal_weight=135135 117088 74609 18047 13414 42479 40954 42190 33655 36595 24552 7046 17506 33105 35694 10675 4359 9493 29831 9039 5423 25019 29123 14899 4633 5252 1867 3385 11230 3229
internal_count=135135 117088 74609 18047 13414 42479 40954 42190 33655 36595 24552 7046 17506 33105 35694 10675 4359 9493 29831 9039 5423 25019 29123 14899 4633 5252 1867 3385 11230 3229
cat_boundaries=0 1 2 5 6 9 11 14 15 18 21 24 25 28 29 32 35 36 39 42 45 48
cat_threshold=1 339367 2845221733 2754347204 3655 247169280 550046404 920666532 1152 268437504 142606849 2174291086 1933597614 3600 37388288 1275461920 68452416 96 201457953 202154000 354 1 2147483648 2 162 1179127810 50582552 160 329760 1124073761 557057 2 67129368 1363275816 392 265350 697303552 262144 516 2839941443 2889266249 1283 66696 4202528 16 16384 268437536 264
is_linear=0
shrinkage=0.12281


Tree=4
num_leaves=31
num_cat=11
split_feature=14 2 14 10 7 7 10 17 10 10 14 2 22 10 10 7 2 7 21 10 2 16 10 7 10 7 10 10 2 8
split_gain=240.814 202.223 144.173 111.98 76.2157 73.3897 72.2687 72.0747 70.4838 56.7454 51.7805 42.7279 39.9756 78.0733 36.5941 54.3322 35.1318 33.4079 33.3853 32.619 32.858 32.1272 31.8929 31.3883 45.5 31.3742 31.2282 29.6211 25.5966 25.2234
threshold=49.356354335319857 12.112500000000006 27.129630197388817 0 40.586359321892537 66.035000790861275 1 59.992585406700918 2 3 74.826612956009527 142.85625000000007 51.197982628665606 4 5 55.793498292574363 78.375000000000028 57.559100553523649 52.287648846094534 6 135.73125000000007 51.73290608438321 7 36.339654064848951 8 43.475218926769521 9 10 81.58125000000004 50.417695072270369
decision_type=2 2 2 9 2 2 9 2 9 9 2 2 2 9 9 2 2 2 2 9 2 2 9 2 9 2 9 9 2 2
left_child=2 6 -1 4 19 8 -2 11 10 28 16 22 13 18 15 25 -3 26 -8 21 -21 29 -5 24 -14 -6 -15 -18 -7 -4
right_child=1 5 3 7 14 9 12 -9 -10 -11 -12 -13 23 17 -16 -17 27 -19 -20 20 -22 -23 -24 -25 -26 -27 -28 -29 -30 -31
leaf_value=-0.047516589191724537 0.0092416129613429061 0.012191881504589967 -0.037924702467878366 -0.020811378426849138 0.010531552032776271 0.035558181462336684 -0.035021452697653728 -0.065203116077081125 0.0028460385681980194 0.014738001181691357 0.057312533193801196 0.023509507418264925 0.0041179219669145841 -0.015467558944506221 -0.0016735646905226931 0.01308323526681112 0.060210369082816705 0.012734528950730122 -0.011138541412060733 -0.0036758662452400534 0.14093927859994562 -0.0047127823431616497 -0.0090136130176887673 0.003194407927935444 -0.012588840512667621 -0.0063629987534969028 0.0035891621644111092 0.02255075582328377 0.066056208435542663 -0.015509547275126821
leaf_weight=1045 11072 5462 925 3796 2144 1529 1530 326 6860 1937 444 482 3966 2241 14204 7871 367 1819 1594 9928 21 2668 15987 20948 4797 4637 2336 1291 483 2425
leaf_count=1045 11072 5462 925 3796 2144 1529 1530 326 6860 1937 444 482 3966 2241 14204 7871 367 1819 1594 9928 21 2668 15987 20948 4797 4637 2336 1291 483 2425
internal_value=-2.18963e-06 0.00479377 -0.00495814 -0.00427826 -0.00103795 0.0151634 0.00100629 -0.0113258 0.0113442 0.0291133 0.0190225 -0.0104647 -0.00131995 -0.00783307 0.00250432 0.00655112 0.0166615 -0.000504713 -0.0227625 -0.00744028 -0.00336723 -0.0141448 -0.0112925 0.000766543 -0.00503728 -0.00102132 -0.00576738 0.0313859 0.0426675 -0.0216988
internal_weight=135135 68676 66459 65414 44823 18373 50303 20591 14424 3949 7564 20265 39231 9520 28856 14652 7120 6396 3124 15967 9949 6018 19783 29711 8763 6781 4577 1658 2012 3350
internal_count=135135 68676 66459 65414 44823 18373 50303 20591 14424 3949 7564 20265 39231 9520 28856 14652 7120 6396 3124 15967 9949 6018 19783 29711 8763 6781 4577 1658 2012 3350
cat_boundaries=0 1 2 3 4 5 6 7 8 9 10 11
cat_threshold=9768383 9346 9730758 16804265 188579844 67630 68618 2785280 26481221 16649 2688
is_linear=0
shrinkage=0.11549


Tree=5
num_leaves=31
num_cat=22
split_feature=1 9 9 10 9 9 10 9 8 10 9 9 9 2 0 9 10 10 9 9 10 10 9 8 1 9 7 9 0 9
split_gain=130.992 211.855 159.376 159.033 116.725 113.346 83.0905 81.0536 79.5072 72.9771 109.153 101.657 61.3488 60.3792 60.9414 48.7689 87.3633 42.5517 119.012 62.5808 60.7468 59.7931 47.0919 46.6412 39.8443 38.9358 36.5021 32.7416 32.3825 31.662
threshold=212.68125000000001 0 1 2 3 4 5 6 28.502998141779944 7 8 9 10 134.30625000000006 505.87500000000006 11 12 13 14 15 16 17 18 22.129740701046675 177.05625000000001 19 34.048578839527828 20 83.006250000000009 21
decision_type=2 9 9 9 9 9 9 9 2 9 9 9 9 2 2 9 9 9 9 9 9 9 9 2 2 9 2 9 2 9
left_child=2 6 17 5 8 25 7 -2 -5 11 -11 28 -8 14 15 16 -3 18 -1 21 -20 -19 23 -23 -21 -4 -12 -14 -6 -9
right_child=1 13 3 4 9 -7 12 29 -10 10 26 -13 27 -15 -16 -17 -18 19 20 24 -22 22 -24 -25 -26 -27 -28 -29 -30 -31
leaf_value=0.036947876503969614 -0.02861657854659997 -0.019519378540604263 -0.028444711727029098 -0.021854145078924959 0.069524780628788529 0.02420846646874017 -0.0657806960163555 0.06912284625931045 0.0042685956177964642 -0.008050784767689504 -0.091871575867478683 -0.01764116021220884 -0.0082051431423596898 0.026675983294341978 -0.046244105970973629 0.0056095166307047134 0.0021795827903258675 0.01169877215878859 -0.026132386917447993 0.01635076528583276 0.011941784391698624 0.022860896134676869 9.309057930946454e-05 -0.033162705876023942 -0.00087501656588926291 0.0024754336333346291 -0.035053356011333359 -0.03306150026813838 0.013634111405091295 -0.0041795850584079386
leaf_weight=3965 3549 5495 990 2634 223 6645 880 107 16826 4858 232 3907 1504 1672 561 16358 10631 4174 975 12966 4869 338 3585 2066 3291 3901 4669 3493 2219 7552
leaf_count=3965 3549 5495 990 2634 223 6645 880 107 16826 4858 232 3907 1504 1672 561 16358 10631 4174 975 12966 4869 338 3585 2066 3291 3901 4669 3493 2219 7552
internal_value=1.26085e-06 -0.00551971 0.00343325 -0.00192954 -0.00655608 0.0123284 -0.0182595 -0.0111753 0.000732387 -0.0153562 -0.022947 -0.00367075 -0.0317278 0.000754877 -0.000556442 0.000232586 -0.00522194 0.0104035 0.0182698 0.00747709 0.00555578 -0.00113092 -0.0100771 -0.0251811 0.0128557 -0.00382846 -0.0376661 -0.0256115 0.0186615 -0.00306672
internal_weight=135135 51802 83333 47104 35568 11536 17085 11208 19460 16108 9759 6349 5877 34717 33045 32484 16126 36229 9809 26420 5844 10163 5989 2404 16257 4891 4901 4997 2442 7659
internal_count=135135 51802 83333 47104 35568 11536 17085 11208 19460 16108 9759 6349 5877 34717 33045 32484 16126 36229 9809 26420 5844 10163 5989 2404 16257 4891 4901 4997 2442 7659
cat_boundaries=0 3 6 7 10 13 14 16 17 20 22 24 27 28 29 32 35 36 37 40 42 44 45
cat_threshold=491855018 113399612 512 2907977475 2254475596 599 8403920 1073973432 17769648 1184 1342900264 562980401 128 35934016 335612032 4325420 1442818 524352 1745879554 2056 8404992 268453889 4196360 33555472 2684764928 3911788545 1110 3420736 1313666 537920001 33558536 518 537920000 39850056 580 1310720 142619652 512 4198400 516 67592 1040 269550720 8388872 8
is_linear=0
shrinkage=0.139811


Tree=6
num_leaves=31
num_cat=3
split_feature=5 21 0 8 8 19 12 15 8 0 0 8 19 17 0 0 0 0 8 0 22 3 0 7 21 6 7 0 12 6
split_gain=137.314 74.693 68.5926 73.6832 37.1608 54.1012 35.8483 35.2955 34.9434 34.8648 48.822 32.2156 32.1176 30.4612 27.7692 58.2303 27.4169 25.6869 24.2818 30.3905 27.6525 22.1434 30.893 34.9917 21.2515 21.0886 19.2248 19.1081 19.2763 21.2787
threshold=0 51.954328823649938 225.50625000000005 56.874652179366826 61.348530853114731 58.861157098733614 42.884802611181932 51.842713556699088 22.129740701046675 99.393750000000011 84.43125000000002 61.348530853114731 49.747969163406118 52.015957068867742 236.90625000000003 241.18125000000001 513.35625000000016 106.51875000000001 56.874652179366826 118.63125000000001 51.197982628665606 0.098765432098765413 135.01875000000004 55.793498292574363 52.95520939972775 1 62.734354404672175 107.23125000000002 71.527475024975033 2
decision_type=1 2 2 2 2 2 2 2 2 2 2 2 2 2 2 2 2 2 2 2 2 2 2 2 2 1 2 2 2 1
left_child=2 4 6 7 5 -2 12 13 26 10 -10 25 -1 -4 -9 -16 -17 -11 19 20 -19 22 -21 -24 -5 -3 -8 -20 -29 -30
right_child=1 11 3 24 -6 -7 8 14 9 17 -12 -13 -14 -15 15 16 -18 18 27 21 -22 -23 23 -25 -26 -27 -28 28 29 -31
leaf_value=-0.00069313457236939188 0.0031287987447946716 0.026647923091194247 -0.0090718084798031909 -0.017445121639291478 0.01713055301345074 -0.032463144189461356 -0.013065121425858757 0.012690817990937825 0.011009719961346726 0.011846817389315466 -0.0092246528283272313 0.035268362485568153 -0.014264344542420149 0.00054749810021938357 -0.025459910380353723 0.0043208947134511615 -0.027669114506366679 -0.0042687147605760803 -0.012165013254539135 -0.0087797223817805605 0.016799610106162807 0.0070717928378292005 0.0054541114958287819 -0.0092793705342171344 -0.0057651148813555649 0.0087553663134143402 0.0019624795502882209 0.0065825241791595077 -0.016800686145563227 0.051198990498614622
leaf_weight=6577 4710 1504 12056 6948 2089 673 3245 2871 2170 4733 6785 1706 3790 7280 1134 8123 387 1284 829 7662 2595 3518 7377 3181 3109 2293 1839 23809 789 69
leaf_count=6577 4710 1504 12056 6948 2089 673 3245 2871 2170 4733 6785 1706 3790 7280 1134 8123 387 1284 829 7662 2595 3518 7377 3181 3109 2293 1839 23809 789 69
internal_value=-1.81218e-06 0.0114834 -0.00122169 -0.00507211 0.00383762 -0.00132102 0.000789014 -0.00230541 0.00174488 0.00248033 -0.0043214 0.0218649 -0.00565454 -0.00545014 0.00255329 -0.000464626 0.00286612 0.003571 0.00280467 0.00025138 0.00982572 -0.0014571 -0.00310389 0.00101509 -0.0138344 0.0158426 -0.00762929 0.00537008 0.00595939 -0.0113322
internal_weight=135135 12975 122160 41908 7472 5383 80252 31851 69885 64801 8955 5503 10367 19336 12515 9644 8510 55846 51113 25617 3879 21738 18220 10558 10057 3797 5084 25496 24667 858
internal_count=135135 12975 122160 41908 7472 5383 80252 31851 69885 64801 8955 5503 10367 19336 12515 9644 8510 55846 51113 25617 3879 21738 18220 10558 10057 3797 5084 25496 24667 858
cat_boundaries=0 1 2 3
cat_threshold=1 1 1
is_linear=0
shrinkage=0.117423


Tree=7
num_leaves=31
num_cat=5
split_feature=8 7 2 3 3 7 8 1 8 7 10 10 7 12 1 8 7 1 7 1 7 7 6 7 10 10 7 7 7 15
split_gain=1587.69 896.952 415.3 363.432 268.522 261.486 238.234 198.374 173.119 161.009 157.427 145.836 139.01 101.362 99.9445 97.4963 145.207 73.4625 72.5762 72.1499 64.1197 59.4269 58.1026 57.7654 55.4235 48.9078 48.8222 46.8887 45.7665 44.3359
threshold=39.708180425858949 44.71443726327437 130.03125000000006 0.036418900248687477 0.14511457180193613 35.164835434264312 80.520461747512357 236.90625000000003 66.356585814937759 25.632884438151617 0 1 68.498479463233579 65.367992266354335 213.39375000000004 24.338923826935844 73.245720730658945 199.14375000000004 68.498479463233579 170.64375000000004 68.498479463233579 33.314449208983113 2 57.559100553523649 3 4 33.314449208983113 32.680356083361282 32.846580359531181 51.842713556699088
decision_type=2 2 2 2 2 2 2 2 2 2 9 9 2 2 2 2 2 2 2 2 2 2 1 2 9 9 2 2 2 2
left_child=2 4 5 6 8 24 10 15 27 19 23 -9 -12 26 21 22 -17 20 -5 -10 -8 28 -7 -3 -1 -15 -6 -2 -11 -25
right_child=1 3 -4 18 13 7 17 11 9 14 12 -13 -14 25 -16 16 -18 -19 -20 -21 -22 -23 -24 29 -26 -27 -28 -29 -30 -31
leaf_value=-0.013166561108081169 -0.012973344062391638 0.0025365206979227096 0.016748585458811006 0.018906868939755052 -0.002721863575297682 -0.011822440857879936 0.020113708798037387 -0.010021605740927513 -0.062052742424328761 0.0020295807517102674 0.0038786080402834241 -0.025093518203038904 0.014583894888812106 0.039018034634866833 -0.0093900847134728467 -0.0042854859120140167 0.014322828142242242 0.011545813573921588 0.03051577228600371 -0.01505240312894314 0.038388801834021893 0.0090881993707514295 0.0039808898425768985 -0.010700731809929741 -0.024244883446573069 0.013131757903077896 0.010625021155270111 -0.0055526549531509746 -0.019135022069101046 -0.035887217079548756
leaf_weight=2987 4760 869 2492 6342 1711 8651 2535 8293 208 2771 15393 4353 8236 702 2174 11330 2218 2489 3815 473 1277 8458 1168 896 6664 656 4159 18043 540 472
leaf_count=2987 4760 869 2492 6342 1711 8651 2535 8293 208 2771 15393 4353 8236 702 2174 11330 2218 2489 3815 473 1277 8458 1168 896 6664 656 4159 18043 540 472
internal_value=-1.72738e-06 0.00536227 -0.00969014 0.0122996 -0.00121291 -0.011133 0.00883646 -0.00852762 -0.00347934 0.00216892 0.00601152 -0.0152374 0.00760677 0.0105228 0.00371118 -0.00489634 -0.00123904 0.020433 0.0232672 -0.0294079 0.0262358 0.00613128 -0.00994259 -0.0108244 -0.0208549 0.0268973 0.00673464 -0.00710168 -0.00142221 -0.0193908
internal_weight=135135 86979 48156 42324 44655 45664 32167 36013 37427 14624 25866 12646 23629 7228 13943 23367 13548 6301 10157 681 3812 11769 9819 2237 9651 1358 5870 22803 3311 1368
internal_count=135135 86979 48156 42324 44655 45664 32167 36013 37427 14624 25866 12646 23629 7228 13943 23367 13548 6301 10157 681 3812 11769 9819 2237 9651 1358 5870 22803 3311 1368
cat_boundaries=0 1 2 3 4 5
cat_threshold=4096 49152 1 1081920 12416
is_linear=0
shrinkage=0.0665077


Tree=8
num_leaves=31
num_cat=17
split_feature=9 8 9 5 8 9 9 9 2 9 16 8 9 8 9 9 9 9 8 13 9 3 8 9 9 3 3 8 9 9
split_gain=113.398 97.6784 76.8839 57.233 47.6818 61.3723 50.255 47.2224 36.501 36.0009 30.4719 29.0427 41.0985 25.8224 39.4877 24.8895 22.06 20.3979 19.8867 19.7591 18.7957 30.1616 20.4465 26.1269 17.2372 15.8247 15.7915 15.5163 41.4938 16.8559
threshold=0 28.502998141779944 1 2 46.101411212096046 3 4 5 13.537500000000017 6 51.73290608438321 70.325979842441498 7 93.862546249527099 8 9 10 11 93.862546249527099 58.261625396095958 12 0.37342565273944367 18.851987422911439 13 14 0.44846828817733991 0.43890138553207791 47.154161696280447 15 16
decision_type=9 2 9 1 2 9 9 9 2 9 2 2 9 2 9 9 9 9 2 2 9 2 2 9 9 2 2 2 9 9
left_child=1 2 -1 4 5 10 11 -3 13 -5 -2 17 18 16 -15 -7 -9 -6 -13 20 21 -4 23 -22 -8 -11 -10 28 -26 -29
right_child=3 7 19 9 6 15 24 8 26 25 -12 12 -14 14 -16 -17 -18 -19 -20 -21 22 -23 -24 -25 27 -27 -28 29 -30 -31
leaf_value=0.030578394753026206 -0.024706964198993001 0.031557277234838706 -0.01962605129850566 -0.0049754159002479287 0.0043904963647981923 0.034260021761250717 -0.016865617184265852 -0.0099609327950371546 0.014046456551338666 0.013702097152174688 -0.0095765847152129002 0.0287040560357768 0.00077774962734274437 0.036736118146792771 0.00089363133694033575 -0.0045069625356050271 0.004962706088403733 -0.0052160185658417599 0.0054868827802818064 0.0045251947757309991 0.0079414470608669442 0.15606509889078496 -0.0037729167874237879 -0.042284989504076081 0.037106937776422176 0.059276895968415511 0.045560888142559895 -0.0025375210357464558 -0.0057083755370892237 -0.011302702856842374
leaf_weight=1076 5565 1610 3503 2658 7696 318 2876 2058 8535 4811 4790 2213 4620 1189 1191 13936 26236 9591 1053 2086 299 19 6857 604 583 152 319 8833 1667 8191
leaf_count=1076 5565 1610 3503 2658 7696 318 2876 2058 8535 4811 4790 2213 4620 1189 1191 13936 26236 9591 1053 2086 299 19 6857 604 583 152 319 8833 1667 8191
internal_value=-1.84288e-06 0.0048172 -0.00502057 -0.00336899 -0.00458354 -0.00954866 -0.00200158 0.00827252 0.00731429 0.00809034 -0.0176909 0.00224973 0.00924432 0.0050457 0.0189579 -0.00361868 0.00387545 -0.000939771 0.0211538 -0.00790292 -0.0102078 -0.0186254 -0.00635521 -0.0260344 -0.00683102 0.0150675 0.0151819 -0.00532573 0.0055251 -0.00676297
internal_weight=135135 55582 14444 79553 71932 24609 47323 41138 39528 7621 10355 25173 7886 30674 2380 14254 28294 17287 3266 13368 11282 3522 7760 903 22150 4963 8854 19274 2250 17024
internal_count=135135 55582 14444 79553 71932 24609 47323 41138 39528 7621 10355 25173 7886 30674 2380 14254 28294 17287 3266 13368 11282 3522 7760 903 22150 4963 8854 19274 2250 17024
cat_boundaries=0 3 6 7 10 13 14 16 19 22 24 27 30 33 35 37 39 42
cat_threshold=693273397 2148335680 3415 0 65536 273 1 2449475714 678464045 168 3229626560 359815215 168 1 310447104 398592549 0 83892271 32 537035540 2147549248 2052 8 33554432 0 65536 16 3229622336 3147780 136 155320356 64 1090 768 2147483648 268435464 8388624 3072 1073774848 67911682 671096960 512
is_linear=0
shrinkage=0.139067


Tree=9
num_leaves=31
num_cat=24
split_feature=3 1 9 10 9 9 10 9 10 10 9 9 10 10 9 1 9 10 9 9 1 9 9 0 10 14 9 10 9 9
split_gain=52.0491 56.0855 85.7233 76.5743 60.3446 55.0341 144.582 74.8339 73.6817 55.5203 115.275 92.7698 54.708 45.7341 40.2391 40.205 81.414 73.9674 44.9271 36.4235 36.4154 80.3287 65.7246 36.3257 35.6382 33.6243 33.3825 43.3079 55.7059 26.4469
threshold=0.30269996361935464 236.19375000000005 0 1 2 3 4 5 6 7 8 9 10 11 12 142.14375000000004 13 14 15 16 173.49375000000001 17 18 187.74375000000001 19 45.717992266354344 20 21 22 23
decision_type=2 2 9 9 9 9 9 9 9 9 9 9 9 9 9 2 9 9 9 9 2 9 9 2 9 2 9 9 9 9
left_child=1 5 -3 4 -4 6 26 8 -8 10 20 -11 -9 23 -14 18 17 -17 -12 -19 21 -7 -22 -2 -18 -15 -1 28 -28 -5
right_child=13 2 3 29 -6 9 7 12 -10 11 15 -13 14 25 -16 16 24 19 -20 -21 22 -23 -24 -25 -26 -27 27 -29 -30 -31
leaf_value=-0.0021998324954277514 0.18244555107237603 -0.017276794577823443 0.011824993917583159 -0.024907942400068109 -0.0035969985218529095 0.0049336596610893568 -0.032814621640095278 -0.013324983753767009 -0.00080857452760955376 0.015418649139630286 -0.0014173020143295936 0.0022213663180000735 -0.067964514336074519 -0.024582579538197404 -0.029013869259466724 -0.021600957416190461 0.0053375366154102839 0.054347804856293223 0.016744053547260974 0.015617844430819757 0.007094645915729011 -0.02662546466411328 -0.020243300367222137 0.03070951026502464 -0.017468721595906719 0.0094781836140123022 0.059828826540017317 0.0050960145103239075 0.013644821564731738 -0.0073942520780140644
leaf_weight=4710 24 6777 6524 2011 8928 1663 1249 2930 7139 10066 3157 37126 543 479 1645 739 1399 422 5663 2444 3202 4311 2198 1058 3738 4311 533 5114 1439 3593
leaf_count=4710 24 6777 6524 2011 8928 1663 1249 2930 7139 10066 3157 37126 543 479 1645 739 1399 422 5663 2444 3202 4311 2198 1058 3738 4311 533 5114 1439 3593
internal_value=1.97748e-06 -0.00050817 -0.0053578 -0.00151267 0.00291777 0.000822597 -0.00410417 -0.0127162 -0.00560778 0.00246028 -0.00174567 0.005039 -0.0243326 0.0112321 -0.0389456 0.00444876 -0.00141007 0.0126211 0.0102608 0.0214897 -0.0113057 -0.0178766 -0.00405726 0.0337631 -0.0112594 0.00605946 0.0057587 0.0110443 0.0263665 -0.0137122
internal_weight=135135 129263 27833 21056 15452 101430 25302 13506 8388 76128 28936 47192 5118 5872 2188 17562 8742 3605 8820 2866 11374 5974 5400 1082 5137 4790 11796 7086 1972 5604
internal_count=135135 129263 27833 21056 15452 101430 25302 13506 8388 76128 28936 47192 5118 5872 2188 17562 8742 3605 8820 2866 11374 5974 5400 1082 5137 4790 11796 7086 1972 5604
cat_boundaries=0 3 4 7 10 11 14 15 16 19 22 23 24 27 30 31 34 36 39 42 43 46 47 50 53
cat_threshold=339757184 440633710 512 51456 1669476365 3777495040 1307 1375741006 1773142544 1416 143993 8262 689963024 1152 160432128 134951224 545309328 100758561 564 553648657 33570852 544 1154 18090640 301989888 0 8 1572864 272795970 2050 131104 135790592 2420410434 2048 0 4227072 0 100738048 16 545308816 1 548 48 8266 687865872 1024 8768 301989888 0 264 193073166 2217213952 154
is_linear=0
shrinkage=0.12196


Tree=10
num_leaves=31
num_cat=23
split_feature=21 9 10 9 10 9 9 10 14 10 0 10 9 9 10 9 10 10 9 9 22 9 0 9 5 14 21 10 9 9
split_gain=43.0738 42.4017 46.51 47.9356 45.107 34.1819 33.4991 32.701 26.4438 20.592 20.3651 19.6985 32.7818 19.0948 18.9726 21.2917 18.6483 18.5112 38.2726 28.6266 19.9239 18.5001 18.0502 16.5857 15.9979 15.533 14.7169 14.6531 14.745 14.363
threshold=51.546220715541828 0 1 2 3 4 5 6 37.986095714630203 7 83.006250000000009 8 9 10 11 12 13 14 15 16 51.830694193713889 17 201.99375000000001 18 19 37.986095714630203 52.287648846094534 20 21 22
decision_type=2 9 9 9 9 9 9 9 2 9 2 9 9 9 9 9 9 9 9 9 2 9 2 9 1 2 2 9 9 9
left_child=1 4 3 9 8 7 11 -2 -1 23 -5 12 -4 -13 15 -7 -6 18 -8 -19 -20 -18 -23 -3 -16 -21 -9 -26 -29 -22
right_child=5 2 6 10 16 14 17 26 -10 -11 -12 13 -14 -15 24 -17 21 19 20 25 29 22 -24 -25 27 -27 -28 28 -30 -31
leaf_value=-0.050727645805115414 -0.010253003996891679 0.0079720697234402903 0.013538267542695904 0.023958119211698169 -0.02556974193192554 0.0045475492878552914 0.007593975716109389 0.022280421081721433 0.0024231737312997628 0.01049462798345077 -0.0031708514763252368 -0.014374216886397038 -0.0022855764359568753 -0.00014111177294414898 0.0016117690229951248 -0.0077536882559451452 -0.0051845296129580587 -0.019985588780344794 -0.0051462252649668175 -0.049870569473069989 -0.011380335356016579 -0.0091815831026097281 -0.028196180693009255 -0.0060220514092340282 0.018549386674358407 -0.0038692674456722526 0.0095158276829153572 -0.0095774515739143803 0.010759854649978348 -0.042959494898806821
leaf_weight=153 1135 2688 3319 453 1698 3344 2668 1893 5255 11260 14730 2403 5537 3955 37111 6703 4072 4105 1501 120 460 1691 1493 2673 1759 4095 5924 877 1560 500
leaf_count=153 1135 2688 3319 453 1698 3344 2668 1893 5255 11260 14730 2403 5537 3955 37111 6703 4072 4105 1501 120 460 1691 1493 2673 1759 4095 5924 877 1560 500
internal_value=-1.82854e-06 -0.00202173 -0.000558842 0.00275892 -0.00817471 0.00250451 -0.00423986 0.00968633 0.000917765 0.00743346 -0.00235988 -0.000187447 0.00365337 -0.00553463 0.00125045 -0.00365895 -0.0136612 -0.00882055 -0.00284995 -0.0124934 -0.0141573 -0.0108431 -0.018041 0.000996366 0.00244514 -0.00516666 0.0125909 0.00982165 0.00343186 -0.0283939
internal_weight=135135 74829 60467 31804 14362 60306 28663 8952 5408 16621 15183 15214 8856 6358 51354 10047 8954 13449 5129 8320 2461 7256 3184 5361 41307 4215 7817 4196 2437 960
internal_count=135135 74829 60467 31804 14362 60306 28663 8952 5408 16621 15183 15214 8856 6358 51354 10047 8954 13449 5129 8320 2461 7256 3184 5361 41307 4215 7817 4196 2437 960
cat_boundaries=0 3 4 7 8 11 14 15 16 17 20 23 24 27 28 29 32 35 38 41 42 43 46 49
cat_threshold=302001162 585138448 393 17853606 684905157 2483836960 1606 13160 270345 2686451712 1283 3842802292 3238071879 2098 2032192 8228 295761 1610612752 1073807365 2096 1091043348 1073807363 48 128352264 2692759878 51049500 144 18169856 176623616 143785984 268718248 516 143802496 268718112 516 2050 35651856 393 139624581 269238272 6 1 77440 683788804 306364788 2048 82049 135266304 64
is_linear=0
shrinkage=0.126026


Tree=11
num_leaves=31
num_cat=11
split_feature=12 12 3 1 8 9 9 9 9 9 8 9 17 5 16 19 8 9 16 9 1 20 15 8 0 9 12 8 9 8
split_gain=143.328 105.237 87.6105 65.8147 54.46 53.8541 52.156 51.0114 39.8545 38.0655 31.8671 31.7343 28.91 24.8765 21.135 31.9418 19.4663 21.3464 18.9576 21.05 22.9813 17.4901 16.8265 26.2786 16.306 16.2761 15.7355 14.8081 14.3282 19.692
threshold=49.356354335319857 27.129630197388817 0.22386960631305919 469.18125000000003 50.417695072270369 0 1 2 3 4 93.862546249527099 5 59.992585406700918 6 51.73290608438321 57.43463049909132 46.101411212096046 7 51.73290608438321 8 142.85625000000002 64.730313293369122 51.17048982780306 39.708180425858949 70.18125000000002 9 62.213250887043998 39.708180425858949 10 93.862546249527099
decision_type=2 2 2 2 2 9 9 9 9 9 2 9 2 1 2 2 2 9 2 9 2 2 2 2 2 9 2 2 9 2
left_child=1 5 4 9 6 -1 16 -5 -6 12 11 -4 -3 28 15 -9 22 -18 19 20 -8 -13 -2 -24 -11 -25 -15 -14 -10 -30
right_child=2 3 10 7 8 -7 18 14 13 24 -12 21 27 26 -16 -17 17 -19 -20 -21 -22 -23 23 25 -26 -27 -28 -29 29 -31
leaf_value=-0.0055169864375085855 0.0056994750890448061 0.0008609293827100856 0.016239231054024163 -0.026775515172331402 0.0078908886522561922 -0.045240861941595226 -0.020201296216073569 -0.010060018604745178 0.003062299052666534 0.011273654175071092 0.030943997517234971 0.0027605691387255155 -0.038314928516889335 0.0074688193207112924 0.0019979874491737751 -0.064620532061908792 0.018280648813271787 0.0040917589582612013 -0.00086599409751129985 -0.0028873854954922832 -0.0065619068959727259 0.021225237272729985 0.00078341320816237346 -3.5893409986304899e-05 -0.0039700995525262205 -0.024168219018314969 0.028929167362721279 -0.0081511657900615007 -0.004064474193673155 0.0087099160388103766
leaf_weight=425 3919 28846 3080 1292 12709 620 1319 1407 7556 515 555 3521 192 1113 1227 82 1118 2446 8817 5527 2756 414 5507 332 31550 531 317 303 6123 1016
leaf_count=425 3919 28846 3080 1292 12709 620 1319 1407 7556 515 555 3521 192 1113 1227 82 1118 2446 8817 5527 2756 414 5507 332 31550 531 317 303 6123 1016
internal_value=-3.61045e-06 -0.00281689 0.00271885 -0.00238949 0.00165057 -0.0295709 -0.000747394 -0.01294 0.00433445 -0.00170085 0.0113422 0.00979137 0.000511332 0.00152558 -0.0062369 -0.0130647 0.00319073 0.00860548 -0.00370899 -0.00632343 -0.0109498 0.00469131 0.00131823 -0.00137724 -0.00372411 -0.0151649 0.0122261 -0.019851 0.000485325 -0.00224332
internal_weight=135135 66459 68676 65414 61106 1045 32272 4008 28834 61406 7570 7015 29341 16125 2716 1489 13853 3564 18419 9602 4075 3935 10289 6370 32065 863 1430 495 14695 7139
internal_count=135135 66459 68676 65414 61106 1045 32272 4008 28834 61406 7570 7015 29341 16125 2716 1489 13853 3564 18419 9602 4075 3935 10289 6370 32065 863 1430 495 14695 7139
cat_boundaries=0 3 6 9 12 15 18 19 22 25 28 31
cat_threshold=1619575508 1343344807 2604 1828988697 3861226752 2483 67381552 845377996 2185 2287342003 2416851547 1350 2902889265 3020895234 3398 2438230051 3223304192 1475 1 1610875400 1073840128 272 303646912 407914664 12 754975232 537133056 2050 109125700 803226784 137
is_linear=0
shrinkage=0.0849778


Tree=12
num_leaves=31
num_cat=0
split_feature=17 1 17 13 17 12 8 2 12 12 21 1 0 1 0 21 2 13 1 0 21 0 0 19 13 8 1 8 1 1
split_gain=38.0274 25.097 22.1621 24.9897 25.9796 24.2004 19.2519 17.7142 19.4576 17.6868 15.7654 17.2376 15.7601 18.8273 18.5791 14.2958 13.3927 13.0148 17.3875 17.9622 13.5258 13.3613 12.1473 17.6425 15.6851 44.0623 70.6085 24.2296 26.1507 17.4606
threshold=66.311778394516168 505.87500000000006 59.481369774933505 60.061136016172021 52.015957068867742 74.826612956009527 93.862546249527099 172.78125000000006 47.139975024975037 90.506785369802628 57.052728871128885 70.893750000000011 89.418750000000017 88.706250000000011 106.51875000000001 58.579175483830319 76.950000000000017 47.364176400082791 144.28125000000003 135.01875000000004 47.145006681540799 251.15625000000003 213.39375000000004 51.603535878809431 58.261625396095958 33.637043238392316 110.08125000000001 33.637043238392316 103.66875000000002 80.156250000000014
decision_type=2 2 2 2 2 2 2 2 2 2 2 2 2 2 2 2 2 2 2 2 2 2 2 2 2 2 2 2 2 2
left_child=1 2 3 4 7 6 15 10 -9 16 11 -1 13 -13 -14 -4 -2 18 19 -16 -20 -22 24 -24 27 -26 -27 -6 29 -29
right_child=9 -3 5 -5 22 -7 -8 8 -10 -11 -12 12 14 -15 17 -17 -18 -19 20 -21 21 -23 23 -25 25 26 -28 28 -30 -31
leaf_value=0.0078195054339430942 0.0097159164325196293 -0.017798203102655001 -0.0064026671033063911 0.0089563291155998412 -0.0048383472344909221 0.011070226243740355 0.008381915134312844 -0.032626022461943099 0.030474875101395738 -0.0032451717082147662 0.0025613676313257371 -0.0062039599430600712 0.0055710694378839553 -0.033355651293283509 0.0016588460457074871 0.0026125745185945457 0.033225537264465338 -0.0028323808194911861 0.0056924266295383177 0.015296634525397699 -0.0049954371125450429 0.0026112700787426753 0.0029086334234207463 -0.0048981433068958601 0.036707816339577225 0.031194695380926146 -0.0091719234659842722 0.012014186118698904 0.0072032705940607376 -0.0086125524551008813
leaf_weight=1850 3906 793 13559 3133 3064 1044 1071 56 308 1037 10409 3118 3440 269 3241 1951 250 41279 2149 1317 7924 3121 7851 4369 527 635 1242 504 9827 1891
leaf_count=1850 3906 793 13559 3133 3064 1044 1071 56 308 1037 10409 3118 3440 269 3241 1951 250 41279 2149 1317 7924 3121 7851 4369 527 635 1242 504 9827 1891
internal_value=-3.54146e-06 -0.000333765 -0.00022653 0.000286272 3.56671e-05 -0.00347134 -0.00438692 -0.000905474 0.020767 0.00825949 -0.00100646 -0.00155496 -0.00181829 -0.00836038 -0.0014636 -0.00526864 0.0111301 -0.00187354 0.000356069 0.00559938 -0.00145529 -0.002846 0.00250513 0.000117487 0.00415448 0.0115483 0.00448434 0.00299167 0.00495462 -0.00427189
internal_weight=135135 129942 129149 111524 108391 17625 16581 78481 364 5193 78117 67708 65858 3387 62471 15510 4156 59031 17752 4558 13194 11045 29910 12220 17690 2404 1877 15286 12222 2395
internal_count=135135 129942 129149 111524 108391 17625 16581 78481 364 5193 78117 67708 65858 3387 62471 15510 4156 59031 17752 4558 13194 11045 29910 12220 17690 2404 1877 15286 12222 2395
is_linear=0
shrinkage=0.0984712


Tree=13
num_leaves=31
num_cat=22
split_feature=10 9 9 10 9 7 1 16 10 9 9 9 10 16 10 9 9 1 9 10 9 10 9 7 1 0 9 10 9 9
split_gain=17.9252 61.3008 49.8142 30.3705 27.9711 26.1906 25.9457 28.6585 23.8916 33.1636 24.5323 20.591 35.272 22.3821 19.9861 56.1101 36.8519 22.1221 19.4123 20.9104 20.3731 20.1516 23.4057 18.5664 18.3035 16.7062 18.3832 14.5665 66.3246 30.9433
threshold=0 1 2 3 4 29.417139097482401 118.63125000000001 51.73290608438321 5 6 7 8 9 51.73290608438321 10 11 12 348.05625000000003 13 14 15 16 17 23.098391099641102 68.043750000000017 228.35625000000002 18 19 20 21
decision_type=9 9 9 9 9 2 2 2 9 9 9 9 9 2 9 9 9 2 9 9 9 9 9 2 2 2 9 9 9 9
left_child=1 8 3 4 -2 23 7 -6 10 24 -1 12 13 -7 16 25 -3 -18 19 20 -5 22 -20 -4 -10 -16 -27 28 -13 -29
right_child=2 14 5 18 6 11 -8 -9 9 -11 -12 27 -14 -15 15 -17 17 -19 21 -21 -22 -23 -24 -25 -26 26 -28 29 -30 -31
leaf_value=0.0070910151130061383 0.01325080961008002 -0.0081747995219896338 -0.011029564291969064 0.01955372479180564 0.00052589552888244583 -0.030993352414875584 -0.0025542751852128992 0.020436874384789517 0.067795029469771118 0.012451765635330703 -0.0027184548377914646 -0.010434726977755236 -0.0026378598627764369 -0.0088983872252387276 -0.0084383074944113946 0.0009046613683106003 0.003776069504066692 -0.087164220057969824 0.026730285915148051 -0.015228901173208626 -0.009508107549097854 -0.0042626370021054336 0.0012166318806300471 -0.079268304920717236 0.00087111186988001333 -0.011691940768217916 -0.033174516733557591 0.00031040676046130227 0.011317485238716007 -0.0090481150610156914
leaf_weight=6747 5011 5071 117 600 2300 1468 6359 1937 60 10634 8212 3717 3621 1222 6276 12142 16588 39 824 2708 817 3149 1418 115 6405 1546 958 9918 4492 10664
leaf_count=6747 5011 5071 117 600 2300 1468 6359 1937 60 10634 8212 3717 3621 1222 6276 12142 16588 39 824 2708 817 3149 1418 115 6405 1546 958 9918 4492 10664
internal_value=-2.16874e-06 0.00124756 -0.00154581 0.00255929 0.00583246 -0.0044645 0.00231502 0.00962846 0.00523097 0.00831047 0.00170772 -0.00419882 -0.0104335 -0.0208785 -0.00174922 -0.00440813 0.000815454 0.00356062 -0.00280945 -0.00902723 0.00284833 0.00195607 0.0106707 -0.0448548 0.00148991 -0.0117479 -0.0200901 -0.00282757 0.00146746 -0.00454049
internal_weight=135135 74678 60457 25123 15607 35334 10596 4237 32058 17099 14959 35102 6311 2690 42620 20922 21698 16627 9516 4125 1417 5391 2242 232 6465 8780 2504 28791 8209 20582
internal_count=135135 74678 60457 25123 15607 35334 10596 4237 32058 17099 14959 35102 6311 2690 42620 20922 21698 16627 9516 4125 1417 5391 2242 232 6465 8780 2504 28791 8209 20582
cat_boundaries=0 1 4 7 8 11 12 15 18 21 22 23 26 28 31 32 35 36 39 42 43 46 49
cat_threshold=202403746 717640229 2517897315 1990 2231995807 541808396 2354 33558621 2066 4260100 304 11040 168034340 269484035 1408 33948197 268435522 900 302006784 301989952 520 2097237 11040 1140861960 551756548 2097 269551760 134220812 2195 4785152 288 16809984 1 65536 288 327680 83886080 536875008 2048 67117056 543367168 2080 27394065 5382144 151259282 196 139599872 151267474 1156
is_linear=0
shrinkage=0.120605


Tree=14
num_leaves=31
num_cat=15
split_feature=2 9 0 9 9 0 9 9 8 9 9 0 16 8 9 9 8 9 9 9 8 8 0 8 6 8 9 22 9 11
split_gain=18.6633 20.9424 15.0837 42.1831 36.4788 20.9958 80.6925 60.2324 59.402 23.2806 19.8768 25.917 19.2786 13.0925 35.4922 13.2597 12.8965 20.5158 19.1513 12.4573 26.7599 12.3171 16.6207 13.9759 12.0035 11.5773 11.3406 10.647 10.387 10.1229
threshold=131.45625000000004 0 212.68125000000001 1 2 170.64375000000004 3 4 56.874652179366826 5 6 118.63125000000001 51.73290608438321 80.520461747512357 7 8 25.951021561839916 9 10 11 56.874652179366826 56.874652179366826 447.09375000000006 63.260713028541069 12 66.356585814937759 13 51.830694193713889 14 47.104349242094436
decision_type=2 9 2 9 9 2 9 9 2 9 9 2 2 2 9 9 2 9 9 9 2 2 2 2 1 2 9 2 9 2
left_child=2 -2 4 16 -1 6 -6 8 9 -7 11 12 -8 15 -15 -12 18 21 -4 20 -5 22 -18 27 -11 26 -25 -23 -10 -3
right_child=1 29 3 19 5 7 10 -9 28 24 13 -13 -14 14 -16 -17 17 -19 -20 -21 -22 23 -24 25 -26 -27 -28 -29 -30 -31
leaf_value=0.0026480718618977586 -0.0012113922178507413 -0.0070854706442151265 0.002759188724448559 0.00016993947778942795 0.0020678507651239412 -0.0049298443633823304 -0.0046244706143774642 0.0056719778316445596 0.0069165136294183005 -0.020177147366464802 -0.002965530987946865 -0.0091466200879043603 0.0059015111525339914 -0.056815651146743459 -0.01241854680534878 -0.011836539040458042 -0.00026442164735773852 -0.00096692559003586857 -0.010822993136804343 8.3841940656019229e-06 0.011232840286607065 -0.012126603303026114 -0.011650093842640076 -0.0081626936983537953 0.0039368416183627897 -0.01099337106018238 0.0086476839257946837 -0.032288619041896123 -0.0011790664951611498 0.014067831452316977
leaf_weight=30910 1316 152 813 3907 13201 1649 2417 8809 1806 1532 1730 3371 1888 118 948 2600 3000 13273 2849 28784 2021 432 1056 508 137 1664 453 253 2061 1477
leaf_count=30910 1316 152 813 3907 13201 1649 2417 8809 1806 1532 1730 3371 1888 118 948 2600 3000 13273 2849 28784 2021 432 1056 508 137 1664 453 253 2061 1477
internal_value=-1.03827e-06 0.00614427 -0.000137947 -0.00106637 0.000610773 -0.00087953 -0.00223701 0.00134982 -0.00395165 -0.0116186 -0.0065809 -0.0040162 -8.19801e-06 -0.0102151 -0.0179825 -0.00832642 -0.00355957 -0.00280365 -0.00782964 0.000679884 0.00393491 -0.00610369 -0.00322874 -0.00964504 -0.0180894 -0.00705424 -0.000233504 -0.0195733 0.00261664 0.0120203
internal_weight=135135 2945 132190 59013 73177 42267 26273 15994 7185 3318 13072 7676 4305 5396 1066 4330 24301 20639 3662 34712 5928 7366 4056 3310 1669 2625 961 685 3867 1629
internal_count=135135 2945 132190 59013 73177 42267 26273 15994 7185 3318 13072 7676 4305 5396 1066 4330 24301 20639 3662 34712 5928 7366 4056 3310 1669 2625 961 685 3867 1629
cat_boundaries=0 3 6 9 12 15 18 20 23 26 29 32 35 36 39 42
cat_threshold=201550736 3026505052 2500 609558058 124278588 596 1817513497 2251044124 598 2164396450 1761804353 1185 2416447906 688062659 1185 524674 134217731 32 565312 5261986 0 0 2048 4 8421376 2048 71571464 37749012 16 268288 288 16 16388 268470274 2304 1 67375104 4194320 16 268439552 134217923 1024
is_linear=0
shrinkage=0.0780508


Tree=15
num_leaves=31
num_cat=18
split_feature=12 9 10 13 10 9 9 10 9 9 9 10 12 12 10 21 10 12 13 10 9 0 9 0 10 9 9 1 21 8
split_gain=12.9462 37.0029 14.4667 10.2714 32.0238 24.1143 23.2549 17.238 67.8605 59.1556 23.22 19.8999 17.5303 33.2603 41.1054 20.1921 29.7849 29.4646 15.1448 14.3396 27.6465 16.091 14.7481 14.1118 14.0809 25.6033 14.2849 13.5291 17.7405 13.213
threshold=27.129630197388817 0 1 49.066406759603431 2 3 4 5 6 7 8 9 45.308509507733653 44.909371576699165 10 47.351275264527864 11 42.725750887043993 50.129489435915694 12 13 258.28125000000006 14 292.48125000000005 15 16 17 144.28125000000003 54.244631420452755 46.101411212096046
decision_type=2 9 9 2 9 9 9 9 9 9 9 9 2 2 9 2 9 2 2 9 9 2 9 2 9 9 9 2 2 2
left_child=1 2 -1 4 5 -2 -6 8 -5 -9 11 -10 13 15 -15 16 17 -11 -14 22 21 -21 -20 29 25 -12 -26 -8 -29 -19
right_child=3 -3 -4 7 6 -7 27 9 10 12 24 -13 18 14 -16 -17 -18 23 19 20 -22 -23 -24 -25 26 -27 -28 28 -30 -31
leaf_value=-0.056395188927338705 -0.00073084275685255122 0.0041149642717590472 -0.018206845418813757 0.0053065495272394767 -0.0025918788537465441 -0.0080730059500565953 0.0083319652876405557 -0.0038662543742876269 -0.00049727364858862444 -0.012731212283122028 0.0012825874894717632 -0.016023592733113788 0.006864125859336264 0.016934096601027036 -0.034085783676057267 0.0030369450945461982 0.002844138575438093 -0.030650462861732557 -0.00088302831315269583 -0.0054986405331929064 0.0045688270261970256 -0.03725803443315974 0.0054378960333473971 -0.014704141114632956 0.0041992966349249606 -0.0083930912349809896 -0.0017984957011533431 0.003268619056993691 -0.0091870489981893972 -0.098625729623623426
leaf_weight=114 6836 620 311 22086 7950 7160 3378 23728 1143 292 4530 1491 5861 161 481 3540 532 32 4199 3677 3205 129 9209 37 6579 4034 5856 6863 1027 74
leaf_count=114 6836 620 311 22086 7950 7160 3378 23728 1143 292 4530 1491 5861 161 481 3540 532 32 4199 3677 3205 129 9209 37 6579 4034 5856 6863 1027 74
internal_value=-4.04837e-06 -0.0098038 -0.0295113 7.23238e-05 -0.00127583 -0.00448999 0.00106675 0.00051621 0.00178506 -0.000535755 -0.00150676 -0.00931345 0.00197911 -0.00273621 -0.0215582 -5.51092e-05 -0.0113745 -0.0281813 0.00290373 0.00176695 -0.00147216 -0.00655786 0.00345918 -0.0617005 -0.000523562 -0.00327953 0.00137559 0.00364806 0.00164733 -0.0781049
internal_weight=135135 1045 425 134090 33214 13996 19218 100876 45719 55157 23633 2634 31429 5149 642 4507 967 435 26280 20419 7011 3806 13408 143 20999 8564 12435 11268 7890 106
internal_count=135135 1045 425 134090 33214 13996 19218 100876 45719 55157 23633 2634 31429 5149 642 4507 967 435 26280 20419 7011 3806 13408 143 20999 8564 12435 11268 7890 106
cat_boundaries=0 3 4 5 8 11 12 15 18 20 21 22 23 24 27 30 31 34 37
cat_threshold=2370189602 2804032592 1491 17039500 62246918 1037575059 558766136 2630 433201814 1036400952 524 129260054 144351379 827227195 3140 161187986 292452923 580 2048 1073774916 8393234 98432 297 165281 1610896969 2182153216 3249 339747136 612368512 1066 1312772 621036100 35717760 689 3607368992 2349858816 298
is_linear=0
shrinkage=0.088387


Tree=16
num_leaves=31
num_cat=4
split_feature=2 19 19 10 15 21 8 0 16 15 11 19 10 2 0 8 19 10 19 7 11 21 10 12 12 12 0 0 12 11
split_gain=8.22613 15.3193 12.0804 13.0229 15.9087 8.97866 6.8422 6.52541 19.8683 24.9961 12.4091 36.4 8.58473 17.3554 9.40503 13.8966 10.4512 8.48631 8.08092 7.64252 7.10137 11.1539 12.7834 11.7422 12.2432 34.4097 15.1875 9.25162 9.82536 8.31188
threshold=108.65625000000003 49.747969163406118 51.603535878809431 0 51.17048982780306 49.305514018853124 56.874652179366826 467.04375000000005 51.73290608438321 51.842713556699088 45.926891766633567 52.681359744561782 1 1.4250000000000045 345.20625000000007 22.129740701046675 51.603535878809431 2 45.561100165383571 51.590073972228524 46.639347340436622 50.926678058907946 3 72.265406059457803 48.879199162906062 48.599457783595717 112.93125000000002 217.66875000000002 41.21497502497504 52.287648846094534
decision_type=2 2 2 9 2 2 2 2 2 2 2 2 9 2 2 2 2 9 2 2 2 2 9 2 2 2 2 2 2 2
left_child=7 6 -3 -4 -5 -6 -2 12 10 19 11 -9 13 -1 20 -16 -17 -12 -11 -10 -14 22 23 24 25 27 -27 -22 -29 -23
right_child=1 2 3 4 5 -7 -8 8 9 18 17 -13 14 -15 15 16 -18 -19 -20 -21 21 29 -24 -25 -26 26 -28 28 -30 -31
leaf_value=0.014275722838251202 -0.0031537019481267694 0.035202025295262993 -0.0089772645668470055 -0.0011266775386589458 0.0026186817589658614 0.026571571206326097 -0.075928398131640581 -0.0079151158956772584 0.011517427909297969 -0.017794472349870968 -0.0023580683004915926 -0.090431579789378311 0.0028105954624717787 -0.0092103358445529502 -0.0044382103947116268 -0.015633105456135069 -0.073203938553965037 -0.013248344805016037 0.00076401725755625722 0.034823796094262102 -0.0055625451510602168 0.0030314085894807214 -0.00085041454417677219 -0.039347900369815621 -0.00010727543775124525 -0.0010978170611354006 -0.088361159600461273 -0.074612198893185905 -0.017444886268979404 -0.00020915348388259421
leaf_weight=1746 1868 289 575 863 331 1048 21 349 509 455 3040 114 12753 712 681 110 94 1855 2204 407 3816 18144 36064 170 3564 43 126 53 548 42583
leaf_count=1746 1868 289 575 863 331 1048 21 349 509 455 3040 114 12753 712 681 110 94 1855 2204 407 3816 18144 36064 170 3564 43 126 53 548 42583
internal_value=-8.57482e-06 0.00504055 0.0105161 0.00798359 0.0123186 0.0208222 -0.00396274 -0.000202369 -0.00350932 0.00381065 -0.0083934 -0.0282323 4.13547e-05 0.00744232 -0.000112456 -0.0131336 -0.0421608 -0.00651691 -0.00241166 0.021873 -1.46944e-05 -0.000357484 -0.00188516 -0.00636172 -0.00568147 -0.0100134 -0.0661581 -0.00786527 -0.0224863 0.000759061
internal_weight=135135 4995 3106 2817 2242 1379 1889 130140 8933 3575 5358 463 121207 2458 118749 885 204 4895 2659 916 117864 105111 44384 8320 8150 4586 169 4417 601 60727
internal_count=135135 4995 3106 2817 2242 1379 1889 130140 8933 3575 5358 463 121207 2458 118749 885 204 4895 2659 916 117864 105111 44384 8320 8150 4586 169 4417 601 60727
cat_boundaries=0 1 2 3 4
cat_threshold=33555712 33603584 2113536 134942728
is_linear=0
shrinkage=0.126784


Tree=17
num_leaves=31
num_cat=24
split_feature=17 10 9 9 1 9 10 22 9 9 10 9 10 9 10 9 9 9 10 9 1 1 10 9 10 9 9 10 10 16
split_gain=5.78514 21.6479 11.9472 7.46362 5.51818 45.5276 33.4085 24.4869 31.5064 16.8274 22.2693 26.6273 20.0204 33.3246 28.9134 33.1366 25.5871 22.5938 21.4475 45.9168 18.1 16.4769 14.6101 13.4804 13.0008 22.3731 12.135 14.1928 11.8418 12.2563
threshold=42.403130280690242 0 1 2 118.63125000000001 3 4 51.197982628665606 5 6 7 8 9 10 11 12 13 14 15 16 142.14375000000004 284.64375000000007 17 18 19 20 21 22 23 51.73290608438321
decision_type=2 9 9 9 2 9 9 2 9 9 9 9 9 9 9 9 9 9 9 9 2 2 9 9 9 9 9 9 9 2
left_child=1 2 -1 -3 5 -2 -6 8 -7 10 11 -8 16 14 17 -16 20 -14 19 -18 -11 -19 -10 -12 25 -25 27 -15 29 -22
right_child=4 3 -4 -5 6 7 9 -9 22 12 23 -13 13 26 15 -17 18 21 -20 -21 28 -23 -24 24 -26 -27 -28 -29 -30 -31
leaf_value=0.016034866062103179 0.0085685954467144363 -0.01824602377352999 -0.00153359566426233 -0.0058124043768445184 -0.050606653737416699 0.0008032655830873121 -0.0057341101607599598 -0.00020080164443499605 0.0028364298153436981 0.013412665858080257 -0.0008340806652315458 0.0073873755447551566 -0.04777315050136046 0.027261336560852355 -0.016406867324021506 0.0068180322932789115 -0.0093485177976316107 -0.012413742847028992 0.004491072243549131 0.026643142292717661 -0.0026521832950635142 -0.07913678876123928 -0.033484426845918645 -0.030768663518044869 -0.004044456680737496 -0.0083562434892739245 4.7908346690773044e-05 0.0041598518854197141 -0.0011446492914836907 -0.026624978389187131
leaf_weight=1370 11885 1202 1771 4990 253 1481 4942 11621 270 1554 11330 8261 527 751 2166 2822 985 1974 19254 2518 924 77 1389 1077 10101 5150 9490 1815 12391 794
leaf_count=1370 11885 1202 1771 4990 253 1481 4942 11621 270 1554 11330 8261 527 751 2166 2822 985 1974 19254 2518 924 77 1389 1077 10101 5150 9490 1815 12391 794
internal_value=-5.83557e-06 -0.00340506 0.00615575 -0.00825156 0.000246346 0.00205423 -0.000239484 -0.00319453 -0.0142843 -0.000105514 -0.00230506 0.00247526 0.00144307 -0.00223372 -0.00958885 -0.00327985 0.00332099 -0.0217359 0.0063499 0.0165249 -0.00108099 -0.0148463 -0.0275917 -0.00458709 -0.00718921 -0.0122757 0.00238627 0.0110006 -0.00267812 -0.0136521
internal_weight=135135 9333 3141 6192 125802 26646 99156 14761 3140 98903 40861 13203 58042 19622 7566 4988 38420 2578 22757 3503 15663 2051 1659 27658 16328 6227 12056 2566 14109 1718
internal_count=135135 9333 3141 6192 125802 26646 99156 14761 3140 98903 40861 13203 58042 19622 7566 4988 38420 2578 22757 3503 15663 2051 1659 27658 16328 6227 12056 2566 14109 1718
cat_boundaries=0 1 4 7 10 11 14 17 18 21 22 25 26 29 32 35 36 38 39 42 43 45 48 49 50
cat_threshold=44159569 3272186948 207401607 316 293676036 10650168 136 2169510066 929891389 1146 196610 1283908865 8528386 2561 2638742722 1867326649 120 134236784 268436544 1212153897 24 118767008 580012544 2424459776 2560 524888 149504 276975616 2048 1074114860 2099526 1026 8389120 0 512 68419584 8536065 1048576 131073 2483029056 1279262888 24 101724288 2 33555472 1073811464 66 128 136315472 1310720
is_linear=0
shrinkage=0.141506


Tree=18
num_leaves=31
num_cat=3
split_feature=10 19 1 19 21 1 19 10 19 1 22 10 11 1 11 3 21 8 20 11 1 8 13 3 11 18 19 11 1 13
split_gain=5.47204 15.6724 19.8794 12.1547 13.2665 11.1003 9.61983 15.7754 12.2522 9.94855 9.40542 14.3831 12.3734 18.8535 28.828 9.05717 8.91314 8.87105 12.9141 18.8584 13.6378 10.0156 9.80796 34.6498 13.6475 10.7387 15.3414 9.84773 10.2824 9.32071
threshold=0 51.603535878809431 213.39375000000004 49.549171370908823 52.95520939972775 228.35625000000002 57.43463049909132 1 48.206057557977836 177.05625000000001 51.197982628665606 2 58.220652427157624 226.93125000000001 59.129954030543125 0.16954745699184651 54.244631420452755 50.417695072270369 46.795063697109818 46.639347340436622 177.05625000000001 66.356585814937759 60.061136016172021 0.013468166152729886 57.052728871128885 51.73290608438321 52.681359744561782 58.220652427157624 140.00625000000005 50.129489435915694
decision_type=9 2 2 2 2 2 2 9 2 2 2 9 2 2 2 2 2 2 2 2 2 2 2 2 2 2 2 2 2 2
left_child=1 2 3 16 -5 -4 8 -8 -2 -9 11 -3 15 14 -14 -13 -1 29 19 -19 -21 -22 24 -24 25 26 -20 -26 -29 -12
right_child=6 10 5 4 -6 -7 7 9 -10 -11 17 12 13 -15 -16 -17 -18 18 22 20 21 -23 23 -25 27 -27 -28 28 -30 -31
leaf_value=0.0047936623783399208 0.0013259055199699317 0.016402686806133118 -0.0065035908523282194 0.0056453929791311069 0.017326616625284171 0.0014812206508475808 0.007319085820271032 0.0021127086678197735 -0.0019655010705549565 -0.0057728649396357459 0.010827248239704478 -0.00048244567254664361 -0.08128681989267561 0.00077606957296858566 0.00093823590432281384 0.014404630885995619 -0.0064375490514361911 0.012072991181534992 -0.021494663455202234 -0.086172800822060455 -0.035188581475888506 0.00088764244649156302 -0.0048117023887912372 -0.053793389588664579 0.025198294233564174 0.0010016450639216369 -0.0025803226951413996 0.045978320325762219 -0.0022974308212306248 -0.0014060155164040903
leaf_weight=5979 20289 861 2812 3172 2103 11631 5013 5975 53499 3193 913 2229 114 369 108 698 1086 179 912 52 345 141 1221 222 359 2330 1436 63 644 7187
leaf_count=5979 20289 861 2812 3172 2103 11631 5013 5975 53499 3193 913 2229 114 369 108 698 1086 179 912 52 345 141 1221 222 359 2330 1436 63 644 7187
internal_value=-6.19968e-06 0.000984797 0.00279861 0.00616006 0.0103024 -7.33933e-05 -0.00053759 0.00218281 -0.00106048 -0.000632962 -0.00139805 0.00328541 2.83624e-05 -0.0150237 -0.0412854 0.00306767 0.00306725 -0.00267953 -0.0053977 -0.0199928 -0.0306615 -0.024722 -0.00394164 -0.0123473 -0.00182997 -0.00448368 -0.00992695 0.00981546 0.00200437 -2.71304e-05
internal_weight=135135 47166 26783 12340 5275 14443 87969 14181 73788 9168 20383 4379 3518 591 222 2927 7065 16004 7904 717 538 486 7187 1443 5744 4678 2348 1066 707 8100
internal_count=135135 47166 26783 12340 5275 14443 87969 14181 73788 9168 20383 4379 3518 591 222 2927 7065 16004 7904 717 538 486 7187 1443 5744 4678 2348 1066 707 8100
cat_boundaries=0 1 2 3
cat_threshold=31320 1343618 4160
is_linear=0
shrinkage=0.114047


Tree=19
num_leaves=31
num_cat=25
split_feature=10 9 9 10 12 9 9 12 9 9 10 9 9 10 9 1 2 9 10 9 9 9 10 9 10 9 9 1 9 9
split_gain=4.42391 30.1092 17.987 18.6082 13.4541 16.7758 12.3451 10.5728 10.1078 10.0366 9.78729 36.4294 26.8642 13.4015 17.1803 18.3631 15.6387 13.3559 11.5493 12.6565 12.1705 11.2182 10.0137 14.2359 9.52215 24.3277 11.9386 11.2562 10.5279 9.36071
threshold=0 1 2 3 37.986095714630203 4 5 37.986095714630203 6 7 8 9 10 11 12 83.006250000000009 -1.0000000180025095e-35 13 14 15 16 17 18 19 20 21 22 147.84375000000003 23 24
decision_type=9 9 9 9 2 9 9 2 9 9 9 9 9 9 9 2 2 9 9 9 9 9 9 9 9 9 9 2 9 9
left_child=1 7 3 6 5 -3 -2 9 -9 -1 12 18 24 14 -14 16 -16 -15 20 -20 -12 -17 23 -13 26 -26 -4 -27 -29 -5
right_child=2 4 10 29 -6 -7 -8 8 -10 -11 11 22 13 17 15 21 -18 -19 19 -21 -22 -23 -24 -25 25 27 -28 28 -30 -31
leaf_value=0.012738522765905869 0.0069155888091223267 -0.041990706455764193 -0.005230000385051811 -0.0023315502184214848 -0.00085867770750318719 -0.0036220604014885428 -0.0016968112319190852 0.010262157429275838 0.0036419376024591677 -0.02702750073989867 0.00020858953689232464 -0.0029311985214606866 0.00055957582016739232 -0.003133472168498257 -0.011798155529726935 -0.013340469891531159 0.076396735667097967 0.0045507011979608143 0.0042703279802371588 -0.0065201478443222176 0.0087426201413143886 0.0099122576042089683 -0.0029384016007530096 -0.015155939947237339 -0.013951867700985977 0.0019022799879576022 0.0033911223509624599 0.0021917597114295049 -0.016570666144019641 -0.0071478025672980748
leaf_weight=108 3156 203 2685 10186 25795 395 5284 3774 10161 220 3263 2208 3524 4455 33 249 87 6772 2571 2584 5110 7159 8643 2357 2222 4760 6567 600 871 9133
leaf_count=108 3156 203 2685 10186 25795 395 5284 3774 10161 220 3263 2208 3524 4455 33 249 87 6772 2571 2584 5110 7159 8643 2357 2222 4760 6567 600 871 9133
internal_value=-2.12547e-06 0.000949206 -0.000411557 -0.00274454 -0.00123321 -0.0174096 0.00152803 0.00498571 0.00544486 -0.0143694 0.000559349 -0.00105616 0.00163958 0.00415956 0.00685595 0.00979875 0.0521431 0.00150146 0.00292166 -0.00114067 0.00542108 0.00912605 -0.00512948 -0.00926241 -0.00153198 -0.00417671 0.000886262 -0.00067408 -0.00901549 -0.00461094
internal_weight=135135 40656 94479 27759 26393 598 8440 14263 13935 328 66720 26736 39984 22279 11052 7528 120 11227 13528 5155 8373 7408 13208 4565 17705 8453 9252 6231 1471 19319
internal_count=135135 40656 94479 27759 26393 598 8440 14263 13935 328 66720 26736 39984 22279 11052 7528 120 11227 13528 5155 8373 7408 13208 4565 17705 8453 9252 6231 1471 19319
cat_boundaries=0 1 4 7 8 11 14 17 20 21 24 27 28 30 33 34 37 40 42 43 46 47 50 53 56 58
cat_threshold=8400656 25719400 2980129504 2313 294151168 815901666 2313 137531460 239471618 34341904 1232 268967936 536881984 2312 24584 813695008 257 8389184 268501120 8 84164779 106009300 140398600 534 1086172 1096433672 566 83886122 1711341568 201592836 2286157858 67109904 1152 1118212 1053252 135790592 18 4264516 134758400 2 0 1 1048580 1744961547 100663312 96 278657 1081860 1048576 4 4104 4849672 512 4096 1073889280 560 25691136 2205890
is_linear=0
shrinkage=0.109086


Tree=20
num_leaves=31
num_cat=22
split_feature=14 14 10 9 10 9 10 9 9 10 17 9 22 10 10 9 8 17 9 9 9 5 14 9 6 9 9 9 3 9
split_gain=40.5262 31.9525 32.3828 30.3848 30.0362 26.6187 23.0136 53.9851 34.0525 31.296 24.5915 23.9384 19.9336 30.3112 19.1961 19.7905 18.6626 17.9451 16.9448 15.9624 15.0195 14.522 16.2611 14.3671 13.9403 13.4151 12.3817 12.2949 11.8346 10.5298
threshold=27.129630197388817 49.356354335319857 0 1 2 3 4 5 6 7 59.992585406700918 8 51.197982628665606 9 10 11 66.356585814937759 59.992585406700918 12 13 14 15 70.462819852561253 16 17 18 19 20 0.22187974924012158 21
decision_type=2 2 9 9 9 9 9 9 9 9 2 9 2 9 9 9 2 2 9 9 9 1 2 9 1 9 9 9 2 9
left_child=25 6 5 4 29 -3 7 10 9 20 -2 16 27 23 18 -16 -9 -13 -10 -15 -8 -7 24 -14 28 -1 -11 -5 -23 -4
right_child=1 2 3 12 -6 21 8 11 14 26 -12 17 13 19 15 -17 -18 -19 -20 -21 -22 22 -24 -25 -26 -27 -28 -29 -30 -31
leaf_value=-0.0035577468082233525 -0.0068781205025752901 0.0052301782407807012 0.001845020850641089 -0.0021092697806132806 -0.00037317284891753231 0.00015323043968028103 0.0049464275925240652 0.00037110481515705631 0.0018785318955379896 -0.011831898686045193 -0.03741403633194839 -0.0018006537945368043 0.0039739196771805714 0.00049691959386146387 7.7584975418714788e-05 0.0046716946950332242 0.0092318014184320767 -0.023902729951567215 -0.0032434057621123402 -0.0058067420751574403 -0.0011780875937525371 0.0034229172702262595 0.019637017996961364 -0.00077992448940581599 2.2285762831338801e-05 -0.018699849294553907 -0.0039216494965543473 -0.0080944412556422964 0.016789535214146823 0.0068574555660472205
leaf_weight=430 6806 11133 2785 3158 9883 12915 2499 2668 5229 906 112 9495 5562 2548 6714 9418 1582 156 5557 4928 5014 641 289 5075 1793 615 9258 2654 487 4825
leaf_count=430 6806 11133 2785 3158 9883 12915 2499 2668 5229 906 112 9495 5562 2548 6714 9418 1582 156 5557 4928 5014 641 289 5075 1793 615 9258 2654 487 4825
internal_value=-2.46503e-06 9.6351e-05 0.00107015 -6.88118e-05 0.00197799 0.00279978 -0.000926011 -0.0026998 -9.72982e-05 -0.00230067 -0.00736184 -0.000376049 -0.00156556 -0.000509347 0.00134997 0.0027609 0.00366076 -0.00215568 -0.000760875 -0.00366051 0.000862937 0.00111959 0.00501111 0.00170722 0.00356404 -0.0126821 -0.00463769 -0.0048599 0.00919379 0.0050279
internal_weight=135135 134090 68676 41418 17493 27258 65414 20819 44595 17677 6918 13901 23925 18113 26918 16132 4250 9651 10786 7476 7513 16125 3210 10637 2921 1045 10164 5812 1128 7610
internal_count=135135 134090 68676 41418 17493 27258 65414 20819 44595 17677 6918 13901 23925 18113 26918 16132 4250 9651 10786 7476 7513 16125 3210 10637 2921 1045 10164 5812 1128 7610
cat_boundaries=0 1 4 5 8 9 12 15 16 19 20 21 23 25 28 31 32 35 36 39 42 45 48
cat_threshold=32448 2261004587 3350144016 1233 8388922 184742307 970360833 3470 36368576 1078212906 1990681648 1185 1376888020 1221643137 2878 1310997 302088836 135301121 268 52264967 1311493 621300232 335622254 621300264 908406886 1744979968 806392129 34 1074865168 1073741824 2352 1 1629032020 20525 804 1 1653360852 407994791 3628 301989888 32768 4 152733904 541084206 770 109064194 1099104256 16
is_linear=0
shrinkage=0.0646373


Tree=21
num_leaves=31
num_cat=14
split_feature=3 9 17 9 9 7 12 0 9 12 9 12 3 2 5 9 0 9 9 2 9 6 9 8 9 9 8 0 0 2
split_gain=5.52641 15.3478 5.70081 5.46831 3.90005 3.77466 3.63323 3.50376 8.11185 3.43105 2.99072 4.88062 3.57427 10.9168 13.9495 10.6032 6.33923 6.2599 5.58639 4.47324 4.75127 4.35934 22.8195 4.17906 18.2975 11.0587 4.94036 5.2704 5.8586 5.19989
threshold=0.33907807000608886 0 41.33944151988333 1 2 57.559100553523649 42.884802611181932 505.87500000000006 3 42.234802611181927 4 27.129630197388817 0.14511457180193613 21.374999999999996 5 6 326.68125000000003 7 8 18.525000000000002 9 10 11 61.348530853114731 12 13 21.90643572527344 112.21875000000001 204.13125000000005 6.4125000000000023
decision_type=2 9 2 9 9 2 2 2 9 2 9 2 2 2 1 9 2 9 9 2 9 1 9 2 9 9 2 2 2 2
left_child=7 2 5 -3 -4 -2 9 10 -9 -6 11 -1 13 21 16 19 17 -15 -16 20 -14 23 -23 25 -25 26 27 -12 -29 -28
right_child=1 3 4 -5 6 -7 -8 8 -10 -11 12 -13 15 14 18 -17 -18 -19 -20 -21 -22 22 -24 24 -26 -27 29 28 -30 -31
leaf_value=-0.012850859187537445 -0.074217494418612265 0.02187590245984904 -0.012156996361819645 0.0073556294865816689 0.0041906702963981314 -0.0080533882212822806 -0.0010521201116583355 -0.015145087653298037 0.0041643124766813158 0.064709501205851144 0.02605313562898778 0.00078815511799156998 0.032195350608253515 -0.0043084935967228639 -0.0075601878024697342 -0.0019261617282001807 -0.0511956523535642 -0.017123444814275256 0.010252451714984713 0.0032543395554929457 0.0082374294909963487 0.0057271855102154542 -0.0094793358268220433 -0.0023214355585723183 0.0039813354126032449 0.00067198806320850147 -0.0034085083918552325 -0.021926583461128739 0.011991894354177775 0.0060436147433153078
leaf_weight=319 23 379 414 1868 26 19 1028 570 477 20 144 42056 110 844 324 6275 50 1066 581 5425 797 1938 3061 10536 11744 25520 18522 95 174 730
leaf_count=319 23 379 414 1868 26 19 1028 570 477 20 144 42056 110 844 324 6275 50 1066 581 5425 797 1938 3061 10536 11744 25520 18522 95 174 730
internal_value=-4.42211e-06 0.00413836 -0.00434611 0.00989083 -0.00324798 -0.0442861 0.000296649 -0.000123542 -0.00645285 0.0305032 -7.26879e-05 0.000685319 -0.000437988 -0.000724544 -0.00737521 0.00127389 -0.0125837 -0.0115729 0.00390508 0.00444116 0.0115888 -0.000461598 -0.00359161 -0.000229671 0.00100156 -0.000836771 -0.00279366 0.00909253 1.32498e-05 -0.0030501
internal_weight=135135 3777 1530 2247 1488 42 1074 131358 1047 46 130311 42375 87936 75329 2865 12607 1960 1910 905 6332 907 72464 4999 67465 22280 45185 19665 413 269 19252
internal_count=135135 3777 1530 2247 1488 42 1074 131358 1047 46 130311 42375 87936 75329 2865 12607 1960 1910 905 6332 907 72464 4999 67465 22280 45185 19665 413 269 19252
cat_boundaries=0 3 6 9 12 15 16 19 22 25 28 29 32 35 38
cat_threshold=672894964 281662154 2308 278528 1610620928 1026 592068 8409728 260 85209346 17178688 197 571579183 63579136 1284 1 2571370704 1748081162 163 2634702848 2419100099 521 277348432 270799403 2176 20971520 2097152 32 1 3230155840 2349105987 42 3305522176 3760560643 643 3494396096 403735034 58
is_linear=0
shrinkage=0.10985


Tree=22
num_leaves=31
num_cat=24
split_feature=17 9 9 17 10 22 9 17 10 21 9 10 9 9 9 19 10 10 9 9 10 9 9 10 9 10 10 9 9 9
split_gain=3.67076 14.5977 6.58734 5.66896 17.0591 15.1141 21.7789 14.9466 56.5804 15.5353 14.9007 14.4416 13.0226 12.3275 12.2672 11.8333 9.14629 8.74998 31.6802 31.679 14.8801 25.1089 16.5576 13.8826 13.7378 19.4848 10.5668 19.6422 12.2349 11.8324
threshold=66.311778394516168 0 1 58.426733084108626 2 51.830694193713889 3 54.4466868999071 4 50.926678058907946 5 6 7 8 9 58.861157098733614 10 11 12 13 14 15 16 17 18 19 20 21 22 23
decision_type=2 9 9 2 9 2 9 2 9 2 9 9 9 9 9 2 9 9 9 9 9 9 9 9 9 9 9 9 9 9
left_child=3 -2 -3 7 5 10 -7 15 9 16 -5 -11 -6 -10 -13 17 -9 18 20 26 21 -1 23 -22 25 -21 27 -19 -28 -29
right_child=1 2 -4 4 12 6 -8 8 13 11 -12 14 -14 -15 -16 -17 -18 19 -20 24 22 -23 -24 -25 -26 -27 28 29 -30 -31
leaf_value=0.011954661586873081 0.019545149361316565 -0.0030322110158650492 0.0048195670368297418 0.0053940105063616205 0.0035227528140882856 -0.024313221261897805 -0.0032944928618656201 -0.0036203900965137239 0.0194410450995866 0.011507606576729933 -0.0078472351312614385 0.0076480608863580346 -0.0023782524313837082 0.0081722809957459983 -0.011276699841353271 -0.0080268816655175226 -0.017660929748762294 0.017254977341077359 0.0031211848477769011 -0.004573129507017157 0.0036990035811766101 -0.0030426398152212175 -0.0016978763982690769 -0.012010118012731252 -0.00011781216118051754 0.0093797510415447715 0.0018364374255211236 -0.014780314481645958 -0.0058198575972658855 -0.0055578064740275379
leaf_weight=1983 503 2349 2341 1576 7108 1036 1155 1037 1731 972 2280 577 9774 2932 1056 2069 1034 317 30059 1498 749 3207 11626 3589 22600 4139 4067 2543 5276 3952
leaf_count=1983 503 2349 2341 1576 7108 1036 1155 1037 1731 972 2280 577 9774 2932 1056 2069 1034 317 30059 1498 749 3207 11626 3589 22600 4139 4067 2543 5276 3952
internal_value=-1.24864e-06 0.00273531 0.000888897 -0.000110613 -0.00160839 -0.00638682 -0.0133591 0.000210307 0.00422209 -0.00393932 -0.00244172 0.0014468 0.000106922 0.0123881 -0.00458402 -0.000173275 -0.0107332 -3.31381e-06 0.000931515 -0.00108175 -0.00217992 0.00269951 -0.00376696 -0.00929551 0.00103928 0.00567032 -0.00478741 -0.00793195 -0.00248868 -0.00918588
internal_weight=135135 5193 4690 129942 22929 6047 2191 107013 9339 4676 3856 2605 16882 4663 1633 97674 2071 95605 51213 44392 21154 5190 15964 4338 28237 5637 16155 6812 9343 6495
internal_count=135135 5193 4690 129942 22929 6047 2191 107013 9339 4676 3856 2605 16882 4663 1633 97674 2071 95605 51213 44392 21154 5190 15964 4338 28237 5637 16155 6812 9343 6495
cat_boundaries=0 3 6 7 10 11 14 15 18 21 24 25 26 29 32 33 36 39 40 43 44 45 48 51 54
cat_threshold=1073750016 547487744 385 567562469 1213332718 36 67194890 1296838953 623223408 3131 137014569 457535852 30840339 1546 9248 1083788096 3394267623 2616 1196082320 1560346899 61 2214605099 2720931908 1923 2261281 209800493 974727124 138537735 812 3301185547 4155655248 2265 257 570435072 98309 296 301991424 134250497 268 142622720 302515716 134250500 260 16908370 18362880 0 9437184 8 3233808386 3271558160 65 1086590986 33555472 129
is_linear=0
shrinkage=0.104965


Tree=23
num_leaves=31
num_cat=16
split_feature=6 9 5 4 9 8 9 2 9 8 9 7 15 8 16 12 9 9 9 2 9 16 9 9 9 8 9 2 9 8
split_gain=3.3856 19.1946 12.9504 29.7369 17.2721 14.3308 15.0444 12.4708 18.0179 12.3452 11.6714 8.8308 8.58393 11.0162 13.2895 14.4921 10.5317 10.4345 10.0389 9.70026 8.48841 8.28351 19.278 11.2083 8.08901 7.1127 6.45583 6.00655 9.37856 5.72079
threshold=0 1 2 0.27602083333333333 3 66.356585814937759 4 18.525000000000023 5 66.356585814937759 6 37.239988687654979 51.842713556699088 63.260713028541069 51.73290608438321 46.239112956009514 7 8 9 31.706250000000001 10 51.73290608438321 11 12 13 50.417695072270369 14 14.250000000000009 15 21.483258955215479
decision_type=1 9 1 2 9 2 9 2 9 2 9 2 2 2 2 2 9 9 9 2 9 2 9 9 9 2 9 2 9 2
left_child=2 -2 7 4 25 6 -5 20 26 12 -11 -7 13 14 18 19 29 -15 -10 -16 21 23 -23 -1 -3 -4 -9 -22 -29 -14
right_child=1 24 3 5 -6 11 -8 8 9 10 -12 -13 16 17 15 -17 -18 -19 -20 -21 27 22 -24 -25 -26 -27 -28 28 -30 -31
leaf_value=-0.0051367578223701872 -0.0088856910161266983 0.0061419720114159349 0.00057912663313080322 0.0007022438800350023 -0.0077791778149211141 0.012070088330629537 0.022896383441972014 -0.020987514580551495 -0.0050300632237130017 0.0061158039037041943 -0.019258778938434834 0.053930774675950692 -0.025037634138981048 -0.022235627656362278 -0.078737544793675146 -0.0017232289353963357 0.015592013354964174 -0.00065149152416338221 0.0098096542016540382 0.024419565666644369 -0.00041983578606340785 0.016191266516625471 0.0025607135428054335 0.0024777953816365324 -0.00089350773865486024 0.016908537851026181 -0.0082116568829072121 0.012556970695478314 -0.0019063619466920501 0.002305324016863345
leaf_weight=3697 3792 2774 714 775 2015 103 919 691 979 354 817 210 115 588 75 145 1059 644 1702 14.999999999999998 74285 1679 9116 9294 11481 750 2698 1243 1208 1198
leaf_count=3697 3792 2774 714 775 2015 103 919 691 979 354 817 210 115 588 75 145 1059 644 1702 15 74285 1679 9116 9294 11481 750 2698 1243 1208 1198
internal_value=-4.37562e-07 -0.0014934 0.000229676 0.00578431 -0.000763994 0.0171354 0.0128819 -4.33723e-05 -0.00377188 -0.000628882 -0.0117001 0.0401555 0.00135856 -0.0018545 0.00206807 -0.0246336 0.00697737 -0.0111388 0.00440858 -0.0615447 0.000367601 0.00229986 0.00469811 0.000308787 0.000478931 0.00888392 -0.0108707 -0.000231616 0.00547203 -8.88509e-05
internal_weight=135135 18047 117088 5486 3479 2007 1694 111602 11080 7691 1171 313 6520 4148 2916 235 2372 1232 2681 90 100522 23786 10795 12991 14255 1464 3389 76736 2451 1313
internal_count=135135 18047 117088 5486 3479 2007 1694 111602 11080 7691 1171 313 6520 4148 2916 235 2372 1232 2681 90 100522 23786 10795 12991 14255 1464 3389 76736 2451 1313
cat_boundaries=0 1 4 5 8 11 14 17 20 23 26 29 31 33 36 39 42
cat_threshold=1 541133446 314593324 2816 1 2165707187 607744488 1587 2768365203 2741506500 325 1174512216 601882764 118 814366852 2551220321 2312 2178418853 2483986467 3584 160174112 1142939667 264 805456896 2484182112 257 1610715658 316672052 260 66048 33554432 536936960 33556480 369100041 304128 22 1073742344 8388608 20 2182351281 1208852810 3296
is_linear=0
shrinkage=0.117102


Tree=24
num_leaves=31
num_cat=1
split_feature=1 13 11 11 11 2 1 11 8 11 11 13 1 8 22 7 12 17 8 12 12 8 8 1 8 8 5 11 1 8
split_gain=2.54581 10.1429 6.99036 9.82344 5.18453 4.76536 4.17188 3.6658 5.96207 3.44224 3.29091 4.58573 4.84794 5.20432 5.06076 4.79141 5.15813 3.98045 11.1713 7.00733 11.1205 16.1402 27.3062 16.0448 6.36608 7.7616 7.61621 6.26575 7.501 5.26025
threshold=323.11875000000003 60.061136016172021 45.926891766633567 43.588291362815873 49.031552081136866 87.281250000000028 318.84375000000006 49.754458600858612 47.154161696280447 61.042345961378857 46.639347340436622 49.066406759603431 237.61875000000001 93.862546249527099 51.197982628665606 50.610171884367652 40.380061231871586 41.33944151988333 80.520461747512357 42.234802611181927 43.021009507733652 28.502998141779944 63.260713028541069 123.61875000000002 46.101411212096046 47.154161696280447 0 47.145006681540799 131.45625000000004 39.708180425858949
decision_type=2 2 2 2 2 2 2 2 2 2 2 2 2 2 2 2 2 2 2 2 2 2 2 2 2 2 1 2 2 2
left_child=6 2 3 -2 -3 7 9 8 -6 10 11 -1 13 -13 -15 -16 -17 18 -12 29 21 -21 23 -23 26 27 -25 28 -26 -19
right_child=1 4 -4 -5 5 -7 -8 -9 -10 -11 17 12 -14 14 15 16 -18 19 -20 20 -22 22 -24 24 25 -27 -28 -29 -30 -31
leaf_value=0.0061800909929754727 -0.0029597418240288925 0.022174541849280732 -0.0014804175470202303 -0.024594506763215999 -0.075796006113280454 0.019487405883841867 0.0099821447880485137 0.0028474088134451949 0.0044410171182876499 0.0043483725805828991 -0.0013413337785150145 0.0022959127659597555 -0.0081521589522078209 0.022598798810791056 -0.0031245603846958596 -0.056408492066802575 -0.015254975746148898 0.0093870379610917869 -0.020209921575120388 0.012231540571174253 -6.1277353077626086e-05 0.0034144274687714945 0.0031226809722012783 -0.0075851575143899052 -0.038196299456493554 -0.029537735337131076 -0.094335006320885581 -0.035772632954956092 -0.1186073274893369 0.0016886908787435209
leaf_weight=2679 832 275 15409 449 22 245 603 1142 31 2654 3040 8313 794 68 406 53 210 1705 509 465 88542 252 958 225 27 644 14.999999999999998 70 40 4458
leaf_count=2679 832 275 15409 449 22 245 603 1142 31 2654 3040 8313 794 68 406 53 210 1705 509 465 88542 252 958 225 27 644 15 70 40 4458
internal_value=-4.41154e-07 -0.00128894 -0.00217599 -0.0105429 0.00734362 0.00451133 0.000202718 0.00144092 -0.0288649 0.000151937 5.37877e-05 0.00185615 0.000679405 0.00145424 -0.00803941 -0.0111536 -0.0235483 -0.000169798 -0.00404748 -2.85066e-05 -0.000288363 -0.0077463 -0.0119102 -0.0232233 -0.0297979 -0.0349577 -0.013007 -0.0604356 -0.0862029 0.00381845
internal_weight=135135 18405 16690 1281 1715 1440 116730 1195 53 116127 113473 12523 9844 9050 737 669 263 100950 3549 97401 91238 2696 2231 1273 1021 781 240 137 67 6163
internal_count=135135 18405 16690 1281 1715 1440 116730 1195 53 116127 113473 12523 9844 9050 737 669 263 100950 3549 97401 91238 2696 2231 1273 1021 781 240 137 67 6163
cat_boundaries=0 1
cat_threshold=1
is_linear=0
shrinkage=0.117877


Tree=25
num_leaves=31
num_cat=23
split_feature=10 9 9 10 9 9 10 9 9 12 10 9 9 10 9 9 9 3 2 9 2 9 10 22 9 10 10 9 15 8
split_gain=4.33036 21.3832 12.7016 8.69074 23.4004 16.3556 8.28117 11.8211 10.4493 6.51873 6.36068 15.6971 10.0025 5.98585 21.9323 11.9963 7.73006 5.90469 6.12169 8.62267 5.48814 5.357 7.1308 5.28085 7.01731 5.89165 4.87631 5.89083 4.7866 5.7296
threshold=0 1 2 3 4 5 6 7 8 53.323595714630208 9 10 11 12 13 14 15 0.44846828817733991 68.756250000000009 16 -1.0000000180025095e-35 17 18 51.197982628665606 19 20 21 22 51.842713556699088 22.129740701046675
decision_type=9 9 9 9 9 9 9 9 9 2 9 9 9 9 9 9 9 2 2 9 2 9 9 2 9 9 9 9 2 2
left_child=1 3 6 4 -1 -5 8 -8 -2 10 12 -12 -7 15 28 -3 -16 18 -4 -20 -18 22 -10 24 25 -9 27 -23 29 -15
right_child=2 13 17 5 -6 9 7 23 21 -11 11 -13 -14 14 16 -17 20 -19 19 -21 -22 26 -24 -25 -26 -27 -28 -29 -30 -31
leaf_value=-0.018218130107793676 -8.2787983949416375e-05 0.0013668768881479785 -0.0018051278656756094 0.0064243950542255818 5.7421267287312876e-06 0.0060263922594734577 0.002973995658809347 0.0063877800980447329 0.03052015303721646 0.0011931409502737612 -0.00079805176892116007 -0.024540573641669915 -0.012010685429935429 0.0010058328707225083 0.014269311021386694 0.0096331935975326136 0.038920214231229988 0.01681312080681233 0.0025833648289786751 -0.01682596491827789 0.0022710863690808152 0.0013557537745035443 0.0057514861129008841 -0.0030114560031929958 -0.024311397135174738 -0.015898844317711533 0.0027860843029267365 0.013560297344429706 -0.0014205842823164585 -0.017147995499203102
leaf_weight=2466 8798 7113 52350 4921 4075 1404 8407 521 461 2907 1189 1249 1270 498 1845 8340 91 362 785 1374 4595 1287 586 6130 646 499 5378 2690 1300 1598
leaf_count=2466 8798 7113 52350 4921 4075 1404 8407 521 461 2907 1189 1249 1270 498 1845 8340 91 362 785 1374 4595 1287 586 6130 646 499 5378 2690 1300 1598
internal_value=-2.76537e-07 0.00118626 -0.000589984 -0.00249568 -0.0068821 -0.000274799 0.00159205 -0.000868253 0.00366769 -0.00438876 -0.00757156 -0.013012 -0.00255304 0.00401229 0.00117728 0.00583156 0.0061836 -0.00199788 -0.00212317 -0.00983481 0.00297644 0.00683687 0.0168428 -0.00501013 -0.0123943 -0.00456369 0.00570023 0.00962408 -0.0084405 -0.0128347
internal_weight=135135 44861 90274 19481 6541 12940 35403 16203 19200 8019 5112 2438 2674 25380 9927 15453 6531 54871 54509 2159 4686 10402 1047 7796 1666 1020 9355 3977 3396 2096
internal_count=135135 44861 90274 19481 6541 12940 35403 16203 19200 8019 5112 2438 2674 25380 9927 15453 6531 54871 54509 2159 4686 10402 1047 7796 1666 1020 9355 3977 3396 2096
cat_boundaries=0 1 4 7 8 11 14 15 18 21 22 25 28 29 32 35 38 41 44 45 48 49 50 52
cat_threshold=44068432 639377944 3459380564 696 643172380 3328308508 664 18432 570434048 134316356 48 34087424 134317380 32 68194728 643041280 100750348 16 106039296 71386124 512 33555984 67108880 1073745920 536 538181632 2249203728 128 8415296 142802976 541851656 326 2420264231 553779360 3073 2164280321 32 3073 3221827650 1050753 3107 0 32768 128 136 131088 3223330832 512 393219 67141896 537133056 4112
is_linear=0
shrinkage=0.147779


Tree=26
num_leaves=31
num_cat=12
split_feature=9 16 9 9 1 1 9 0 9 9 16 9 9 1 0 1 1 9 0 13 11 1 9 0 1 0 12 1 9 9
split_gain=2.77174 9.40115 22.0312 16.3399 6.79184 10.0449 7.77682 6.39148 6.33674 5.35714 5.20104 15.2552 13.1575 8.68516 4.9789 4.79349 10.0314 7.47441 5.35138 4.7219 4.70566 4.69644 4.674 4.60508 5.88941 4.41571 4.3366 4.29736 4.51164 4.29145
threshold=0 51.73290608438321 1 2 131.45625000000004 105.09375000000001 3 214.81875000000005 4 5 51.73290608438321 6 7 71.606250000000017 237.61875000000001 130.74375000000001 107.94375000000001 8 106.51875000000001 60.061136016172021 58.579175483830319 392.23125000000005 9 80.86875000000002 80.156250000000014 467.04375000000005 74.826612956009527 118.63125000000001 10 11
decision_type=9 2 9 9 2 2 9 2 9 9 2 9 9 2 2 2 2 9 2 2 2 2 9 2 2 2 2 2 9 9
left_child=10 3 4 26 5 9 25 -8 -5 -3 12 -12 20 -13 -9 16 17 -4 -19 -20 -1 -17 -23 24 -10 -6 -2 -18 -29 -16
right_child=1 2 15 8 6 -7 7 14 23 -11 11 13 -14 -15 29 21 27 18 19 -21 -22 22 -24 -25 -26 -27 -28 28 -30 -31
leaf_value=0.0036254510871235779 -0.0056573269945020144 -0.0065325730500658992 0.0030776438081159588 0.0019517567554335476 0.0097699443761356895 0.01490723693248369 -0.0026894146733606752 0.008588910428835389 0.0096730565386497283 0.0069895274105876348 0.0025965280697225175 0.016043913133519015 -0.00064709662948944885 -0.0036881488695313658 0.0059961579405316094 -0.0033217772440501583 0.01278551822485125 -0.0055267531013322374 -0.032410424206754822 0.012107316562925848 0.011310775716281573 -0.0077189308421923356 0.0066437867417927336 -0.0017246708224834843 0.078837426624584137 -0.0061933204517270147 0.013621087286920689 0.010063777156901214 -0.0061957450257663057 -0.0044711045959187987
leaf_weight=13435 11882 606 1635 11997 2645 1941 3580 1956 108 1302 11611 326 16456 13941 1023 13742 1173 1370 200 41 1243 417 1343 18533 21 273 169 479 477 1210
leaf_count=13435 11882 606 1635 11997 2645 1941 3580 1956 108 1302 11611 326 16456 13941 1023 13742 1173 1370 200 41 1243 417 1343 18533 21 273 169 479 477 1210
internal_value=-3.82332e-07 -0.000462697 0.000976896 -0.00165644 0.00454716 0.00885454 0.00300008 0.00101698 -0.000190039 0.00269717 0.000633093 -0.000618746 0.0016738 -0.00323501 0.00418696 -0.00151042 0.00156403 -0.00261695 -0.00836356 -0.0248369 0.00427337 -0.0025774 0.00323469 -0.00156722 0.0209324 0.0082482 -0.00538251 0.0079386 0.00199148 0.000331072
internal_weight=135135 78123 35413 42710 14536 3849 10687 7769 30659 1908 57012 25878 31134 14267 4189 20877 5375 3246 1611 241 14678 15502 1760 18662 129 2918 12051 2129 956 2233
internal_count=135135 78123 35413 42710 14536 3849 10687 7769 30659 1908 57012 25878 31134 14267 4189 20877 5375 3246 1611 241 14678 15502 1760 18662 129 2918 12051 2129 956 2233
cat_boundaries=0 3 6 9 12 15 17 20 23 26 29 32 35
cat_threshold=751198511 826952528 2826 269552192 34641037 224 268503616 1086472 161 66048 5120 128 2197819536 1076109312 1040 2560 1081345 746733570 542992 768 4464940 826409536 10 17305728 2282029090 5 525328 8224 1024 1107329152 3355705346 16 269484032 1048585 64
is_linear=0
shrinkage=0.119501


Tree=27
num_leaves=31
num_cat=25
split_feature=10 9 9 10 9 10 9 9 10 9 9 22 10 9 9 9 22 10 10 10 9 10 9 9 9 10 9 0 3 0
split_gain=10.9957 55.6249 50.9417 28.358 26.2834 18.1582 42.8857 27.6157 14.3672 30.1281 18.4932 15.525 13.3337 46.7491 17.3487 12.9123 12.7126 12.2929 11.6571 10.9773 10.8241 11.3744 12.5757 9.64953 9.59118 9.48815 10.9278 9.34479 10.4245 9.59057
threshold=0 1 2 3 4 5 6 7 8 9 10 51.830694193713889 11 12 13 14 51.830694193713889 15 16 17 18 19 20 21 22 23 24 292.48125000000005 0.27095875139353409 251.15625000000003
decision_type=9 9 9 9 9 9 9 9 9 9 9 2 9 9 9 9 2 9 9 9 9 9 9 9 9 9 9 2 2 2
left_child=2 3 8 4 -2 6 -3 19 9 -1 -10 -11 14 17 27 18 24 23 -8 -7 21 22 -5 -14 -15 26 -18 29 -29 -4
right_child=1 5 12 20 -6 7 15 -9 10 11 -12 -13 13 16 -16 -17 25 -19 -20 -21 -22 -23 -24 -25 -26 -27 -28 28 -30 -31
leaf_value=0.013445250767132669 -0.0027077837563235421 0.0045341922663580799 0.0019328228198575985 -0.00034100361991092125 -0.0096838837888217986 -0.0037940236254428005 -0.0012847706685246351 -0.0020696691776396878 0.0043735111956456343 0.005666630044989034 0.00048391024945745539 -0.0013508469596705808 -0.0090069975993264037 -0.00057384104422694726 -0.0015127488526329332 0.00025584148414587344 -0.0054081292749659261 -0.0081945932284307899 -0.010594947617358881 0.0027427562848250896 0.00040731797608250397 -0.0014980275198208223 -0.010551671336106282 0.00015115842410028075 0.0041261367065347264 -0.0051919264644322838 0.0042646466209885492 -0.013772042028648276 0.013710738458466983 0.010576863688342771
leaf_weight=1289 4332 11278 8841 697 3744 1060 1281 16189 6938 3097 12993 1872 585 2921 10639 11151 665 4182 815 8680 6463 5001 1272 1505 3565 2068 1193 253 64 502
leaf_count=1289 4332 11278 8841 697 3744 1060 1281 16189 6938 3097 12993 1872 585 2921 10639 11151 665 4182 815 8680 6463 5001 1272 1505 3565 2068 1193 253 64 502
internal_value=1.94453e-06 -0.000512172 0.000587594 -0.00310186 -0.00594985 0.00059223 0.0017786 -0.000530152 0.00264001 0.00518286 0.0018394 0.00301682 -0.000866117 -0.0021398 0.000181278 -0.00056906 0.000360782 -0.00628492 -0.00493802 0.0020282 -0.00138647 -0.00304799 -0.00695722 -0.00244293 0.00201496 -0.0023711 0.000792228 0.00204662 -0.00822347 0.00239727
internal_weight=135135 71963 63172 21509 8076 50454 24525 25929 26189 6258 19931 4969 36983 16684 20299 13247 10412 6272 2096 9740 13433 6970 1969 2090 6486 3926 1858 9660 317 9343
internal_count=135135 71963 63172 21509 8076 50454 24525 25929 26189 6258 19931 4969 36983 16684 20299 13247 10412 6272 2096 9740 13433 6970 1969 2090 6486 3926 1858 9660 317 9343
cat_boundaries=0 1 4 7 8 10 11 14 17 18 21 24 25 28 31 33 34 35 36 38 39 41 44 47 48 51
cat_threshold=135085700 303087744 290511530 2316 957401284 961730730 2318 8388714 32896 22043146 8421498 3292791091 573187157 1217 1627530765 3297051648 528 12288 268435456 1081344 268 135317504 268451874 2048 134286852 1078726667 35718416 209 2152140843 44631312 1217 553656832 8388608 128 8421386 69206016 268468224 289427626 32769 0 16522 262152 2098176 1 2223178528 8921088 32 270336 2147483936 67371012 1056
is_linear=0
shrinkage=0.0608351


Tree=28
num_leaves=31
num_cat=12
split_feature=2 9 12 12 12 9 9 12 9 20 9 9 8 11 12 9 20 8 12 15 19 9 5 17 9 8 16 9 20 9
split_gain=2.50131 6.29356 3.03255 9.80658 9.19045 8.10178 8.02277 5.82237 9.37981 5.41945 5.26372 5.01115 4.52423 5.63041 4.51759 4.25661 5.63197 6.64165 4.02119 3.88959 7.40285 7.67758 5.09953 4.3848 4.37396 6.02358 4.18003 5.54443 4.83531 4.95391
threshold=144.99375000000006 0 46.683509507733653 46.376612956009517 47.301181921526755 1 2 38.734802611181927 3 48.992098045113472 4 5 93.862546249527099 57.730514018853128 47.559371576699171 6 49.340333057870858 21.483258955215479 46.361526749112961 51.842713556699088 48.206057557977836 7 8 48.596360527080996 9 17.654114759332682 51.73290608438321 10 48.180178226364681 11
decision_type=2 9 2 2 2 9 9 2 9 2 9 9 2 2 2 9 2 2 2 2 2 9 1 2 9 2 2 9 2 9
left_child=2 -2 3 6 5 -4 9 8 12 -1 -5 14 -8 -14 -6 -11 17 -17 -9 20 21 -16 -23 -24 -21 -26 28 -28 29 -22
right_child=1 -3 4 10 11 -7 7 18 -10 15 -12 -13 13 -15 19 16 -18 -19 -20 24 26 22 23 -25 25 -27 27 -29 -30 -31
leaf_value=0.0038859177612686662 0.016461169576622216 -0.00045767265945604219 -0.012137523521548947 0.0135104807017985 0.014700094942484069 -0.0014193478557190783 -0.014511199539396809 -0.00045391617692651951 0.00021380162562969777 0.0040177847323481473 0.0035229982881820397 -0.0010445553036412608 -0.067211614385800186 0.015278521995662346 -0.013349319300519136 -0.1004892351719784 -0.0017957984047702251 -0.015576648005193944 -0.011770081611070564 -0.0043629180481156889 0.024096037040603591 -0.0015544506447177481 0.012021685770526768 0.063091764055713928 -0.030558352577291423 0.0012795401929955594 0.0019909005552904268 0.014454517695522508 0.001592492510693888 0.002960364281321258
leaf_weight=12236 553 1209 2143 1392 419 2893 973 21437 1211 2204 2751 48365 60 19 1031 17 4341 292 562 4254 335 1218 158 36 105 7973 1313 1195 13975 465
leaf_count=12236 553 1209 2143 1392 419 2893 973 21437 1211 2204 2751 48365 60 19 1031 17 4341 292 562 4254 335 1218 158 36 105 7973 1313 1195 13975 465
internal_value=-2.59418e-08 0.0049431 -6.53299e-05 0.000781425 -0.000533629 -0.00600724 0.000194802 -0.00139857 -0.00777762 0.00221943 0.00691979 -0.000192654 -0.016819 -0.0473722 0.00107599 -0.00075239 -0.00301551 -0.0202482 -0.000743006 0.000898262 0.0020484 -0.00475613 0.00160155 0.0214986 -0.00094148 0.000864632 0.00301024 0.00799508 0.00216409 0.0121491
internal_weight=135135 1762 133373 47495 85878 5036 43352 24262 2263 19090 4143 80842 1052 79 32477 6854 4650 309 21999 32058 19726 2443 1412 194 12332 8078 17283 2508 14775 800
internal_count=135135 1762 133373 47495 85878 5036 43352 24262 2263 19090 4143 80842 1052 79 32477 6854 4650 309 21999 32058 19726 2443 1412 194 12332 8078 17283 2508 14775 800
cat_boundaries=0 3 6 9 12 15 18 21 24 25 27 30 33
cat_threshold=542430528 725120 1057 3503509076 3260077296 2193 546916069 2421215468 2620 268448002 648940048 1475 381955117 2451450168 8 3355585883 266996304 2499 96 269484228 52 1073751114 44040272 387 1 2147483930 19006032 1207959875 155847168 2240 1073750272 27789840 323
is_linear=0
shrinkage=0.13206


Tree=29
num_leaves=31
num_cat=14
split_feature=1 9 0 9 0 9 9 18 0 0 0 9 15 9 0 9 0 1 15 9 9 9 9 19 6 9 21 1 15 9
split_gain=2.05912 12.8583 4.94248 4.62098 4.62058 19.1886 9.03625 5.76869 5.6525 5.17892 4.23729 14.7227 8.63192 12.1341 6.71706 19.0964 14.5476 11.3576 8.09683 9.05018 7.76592 6.12883 5.86765 5.40506 4.87567 4.7325 4.39218 4.26643 4.44863 5.31231
threshold=237.61875000000001 0 238.33125000000004 1 251.15625000000003 2 3 51.73290608438321 284.64375000000007 296.04375000000005 110.08125000000001 4 51.17048982780306 5 135.01875000000004 6 153.54375000000002 134.30625000000001 51.842713556699088 7 8 9 10 45.561100165383571 11 12 57.052728871128885 134.30625000000001 51.842713556699088 13
decision_type=2 9 2 9 2 9 9 2 2 2 2 9 2 9 2 9 2 2 2 9 9 9 9 2 1 9 2 2 2 9
left_child=3 2 -2 -1 5 -3 9 -7 -8 -6 11 -5 13 -13 15 27 25 18 22 -20 23 -14 -17 -18 -15 -16 -22 28 29 -12
right_child=1 4 -4 10 6 7 8 -9 -10 -11 14 12 21 24 16 17 20 -19 19 -21 26 -23 -24 -25 -26 -27 -28 -29 -30 -31
leaf_value=0.00096811719955576525 -0.015747663041454103 0.0071001623021466195 -0.0029699124890806157 -0.0046551588574123212 -0.010663367399670184 -0.0087365678216559089 0.01126169266103381 -0.027237089137520192 0.00030126601510883889 0.010356226246601881 -0.0049252261874430528 0.00057310762546344937 0.005054831499190871 0.015913232713898107 0.00033538019632427089 -0.00495494076516059 -0.012016112972258497 -0.028443403067442714 0.0054968412515145962 -0.0089334240308387818 -0.00028397555493228394 -0.0025221849457085512 -0.014670670452662094 -0.0023445150655904824 0.0041576691942300566 0.014503771592381637 0.0030019336412016448 -0.0088637048216426984 0.0058223118398346117 0.0037153122203569962
leaf_weight=47037 328 766 11695 3034 134 442 517 297 12162 1583 1464 1492 1992 1468 352 1258 650 267 957 861 22158 2560 1443 9659 498 908 5316 418 1902 1517
leaf_count=47037 328 766 11695 3034 134 442 517 297 12162 1583 1464 1492 1992 1468 352 1258 650 267 957 861 22158 2560 1443 9659 498 908 5316 418 1902 1517
internal_value=1.38371e-06 -0.000783853 -0.00331575 0.000205905 0.00113192 -0.0042799 0.00169848 -0.0159559 0.0007476 0.00866532 -0.000389999 0.00142697 0.00373188 0.00760323 -0.000798517 -0.00316019 -0.000188365 -0.00785223 -0.006653 -0.0013562 -0.000550253 0.000799156 -0.0102182 -0.00295146 0.01287 0.0106634 0.000351694 0.00108878 0.00194297 -0.000532205
internal_weight=135135 27924 12023 107211 15901 1505 14396 739 12679 1717 60174 11044 8010 3458 49130 10087 39043 4786 4519 1818 37783 4552 2701 10309 1966 1260 27474 5301 4883 2981
internal_count=135135 27924 12023 107211 15901 1505 14396 739 12679 1717 60174 11044 8010 3458 49130 10087 39043 4786 4519 1818 37783 4552 2701 10309 1966 1260 27474 5301 4883 2981
cat_boundaries=0 3 6 9 12 15 18 21 24 26 29 32 33 36 39
cat_threshold=1766690720 201615535 1442 692424483 2351147053 3334 33554515 2958758672 2560 8204 1073775680 16 1107312644 1074807552 680 2156015616 42472450 80 3221229656 597169986 680 35152000 1077952640 16 2215653384 591922240 9445440 311165970 80 67633284 16528 65 1 1589460 272892288 8 1073741904 1054018 512
is_linear=0
shrinkage=0.102663


Tree=30
num_leaves=31
num_cat=11
split_feature=12 10 13 10 10 0 12 10 12 13 10 17 4 13 12 10 10 17 12 10 10 16 4 0 1 12 12 6 20 10
split_gain=7.08139 18.3616 5.93371 25.2844 12.1011 11.3899 12.1241 41.2755 11.1326 24.3775 56.4767 44.9914 16.3786 12.8271 9.43236 7.85087 7.09526 6.19946 5.38223 30.7079 5.36048 15.143 5.33292 5.16795 5.1851 10.953 4.80662 4.64707 4.45259 5.50153
threshold=27.129630197388817 0 49.066406759603431 1 2 120.05625000000002 38.734802611181927 3 45.308509507733653 49.812888602363167 4 49.918684459987027 0.30555555555555564 50.129489435915694 37.986095714630203 5 6 50.088579547253907 37.986095714630203 7 8 51.73290608438321 0.5074001063863075 124.33125000000001 175.63125000000005 44.99385433531986 45.889543990492271 9 47.439901092428094 10
decision_type=2 9 2 9 9 2 2 9 2 2 9 2 2 2 2 9 9 2 2 9 9 2 2 2 2 2 2 1 2 9
left_child=1 -1 3 17 14 -5 7 -7 9 10 11 12 20 16 15 -4 -10 22 19 -11 23 -22 -2 -6 -25 -26 -15 -3 -8 -30
right_child=2 27 4 5 8 6 28 -9 13 18 -12 -13 -14 26 -16 -17 -18 -19 -20 -21 21 -23 -24 24 25 -27 -28 -29 29 -31
leaf_value=-0.028687804437754674 -0.0029898620655228253 0.0020369217069553061 0.0019789304955095499 0.013762181593124876 -0.054494082691468847 -0.037934470172264687 0.0028640688148999496 0.012576554839085392 0.0055140679160451799 0.016388290569232904 0.0048792853758204838 0.0056088393542436821 0.038670173473060218 0.0040194497703790926 0.0013701169108438472 0.025940070754195854 0.00066320770233692697 -0.007029028469419614 7.7314915788994414e-05 -0.026246753971829708 -0.021945373392645927 -0.060354756741460069 0.015882154207628046 -0.010245355032011664 -0.01958231722713516 -0.052979786810896559 -0.00098665584533861607 -0.019431386833329442 0.0016295722816977653 -0.002635108938915492
leaf_weight=248 9915 701 235 582 59 261 7514 266 4748 230 976 312 25 1686 45665 231 5404 3954 6180 340 131 250 127 131 230 128 33915 96 6429 4166
leaf_count=248 9915 701 235 582 59 261 7514 266 4748 230 976 312 25 1686 45665 231 5404 3954 6180 340 131 250 127 131 230 128 33915 96 6429 4166
internal_value=2.51832e-06 -0.00750142 6.09986e-05 -0.000999896 0.000410304 0.00115507 0.000761972 -0.0129205 -0.000509779 -0.0034535 -0.011721 -0.0243648 -0.0344229 6.86491e-05 0.00150198 0.0144558 0.002938 -0.00395689 -0.000707462 -0.0092161 -0.0363899 -0.0459425 -0.00275119 -0.0283918 -0.0258231 -0.0315233 -0.000749576 -0.00054217 0.00116015 -4.8268e-05
internal_weight=135135 1045 134090 33214 100876 19218 18636 527 54745 8992 2242 1266 954 45753 46131 466 10152 13996 6750 570 929 381 10042 548 489 358 35601 797 18109 10595
internal_count=135135 1045 134090 33214 100876 19218 18636 527 54745 8992 2242 1266 954 45753 46131 466 10152 13996 6750 570 929 381 10042 548 489 358 35601 797 18109 10595
cat_boundaries=0 1 2 3 4 5 6 7 8 9 10 11
cat_threshold=16810124 62246918 129031698 11520 8489 17875984 134226088 327876 8456 1 10057
is_linear=0
shrinkage=0.0915111


Tree=31
num_leaves=31
num_cat=25
split_feature=9 10 9 9 10 10 19 9 10 9 9 1 10 9 9 10 9 9 10 9 9 0 15 9 9 1 10 9 10 9
split_gain=2.8611 7.91012 18.1089 7.64887 8.65894 7.20989 6.42047 6.38102 16.2969 6.21342 5.653 5.40116 5.26348 16.7753 14.7619 7.43205 16.6421 12.9323 6.35576 12.5669 6.23732 7.18623 6.00028 8.18987 6.4457 5.77131 5.47259 7.95539 5.29898 12.6966
threshold=0 1 2 3 4 5 45.561100165383571 6 7 8 9 217.66875000000002 10 11 12 13 14 15 16 17 18 258.28125000000006 51.842713556699088 19 20 284.64375000000007 21 22 23 24
decision_type=9 9 9 9 9 9 2 9 9 9 9 2 9 9 9 9 9 9 9 9 9 2 2 9 9 2 9 9 9 9
