tree
version=v4
num_class=1
num_tree_per_iteration=1
label_index=0
max_feature_idx=22
objective=regression
feature_names=base_price total_price diff relative_diff_base relative_diff_total is_featured_sku is_display_sku store_encoded sku_encoded store_id sku_id date end_week_serial month week_serial year weekday weeknum end_weekday end_month end_weeknum end_date end_year
feature_infos=[61.274999999999999:562.16250000000002] [48.450000000000003:562.16250000000002] [-106.875:249.37499999999997] [-0.51515151515151525:0.79331306990881456] [-0.34000000000000008:3.8382352941176463] -1:0:1 -1:0:1 [20.713245542336452:117.98501894501895] [16.914188184696659:98.84331373544488] -1:4:20:63:15:0:33:66:9:35:69:2:32:44:50:48:51:23:24:29:8:17:6:39:31:27:5:74:73:75:12:65:56:70:58:18:38:1:43:19:60:22:64:26:34:37:62:14:13:46:52:72:30:47:54:53:61:71:45:7:67:36:40:68:57:42:11:59:25:10:16:49:3:41:28:55 -1:7:0:13:8:10:5:11:1:2:3:14:12:16:15:18:20:24:9:4:6:21:27:17:25:23:26:19 [40.493269411669417:62.741029114977245] [21.964112956009508:94.366699162906059] [44.959153167006058:60.471934441324997] [21.964112956009508:94.366699162906059] [51.14699693713429:52.49144439492634] [51.096943921826252:52.368868246940146] [38.706855736056603:76.375106276013412] [51.096943921826252:52.368868246940146] [44.562938997184538:59.987631829708754] [39.712039321369772:67.598954187023352] [40.493269411669417:62.741029114977245] [51.193982718471815:52.459405848568387]
tree_sizes=2805 3098 3061 3048 2962 3153 2972 2960 3066 3117 3117 3131 3008 3162 3131 3115 2984 3103 3001 3058 3126 3117 3144 3052 2934 3113 3134 3164 3176 3050 2981 3003 3070 3048 3172 3054 3084 2939 2972 3160 3142 3112 3006 2918 3109 2798 2901 2920 3151 3046 2828 2995 2913 3048 3026 3096 3081 2850 2958 3040 2852 2878 3045 3106 3090 3040 3048 2948 3070 3105 3067 2955 2935 3074 3102 2901 3038 3083 2959 2941 3021 2934 2950 3054 3095 2984 3073 3138 3088 3087 2854 2984 3025 3079 3073 2978 3107 3090 2905 2920 2909 3032 3048 3018 2922 3096 3002 3032 2970 3068 2975 2941 3092 2977 3059 3076 2957 2965 3103 3109 2968 3116 3069 3073 3037 2962 3076 3004 2968 3069 3048 2907 2948 2934 3011 2900 2995 3064 2999 3105 2952 3105 3108 3059 3085 3078 3093 3095 2892 2914 2839 2971 2892 3144 3039 3092 3076 2955 2966 2934 2888 3030 2887 3044 3055 2960 3065 3140 3020 2909 3039 2914 2866 2924 2912 3031 3067 3066 3032 3082 3071 3162 3117 3049 2918 2934 3023 3028 3101 3109 3119 2819 2876 3049 3166 2918 3106 3010 2910 2930 3080 3119 3102 3112 2894 2944 3104 2991 3069 3116 3058 3050 2922 3085 3156 2944 2985 3022 2884 2927 3044 2925 2885 3095 3016 3105 2949 2949 3061 2906 2907 3052 3090 3035 3091 2938 3040 3032 2976 3125 3106 2911 2939 2922 3011 2926 2911 3102 3117 3046 2986 3113 3065 2852 2919 2912 3097 3089 3095 3079 2985 3003 3056 3044 2958 2878 3129 2918 2958 3094 3141 3100 2960 2975 2948 3035 3102 3099 3113 2919 2930 2899 2956 3063 2849 2961 2906 3076 2885 2998 3119 3065 3079 3002 3115 3103 2954 3135 3011 3019 2938 2998 3079 3051 3078 3040 3086 3037 3109 3052 2990 2964 2915 2915 3088 2842 2892 3087 3078 3073 2970 2952 2908 3068 2944 3096 2941 3039 2924 2949 2934 2912 3098 3124 2864 3007 2945 2938 3039 3115 3037 2976 2946 3147 2938 3028 2950 2990 3121 3140 3073 2916 3023 2982 3074 2949 3106 3028 2892 2876 3013 2993 3078 2946 2914 2985 3093 2916 3119 2988 2931 2931 2981 2903 2982 3121 2903 3089 3089 2909 3122 2995 2992 2994 2948 2959 3013 3017 3123 2885 3115 3018 2900 2924 3033 2999 2966 2825 3086 3053 3093 2907 2953 2964 3084 2914 3056 3078 2975 3071 2998 3060 3060 2846 3037 2980 2939 2947 2960 3067 2987 3014 2890 3014 3123 3020 3082 2998 3049 2938 2923 2882 3059 3123 3014 3063 2954 3114 2932 3063 3008 3042 3131 2906 3056 3086 2947 2909 2893 3044 2926 2980 3098 3013 2931 2984 3093 2954 2920 3057 2972 3061 3150 2967 2901 3108 2993 3065 2930 2943 2922 3025 2997 2996 3068 3083 2954 2941 3068 2939 3008 2963 2911 2939 3078 2990 3082 2987 3002 2999 3125 3186 3011 2940 2947 2951 2893 3010 2967 2908 3140 2971 3029 3068 3007 2924 2997 2891 2936 3015 2938 2827 2943 2960 2959 3093 2946 3126 3103 2870 2988 3089 3121 3120 3107 2991 2975 2942 2942 3062 3064 2940 2999 2974 3133 3053 2942 2966 3083 3011 3072 3006 3136 2965 2969 2964 3088 2845 3120 2909 3041 2920 3190 2963 3041 3092 3079 3033 2924 2889 2968 3159 3040 3102 3045 2974 3014 3067 3027 3107 3038 2904 2924 3110 3075

Tree=0
num_leaves=31
num_cat=12
split_feature=8 7 6 3 6 10 8 7 10 7 7 7 7 10 10 1 0 6 8 10 7 7 12 7 3 10 10 3 10 10
split_gain=19871.2 10430.5 4526.1 4112.06 2743.12 2136.81 1669.11 1514.68 1497 929.992 840.418 827.059 778.84 611.181 564.767 553.199 535.237 496.869 495.358 482.672 341.94 331.894 326.823 325.687 325.549 321.021 287.687 273.832 267.318 262.206
threshold=39.708180425858949 51.44843822863352 0 1.0000000180025095e-35 1 2 93.862546249527099 40.586359321892537 3 50.610171884367652 44.16219437820245 76.436232621604887 76.436232621604887 4 5 226.93125000000001 205.55625000000001 6 47.154161696280447 7 66.035000790861275 27.562016838123711 65.367992266354335 68.498479463233579 0.25153466651602457 8 9 0.32921094884930041 10 11
decision_type=2 2 1 2 1 9 2 2 9 2 2 2 2 9 9 2 2 1 2 9 2 2 2 2 2 9 9 2 9 9
left_child=3 2 6 8 5 11 7 15 10 17 -1 -3 26 22 27 21 23 -5 -6 -11 28 -2 -4 -12 -20 -23 -7 -9 -10 -22
right_child=1 4 13 9 18 12 -8 14 20 19 16 -13 -14 -15 -16 -17 -18 -19 24 -21 29 25 -24 -25 -26 -27 -28 -29 -30 -31
leaf_value=0.71553576103232475 0.71839127021558991 0.87214060030570695 0.9043206686753289 0.73337454974353189 0.87005374381558831 0.82965915644126254 0.84144951073580909 0.76315301639560096 0.70065034493233114 0.84949545503443269 0.77378384264066169 0.93282756839038528 0.86523940259285137 0.85949445803909685 0.8121370702299392 0.72860863446291491 0.74140580421709923 0.79653138211456187 0.94361126471287537 0.78313943333985525 0.74990317925475225 0.74123008976940075 1.0000886498014632 0.84779022022426487 1.0183081183691429 0.77873410291865286 0.79273079065749852 0.94703244215744875 0.66730353501834072 0.69401731730597949
leaf_weight=10091 1581 8195 1274 3344 943 5816 5158 4558 6133 3492 2410 4116 5330 3868 12661 6088 5972 2786 3708 2166 1970 3475 660 1038 881 14001 4622 101 6436 2261
leaf_count=10091 1581 8195 1274 3344 943 5816 5158 4558 6133 3492 2410 4116 5330 3868 12661 6088 5972 2786 3708 2166 1970 3475 660 1038 881 14001 4622 101 6436 2261
internal_value=0.792179 0.823667 0.793338 0.735202 0.871876 0.857869 0.782116 0.774909 0.7168 0.791885 0.737713 0.892349 0.830861 0.885447 0.800044 0.757595 0.761412 0.762078 0.942968 0.824178 0.692605 0.766855 0.936258 0.796063 0.957952 0.77124 0.813344 0.767193 0.683403 0.719706
internal_weight=135135 87036 53425 48099 33611 28079 47623 42465 36311 11788 19511 12311 15768 5802 17320 25145 9420 6130 5532 5658 16800 19057 1934 3448 4589 17476 10438 4659 12569 4231
internal_count=135135 87036 53425 48099 33611 28079 47623 42465 36311 11788 19511 12311 15768 5802 17320 25145 9420 6130 5532 5658 16800 19057 1934 3448 4589 17476 10438 4659 12569 4231
cat_boundaries=0 1 2 3 4 5 6 7 8 9 10 11 12
cat_threshold=1 1 1190 9699912 12416 69888 1 33865736 65568 10241 16400 151011328
is_linear=0
shrinkage=0.220914


Tree=1
num_leaves=31
num_cat=21
split_feature=8 9 2 2 9 2 10 1 9 10 8 10 9 9 10 9 4 9 4 10 9 9 9 10 9 8 6 9 9 9
split_gain=4975.79 3365.33 1237.65 1225.99 1185.59 1116.07 890.334 770.434 666.078 446.73 419.317 356.13 321.453 309.292 293.133 288.995 285.6 271.401 255.225 244.5 266.311 223.002 207.491 197.115 282.779 182.634 179.524 172.249 149.957 146.905
threshold=39.708180425858949 0 124.33125000000003 1.0000000180025095e-35 1 1.0000000180025095e-35 2 236.90625000000003 3 4 70.325979842441498 5 6 7 8 9 0.43457706497006648 10 0.51270110986836437 11 12 13 14 15 16 21.90643572527344 17 18 19 20
decision_type=2 9 2 2 9 2 9 2 9 9 2 9 9 9 9 9 2 9 2 9 9 9 9 9 9 2 1 9 9 9
left_child=2 5 4 8 23 6 15 17 10 16 -3 29 -11 -13 22 -2 27 -6 21 20 -9 -7 -10 24 -1 -19 -27 -5 -25 -8
right_child=1 3 -4 9 7 18 11 19 14 12 -12 13 -14 -15 -16 -17 -18 25 -20 -21 -22 -23 -24 28 -26 26 -28 -29 -30 -31
leaf_value=-0.066050490984506494 0.067546062167963689 -0.010161211609967807 0.038136876518025137 0.0030897923571292537 0.0078969401351877914 0.08569350236359298 0.0028181187668637861 -0.057242889137217694 -0.037721917344131529 0.028702588287758658 0.021942416028708344 0.041423893399840372 -0.011969356776871025 0.0098533437269483475 -0.040549494915578216 0.034128494387468289 0.09133671840862613 -0.063001063399845347 0.10829593043897304 -0.0643575586414116 -0.016488534858180689 0.049130520007922458 -0.00099684933920477013 -0.046438720102999063 -0.027214310872129881 -0.017167634652166565 0.025545258601179864 0.057219317883824956 -0.077747433767420451 -0.048662970685247414
leaf_weight=3136 4836 13942 2868 1095 7656 2365 1057 2480 2309 4530 5855 4233 3473 12241 8846 5917 1307 793 1209 3130 4762 6534 4772 2650 4943 10318 1104 1318 4259 1197
leaf_count=3136 4836 13942 2868 1095 7656 2365 1057 2480 2309 4530 5855 4233 3473 12241 8846 5917 1307 793 1209 3130 4762 6534 4772 2650 4943 10318 1104 1318 4259 1197
internal_value=-8.35218e-06 0.0143523 -0.0259943 -0.00373277 -0.0300607 0.036019 0.0261305 -0.0185653 -0.0130037 0.0245158 -0.000666167 0.012848 0.0110596 0.0179856 -0.0283209 0.0492063 0.0532918 -0.00696269 0.0648953 -0.0408119 -0.0305044 0.058999 -0.0130086 -0.0532083 -0.0423522 -0.0162694 -0.0130392 0.0329057 -0.0658232 -0.0246154
internal_weight=135135 87036 48099 47447 45231 39589 29481 30243 35724 11723 19797 18728 8003 16474 15927 10753 3720 19871 10108 10372 7242 8899 7081 14988 8079 12215 11422 2413 6909 2254
internal_count=135135 87036 48099 47447 45231 39589 29481 30243 35724 11723 19797 18728 8003 16474 15927 10753 3720 19871 10108 10372 7242 8899 7081 14988 8079 12215 11422 2413 6909 2254
cat_boundaries=0 3 6 7 10 11 12 15 18 19 22 25 26 29 32 35 36 39 40 43 46 49
cat_threshold=2912326517 2769035328 1607 2453740678 693144301 1672 166 4218882 270783631 2472 12672 4096 4218882 304305327 2224 553648929 2147483648 2 8323 2165440801 2215378944 1090 17187329 2519015440 295 67158032 17580080 369250560 2048 2164261153 2148007936 2 268437512 8389136 16 49736 302057600 5245484 512 1 1078529162 42092340 16 37748736 2153 512 546341461 0 518
is_linear=0
shrinkage=0.100672


Tree=2
num_leaves=31
num_cat=23
split_feature=5 10 9 10 9 12 10 9 9 10 9 8 10 9 12 12 9 6 0 9 10 9 10 9 1 9 9 9 0 9
split_gain=2182.55 1518.05 1175.44 553.541 379.401 363.447 327.37 309.606 280.178 219.116 204.106 195.771 187.378 174.972 160.988 150.297 148.477 142.231 134.058 96.8577 94.0482 90.3302 88.6561 132.522 85.6479 81.0121 80.0533 79.1058 77.4754 71.7468
threshold=0 1 2 3 4 34.999026749112957 5 6 7 8 9 80.520461747512357 10 11 58.644716404285376 34.999026749112957 12 13 89.418750000000017 14 15 16 17 18 365.15625000000006 19 20 21 201.99375000000001 22
decision_type=1 9 9 9 9 2 9 9 9 9 9 2 9 9 2 2 9 1 2 9 9 9 9 9 2 9 9 9 2 9
left_child=1 2 5 14 12 -1 21 -3 -8 16 24 15 -4 18 27 -6 -9 -11 -13 20 -10 -7 23 -17 -5 -24 -16 -2 -20 -19
right_child=3 7 4 10 11 6 8 9 19 17 -12 13 -14 -15 26 22 -18 29 28 -21 -22 -23 25 -25 -26 -27 -28 -29 -30 -31
leaf_value=-0.080790027724895602 0.037018303359465841 -0.043004968859016515 -0.015676821796614237 0.063911197819546267 -0.084948341658205584 0.014115928658130491 0.058834426667590305 -0.015378623634438435 0.021490113934302724 -0.015492437628678735 0.0035444886677905773 -0.052745163860869741 -0.054762518328386828 0.035305675168344201 0.14303615575598083 0.0085978841785346108 -0.059247434788212136 -0.0096171979036616725 0.033562452891107937 0.023458760801544878 -0.0016358067890568997 0.075033966137946675 0.0033328884053132686 -0.049988122181571983 0.0039408633869948652 -0.012251320764627809 0.086494356485370225 0.078411043786424522 -0.021487648348056373 0.040528577899258539
leaf_weight=614 1293 14456 4732 2295 467 558 3193 2449 5520 18291 3630 883 4396 4034 927 1118 3491 864 1158 16516 7899 2816 12389 1972 545 12273 1265 2948 799 1344
leaf_count=614 1293 14456 4732 2295 467 558 3193 2449 5520 18291 3630 883 4396 4034 927 1118 3491 864 1158 16516 7899 2816 12389 1972 545 12273 1265 2948 799 1344
internal_value=-1.10359e-05 -0.00562616 0.00512073 0.0531819 -0.0098558 0.022962 0.0247135 -0.0269956 0.0205815 -0.0182292 0.0249577 -0.0034273 -0.0345396 0.0171514 0.0814031 -0.00844138 -0.041217 -0.0115511 -0.00872887 0.016483 0.00788612 0.0650307 -0.00715395 -0.0288316 0.0522189 -0.00442439 0.111453 0.0660634 0.0110867 0.0210463
internal_weight=135135 122232 81337 12903 44221 37116 36502 40895 33128 26439 6470 35093 9128 6874 6433 28219 5940 20499 2840 29935 13419 3374 27752 3090 2840 24662 2192 4241 1957 2208
internal_count=135135 122232 81337 12903 44221 37116 36502 40895 33128 26439 6470 35093 9128 6874 6433 28219 5940 20499 2840 29935 13419 3374 27752 3090 2840 24662 2192 4241 1957 2208
cat_boundaries=0 1 2 5 6 8 9 12 15 16 19 20 23 26 27 30 31 34 35 37 40 43 46 49
cat_threshold=1 273839 2903905075 2234265672 1479 277894 302058624 146801408 2 3225487502 863651309 1744 1 2147483648 2 237666304 3847491875 3794640912 1515 8357 1073750024 1611826180 2072 545788481 2147549184 259 1 201331202 85987336 69 2212 0 2097152 389 8 4202504 570590228 1082171468 536952980 2592 2165748001 2704121920 3578 310972040 1456472996 16 680063600 1207965712 2049
is_linear=0
shrinkage=0.13599


Tree=3
num_leaves=31
num_cat=22
split_feature=6 10 9 9 9 9 8 10 14 10 9 9 1 10 9 10 9 9 14 10 0 9 1 9 1 9 7 10 10 9
split_gain=544.571 439.609 305.578 183.785 154.531 131.351 112.445 108.26 105.4 94.3774 146.892 100.686 92.2781 90.7452 128.238 133.543 73.9944 68.2859 64.9 61.828 59.7466 55.7499 55.3399 61.8062 77.9579 52.396 51.547 55.1981 48.2917 44.8438
threshold=0 1 2 3 4 5 80.520461747512357 6 38.734802611181927 7 8 9 212.68125000000001 10 11 12 13 14 37.986095714630203 15 205.55625000000001 16 199.14375000000004 17 107.23125000000002 18 21.288824874620332 19 20 21
decision_type=1 9 9 9 9 9 2 9 2 9 9 9 2 9 9 9 9 9 2 9 2 9 2 9 2 9 2 9 9 9
left_child=1 2 8 19 -3 26 18 -5 -1 10 -6 -11 13 21 15 -15 -9 -14 -7 29 -16 -10 23 24 -8 -17 -4 -28 -18 -2
right_child=3 4 5 7 9 6 22 16 12 11 -12 -13 17 14 20 25 28 -19 -20 -21 -22 -23 -24 -25 -26 -27 27 -29 -30 -31
leaf_value=-0.025199248512460349 0.074751617433038223 -0.029278752298190741 -0.054468834254453341 0.042905004802507786 0.018551057380644581 -0.039690732980453454 -0.01372045696900934 -0.0091942539346010054 0.052150491301645528 -0.0043283223286046746 -0.010824499577489889 -0.028316128404351611 0.015804901348035957 0.027157285983150609 0.023859769766389986 -0.026147901045722455 0.00061054659694998088 -0.0035169865238563755 -0.0039095541506389197 0.022098595773588459 0.002187813951353622 0.020507970886430464 -0.0064266870189712746 0.033875309371629254 0.031765156083168156 -0.0010808619239117947 -0.045112303239767407 -0.012510652920186245 0.02018213431604134 0.04081128739995097
leaf_weight=1247 855 8585 559 1501 3474 784 1336 2858 1471 4476 9752 6471 4045 1914 10412 2016 2870 8623 30811 1978 2352 2056 1616 2360 989 3331 870 7532 5671 2320
leaf_count=1247 855 8585 559 1501 3474 784 1336 2858 1471 4476 9752 6471 4045 1914 10412 2016 2870 8623 30811 1978 2352 2056 1616 2360 989 3331 870 7532 5671 2320
internal_value=7.30109e-06 -0.00305401 0.00163697 0.0198613 -0.0151252 -0.0049735 -0.00180949 0.0119964 0.00990328 -0.0100885 -0.0031004 -0.0185209 0.0111145 0.0156607 0.0124401 -0.000596368 0.00789236 0.00266236 -0.00479743 0.0394504 0.0198508 0.0338152 0.01317 0.0199295 0.00560394 -0.0105632 -0.0183371 -0.015955 0.013614 0.0501571
internal_weight=135135 117082 84324 18053 32758 46857 37896 12900 37467 24173 13226 10947 36220 23552 20025 7261 11399 12668 31595 5153 12764 3527 6301 4685 2325 5347 8961 8402 8541 3175
internal_count=135135 117082 84324 18053 32758 46857 37896 12900 37467 24173 13226 10947 36220 23552 20025 7261 11399 12668 31595 5153 12764 3527 6301 4685 2325 5347 8961 8402 8541 3175
cat_boundaries=0 1 2 5 8 11 14 15 16 19 22 23 26 27 30 33 34 37 40 43 44 45 48
cat_threshold=1 8666543 3976626997 2687242436 3527 2264924417 2148443145 54 2457995266 947030095 392 268438536 146801184 16 1664 1131072 89166337 67371024 530 538714433 3288400256 33 6528 33284 536875200 2309 8659968 8456708 283132068 640 131841 2684354560 3330 16803502 537035281 2147483648 3334 614464 1343465728 8 512 0 2308 2048 53969153 1 524289 2
is_linear=0
shrinkage=0.12281


Tree=4
num_leaves=31
num_cat=10
split_feature=14 2 10 10 14 7 7 13 2 14 10 7 10 8 21 15 8 2 22 10 10 7 10 10 21 10 21 22 15 10
split_gain=245.103 220.916 149.142 121.302 89.9156 78.2353 66.0163 60.2009 47.9622 51.9937 45.4953 48.414 60.5309 54.2081 44.9227 41.0815 46.8769 38.3261 37.3582 44.6657 34.9565 33.9385 32.8954 31.5876 48.1806 31.3982 28.9833 27.2813 26.3448 26.1701
threshold=27.129630197388817 12.112500000000006 0 1 53.323595714630208 100.71606593220417 36.339654064848951 58.261625396095958 80.156250000000028 68.530923300837102 2 55.793498292574363 3 46.101411212096046 50.926678058907946 51.17048982780306 50.417695072270369 142.85625000000007 51.830694193713889 4 5 28.773186707320523 6 7 50.578056335308808 8 52.287648846094534 51.197982628665606 51.842713556699088 9
decision_type=2 2 9 9 2 2 2 2 2 2 9 2 9 2 2 2 2 2 2 9 9 2 9 9 2 9 2 2 2 9
left_child=22 2 5 6 17 10 -3 14 -8 -10 21 13 15 -12 23 16 -13 20 -15 -20 28 -2 -1 24 -4 -9 -6 29 -5 -27
right_child=1 3 7 4 26 -7 8 25 9 -11 11 12 -14 18 -16 -17 -18 -19 19 -21 -22 -23 -24 -25 -26 27 -28 -29 -30 -31
leaf_value=-0.033600289924850563 -0.017392329379994829 0.0038292129005986272 -0.018753522936974958 -0.01142735069775988 0.0031253477022403246 0.025404068331815681 0.016280218359530783 -0.012075757637424994 0.028453259482207043 0.083052830871384292 -0.021679687910358871 0.046810127635682645 -0.0020577104631766697 -0.0058605088265778803 -0.0054604338530941507 0.0058295963418437784 0.012097791661139164 0.020398137373085878 -0.0081494113812278241 0.0081602787340450903 -0.020902436159154096 0.0068581054751222026 -0.077026039977517224 -0.010929485719417934 -0.06246732555578717 0.0078807686754820867 0.018887853889727784 0.010524510857644259 0.009171194994519594 -0.034236267483282887
leaf_weight=534 807 4879 3504 2150 3285 1771 10497 1487 2075 262 2120 875 7818 16805 18399 3401 1275 558 3277 7025 2751 16670 507 12619 372 397 2956 4334 1347 378
leaf_count=534 807 4879 3504 2150 3285 1771 10497 1487 2075 262 2120 875 7818 16805 18399 3401 1275 558 3277 7025 2751 16670 507 12619 372 397 2956 4334 1347 378
internal_value=1.03605e-05 0.000443727 -0.00211383 0.00903547 0.000578586 0.00148019 0.0152557 -0.00746953 0.0196115 0.0345744 0.000775139 -0.00126095 0.00449564 -0.00389456 -0.009384 0.0137044 0.0262249 -0.00860192 -0.00250361 0.00297228 -0.0111919 0.00573506 -0.0558127 -0.0137605 -0.0228899 0.002647 0.0105911 0.00694218 -0.00348309 -0.0130015
internal_weight=135135 134094 103334 30760 13047 61844 17713 41490 12834 2337 60073 42596 13369 29227 34894 5551 2150 6806 27107 10302 6248 17477 1041 16495 3876 6596 6241 5109 3497 775
internal_count=135135 134094 103334 30760 13047 61844 17713 41490 12834 2337 60073 42596 13369 29227 34894 5551 2150 6806 27107 10302 6248 17477 1041 16495 3876 6596 6241 5109 3497 775
cat_boundaries=0 1 2 3 4 5 6 7 8 9 10
cat_threshold=77223 9722543 1154 67616 2080 218105104 277543 78168064 136970248 8409168
is_linear=0
shrinkage=0.11549


Tree=5
num_leaves=31
num_cat=23
split_feature=12 3 0 9 9 10 10 9 10 9 9 0 9 10 9 9 9 9 10 9 9 10 10 9 9 9 7 0 10 0
split_gain=124.151 96.0205 90.1252 128.539 99.4948 84.7081 63.3518 77.2134 60.0242 69.4829 62.4021 56.7572 65.6973 104.412 89.8909 82.4047 62.9552 48.8675 44.5847 38.4631 38.2234 70.9384 37.7033 73.2616 51.9862 37.4734 34.4064 28.6726 27.353 26.8557
threshold=49.356354335319857 0.22577451293516451 212.68125000000001 0 1 2 3 4 5 6 7 225.50625000000005 8 9 10 11 12 13 14 15 16 17 18 19 20 21 30.39509669223062 284.64375000000007 22 236.90625000000003
decision_type=2 2 2 9 9 9 9 9 9 9 9 2 9 9 9 9 9 9 9 9 9 9 9 9 9 9 2 2 9 2
left_child=2 6 4 5 -1 25 11 18 10 -10 -6 12 -2 15 -15 -14 27 -3 29 -16 -5 -22 24 -24 -9 -4 -11 -13 -28 -8
right_child=1 17 3 20 8 -7 7 22 9 26 -12 16 13 14 19 -17 -18 -19 -20 -21 21 -23 23 -25 -26 -27 28 -29 -30 -31
leaf_value=0.0088906596436453406 0.01751007899432936 0.03321188119391455 -0.070477382077787087 0.0011689640916024337 -0.011241057111578516 -0.016421674562124962 0.022300068247260905 0.016637226119161422 -0.0018744463621571919 -0.081835196943865651 0.02108294698135035 -0.019243096827538414 0.03970598597131858 0.0072972073298996068 -0.0075173588552510592 0.0050172779768774562 0.0056176138813243248 0.0099595267604971702 -0.021239626655952817 -0.033048912483966256 -0.0010224517492415288 -0.023387028335746178 -0.030442059406368897 0.0045732927413992801 -0.00079608911774193376 -0.031947482902870132 -0.046675094876967922 -0.16672642786346234 -0.016094239928359018 -0.014377544164013106
leaf_weight=15486 11190 2928 937 11339 1983 5660 852 5130 8798 175 2815 2877 2210 5350 2540 3399 4739 4508 5488 2134 6699 4727 1882 3051 9572 1174 630 26 6116 720
leaf_count=15486 11190 2928 937 11339 1983 5660 852 5130 8798 175 2815 2877 2210 5350 2540 3399 4739 4508 5488 2134 6699 4727 1882 3051 9572 1174 630 26 6116 720
internal_value=-1.92297e-06 0.00417178 -0.00430465 -0.00989181 0.0004341 -0.0254053 0.00234784 -0.00276495 -0.00595025 -0.0101276 0.00772793 0.00630694 0.00933717 0.00347364 -0.00507406 0.0187313 -0.00432076 0.0191734 -0.0152939 -0.0192199 -0.00458298 -0.0102872 0.00174547 -0.00882005 0.00529413 -0.0493012 -0.0206011 -0.0204934 -0.0190432 0.00546639
internal_weight=135135 68596 66539 30536 36003 7771 61160 26695 20517 15719 4798 34465 26823 15633 10024 5609 7642 7436 7060 4674 22765 11426 19635 4933 14702 2111 6921 2903 6746 1572
internal_count=135135 68596 66539 30536 36003 7771 61160 26695 20517 15719 4798 34465 26823 15633 10024 5609 7642 7436 7060 4674 22765 11426 19635 4933 14702 2111 6921 2903 6746 1572
cat_boundaries=0 3 6 7 8 11 12 15 18 21 22 25 28 31 34 35 38 41 42 43 46 49 51 52
cat_threshold=71638026 717378588 528 760618785 118305052 598 3158144 15591 1342769286 139610415 168 8404112 2148114578 3760342240 3105 3490250954 3760342560 161 3377732883 69017947 1142 13504 67838120 2736936100 129 838918660 138447360 264 928325128 2403350044 20 2164547943 1208854600 1419 2130448 545292864 1212155904 2560 3767059029 269516931 2351 201608976 159760648 2374107424 2165047296 1602 687890729 3271820288 531 71567368 41944080 16842752
is_linear=0
shrinkage=0.139811


Tree=6
num_leaves=31
num_cat=3
split_feature=5 8 0 0 12 19 7 21 6 12 21 17 17 13 21 12 2 6 3 13 13 12 8 8 17 12 0 8 0 22
split_gain=123.367 97.1261 57.2557 51.2311 43.8088 43.0228 41.0696 36.8354 28.7913 31.2723 26.2488 27.3838 24.1454 23.3401 22.8816 20.3273 22.4157 20.21 30.2023 19.1272 24.2963 23.715 33.4574 51.1363 19.5161 20.2808 18.3731 18.0307 16.4195 20.0383
threshold=0 63.260713028541069 505.87500000000006 70.893750000000011 27.129630197388817 58.861157098733614 34.102338579787563 52.059432629878316 1 58.644716404285376 51.546220715541828 59.481369774933505 53.672729403161689 54.222243669286975 47.104349242094436 45.186526749112964 9.9749999999999996 2 0.44786405723905737 49.066406759603431 50.129489435915694 45.5205784732509 46.101411212096046 70.325979842441498 66.311778394516168 90.506785369802628 234.05625000000001 21.90643572527344 170.64375000000004 51.197982628665606
decision_type=1 2 2 2 2 2 2 2 1 2 2 2 2 2 2 2 2 1 2 2 2 2 2 2 2 2 2 2 2 2
left_child=2 5 3 -1 -5 14 26 -7 9 -3 11 12 -8 -13 -2 16 -16 18 -17 -12 21 22 -21 -24 -22 -26 27 -6 29 -29
right_child=1 8 -4 4 6 7 10 -9 -10 -11 19 13 -14 -15 15 17 -18 -19 -20 20 24 -23 23 -25 25 -27 -28 28 -30 -31
leaf_value=0.021253950783577138 -0.010161836865220998 0.031047187841869238 -0.032312195960170008 -0.025912483835855534 -0.02545182670911595 -0.032061100594423436 -0.0018620248402947829 0.025380938001043015 0.019980998202882651 0.073400596649157906 -0.0029425141258526285 -0.018297440348124874 0.0057171475153683701 -0.0034325987768578097 -0.077132430136791344 0.017242001270243505 -0.0030977308686857196 0.0063532463071053376 0.095912761179860279 0.018014023904023416 0.00032948413175651136 0.010850074679783172 -0.053188126386834442 0.031979500784090537 0.013800319023318052 -0.0074642251408409393 -0.01245022180558817 -0.018857516390095776 0.0006249686938679549 -0.0038999910291372328
leaf_weight=1416 910 871 808 982 519 704 42054 197 2114 332 8425 2360 6722 3804 62 2708 623 4313 69 344 23660 7597 354 134 3000 779 4540 1587 7580 5567
leaf_count=1416 910 871 808 982 519 704 42054 197 2114 332 8425 2360 6722 3804 62 2708 623 4313 69 344 23660 7597 354 134 3000 779 4540 1587 7580 5567
internal_value=-5.20505e-06 0.0109146 -0.00115792 -0.000950608 -0.0012126 0.00492182 -0.00100882 -0.0195016 0.0282336 0.0427357 -3.46836e-05 -0.00174944 -0.000817511 -0.00912387 0.00745556 0.00951753 -0.00979868 0.0113838 0.0191967 0.00209227 0.00327488 0.00878888 -0.0100319 -0.0298019 0.00158103 0.00941686 -0.00589271 -0.00394089 -0.00318317 -0.00721808
internal_weight=135135 12903 122232 121424 120008 9586 119026 901 3317 1203 99233 54940 48776 6164 8685 7775 685 7090 2777 44293 35868 8429 832 488 27439 3779 19793 15253 14734 7154
internal_count=135135 12903 122232 121424 120008 9586 119026 901 3317 1203 99233 54940 48776 6164 8685 7775 685 7090 2777 44293 35868 8429 832 488 27439 3779 19793 15253 14734 7154
cat_boundaries=0 1 2 3
cat_threshold=1 1 1
is_linear=0
shrinkage=0.117423


Tree=7
num_leaves=31
num_cat=8
split_feature=8 7 2 3 10 3 7 10 1 10 7 7 10 10 1 10 7 10 7 3 7 7 1 7 1 3 7 7 1 10
split_gain=1616.44 913.646 429.57 418.685 278.64 276.407 260.991 196.154 144.702 128.463 118.929 116.95 114.159 103.88 83.2865 142.327 90.3184 82.505 71.2196 59.1928 59.1888 58.2667 55.3335 53.1026 44.5279 43.2313 42.9942 41.6578 223.536 85.6675
threshold=39.708180425858949 44.16219437820245 130.03125000000006 0.03586986490212301 0 0.14485195564761791 35.164835434264312 1 225.50625000000005 2 68.498479463233579 68.498479463233579 3 4 236.90625000000003 5 86.77776662511458 6 76.436232621604887 0.29487869046576692 44.003249261204211 31.522378518072411 227.64375000000004 33.314449208983113 375.84375000000006 0.32174942636163634 66.035000790861275 55.793498292574363 177.05625000000001 7
decision_type=2 2 2 2 9 2 2 9 2 9 2 2 9 9 2 9 2 9 2 2 2 2 2 2 2 2 2 2 2 9
left_child=2 5 6 4 10 8 12 24 13 22 26 19 -1 23 16 20 27 25 -11 -5 -16 -15 -6 -2 -8 -7 -3 29 -29 -9
right_child=1 3 -4 11 9 17 7 14 -10 18 -12 -13 -14 21 15 -17 -18 -19 -20 -21 -22 -23 -24 -25 -26 -27 -28 28 -30 -31
leaf_value=-0.0078193280620052347 -0.0030165108438977017 0.012735499091691822 0.017305186674327268 0.015572075742487854 -0.0012336780810213259 0.012607661663402568 -0.014613667527928592 -0.010736173225609089 -0.01095892859948633 0.0032430363493801892 0.025396492702909418 0.033058946164189147 -0.0249344624480002 -0.012792970412937229 -0.017647289606049586 -0.029195411483829675 0.011893420750326265 0.0064751799569594424 0.012707869822333148 0.0320533061798235 -0.0049930723464721941 -0.0026171319511481225 -0.021743315638893892 0.0076125545569299628 -0.029840006125005463 0.033549898246095694 -0.01096107150714758 0.0037681756858559826 -0.02044309135881308 0.00010181385779409659
leaf_weight=2287 3042 7823 2457 5494 1234 852 1438 4991 9212 13674 4277 3821 7404 3002 2231 1755 1356 5221 4734 1169 6120 14565 1101 6568 2076 893 354 2954 3932 9098
leaf_count=2287 3042 7823 2457 5494 1234 852 1438 4991 9212 13674 4277 3821 7404 3002 2231 1755 1356 5221 4734 1169 6120 14565 1101 6568 2076 893 354 2954 3932 9098
internal_value=4.38819e-07 0.00540781 -0.0097843 0.0121965 0.00853731 -0.0014319 -0.0112426 -0.00863144 -0.00375536 0.00380873 0.0163969 0.0237831 -0.0209292 -0.00131361 -0.0070067 -0.0120185 -0.00474174 0.0107053 0.00567403 0.0184636 -0.00836368 -0.00435359 -0.0108579 0.00424356 -0.0235421 0.0231919 0.0117096 -0.00581718 -0.0100568 -0.00374507
internal_weight=135135 87036 48099 43681 33197 43355 45642 35951 36389 20743 12454 10484 9691 27177 32437 10106 22331 6966 18408 6663 8351 17567 2335 9610 3514 1745 8177 20975 6886 14089
internal_count=135135 87036 48099 43681 33197 43355 45642 35951 36389 20743 12454 10484 9691 27177 32437 10106 22331 6966 18408 6663 8351 17567 2335 9610 3514 1745 8177 20975 6886 14089
cat_boundaries=0 1 2 3 4 5 6 7 8
cat_threshold=166 103415808 4096 33344 8322 49152 4480 150994952
is_linear=0
shrinkage=0.0665077


Tree=8
num_leaves=31
num_cat=14
split_feature=9 8 9 9 5 8 9 12 8 9 9 7 8 8 9 8 9 8 9 8 9 9 3 16 9 8 8 9 8 7
split_gain=109.951 99.232 93.9295 71.735 47.14 38.7133 51.5352 34.4071 34.2232 30.8941 26.7337 26.6102 48.1897 25.8142 48.2336 24.5746 38.7535 57.0527 26.2803 24.3731 23.6767 23.6397 27.4861 22.2408 23.8577 21.1556 21.1234 43.0864 20.8001 19.1125
threshold=0 28.502998141779944 1 2 3 46.101411212096046 4 43.021009507733652 80.520461747512357 5 6 32.846580359531181 70.325979842441498 46.101411212096046 7 33.637043238392316 8 31.565253353489251 9 46.101411212096046 10 11 0.3769030070657105 51.73290608438321 12 18.851987422911439 31.565253353489251 13 25.951021561839916 43.383727002556789
decision_type=9 2 9 9 1 2 9 2 2 9 9 2 2 2 9 2 9 2 9 2 9 9 2 2 9 2 2 9 2 2
left_child=5 2 20 8 11 6 -1 -7 15 -10 -9 12 -5 14 -13 16 17 -3 19 -17 -2 22 25 24 -8 -4 29 -28 -27 -26
right_child=1 3 21 4 -6 7 23 10 9 -11 -12 13 -14 -15 -16 18 -18 -19 -20 -21 -22 -23 -24 -25 26 28 27 -29 -30 -31
leaf_value=-0.030273561206290937 0.023867290470875126 -0.02272478361369424 0.038395091354603485 0.021263297422049916 0.01628530022402204 -0.015147252902779478 -0.02294951761013847 0.0058516151577752565 0.052912208609023001 0.017896141476090904 -0.004035285496669678 0.0057780281401415652 -0.10884005075533044 0.0028230237898250665 -0.013517587765738933 -0.035031991452286457 0.03181772297882321 0.029057735482692162 0.0090785911285813474 0.0003672809765555466 0.0042050978427392808 -0.0080293400598691594 0.13038207131612078 -0.00075779388999245635 0.015540907417951728 -0.033745291675285165 0.005538337291254883 -0.040964426681231389 -0.011304862778141574 -0.031514011674067123
leaf_weight=2465 1648 819 108 104 4027 3988 2764 7318 587 2942 19005 4374 117 30110 5845 470 2106 827 15575 1884 4198 13099 23 4632 1094 1871 845 699 1394 197
leaf_count=2465 1648 819 108 104 4027 3988 2764 7318 587 2942 19005 4374 117 30110 5845 470 2106 827 15575 1884 4198 13099 23 4632 1094 1871 845 699 1394 197
internal_value=-3.60676e-06 0.00270664 -0.00535968 0.00528931 0.0019343 -0.00580867 -0.0122569 -0.00310968 0.0112165 0.0239212 -0.00128596 0.000509587 -0.0476149 0.000773306 -0.00526613 0.00915374 0.0193884 0.00327243 0.00701192 -0.0066722 0.0097792 -0.0107245 -0.021066 -0.00787883 -0.0137841 -0.0221612 -0.00475044 -0.0157438 -0.0241643 0.00836057
internal_weight=135135 92128 22341 69787 44577 43007 12696 30311 25210 3529 26323 40550 221 40329 10219 21681 3752 1646 17929 2354 5846 16495 3396 10231 5599 3373 2835 1544 3265 1291
internal_count=135135 92128 22341 69787 44577 43007 12696 30311 25210 3529 26323 40550 221 40329 10219 21681 3752 1646 17929 2354 5846 16495 3396 10231 5599 3373 2835 1544 3265 1291
cat_boundaries=0 3 6 9 10 13 16 19 22 25 28 31 34 37 40
cat_threshold=1443433610 1793116981 152 320001 73728 295 2702311685 2416705536 582 1 33556480 138412036 8 536870913 0 4 2 673187845 8 138428512 16782536 3072 2147614980 524288 66 536870912 0 4 0 73728 289 2168586272 16777280 1088 268435586 1610648065 128 67174408 35651600 16
is_linear=0
shrinkage=0.139067


Tree=9
num_leaves=31
num_cat=25
split_feature=1 9 9 10 10 9 9 9 10 9 10 9 1 10 9 10 9 9 9 9 9 9 10 10 7 1 10 9 1 9
split_gain=66.5015 119.359 114.821 106.902 90.2408 108.604 95.0099 68.4332 52.9781 65.7057 41.8361 40.1719 39.9461 30.1454 44.5981 29.9153 70.9621 56.8649 29.0409 28.9993 27.7771 27.2693 26.8442 26.7308 27.6001 25.6068 24.0753 24.871 23.2486 20.9413
threshold=212.68125000000001 0 1 2 3 4 5 6 7 8 9 10 118.63125000000001 11 12 13 14 15 16 17 18 19 20 21 73.245720730658945 119.34375000000001 22 23 344.49375000000003 24
decision_type=2 9 9 9 9 9 9 9 9 9 9 9 2 9 9 9 9 9 9 9 9 9 9 9 2 2 9 9 2 9
left_child=1 10 3 7 6 8 -3 -2 12 -10 20 28 -6 14 -7 16 -4 -17 -12 -8 23 -15 -11 24 -1 -20 27 -13 -5 -14
right_child=2 4 15 11 5 13 19 -9 9 22 18 26 29 21 -16 17 -18 -19 25 -21 -22 -23 -24 -25 -26 -27 -28 -29 -30 -31
leaf_value=-0.011064048106722566 -0.045592558569692881 0.014420020397831896 0.014030497208509964 0.0059580881680938178 0.0095085139253798419 0.026397887226882407 0.0029930375204466268 -0.015941845055921226 -0.055853600271585507 -0.0090347380536118967 -0.0045698711336692784 -0.032644761884576087 -0.0093235629624613594 0.0030999586001315715 0.00041933070542024315 -0.014030063422995145 -0.0016236304961017385 0.0027766875159972409 0.01523351652783024 -0.0094486128026672143 0.0090005534955225463 -0.0083955103530895768 -0.048900767014489629 0.032418218342066617 0.024347289798419297 0.0013062481781944725 -0.0040267466040534708 -0.011584041656628418 -0.0088226696713925423 -0.025871483604884522
leaf_weight=581 1673 8222 7028 5033 1119 1255 5932 3850 1044 1357 5656 1176 2846 4710 4421 4640 11102 8406 3236 5241 19298 8791 303 1598 750 4994 3665 2966 2309 1933
leaf_count=581 1673 8222 7028 5033 1119 1255 5932 3850 1044 1357 5656 1176 2846 4710 4421 4640 11102 8406 3236 5241 19298 8791 303 1598 750 4994 3665 2966 2309 1933
internal_value=-3.75264e-07 0.00213427 -0.0034294 -0.0104749 -0.00190557 -0.0063618 0.00447697 -0.0249897 -0.0177407 -0.0318814 0.00740995 -0.0051701 -0.0112147 -0.00125114 0.00619968 0.00124523 0.004449 -0.00320705 0.00215358 -0.00284629 0.0106913 -0.00438584 -0.0165607 0.0217628 0.00882346 0.00677416 -0.0112561 -0.0176278 0.00130788 -0.0160905
internal_weight=135135 83287 51848 20672 47174 27779 19395 5523 8602 2704 36113 15149 5898 19177 5676 31176 18130 13046 13886 11173 22227 13501 1660 2929 1331 8230 7807 4142 7342 4779
internal_count=135135 83287 51848 20672 47174 27779 19395 5523 8602 2704 36113 15149 5898 19177 5676 31176 18130 13046 13886 11173 22227 13501 1660 2929 1331 8230 7807 4142 7342 4779
cat_boundaries=0 3 6 7 8 11 14 17 18 21 22 25 26 29 30 33 36 38 41 42 45 46 47 48 50 53
cat_threshold=760618785 3322115340 582 223812234 113472828 592 78917648 8401878 301998212 684722177 296 276832400 693897283 40 4198410 33563664 592 1180713 301989888 1048577 264 18156451 134615562 100754432 80 264224 1082130440 16 2177 75555216 310386709 3222831105 1292 2994734084 3357049344 1036 671485472 3221246976 3255337030 268435616 1280 537133569 2147598346 33280 3073 329728 67618 134267136 4196352 268 8324 672137216 288
is_linear=0
shrinkage=0.12196


Tree=10
num_leaves=31
num_cat=24
split_feature=5 10 9 0 9 9 10 9 9 10 9 10 9 9 10 9 9 10 9 9 10 0 0 10 9 9 0 0 9 15
split_gain=44.5359 48.4577 41.4805 31.2036 52.8455 42.5971 42.6249 96.9855 63.1404 46.7212 71.3381 44.5804 50.2573 43.3449 39.0389 81.0875 51.0716 38.8185 58.9874 54.113 49.5762 37.4502 36.4308 34.2561 30.1962 29.7305 29.5731 26.215 25.6271 25.4924
threshold=0 1 2 225.50625000000005 3 4 5 6 7 8 9 10 11 12 13 14 15 16 17 18 19 110.08125000000001 130.03125000000003 20 21 22 118.63125000000001 177.05625000000001 23 51.17048982780306
decision_type=1 9 9 2 9 9 9 9 9 9 9 9 9 9 9 9 9 9 9 9 9 2 2 9 9 9 2 2 9 2
left_child=3 -2 -3 5 -5 17 7 23 -8 25 -11 13 -13 -9 16 -16 -6 18 26 20 -19 28 -12 -7 -23 -10 -1 -20 -21 -30
right_child=1 2 -4 4 14 6 8 11 9 10 22 12 -14 -15 15 -17 -18 19 27 21 -22 24 -24 -25 -26 -27 -28 -29 29 -31
leaf_value=0.001076063401839217 0.023267992105286333 -0.0066378976385917648 0.0096035967434181819 -0.0093740737275358268 0.014749896020606654 0.024580487531599752 0.0075569489228689089 -0.015444445279151843 -0.0047995511054592941 -0.00025091022937915604 -0.012014635688334803 -0.0083252159420937038 -0.0316917334432089 0.0013184938020641245 0.01626624057069484 -0.014602097736539083 -0.00068235815179002975 0.00098570007791998616 0.0051520497345395322 -0.027838056995125447 0.03019283300921579 0.0071221641745717072 -0.036501845065896169 0.0018745812190264998 -0.0068875408598366335 0.014010014717452642 -0.02369031465794217 -0.040289938697331759 0.029941053897588228 0.008228250572822584
leaf_weight=1169 2372 4053 6478 15507 4461 1676 14130 4111 2511 5474 2244 3154 2755 6045 1737 5986 14302 1377 9508 201 2841 4962 1693 2841 4795 2833 2220 206 1522 1971
leaf_count=1169 2372 4053 6478 15507 4461 1676 14130 4111 2511 5474 2244 3154 2755 6045 1737 5986 14302 1377 9508 201 2841 4962 1693 2841 4795 2833 2220 206 1522 1971
internal_value=-7.50746e-06 0.00703423 0.00335247 -0.000750845 -0.00353425 0.000705847 -0.00158443 -0.00596565 0.00153838 -0.00422646 -0.0095674 -0.0105525 -0.0192547 -0.00547542 -0.000111571 -0.00764736 0.00299264 0.00438664 -0.000812066 0.00824017 0.0206828 0.00432591 -0.0224876 0.0103351 0.000237447 0.00517946 -0.0151028 0.00418408 0.0151365 0.0176386
internal_weight=135135 12903 10531 122232 41993 80239 49467 20582 28885 14755 9411 16065 5909 10156 26486 7723 18763 30772 13103 17669 4218 13451 3937 4517 9757 5344 3389 9714 3694 3493
internal_count=135135 12903 10531 122232 41993 80239 49467 20582 28885 14755 9411 16065 5909 10156 26486 7723 18763 30772 13103 17669 4218 13451 3937 4517 9757 5344 3389 9714 3694 3493
cat_boundaries=0 1 2 5 8 11 12 14 17 18 21 22 25 28 29 32 35 36 39 42 43 44 47 50 53
cat_threshold=1 10159296 952323714 373694308 2116 525667200 113491548 528 759369473 2252641372 774 160891010 43532416 268451873 3221229686 10166658 3320 15376 827528 1629503488 1 134283394 32884 526338 2176 1342185486 1084369408 2104 67160912 545308672 403718400 2304 3221237773 540540928 1025 655997 671220224 4096 516 536871424 36864 516 70658 1310720 151129088 2219049024 256 819336 1744847392 1 0 0 256
is_linear=0
shrinkage=0.126026


Tree=11
num_leaves=31
num_cat=11
split_feature=3 12 1 9 12 9 1 9 9 0 9 0 9 8 9 9 0 8 9 3 12 9 3 0 1 16 9 8 8 20
split_gain=159.185 91.8963 76.4048 79.6588 62.6305 59.0304 53.4747 161.264 69.486 67.493 77.5636 55.7006 54.4497 53.0237 48.1847 42.0153 57.2611 49.8806 31.9863 31.7549 28.397 25.7916 25.4728 32.7238 23.6935 22.3633 21.3316 20.6398 19.5895 19.251
threshold=0.14942057578485649 27.129630197388817 469.18125000000003 0 39.826612956009519 1 118.63125000000001 2 3 170.64375000000004 4 110.79375000000002 5 23.281794020100381 6 7 226.93125000000001 56.874652179366826 8 0.32609953314407963 62.213250887043998 9 0.31113310058681837 207.69375000000005 83.006250000000009 51.73290608438321 10 93.862546249527099 63.260713028541069 50.037898830618353
decision_type=2 2 2 9 2 9 2 9 9 2 9 2 9 2 9 9 2 2 9 2 2 9 2 2 2 2 9 2 2 2
left_child=1 -1 6 -4 19 22 7 11 9 10 -8 12 -3 -11 -13 16 -15 -18 -9 -2 26 -12 23 -6 -20 -5 -7 28 -24 -25
right_child=4 2 3 25 5 20 8 18 -10 13 21 14 -14 15 -16 -17 17 -19 24 -21 -22 -23 27 29 -26 -27 -28 -29 -30 -31
leaf_value=-0.030295162618381881 -0.010554008271742576 -0.024305529197500057 -0.018544365446036676 -0.0064588604112194416 0.017113138491587746 -0.0055565434972104791 0.0040641466002670082 0.013390290326363366 -0.0034242653593479179 -0.0071307198357975715 -0.030570268087973924 -0.0094624395202423696 -0.0058763495469205101 0.016544118690441586 0.015823926566871732 0.0024895942127445745 -0.0061161500389905026 0.019032046735394853 0.018796648487199797 -0.061718767213577948 0.012370540420681853 -0.011319647679363712 0.021107070765477749 -0.0020574339560736183 0.0040565420054287649 0.0059972927315323004 0.0037054224718472144 0.041486649225463496 0.0036567021753535034 0.0094913666885554082
leaf_weight=783 660 1505 3558 2543 2628 2406 2842 5553 50979 2783 631 921 5010 4463 1305 13073 2002 796 862 101 2050 2609 1880 1670 9109 1762 6990 271 617 2773
leaf_count=783 660 1505 3558 2543 2628 2406 2842 5553 50979 2783 631 921 5010 4463 1305 13073 2002 796 862 101 2050 2609 1880 1670 9109 1762 6990 271 617 2773
internal_value=3.72985e-06 -0.00128401 -0.00108174 -0.00915986 0.00660941 0.00746583 -0.000473578 0.00302167 -0.00153138 0.00177401 -0.00619052 -0.00620766 -0.0101799 0.00387022 0.00539036 0.00537586 0.0105544 0.00103823 0.00821707 -0.0173446 0.00330595 -0.0151513 0.0122893 0.00959652 0.00532549 -0.00135751 0.00133177 0.0192126 0.0167951 0.00515049
internal_weight=135135 113089 112306 7863 22046 21285 104443 24265 80178 29199 6082 8741 6515 23117 2226 20334 7261 2798 15524 761 11446 3240 9839 7071 9971 4305 9396 2768 2497 4443
internal_count=135135 113089 112306 7863 22046 21285 104443 24265 80178 29199 6082 8741 6515 23117 2226 20334 7261 2798 15524 761 11446 3240 9839 7071 9971 4305 9396 2768 2497 4443
cat_boundaries=0 3 6 9 12 15 18 21 24 27 30 33
cat_threshold=487476016 306311628 2729 2304127267 3911688272 1235 1922097676 1487981376 2988 570606097 1416679680 2959 33554433 1144029440 395 1107296768 1073775104 264 311452164 278937600 516 570442240 268468224 772 2235567105 587989048 2 16384 268435456 4 1107365384 12583812 4
is_linear=0
shrinkage=0.0849778


Tree=12
num_leaves=31
num_cat=0
split_feature=4 1 21 12 2 17 19 0 13 13 17 17 21 0 12 19 2 12 18 4 8 12 1 8 12 1 1 21 19 0
split_gain=32.6705 27.3917 21.8396 20.9523 16.1815 16.0639 17.7944 15.906 14.5125 15.3646 15.1047 14.8237 14.552 19.2403 15.4128 14.4832 18.0794 16.8023 17.8165 13.1816 12.4648 36.1251 41.5882 19.9703 16.8836 11.7271 14.9282 14.4824 18.2409 29.7524
threshold=0.1756691641735724 365.15625000000006 51.105130750143907 39.826612956009519 172.78125000000006 44.151769651788392 49.747969163406118 236.19375000000005 49.066406759603431 50.655702264372493 66.311778394516168 49.628990010182783 54.244631420452755 233.34375000000003 46.361526749112961 57.43463049909132 17.812499999999996 46.829199162906072 51.73290608438321 0.48389868167678873 33.637043238392316 42.725750887043993 110.79375000000002 47.154161696280447 42.725750887043993 238.33125000000004 237.61875000000001 49.305514018853124 57.43463049909132 337.36875000000003
decision_type=2 2 2 2 2 2 2 2 2 2 2 2 2 2 2 2 2 2 2 2 2 2 2 2 2 2 2 2 2 2
left_child=2 3 5 19 -5 6 -1 15 12 11 -11 -10 -4 14 -14 17 -17 -7 -19 -2 24 -22 -23 -24 -8 26 -9 -27 -29 -30
right_child=1 -3 8 4 -6 7 20 25 9 10 -12 -13 13 -15 -16 16 -18 18 -20 -21 21 22 23 -25 -26 27 -28 28 29 -31
leaf_value=-0.0016111347153582257 -0.00676281017140165 -0.012669939799426651 7.2055248260441339e-05 0.0043685931802324189 0.022184355163604962 0.0014145482616336159 -0.012177642557527697 -0.0077657759317557133 7.069069031197577e-05 -0.0013490568631219057 0.005277241850039853 0.0056731583458705503 0.0044642013715816926 -0.019401396673506811 -0.010185032943719112 0.0045870044322884928 -0.015152566798012742 -0.0059031412699190183 0.00020173186351697626 -0.044965797884097082 -0.00578702809199815 0.017806031913868103 -0.060654144605583667 -0.027677896709314972 0.0100216607869642 -0.00082416083183550239 -0.034639290764788701 -0.0050721549693580475 -0.0093560125180068027 -0.053449942936216271
leaf_weight=4757 659 975 7955 19804 507 12863 757 804 7240 18448 4072 12462 1325 959 1468 7409 479 10486 8308 101 1946 162 241 682 592 6219 267 2498 474 216
leaf_count=4757 659 975 7955 19804 507 12863 757 804 7240 18448 4072 12462 1325 959 1468 7409 479 10486 8308 101 1946 162 241 682 592 6219 267 2498 474 216
internal_value=-1.74774e-06 0.00346601 -0.000677766 0.00421265 0.00481331 -0.00198429 -0.00578098 -0.00129081 0.000755492 0.00160609 -0.000150909 0.00361439 -0.00231223 -0.0073674 -0.00323543 -0.000386951 0.00338832 -0.00132764 -0.00320445 -0.0118398 -0.0103097 -0.0138142 -0.0282114 -0.0362882 -0.00243562 -0.00470204 -0.0144653 -0.00359048 -0.00898688 -0.0231593
internal_weight=135135 22046 113089 21071 20311 59160 9137 50023 53929 42222 22520 19702 11707 3752 2793 39545 7888 31657 18794 760 4380 3031 1085 923 1349 10478 1071 9407 3188 690
internal_count=135135 22046 113089 21071 20311 59160 9137 50023 53929 42222 22520 19702 11707 3752 2793 39545 7888 31657 18794 760 4380 3031 1085 923 1349 10478 1071 9407 3188 690
is_linear=0
shrinkage=0.0984712


Tree=13
num_leaves=31
num_cat=20
split_feature=1 10 9 9 10 9 10 9 15 10 9 9 1 9 9 9 0 1 9 9 12 9 9 10 9 9 15 0 0 1
split_gain=16.584 15.6581 165.002 81.8823 49.1348 60.6363 44.2103 63.4803 37.4871 36.7963 48.9394 38.362 36.6812 35.9958 33.2116 31.5633 32.3447 31.3696 29.4342 23.9837 23.5707 24.1488 23.0627 40.2629 25.4291 23.3194 22.6702 22.1873 20.575 24.5474
threshold=499.1062500000001 0 1 2 3 4 5 6 51.17048982780306 7 8 9 144.28125000000003 10 11 12 83.006250000000009 179.90625000000003 13 14 37.986095714630203 15 16 17 18 19 51.842713556699088 239.75625000000005 89.418750000000017 107.23125000000002
decision_type=2 9 9 9 9 9 9 9 2 9 9 9 2 9 9 9 2 2 9 9 2 9 9 9 9 9 2 2 2 2
left_child=1 2 6 4 14 -6 7 -1 9 10 -4 -11 15 -10 -3 -5 -17 -15 -8 -7 21 -14 23 25 -25 -22 28 -26 -20 -30
right_child=-2 3 8 12 5 19 18 -9 13 11 -12 -13 20 17 -16 16 -18 -19 26 -21 22 -23 -24 24 27 -27 -28 -29 29 -31
leaf_value=0.024103368649692904 -0.016734814710983033 -0.0047420387723710157 -0.032723665068230393 0.00071672079527136852 -0.00089230384536281317 -0.027627367780941332 -0.0082582517481329283 0.0029511109505129707 -0.0071215762755021794 -0.012119797246519808 -0.0024015862003615449 0.014329008457547514 0.0036899813975229856 -0.013499311941219288 0.0042082402191489718 0.061738335181143862 0.010932409969411555 -0.031563141706138505 -0.016956876596840944 -0.011854465166864354 0.012781205602653778 -0.034325916009598945 0.0052331955069447053 0.00076048753990263433 -0.0056492668617418767 -0.001437734865469267 -0.0042741986316793511 -0.021512903338362446 0.043016463797815721 0.011329323927663231
leaf_weight=3855 856 10624 1125 5518 8828 1759 3407 4452 4950 1201 2457 2334 456 3256 13920 185 12332 2451 297 7195 3983 515 19023 6434 4726 2897 1761 1760 426 2152
leaf_count=3855 856 10624 1125 5518 8828 1759 3407 4452 4950 1201 2457 2334 456 3256 13920 185 12332 2451 297 7195 3983 515 19023 6434 4726 2897 1761 1760 426 2152
internal_value=-1.07029e-06 0.000105604 -0.00212522 0.000865799 -0.0031646 -0.00799069 0.00661685 0.0127843 -0.0101661 -0.00339412 -0.0119894 0.00533431 0.00381575 -0.0146981 0.000333711 0.00832837 0.011674 -0.02122 0.000238944 -0.0149804 0.00177155 -0.0167884 0.00223575 -0.000646376 -0.00461412 0.00680056 0.00648787 -0.0099386 0.0131024 0.0165654
internal_weight=135135 134279 34124 100155 42326 17782 16350 8307 17774 7117 3582 3535 57829 10657 24544 18035 12517 5707 8043 8954 39794 971 38823 19800 12920 6880 4636 6486 2875 2578
internal_count=135135 134279 34124 100155 42326 17782 16350 8307 17774 7117 3582 3535 57829 10657 24544 18035 12517 5707 8043 8954 39794 971 38823 19800 12920 6880 4636 6486 2875 2578
cat_boundaries=0 1 4 7 8 11 12 15 16 19 22 25 28 31 34 36 39 42 43 46 49
cat_threshold=146739204 496230928 826694778 2566 362342040 835081338 2564 33582466 84444184 554042386 2048 1310724 17834000 268587048 2564 135528452 1107300608 3255861892 393 1611139209 1107362305 176 537395392 2283307653 496 335553560 562185234 2048 671219780 2282752896 24 17908240 18482 512 276840448 268435488 1610612805 3356592517 40 329794 1277796613 243 33616 327746 1275592704 194 262144 1075912961 177
is_linear=0
shrinkage=0.120605


Tree=14
num_leaves=31
num_cat=13
split_feature=0 9 9 16 9 8 9 8 9 0 9 0 9 0 0 9 8 8 0 9 0 0 3 0 9 9 0 9 9 2
split_gain=13.1999 71.0945 32.302 24.0533 19.918 22.1751 54.9923 37.3316 24.5495 20.0788 32.7911 17.8048 42.7093 35.4393 17.5744 15.5257 14.2624 13.6086 31.7562 31.6634 24.0176 22.2683 15.997 14.1159 13.4238 13.371 12.2164 15.3728 12.0706 12.0653
threshold=99.393750000000011 0 1 51.73290608438321 2 66.356585814937759 3 93.862546249527099 4 117.91875000000002 5 135.01875000000004 6 152.83125000000004 166.36875000000001 7 70.325979842441498 56.874652179366826 206.26875000000004 8 292.48125000000005 206.26875000000004 0.15649216208222425 181.33125000000004 9 10 83.718750000000014 11 12 108.65625000000003
decision_type=2 9 9 2 9 2 9 2 9 2 9 2 9 2 2 9 2 2 2 9 2 2 2 2 9 9 2 9 9 2
left_child=1 2 -1 -4 5 -2 7 -7 16 10 -6 12 -11 -13 -10 17 -8 18 19 -15 25 22 -19 -21 -14 -20 -3 -28 -23 -22
right_child=4 26 3 -5 9 6 8 -9 14 11 -12 13 24 15 -16 -17 -18 21 20 23 29 28 -24 -25 -26 -27 27 -29 -30 -31
leaf_value=-0.024255762014888483 0.00090738427968960222 0.0099392984187605428 -0.011806101782141544 -0.00068261862747417393 0.0080211300937547501 0.044025641701000366 -0.013950078007190498 0.010545672012011054 -0.0072115654129393386 -0.010973512808837271 -0.00089725872523356456 0.010756302788057098 0.004939789576731175 0.00098698395036650845 0.0096138329760556192 0.00044672702719235238 0.00054732286877907119 -0.0015330597012709819 0.00023455388976446708 -0.0062280829426561895 -0.002999273849798281 -0.0016751555130585158 0.010684277631350953 -0.020026564816954244 -0.0025762096101426069 0.0077512525367584833 -0.024395502540634464 0.0023964882912081444 -0.0081136485741000203 0.0047937078716355913
leaf_weight=717 27489 1415 2499 2251 4339 357 582 470 437 3394 5946 1708 2088 1549 2810 37366 1427 4033 2368 781 6850 2550 779 1071 4660 3705 125 3932 5967 1470
leaf_count=717 27489 1415 2499 2251 4339 357 582 470 437 3394 5946 1708 2088 1549 2810 37366 1427 4033 2368 781 6850 2550 779 1071 4660 3705 125 3932 5967 1470
internal_value=-2.13577e-06 -0.00260136 -0.00888697 -0.00652101 0.0002268 0.00185046 0.00611526 0.0246997 0.00313815 -0.000374854 0.00287213 -0.000790579 -0.00384747 -0.000348922 0.00732681 -0.000625868 -0.00363443 -0.00191314 -0.000501207 -0.00728429 0.0011016 -0.00379949 0.000444768 -0.0141314 -0.000246703 0.00483347 0.00368801 0.00151678 -0.00619745 -0.00162239
internal_weight=135135 10939 5467 4750 124196 33572 6083 827 5256 90624 10285 80339 10142 70197 3247 68489 2009 31123 17794 3401 14393 13329 4812 1852 6748 6073 5472 4057 8517 8320
internal_count=135135 10939 5467 4750 124196 33572 6083 827 5256 90624 10285 80339 10142 70197 3247 68489 2009 31123 17794 3401 14393 13329 4812 1852 6748 6073 5472 4057 8517 8320
cat_boundaries=0 3 6 9 12 15 18 21 24 27 30 33 35 37
cat_threshold=1107616548 1494281028 3756 33554688 1073774592 8 570447621 1074825988 271 33554432 1081344 8 536875265 0 1 3377039424 726483128 2096 429523072 296112176 512 3578595362 592258216 48 17563648 4457512 32 1140852784 2282233856 48 340264960 17302568 16 0 1 2432698368 4194472
is_linear=0
shrinkage=0.0780508


Tree=15
num_leaves=31
num_cat=22
split_feature=3 0 9 10 9 9 10 9 10 9 9 9 10 9 1 10 9 0 9 0 10 9 9 9 6 9 9 0 7 1
split_gain=12.9405 19.7149 15.0218 12.4126 50.5198 45.265 29.3368 49.9931 23.2772 38.5717 30.0111 17.9983 82.0435 29.7294 18.3435 18.175 17.7156 17.1452 16.9119 25.6998 17.5398 19.3553 16.4645 16.1324 15.8759 15.386 13.7613 12.8729 24.1696 12.7937
threshold=0.40062171763978999 177.76875000000004 0 1 2 3 4 5 6 7 8 9 10 11 88.706250000000011 12 13 229.06875000000005 14 112.21875000000001 15 16 17 18 19 20 21 89.418750000000017 43.475218926769521 237.61875000000001
decision_type=2 2 9 9 9 9 9 9 9 9 9 9 9 9 2 9 9 2 9 2 9 9 9 9 1 9 9 2 2 2
left_child=3 -2 -3 5 6 8 7 -5 10 -10 -1 12 17 15 25 -14 -9 23 19 -6 21 -20 27 -7 26 -13 -21 28 -22 -28
right_child=1 2 -4 4 18 11 -8 16 9 -11 -12 14 13 -15 -16 -17 -18 -19 20 24 22 -23 -24 -25 -26 -27 29 -29 -30 -31
leaf_value=0.0066367723929268195 0.077723418738919192 0.018204168155249799 7.6163357126425203e-05 0.034895779913866387 0.00075436386017764924 0.019267043855457695 0.00015199060116202504 -0.00099331594010723776 0.00031971234776962082 0.0089273007882524971 -0.0022058681460966172 -0.0010522676565469188 -0.011690901779522898 -0.0077142875382314987 -0.00063467186932764932 -0.034354491922379396 0.0091617049085914049 -0.0005261961420719879 -0.0041526995107104194 -0.017264290812307535 -0.05472959126126551 0.0037532475393601277 -0.00055157644345166755 0.0041640864477216696 0.002177085381688803 0.013640673389170655 -0.006010206125936942 -0.0059916666207773727 -0.010816246380089552 -0.016345507219843521
leaf_weight=4363 31 545 1012 470 3353 909 14173 2226 6821 10091 9530 959 583 5460 35155 587 3379 2380 3798 1504 122 6625 5162 1433 1000 1328 5306 5198 496 1136
leaf_count=4363 31 545 1012 470 3353 909 14173 2226 6821 10091 9530 959 583 5460 35155 587 3379 2380 3798 1504 122 6625 5162 1433 1000 1328 5306 5198 496 1136
internal_value=-3.22511e-06 0.00792858 0.00653895 -9.75417e-05 -0.00113249 0.000603955 0.00235628 0.00749021 0.00325612 0.0054579 0.000573878 -0.00107075 -0.00415214 -0.0104879 -0.000135649 -0.0232562 0.0051341 0.00474701 -0.00322872 -0.00584047 -0.00172575 0.000871208 -0.00418996 0.010126 -0.00831877 0.00753458 -0.00963967 -0.00741273 -0.0194852 -0.00782062
internal_weight=135135 1588 1557 133547 53948 79599 20248 6075 30805 16912 13893 48794 11352 6630 37442 1170 5605 4722 33700 12299 21401 10423 10978 2342 8946 2287 7946 5816 618 6442
internal_count=135135 1588 1557 133547 53948 79599 20248 6075 30805 16912 13893 48794 11352 6630 37442 1170 5605 4722 33700 12299 21401 10423 10978 2342 8946 2287 7946 5816 618 6442
cat_boundaries=0 3 4 7 10 11 14 15 18 21 24 25 27 28 30 33 34 36 39 41 42 44 47
cat_threshold=1627676736 4195651852 3082 83942701 1405650576 960529357 278 2819823979 3239588880 1617 9445440 268435456 4227072 256 37125 2685405256 1074802688 528 537921545 1074794496 16 318800896 134251329 4 20737 301989888 32768 1064 1094746240 16777356 134481931 3264742416 1673 33882768 2147561536 69363744 2752659744 67182592 2144 33555456 33025 1 75522692 4390916 8 1049616 129
is_linear=0
shrinkage=0.088387


Tree=16
num_leaves=31
num_cat=7
split_feature=16 10 10 0 8 7 4 10 10 0 15 10 19 12 4 12 7 7 0 13 19 10 13 7 7 0 10 7 12 12
split_gain=11.2847 87.4149 57.9875 21.7028 24.6915 20.4496 19.3311 19.243 16.0885 15.0251 17.8652 16.3386 18.1187 15.7002 13.8184 13.0168 12.6675 12.5064 11.5668 11.8539 12.1001 11.2435 14.026 11.1329 10.868 10.847 11.5043 10.8357 10.4236 10.2255
threshold=51.73290608438321 0 1 118.63125000000001 70.325979842441498 51.590073972228524 0.81114818223653951 2 3 218.38125000000005 51.17048982780306 4 58.861157098733614 50.189112956009517 0.66839545320183824 74.826612956009527 25.632884438151617 51.44843822863352 279.65625000000006 45.571000386065322 51.603535878809431 5 49.066406759603431 41.514900873550211 21.288824874620332 152.83125000000004 6 80.541401350365504 65.367992266354335 56.269285369802624
decision_type=2 9 9 2 2 2 2 9 9 2 2 9 2 2 2 2 2 2 2 2 2 9 2 2 2 2 9 2 2 2
left_child=2 3 9 4 -2 8 25 -5 17 11 18 15 23 -12 27 -1 -6 24 19 -11 -21 22 -15 -13 -3 -7 -27 -4 -22 -14
right_child=1 5 14 7 16 6 -8 -9 -10 10 13 12 29 21 -16 -17 -18 -19 -20 20 28 -23 -24 -25 -26 26 -28 -29 -30 -31
leaf_value=0.0096743603325720288 0.030293335635140046 -0.054997718557138045 -0.0057949986180393133 0.0098230762310548298 -0.058883804367807914 -0.0020243870637433247 0.028162359649348871 0.0023656131881882808 -0.0039632790064664638 -0.026659145858663622 -0.0022173080400741531 -0.0023940294610231639 -0.0056062433998599398 -0.015996558614258295 -0.049977586781247502 0.054587542893111692 0.0095855778562907307 0.034074338751251397 -0.00021878312909265354 -0.00045663901575943342 -0.020297708487727363 0.0066479961037043079 0.038007256612453716 0.0040568774801389759 0.0031783387666320198 -0.023776700138474296 -0.0091593766330953195 0.0016060987445297931 0.00040429716736511159 0.021880781156850534
leaf_weight=4834 1134 52 28316 7946 44 2975 235 18557 11505 532 3700 7421 271 96 110 106 3375 211 5337 2323 1317 3685 397 10226 6998 988 7203 3582 556 1103
leaf_count=4834 1134 52 28316 7946 44 2975 235 18557 11505 532 3700 7421 271 96 110 106 3375 211 5337 2323 1317 3685 397 10226 6998 988 7203 3582 556 1103
internal_value=-2.31597e-07 0.00127276 -0.00105468 0.0059933 0.0140815 -0.00358768 -0.00782389 0.00460607 -0.00101595 0.00204901 -0.000724787 0.00412699 0.0024347 0.0037971 -0.00511699 0.0106166 0.00870443 0.00365449 -0.00426412 -0.00883053 -0.00657008 0.0091234 0.0269448 0.00134411 0.00274924 -0.00858125 -0.0109627 -0.00496389 -0.0141523 0.0164594
internal_weight=135135 61223 73912 31056 4553 30167 11401 26503 18766 41904 17943 23961 19021 7878 32008 4940 3419 7261 10065 4728 4196 4178 493 17647 7050 11166 8191 31898 1873 1374
internal_count=135135 61223 73912 31056 4553 30167 11401 26503 18766 41904 17943 23961 19021 7878 32008 4940 3419 7261 10065 4728 4196 4178 493 17647 7050 11166 8191 31898 1873 1374
cat_boundaries=0 1 2 3 4 5 6 7
cat_threshold=52481629 211188130 33588736 1638784 14336 67112960 68812800
is_linear=0
shrinkage=0.126784


Tree=17
num_leaves=31
num_cat=26
split_feature=9 10 9 9 10 0 10 10 9 9 9 10 10 9 9 10 9 9 9 9 10 9 3 9 22 9 9 10 10 1
split_gain=9.64885 13.2811 27.1507 26.5479 21.1974 17.3313 15.0122 12.7286 43.2603 32.0866 12.518 15.0678 11.9581 23.159 13.938 11.3894 28.2578 26.9579 13.182 10.6633 10.6442 10.6179 10.1561 10.2735 9.95611 19.964 11.2463 10.5932 9.70408 9.3532
threshold=0 1 2 3 4 283.21875000000006 5 6 7 8 9 10 11 12 13 14 15 16 17 18 19 20 0.34645489401434337 21 51.830694193713889 22 23 24 25 236.90625000000003
decision_type=9 9 9 9 9 2 9 9 9 9 9 9 9 9 9 9 9 9 9 9 9 9 2 9 2 9 9 9 9 2
left_child=1 2 -1 4 5 21 10 8 12 20 11 -5 14 -14 -2 17 -17 -11 -19 -8 -9 -3 23 -6 26 -26 -10 -27 -18 -21
right_child=7 3 -4 6 22 -7 19 9 24 15 -12 -13 13 -15 -16 16 28 18 -20 29 -22 -23 -24 -25 25 27 -28 -29 -30 -31
leaf_value=-0.0010347760823476999 0.00063326675284728717 -0.00070001628408456623 0.0075812328240911905 0.02201478039833895 0.00078507124855633841 -0.084842646315122922 -0.011087055691092054 -0.00064850598139794052 -0.0075788520151943359 -0.015550186476461723 0.003000127699739159 0.00063024452312000225 -0.0027016312241519148 -0.02135651420521505 -0.010584580412126648 -0.00041651783863476578 -0.0061935735746834857 0.022761034705709712 0.0024495286615984829 0.0029421479250360829 0.006488910971413373 -0.019716316449330997 0.024880341129731361 -0.009754110767561542 0.014697332264252858 0.0083504868562345458 0.0018868600300230318 -0.0063384492789788065 -0.018138415059123295 -0.033008513628260856
leaf_weight=13934 3948 817 15429 1751 4797 72 2102 5757 3683 1654 8099 1067 2210 3395 5061 8563 2340 695 7015 3592 15339 2171 265 3008 2857 1590 7861 2540 3372 151
leaf_count=13934 3948 817 15429 1751 4797 72 2102 5757 3683 1654 8099 1067 2210 3395 5061 8563 2340 695 7015 3592 15339 2171 265 3008 2857 1590 7861 2540 3372 151
internal_value=-8.75153e-07 0.00139354 0.00349361 -0.000817747 -0.00617232 -0.0161853 0.00273926 -0.00102605 -0.00312733 0.000531177 0.00583645 0.0139487 -0.0088816 -0.014019 -0.00567335 -0.00304837 -0.00556317 0.000787173 0.00430757 -0.00304559 0.00454176 -0.0145851 -0.00236024 -0.00328816 0.00141296 0.00562974 -0.00113801 -0.000676876 -0.0132644 0.00148785
internal_weight=135135 57255 29363 27892 11130 3060 16762 77880 33145 44735 10917 2818 14614 5605 9009 23639 14275 9364 7710 5845 21096 2988 8070 7805 18531 6987 11544 4130 5712 3743
internal_count=135135 57255 29363 27892 11130 3060 16762 77880 33145 44735 10917 2818 14614 5605 9009 23639 14275 9364 7710 5845 21096 2988 8070 7805 18531 6987 11544 4130 5712 3743
cat_boundaries=0 3 4 7 10 11 12 13 16 19 22 23 24 26 28 29 32 35 38 41 42 45 47 50 53 54 55
cat_threshold=3779500363 2912985108 2947 111251241 1090682946 226533376 770 2688817160 2684354580 129 536640 16806084 10716969 437846160 272914467 36 144179344 273045515 36 32769 134250496 256 16789632 2131465 168362112 272896000 1114128 18467 134230208 81956 34145440 1104 0 34079776 64 0 1048576 8 3 142639104 2304 167780544 2056 536870912 1 2688811008 2147483668 16896 34669832 80 16896 1572872 80 8421640 17842178
is_linear=0
shrinkage=0.141506


Tree=18
num_leaves=31
num_cat=9
split_feature=21 10 15 10 20 10 10 20 11 22 10 10 11 21 20 13 11 11 11 11 8 11 10 13 19 10 20 20 10 13
split_gain=8.65418 9.84126 12.7255 10.2568 9.24254 12.919 11.074 18.4785 14.8466 11.4638 17.1999 14.2865 31.4818 25.8659 12.1545 11.1063 12.5445 11.039 10.6077 16.3959 31.0437 10.1862 30.0134 9.6992 9.56666 18.6697 10.5857 10.3574 10.2236 18.6647
threshold=55.630810763440174 0 51.17048982780306 1 47.460779928084449 2 3 67.053984875146895 45.926891766633567 51.197982628665606 4 5 53.794327354037634 49.941029114977255 47.593334590481575 49.812888602363167 52.287648846094534 47.145006681540799 47.787347928887733 48.296603984251057 61.348530853114731 54.244631420452755 6 47.364176400082791 58.861157098733614 7 55.749620314890301 58.838723639472931 8 54.222243669286975
decision_type=2 9 2 9 2 9 9 2 2 2 9 9 2 2 2 2 2 2 2 2 2 2 9 2 2 9 2 2 9 2
left_child=4 -2 3 -3 5 -1 24 8 -8 10 -10 12 13 18 -13 16 17 -16 -11 20 -20 22 -14 -21 27 -26 -27 -6 -29 -30
right_child=1 2 -4 -5 6 -7 7 -9 9 11 -12 14 21 -15 15 -17 -18 -19 19 23 -22 -23 -24 -25 25 26 -28 28 29 -31
leaf_value=0.0037915606287093344 0.0047989916857951098 0.011802088466743486 -0.0017127416746233878 0.0017634435953382413 0.00066336275705265182 -0.00082827071903714968 0.0041264326296305952 0.011473711096570765 0.0056545199190627905 -0.0067791598309969153 -0.004035199759080837 0.0074100775535378251 -0.083896725973352126 -3.8699424928031818e-05 -0.015285225858639478 -0.0012659564466134727 -0.021542482604101604 -0.002129300899104548 -0.089676737438801057 0.0073365547682060729 -0.0066471838532021861 -0.019696570493217404 -0.0036823918148019955 -0.016980681412348878 -0.0017234836174570515 0.04072321869776014 0.012325838650507846 0.0043124718789630577 -0.036099647566736601 -0.0061502525294599465
leaf_weight=13578 9240 1742 13683 5466 23324 18716 3694 1218 4004 2743 5853 1471 118 5236 1111 10193 737 3275 111 243 124 1004 129 1748 1614 200 1167 903 309 2181
leaf_count=13578 9240 1742 13683 5466 23324 18716 3694 1218 4004 2743 5853 1471 118 5236 1111 10193 737 3275 111 243 124 1004 129 1748 1614 200 1167 903 309 2181
internal_value=-1.56102e-06 0.0017022 0.000330053 0.00420836 -0.000490458 0.00111505 -0.00120354 -0.00237275 -0.00277685 -0.00344616 -9.75077e-05 -0.00461486 -0.00771862 -0.00563211 -0.00249067 -0.0034432 -0.00777516 -0.00546178 -0.0115261 -0.0173755 -0.0458654 -0.024801 -0.0455491 -0.0140128 0.000490475 0.00661857 0.0163609 -0.000193095 -0.00608052 -0.0098274
internal_weight=135135 30131 20891 7208 105004 32294 72710 43012 41794 38100 9857 28243 11456 10205 16787 15316 5123 4386 4969 2226 235 1251 247 1991 29698 2981 1367 26717 3393 2490
internal_count=135135 30131 20891 7208 105004 32294 72710 43012 41794 38100 9857 28243 11456 10205 16787 15316 5123 4386 4969 2226 235 1251 247 1991 29698 2981 1367 26717 3393 2490
cat_boundaries=0 1 2 3 4 5 6 7 8 9
cat_threshold=201364656 598272 212763945 118565462 135336 135336 40 10324 100665424
is_linear=0
shrinkage=0.114047


Tree=19
num_leaves=31
num_cat=23
split_feature=0 9 9 10 9 9 10 7 10 9 10 9 10 1 9 9 9 10 9 2 9 10 10 10 9 9 10 7 0 7
split_gain=8.57244 11.1643 7.97214 14.0149 21.9891 10.1768 12.5854 8.74257 8.61503 24.614 19.9563 14.0065 18.4869 18.0244 14.3597 13.4602 12.4165 13.4396 11.7895 16.607 11.6529 13.8991 12.9118 9.7212 17.4561 9.51118 10.445 8.5487 8.27566 13.0299
threshold=513.35625000000016 0 1 2 3 4 5 55.793498292574363 6 7 8 9 10 83.006250000000009 11 12 13 14 15 -0.71249999999999847 16 17 18 19 20 21 22 66.035000790861275 219.80625000000001 49.55304283698289
decision_type=2 9 9 9 9 9 9 2 9 9 9 9 9 2 9 9 9 9 9 2 9 9 9 9 9 9 9 2 2 2
left_child=2 -2 3 4 -1 6 7 -5 9 10 15 12 13 18 -15 -4 17 -12 19 -10 21 -14 -22 24 -11 26 -25 -19 -17 -30
right_child=1 -3 8 5 -6 -7 -8 -9 11 23 16 -13 20 14 -16 28 -18 27 -20 -21 22 -23 -24 25 -26 -27 -28 -29 29 -31
leaf_value=0.0035835759861788784 0.01652434913546318 -0.021397694413372872 0.0050186935894416199 0.015820294866969509 -0.0044012273046487149 0.003448344931481064 -0.0011980218094827832 -0.0081684365802349411 -0.021512873923292524 -0.0064689144574230535 0.0016713825190593724 4.3233508034259068e-05 0.0040963545825218814 0.0048892109551310703 -0.0048222322920883484 0.0062288906777027957 0.0049186913004877616 0.01677494137508951 0.010105701069559499 0.079905720310396056 -0.015692441687707708 -0.0073036112944159931 -0.0057376826377875138 -0.0049503487222632174 0.0062605928976245265 -0.0020230057251255928 -0.024540299691206871 0.039520467746058122 -0.0068897474744664816 -0.032279459279654761
leaf_weight=6415 111 430 1232 888 11357 25779 12712 227 25 1861 702 25940 2130 2993 4559 277 5723 1391 317 83 2543 3137 4061 1054 4068 13303 469 229 769 350
leaf_count=6415 111 430 1232 888 11357 25779 12712 227 25 1861 702 25940 2130 2993 4559 277 5723 1391 317 83 2543 3137 4061 1054 4068 13303 469 229 769 350
internal_value=-2.94229e-06 -0.0137071 5.21415e-05 0.00102596 -0.00151863 0.00216787 -0.00022021 0.0108393 -0.000671537 0.000719152 0.00497385 -0.00162603 -0.00380656 0.000256472 -0.000973316 -0.00327423 0.0076689 0.0143972 0.0221151 0.0516471 -0.00653473 -0.00269438 -0.00958889 -0.00147011 0.00226088 -0.00296268 -0.0111037 0.0198676 -0.0105765 -0.0148311
internal_weight=135135 541 134594 57378 17772 39606 13827 1115 77216 31428 10673 45788 19848 7977 7552 2628 8045 2322 425 108 11871 5267 6604 20755 5929 14826 1523 1620 1396 1119
internal_count=135135 541 134594 57378 17772 39606 13827 1115 77216 31428 10673 45788 19848 7977 7552 2628 8045 2322 425 108 11871 5267 6604 20755 5929 14826 1523 1620 1396 1119
cat_boundaries=0 3 6 7 10 13 14 15 18 19 22 23 26 28 31 32 34 36 37 38 39 42 44 45
cat_threshold=2281705472 67633152 258 2772578315 3986188388 2695 19673681 8192 1099966468 519 8192 1099982852 517 43024384 186915537 1207996208 268468480 288 167774224 1241550640 272728321 288 8397066 33555744 4227072 256 134250800 268435456 1073743872 32768 288 262272 0 1 134253072 268500992 1049604 1115136 169871376 301989892 71168 24 8650752 33685504 262273
is_linear=0
shrinkage=0.109086


Tree=20
num_leaves=31
num_cat=23
split_feature=14 3 10 9 9 10 10 9 9 10 13 10 22 9 10 5 10 9 9 3 10 9 10 20 9 9 9 9 17 9
split_gain=54.1107 31.2495 72.4936 31.4818 31.0755 28.2143 28.0722 32.4667 31.7211 15.6338 12.4215 14.7491 17.2076 13.7469 12.322 12.107 11.8618 32.4456 15.5112 11.6962 11.6282 11.59 11.3691 10.7998 10.5862 10.1535 9.99099 9.82168 9.77198 9.26606
threshold=27.129630197388817 0.10672444505343935 0 1 2 3 4 5 6 7 58.261625396095958 8 51.197982628665606 9 10 11 12 13 14 0.431491745634424 15 16 17 43.438291362815868 18 19 20 21 73.426799683967957 22
decision_type=2 2 9 9 9 9 9 9 9 9 2 9 2 9 9 1 9 9 9 2 9 9 9 2 9 9 9 9 2 9
left_child=5 6 4 -4 19 -1 7 9 20 26 16 13 22 -12 24 23 17 -10 -18 -3 25 -22 -13 -5 -6 -8 -2 -14 -17 -16
right_child=1 2 3 15 14 -7 8 -9 10 -11 11 12 27 -15 29 28 18 -19 -20 -21 21 -23 -24 -25 -26 -27 -28 -29 -30 -31
leaf_value=-0.0040599757930513255 0.0015805946000578038 0.0070689128537456906 0.0017787687737546207 -0.02287509270834058 0.0028627802873484333 -0.025530086951838473 -0.0049018370582879899 -0.00043813990788480617 0.0054094582565613952 0.0020841035548679839 -0.0075162575028059836 -0.019040909895350708 -0.0011306528094333394 0.0034226546534307923 -0.00040486391221284133 -0.0021272392837650691 0.0029025111735139853 -0.0058315674382030174 -0.0012468988211898702 0.023591648689839685 -0.0029623713336425863 -0.0079120320854323897 0.0030490517141242728 -0.0066553261584806241 -0.0048813300734980676 -0.00070143644832386691 0.010309296687925105 0.0099650725282477565 0.028281092288282971 0.0050900597064907601
leaf_weight=540 817 8186 4887 180 1320 501 3790 41291 1381 14586 861 163 409 1061 1769 2347 5420 4712 12257 183 3862 4133 222 3637 1649 6579 1752 1903 45 4692
leaf_count=540 817 8186 4887 180 1320 501 3790 41291 1381 14586 861 163 409 1061 1769 2347 5420 4712 12257 183 3862 4133 222 3637 1649 6579 1752 1903 45 4692
internal_value=2.71495e-06 0.000116677 0.00199944 -0.00210087 0.00455421 -0.0146771 -0.000400459 0.000543932 -0.00158082 0.0029066 -0.000226256 0.00284082 0.00591162 -0.0014912 0.00200451 -0.00515242 -0.000822347 -0.00327906 2.62864e-05 0.00742134 -0.00367359 -0.00552778 -0.00671869 -0.00742021 -0.00144029 -0.00223998 0.00755026 0.00804042 -0.00155518 0.00358727
internal_weight=135135 134094 28895 11096 17799 1041 105199 58446 46753 17155 28389 4619 2697 1922 9430 6209 23770 6093 17677 8369 18364 7995 385 3817 2969 10369 2569 2312 2392 6461
internal_count=135135 134094 28895 11096 17799 1041 105199 58446 46753 17155 28389 4619 2697 1922 9430 6209 23770 6093 17677 8369 18364 7995 385 3817 2969 10369 2569 2312 2392 6461
cat_boundaries=0 1 4 7 8 9 12 15 16 17 20 21 22 23 26 29 30 33 34 37 40 43 46 49
cat_threshold=28334767 3105775948 3934358626 1539 1096192291 1077933136 1266 277795 234958215 2776635977 1694499364 3082 831801672 1478562671 3080 66560 9048104 1074300560 2785331328 532 18876960 1 28344320 512 2214608896 773 1275200514 558507024 480 26513488 17039688 136319594 1024 18088448 2348810312 3070230538 1 17039688 2097762 1032 4672 1610612736 2056 4759556 32896 16 2961197576 276824096 1
is_linear=0
shrinkage=0.0646373


Tree=21
num_leaves=31
num_cat=15
split_feature=12 9 9 2 9 17 0 9 0 9 9 9 2 0 0 9 13 8 9 0 9 21 9 18 0 0 9 9 9 9
split_gain=7.60057 23.8943 7.54672 6.43858 18.2888 10.6219 8.06516 28.2396 12.7372 11.768 10.9328 9.05243 8.80011 8.54686 8.25436 9.68888 7.7837 7.66839 7.34218 6.28332 12.7891 6.23964 9.22817 5.79329 10.2998 8.84784 7.30886 6.22836 5.57567 5.00588
threshold=27.129630197388817 0 1 96.900000000000034 2 61.601403754746705 236.90625000000003 3 238.33125000000004 4 5 6 1.4250000000000045 238.33125000000004 326.68125000000003 7 49.812888602363167 56.874652179366826 8 235.48125000000002 9 51.546220715541828 10 51.73290608438321 264.69375000000008 258.28125000000006 11 12 13 14
decision_type=2 9 9 2 9 2 2 9 2 9 9 9 2 2 2 9 2 2 9 2 9 2 9 2 2 2 9 9 9 9
left_child=1 -1 -3 6 -5 -6 11 9 16 -8 14 -2 13 -11 18 -16 -9 23 -10 -13 -21 28 -23 25 -25 -12 -26 -27 -15 -14
right_child=3 2 -4 4 5 -7 7 8 10 12 17 19 29 21 15 -17 -18 -19 -20 20 -22 22 -24 24 26 27 -28 -29 -30 -31
leaf_value=0.010504916480458874 0.0015548747740295908 -0.040306549474092554 -0.013560052188671214 0.010453361341716703 -0.0035157600372432356 0.020756748330218469 0.03862354335261748 -0.0018460781045478226 0.0082414309679322006 -0.024132422407628491 0.0077397898266413374 -0.00070930913673876092 0.0027347609676248758 -0.002495141242427109 -0.00606540135020302 -0.018393362559910354 -0.023920462229515542 -0.016371106420429687 -0.0054809709677873814 -0.0027088063159228311 0.017908390374166232 0.02758020266511306 0.0078859324886528127 -0.013378175952132301 0.0097575414421689211 -0.00015180362708158894 0.00063224013741838261 -0.0075826317543004791 0.0083638873548977817 -0.019591729135959961
leaf_weight=429 42899 206 406 2617 3096 234 117 287 596 109 792 58815 226 1108 2155 1219 587 396 2107 807 650 348 1631 511 1401 2259 4270 3441 1162 254
leaf_count=429 42899 206 406 2617 3096 234 117 287 596 109 792 58815 226 1108 2155 1219 587 396 2107 807 650 348 1631 511 1401 2259 4270 3441 1162 254
internal_value=-1.96059e-06 -0.0093521 -0.0230662 7.06265e-05 0.00360405 -0.0018047 -9.33512e-05 -0.00186456 -0.00370149 0.00555395 -0.00311137 0.000335429 0.00467619 0.00624071 -0.00695678 -0.0105919 -0.0166718 -0.00131709 -0.00244503 -0.000532689 0.0065933 0.00701987 0.0115283 -0.000847764 0.00155898 -0.00313959 0.00290493 -0.00465125 0.00308939 -0.00943086
internal_weight=135135 1041 612 134094 5947 3330 128147 24976 20021 4955 19147 103171 4838 4358 6077 3374 874 13070 2703 60272 1457 4249 1979 12674 6182 6492 5671 5700 2270 480
internal_count=135135 1041 612 134094 5947 3330 128147 24976 20021 4955 19147 103171 4838 4358 6077 3374 874 13070 2703 60272 1457 4249 1979 12674 6182 6492 5671 5700 2270 480
cat_boundaries=0 3 6 9 12 13 16 19 22 24 27 30 33 36 39 42
cat_threshold=1644741332 1477564679 2604 16789538 2736783376 449 844894548 3899357203 3082 33563144 624427537 325 8 340281744 268618060 2592 2755803523 3531791716 2722 336085392 133184 512 0 268583168 1225818152 69541904 17 8192 536870912 256 3221427206 1207959552 144 1099961412 1078207616 24 8192 540016656 321 33554432 2621457 257
is_linear=0
shrinkage=0.10985


Tree=22
num_leaves=31
num_cat=19
split_feature=1 9 1 1 9 22 9 1 10 9 21 19 10 9 22 10 10 9 0 9 1 0 9 10 9 9 10 9 10 9
split_gain=6.52741 5.49435 4.90193 11.5288 18.6658 11.6839 10.7438 9.34882 20.0392 12.6406 10.8337 10.1412 9.90147 9.34713 9.07385 7.98625 7.94383 23.0893 15.7967 19.3527 11.9535 12.2514 8.48405 34.7127 33.1265 14.8218 19.3697 18.1148 13.0523 25.5754
threshold=519.76875000000007 0 70.893750000000011 102.24375000000002 1 51.197982628665606 2 118.63125000000001 3 4 49.647007269875807 52.681359744561782 5 6 51.197982628665606 7 8 9 142.14375000000004 10 134.30625000000001 135.01875000000004 11 12 13 14 15 16 17 18
decision_type=2 9 2 2 9 2 9 2 9 9 2 2 9 9 2 9 9 9 2 9 2 2 9 9 9 9 9 9 9 9
left_child=2 -2 6 4 15 -6 -1 9 -9 -5 11 -11 -12 -14 -8 -4 17 -10 19 -18 -19 -22 23 24 -20 -25 -27 -28 29 -24
right_child=1 -3 3 7 5 -7 14 8 16 10 12 -13 13 -15 -16 -17 18 20 22 -21 21 -23 28 25 -26 26 27 -29 -30 -31
leaf_value=0.017120240128732627 0.0065582552780716775 -0.020331099086027322 0.0083658702752931243 -0.010496117880776049 -0.019261220735755393 -0.0055927223914635348 -0.0090694128264751008 -0.028817558398406905 0.002820492097390962 0.0030970905286250771 -0.0013344964235580143 -0.0064572701112235098 0.011543637630016524 0.0041052385075627598 0.0045582587690139679 -0.0016868173328151964 -0.0026121873295923258 -0.0048645960803812959 -0.0056326883391983025 0.01922104403072887 -0.025905866195883233 -0.0035429797300640287 0.0015648260419534408 0.0034388004215746273 0.010123520677553755 0.00068474172142919015 -0.013369108482916165 -0.002089840126105442 0.00054875488389739845 -0.0052954142806535707
leaf_weight=558 114 297 1367 766 814 4488 703 258 4524 3099 2009 2023 3002 4982 2298 2364 784 4807 1842 1036 670 452 10034 6169 7212 8193 2787 3603 39049 14831
leaf_count=558 114 297 1367 766 814 4488 703 258 4524 3099 2009 2023 3002 4982 2298 2364 784 4807 1842 1036 670 452 10034 6169 7212 8193 2787 3603 39049 14831
internal_value=4.98645e-08 -0.0132078 4.03429e-05 -6.39516e-05 -0.00368244 -0.00767673 0.00388406 0.000203675 -0.000151368 0.00257907 0.0032465 -0.000676528 0.00526053 0.00691303 0.00136137 0.0020089 -7.88649e-05 -0.00282465 0.000221815 0.00990722 -0.00712956 -0.0168969 3.37528e-05 0.0014959 0.00691531 -0.000870759 -0.00269493 -0.0070225 -0.000648243 -0.00252752
internal_weight=135135 411 134724 131165 9033 5302 3559 122132 106251 15881 15115 5122 9993 7984 3001 3731 105993 10453 95540 1820 5929 1122 93720 29806 9054 20752 14583 6390 63914 24865
internal_count=135135 411 134724 131165 9033 5302 3559 122132 106251 15881 15115 5122 9993 7984 3001 3731 105993 10453 95540 1820 5929 1122 93720 29806 9054 20752 14583 6390 63914 24865
cat_boundaries=0 3 6 9 10 13 14 17 18 19 22 25 28 29 32 35 36 38 39 42
cat_threshold=2281701409 67371008 258 2312241171 590091819 3815 1073741952 134254856 24 196610 269484160 268435456 772 1028 1073783848 3866470668 27 16777220 524301 1711380850 1868145158 312 554814744 2617608237 2891 713310977 2459060320 901 226757632 33554432 1179712 260 33816576 9568320 388 34652544 545260032 2181038112 160697376 2168588418 70005912 1088
is_linear=0
shrinkage=0.104965


Tree=23
num_leaves=31
num_cat=7
split_feature=9 8 9 21 9 21 9 8 21 21 8 8 9 12 1 13 12 17 9 1 9 8 12 4 12 21 12 1 0 12
split_gain=4.71542 6.93654 10.3196 4.83603 11.7248 11.2584 8.47287 14.4702 6.57757 6.07323 6.10388 4.7928 22.8462 4.9791 4.64009 16.0831 9.55945 8.12335 7.2809 6.62775 6.00789 5.78265 4.63046 4.5392 4.44908 4.30837 9.48818 5.61723 4.61361 4.17303
threshold=0 22.129740701046675 1 51.546220715541828 2 52.287648846094534 3 93.862546249527099 51.954328823649938 52.95520939972775 93.862546249527099 93.862546249527099 4 90.506785369802628 323.11875000000003 60.061136016172021 52.553768128423307 59.992585406700918 5 357.31875000000008 6 31.565253353489251 43.146440542216411 0.37166450836266812 38.734802611181927 47.351275264527864 42.884802611181932 429.99375000000003 241.89375000000004 74.826612956009527
decision_type=9 2 9 2 9 2 9 2 2 2 2 2 9 2 2 2 2 2 9 2 9 2 2 2 2 2 2 2 2 2
left_child=1 2 -1 6 5 8 7 23 -5 -7 -11 13 -13 29 -8 16 17 18 21 -18 -21 -16 -20 25 -9 26 -2 28 -27 -3
right_child=3 11 -4 4 -6 9 14 24 -10 10 -12 12 -14 -15 15 -17 19 -19 22 20 -22 -23 -24 -25 -26 27 -28 -29 -30 -31
leaf_value=-0.013069486911145258 -0.013239788112635051 0.00083560881778207789 -0.00025643632281319617 0.0047201240727263874 -0.00033967343234885959 -0.013813346383936378 -0.00026357215510782399 -0.075715800868911193 0.025006004681258687 0.0064073348602699792 -0.012809261899938843 -0.0048638822384351179 0.013733740304963197 -0.0122118572095895 -0.024511978190421332 0.01734950745798014 -0.0076530178618217136 -0.048307361029414755 0.0038456508582643393 -0.005651997631920834 0.017651217927714607 -0.0090942347773297506 -0.0075251251715779772 -0.020137233448840906 -0.021922562012511689 -0.0057265957424649811 0.0084676699915059855 -0.024458402173147969 0.0080790051833243802 0.0094855123654902767
leaf_weight=1164 381 48753 3256 345 30507 270 31922 22 601 2428 250 1660 1977 396 515 444 451 70 734 218 481 947 1484 222 506 2777 1003 197 377 777
leaf_count=1164 381 48753 3256 345 30507 270 31922 22 601 2428 250 1660 1977 396 515 444 451 70 734 218 481 947 1484 222 506 2777 1003 197 377 777
internal_value=-2.021e-07 0.000797647 -0.00366088 -0.000599845 0.000433602 0.00647596 -0.00143158 -0.0057244 0.0176079 0.00292574 0.0046134 0.00116571 0.0052698 0.000866738 -0.000797993 -0.00399181 -0.0059256 -0.00878987 -0.00803818 0.00341442 0.0105552 -0.0144266 -0.00374532 -0.00377184 -0.0241639 -0.00300455 0.00249185 -0.00527463 -0.0040764 0.000971304
internal_weight=135135 57983 4420 77152 34401 3894 42751 5485 946 2948 2678 53563 3637 49926 37266 5344 4900 3750 3680 1150 699 1462 2218 4957 528 4735 1384 3351 3154 49530
internal_count=135135 57983 4420 77152 34401 3894 42751 5485 946 2948 2678 53563 3637 49926 37266 5344 4900 3750 3680 1150 699 1462 2218 4957 528 4735 1384 3351 3154 49530
cat_boundaries=0 3 6 9 12 15 18 21
cat_threshold=1687731285 1259440228 2162 2068 0 2050 268435464 547356672 257 268435464 547357184 257 1149774913 1090519072 66 17170690 272765208 1160 17170976 335572992 8
is_linear=0
shrinkage=0.117102


Tree=24
num_leaves=31
num_cat=3
split_feature=16 17 1 12 8 13 2 11 8 1 8 11 8 5 22 8 15 2 1 17 1 11 8 6 5 2 11 8 12 8
split_gain=3.36224 8.34077 9.74432 9.1306 15.5782 11.7875 9.78447 10.6806 10.1112 9.66798 8.21523 9.47158 13.828 8.43527 7.81349 8.97649 7.08392 39.1124 18.122 7.02304 6.84414 6.77244 7.49788 7.34832 6.22404 9.2706 8.48577 7.96471 7.8273 17.1201
threshold=51.73290608438321 59.481369774933505 491.26875000000007 45.889543990492271 39.708180425858949 49.812888602363167 19.949999999999999 52.287648846094534 61.348530853114731 120.76875000000001 70.325979842441498 58.220652427157624 33.637043238392316 0 51.830694193713889 80.520461747512357 51.842713556699088 31.706250000000001 142.85625000000002 51.69389677277367 469.18125000000003 57.730514018853128 66.356585814937759 1 2 144.99375000000006 58.579175483830319 66.356585814937759 58.345578473250889 66.356585814937759
decision_type=2 2 2 2 2 2 2 2 2 2 2 2 2 1 2 2 2 2 2 2 2 2 2 1 1 2 2 2 2 2
left_child=20 3 10 4 9 6 8 16 19 -2 11 21 -13 -14 -5 24 17 18 -8 -6 -1 -3 -23 -24 -16 26 28 -28 -26 -30
right_child=1 2 -4 14 5 -7 7 -9 -10 -11 -12 12 13 -15 15 -17 -18 -19 -20 -21 -22 22 23 -25 25 -27 27 -29 29 -31
leaf_value=-0.0002446148646015106 0.021262148551751785 -0.0036356592571907308 0.023429049516542903 0.0066642730095948311 -0.013014851703563573 0.00058362134738062718 -0.13143890188285576 -0.05366420413014119 -0.00054514368522210052 0.0026405766473945086 0.0040250213697586735 0.001700764109575828 -0.017649544900074376 -0.060860442598832894 0.0031947030527004526 -0.0040406513088383656 -0.0062794595489928046 0.021603386673655339 0.01109604861183907 0.0073661469793587829 -0.0049663768192556388 0.0045099210358713979 0.082888496524359742 0.0018704439127071521 -0.003648390283836346 0.025462086770862608 0.001566856232558629 0.041303600991453582 -0.01124169183098638 -0.077548829658243751
leaf_weight=69367 415 6645 202 5209 2201 5340 55 111 2870 5826 2063 627 995 67 20799 3342 440 78 15.999999999999998 263 4545 736 35 28 1953 154 240 99 350 64
leaf_count=69367 415 6645 202 5209 2201 5340 55 111 2870 5826 2063 627 995 67 20799 3342 440 78 16 263 4545 736 35 28 1953 154 240 99 350 64
internal_value=1.6658e-07 0.00064621 -0.00223043 0.00130427 -0.000853526 -0.00345021 -0.00702008 -0.0201232 -0.00530052 0.00387883 -0.00269338 -0.00421097 -0.0121803 -0.0203757 0.00248433 0.00167794 -0.0138022 -0.036017 -0.0993183 -0.0108394 -0.000534966 -0.00240277 0.00785078 0.0468805 0.00248573 -0.0026702 -0.00427122 0.0131714 -0.00676934 -0.0214921
internal_weight=135135 61223 11398 49825 17615 11374 6034 700 5334 6241 11196 9133 1689 1062 32210 27001 589 149 71 2464 73912 7444 799 63 23659 2860 2706 339 2367 414
internal_count=135135 61223 11398 49825 17615 11374 6034 700 5334 6241 11196 9133 1689 1062 32210 27001 589 149 71 2464 73912 7444 799 63 23659 2860 2706 339 2367 414
cat_boundaries=0 1 2 3
cat_threshold=1 1 1
is_linear=0
shrinkage=0.117877


Tree=25
num_leaves=31
num_cat=25
split_feature=10 9 9 10 9 9 10 9 9 3 9 10 22 12 20 22 10 9 9 10 9 9 10 9 9 10 10 9 5 10
split_gain=4.63426 26.6192 25.1529 13.6172 20.2333 18.1284 8.55045 18.4154 17.8348 9.04524 8.35403 8.09189 10.6915 7.9969 7.80821 7.61786 7.35674 7.5163 7.18535 6.91958 8.93877 6.86589 6.73976 15.7701 15.4618 7.13211 6.42493 5.96297 7.17364 6.83137
threshold=0 1 2 3 4 5 6 7 8 0.34980863833843473 9 10 51.830694193713889 27.129630197388817 43.832537230727901 51.197982628665606 11 12 13 14 15 16 17 18 19 20 21 22 23 24
decision_type=9 9 9 9 9 9 9 9 9 2 9 9 2 2 2 2 9 9 9 9 9 9 9 9 9 9 9 9 1 9
left_child=1 22 3 4 26 15 8 -8 -4 13 11 12 21 -10 -11 19 17 -12 -15 -5 -21 -3 24 -24 25 -1 -2 28 -26 -29
right_child=2 10 6 5 -6 -7 7 -9 9 14 16 -13 -14 18 -16 -17 -18 -19 -20 20 -22 -23 23 -25 27 -27 -28 29 -30 -31
leaf_value=0.011580777599219843 0.0044881822619802988 -0.0030992179714515382 -0.0086459653898337679 -0.0011828593653569674 0.010970101271468264 0.0040833098446982821 -0.010222567750856502 -0.0015260620431356274 -0.035018534061950088 0.12416274141739919 0.011188883462435663 0.0088935421933999306 -0.014249769011299535 0.0046515995767233784 0.020982028498475851 -0.0032972877809173814 0.00012640953091393479 0.0021357693212346015 -0.001471909618084454 -0.0089722008562794376 -0.036655428187366168 0.017716739540426879 -0.00011264058454339026 -0.010666234916375243 -0.014054739776652087 -0.0021457277994274861 -0.0048263834193101231 -0.012787710887825194 0.0064494223634624882 0.0010297353321842046
leaf_weight=2682 3168 721 5135 556 7694 8968 8986 13036 135 17 3181 8897 839 7183 277 5873 15858 5422 10000 581 477 655 6398 5984 1962 1195 3283 932 460 4580
leaf_count=2682 3168 721 5135 556 7694 8968 8986 13036 135 17 3181 8897 839 7183 277 5873 15858 5422 10000 581 477 655 6398 5984 1962 1195 3283 932 460 4580
internal_value=1.04412e-07 0.000971842 -0.00077049 0.00249446 0.00585544 -0.000396494 -0.00300217 -0.00507767 -0.000991478 0.00124392 0.00354345 0.00690301 -0.00109638 0.000808271 0.0269483 -0.00576074 0.00201508 0.00549231 0.00108975 -0.0147604 -0.0216796 0.00691577 -0.0028093 -0.0052175 -0.000282409 0.00735525 -0.000252258 -0.00401916 -0.0101187 -0.00132552
internal_weight=135135 59766 75369 30600 14145 16455 44769 22022 22747 17612 35573 11112 2215 17318 294 7487 24461 8603 17183 1614 1058 1376 24193 12382 11811 3877 6451 7934 2422 5512
internal_count=135135 59766 75369 30600 14145 16455 44769 22022 22747 17612 35573 11112 2215 17318 294 7487 24461 8603 17183 1614 1058 1376 24193 12382 11811 3877 6451 7934 2422 5512
cat_boundaries=0 1 4 7 8 11 14 15 18 21 24 25 26 29 32 33 36 38 39 42 45 46 47 50 51 52
cat_threshold=69262450 906159880 3972043724 2332 922922520 3854603204 2332 9707777 84051968 624955840 4 838869528 3766517760 268 184615564 138416163 437912594 1216 1082130628 2114561 513 2160066693 34751505 130 2101328 67127376 1208029218 2891810 64 138432803 436215810 64 131712 8728 536870912 4 12582913 33554433 69260288 100828416 1677722056 24 805330944 2281734144 260 37888 1310976 67109888 1614807808 2064 1 32768
is_linear=0
shrinkage=0.147779


Tree=26
num_leaves=31
num_cat=15
split_feature=6 9 5 0 9 2 9 1 3 12 1 9 9 9 20 3 9 3 2 9 9 3 9 9 0 2 9 0 2 9
split_gain=5.45748 18.9077 7.67056 25.0643 18.444 10.2335 15.4535 9.78214 8.52746 7.67122 6.9851 15.4906 7.26527 6.21451 5.94887 5.68435 5.66989 5.26957 7.66471 8.22163 5.7046 5.19485 6.7155 4.28095 5.30987 4.6906 4.25699 6.93842 4.14281 6.30168
threshold=0 1 2 167.79375000000002 3 29.212500000000002 4 177.05625000000001 0.38874406115785426 62.213250887043998 127.89375000000001 5 6 7 49.49605659998749 0.10872849073952452 8 0.089578986786497602 1.0000000180025095e-35 9 10 0.14226693471446097 11 12 129.31875000000005 18.525000000000023 13 68.756250000000009 19.950000000000035 14
decision_type=1 9 1 2 9 2 9 2 2 2 2 9 9 9 2 2 9 2 2 9 9 2 9 9 2 2 9 2 2 9
left_child=2 17 5 16 8 10 -7 14 9 -5 11 -1 -12 -3 -6 -8 -4 18 26 -20 -19 28 -23 24 -13 -25 -2 -28 -14 -30
right_child=1 13 3 4 7 6 15 -9 -10 -11 12 23 21 -15 -16 -17 -18 20 19 -21 -22 22 -24 25 -26 -27 27 -29 29 -31
leaf_value=0.0064985477724874294 -0.0014501763397881463 -0.014687900656941096 -0.021334988736199084 0.013103787685193572 -0.00087430677791053995 0.0024776705439296795 -0.082030829882773285 -0.0019655625043888845 0.051146850988116124 0.036671913067987089 0.0015096007696988544 -0.0048460494948579297 -0.00088536586086336165 -0.0043430761550701325 0.023665053229202683 -0.0083441992922000507 -0.0041977912134823813 0.0007653851120790619 0.011051370988066012 -0.013676342309139632 0.0092063685500847394 0.02162795417153085 -9.1311260302852373e-05 0.0014979830413870262 0.009397197468001852 -0.019374072476434655 0.090569210791868929 0.0085328172602049009 -0.016758610575315601 -0.00030614778018253766
leaf_weight=7938 1096 905 425 1384 214 3005 14.999999999999998 1844 108 230 26240 3606 52862 9470 414 4511 799 2225 234 949 2362 322 534 10709 417 156 14.999999999999998 797 587 762
leaf_count=7938 1096 905 425 1384 214 3005 15 1844 108 230 26240 3606 52862 9470 414 4511 799 2225 234 949 2362 322 534 10709 417 156 15 797 587 762
internal_value=-7.19241e-07 -0.00193472 0.000297486 0.00468864 0.00907958 8.44246e-05 -0.00416956 0.00241166 0.01853 0.0164623 0.000392077 0.00223928 -0.000126503 -0.00525872 0.0153029 -0.00856948 -0.0103568 0.0025604 -0.00125001 -0.00880734 0.00513367 -0.000906234 0.00833038 -3.60235e-05 -0.00336132 0.0011972 0.00343569 0.00992603 -0.00105225 -0.00759172
internal_weight=135135 18053 117082 5418 4194 111664 7531 2472 1722 1614 104133 22826 81307 10375 628 4526 1224 7678 3091 1183 4587 55067 856 14888 4023 10865 1908 812 54211 1349
internal_count=135135 18053 117082 5418 4194 111664 7531 2472 1722 1614 104133 22826 81307 10375 628 4526 1224 7678 3091 1183 4587 55067 856 14888 4023 10865 1908 812 54211 1349
cat_boundaries=0 1 4 5 8 11 14 17 19 22 25 28 31 34 37 40
cat_threshold=1 1191220600 3241453137 247 1 278728780 874621099 2746 953827349 1578392387 1577 3775244422 1766432948 1089 646579715 2429047074 2308 268503040 8405032 583025184 1073748130 429 32 8769 2 1073775696 2147755585 164 4460556 67314768 192 310396672 303039040 384 83890208 2165351441 69 372760 606513236 753
is_linear=0
shrinkage=0.119501


Tree=27
num_leaves=31
num_cat=20
split_feature=10 9 9 9 10 10 9 9 10 9 9 18 9 0 22 9 9 9 10 0 13 10 9 18 13 9 13 13 10 20
split_gain=9.94933 25.4956 22.7169 8.45895 9.5887 7.92664 12.7238 11.9383 7.34354 16.0323 13.9784 10.9653 11.0304 7.23522 9.60088 9.39662 7.36898 7.14005 5.83367 7.10108 6.94012 5.71612 5.53178 6.28198 5.4999 5.28391 5.11808 5.8552 12.0302 8.89794
threshold=0 1 2 3 4 5 6 7 8 9 10 51.73290608438321 11 110.08125000000001 51.830694193713889 12 13 14 15 83.006250000000009 50.232449210290461 16 17 51.73290608438321 49.066406759603431 18 50.129489435915694 51.319295118418019 19 55.354178761653266
decision_type=9 9 9 9 9 9 9 9 9 9 9 2 9 2 2 9 9 9 9 2 2 9 9 2 2 9 2 2 9 2
left_child=1 22 5 4 17 7 -7 -2 10 -10 13 12 21 14 15 -4 -16 -3 -14 20 -20 -12 23 -1 -8 -13 -5 28 -28 -30
right_child=2 3 8 26 -6 6 24 -9 9 -11 11 25 18 -15 16 -17 -18 -19 19 -21 -22 -23 -24 -25 -26 -27 27 -29 29 -31
leaf_value=-0.0035657774947394083 0.00090940103316848857 0.011478526624781786 0.0078211310934629529 0.0024723544123634723 0.0016064864144411906 -0.0056214587597173639 -0.0037844823350639692 -0.0023277032585713314 0.0015771405976506376 -0.0015699740919191435 0.00051206294346482165 0.0059470549339569762 -0.0035872302568705451 -0.0013904751626199153 -0.0068952843777166459 -7.2639435135548382e-05 0.0023346221362097815 0.0046240582371527101 0.0065605231324243792 0.00011749053075089265 0.044904103243162102 0.0054546331815003464 -2.7933276181407928e-05 -0.00023626815900732937 -0.00094210976525979163 0.002630676313400573 0.0025255504585462588 0.0016257651941076815 -0.0061212217606717127 0.0025947975510352533
leaf_weight=4637 8677 716 1220 7924 3728 3806 3342 8186 9685 15671 1484 2878 1936 9144 642 1031 624 2824 58 3706 25 2105 12028 3829 10236 4806 1736 6014 1873 564
leaf_count=4637 8677 716 1220 7924 3728 3806 3342 8186 9685 15671 1484 2878 1936 9144 642 1031 624 2824 58 3706 25 2105 12028 3829 10236 4806 1736 6014 1873 564
internal_value=8.36609e-07 0.000728896 -0.000373363 0.00201738 0.00377068 -0.00160319 -0.00251481 -0.000662472 0.000392362 -0.000367752 0.0010421 0.00218155 0.000779402 -0.000488178 0.00185635 0.00424006 -0.00238197 0.00603887 -0.000879201 0.000510275 0.0181098 0.00341805 -0.000866926 -0.00205748 -0.0016405 0.00388397 0.00131209 0.000410855 -0.00134004 -0.00408728
internal_weight=135135 45873 89262 25379 7268 34247 17384 16863 55015 25356 29659 16998 9314 12661 3517 2251 1266 3540 5725 3789 83 3589 20494 8466 13578 7684 18111 10187 4173 2437
internal_count=135135 45873 89262 25379 7268 34247 17384 16863 55015 25356 29659 16998 9314 12661 3517 2251 1266 3540 5725 3789 83 3589 20494 8466 13578 7684 18111 10187 4173 2437
cat_boundaries=0 1 4 7 10 11 12 15 18 19 22 25 28 31 34 36 37 38 41 43 44
cat_threshold=203959024 882059640 2399935501 535 1380746406 1353966306 2232 1245712384 269648384 2216 2105952 33702157 1074003968 1073782784 56 1074037794 1074864832 56 18203650 67123224 2689078532 1281 2214670617 558366980 1345 546310144 100925456 514 2214592784 553648128 1089 67113233 20971520 1025 37748736 163840 1146880 311296 805513224 100930565 512 545407488 167775240 203425824
is_linear=0
shrinkage=0.0608351


Tree=28
num_leaves=31
num_cat=15
split_feature=20 20 9 9 12 9 11 9 9 9 11 9 12 9 19 9 15 9 9 15 3 9 16 9 9 17 11 3 2 9
split_gain=2.90736 5.69675 8.04175 5.20302 4.01593 5.91794 3.72963 10.5051 4.28535 3.29368 5.0958 5.35542 5.18176 6.08031 5.79048 3.8174 3.55609 10.7051 5.43387 5.18026 3.37264 3.88421 3.69239 13.3883 10.3619 3.26326 3.7635 3.36499 3.31361 3.24842
threshold=47.439901092428094 42.939823691038747 0 1 41.011095714630208 2 59.129954030543125 3 4 5 46.639347340436622 6 46.333078473250893 7 49.747969163406118 8 51.842713556699088 9 10 51.17048982780306 0.18336216839677047 11 51.73290608438321 12 13 49.918684459987027 50.756509026544769 0.42320284164464467 121.48125000000003 14
decision_type=2 2 9 9 2 9 2 9 9 9 2 9 2 9 2 9 2 9 9 2 2 9 2 9 9 2 2 2 2 9
left_child=1 2 4 25 5 -1 9 8 -8 16 11 -11 13 -12 -15 -16 18 -18 19 -2 22 -22 24 -24 -14 28 27 29 -3 -27
right_child=6 3 -4 -5 -6 -7 7 -9 -10 10 12 -13 20 14 15 -17 17 -19 -20 -21 21 -23 23 -25 -26 26 -28 -29 -30 -31
leaf_value=-0.024261272324085571 0.001126097997563862 0.005641630984649486 0.0012321237887284167 0.0003486037546719571 -0.0034801060924463888 -0.0052868977079491182 0.019844286519004124 -0.0011035606015077364 0.0063600546876532126 -0.0044782565140481598 -0.0011150801633430434 0.005432286668762578 -0.0078091533251672014 -0.0040758094188646067 -0.026447507074461241 -0.010594355871649246 -0.0051716488790158489 0.0022300370257194988 -0.00080558431868116179 0.0065837553988760547 0.0051751865900928626 -0.0017671922128277304 0.0068867176930519254 -0.0022108328871903392 -0.00089362298769495138 -0.014039281359781542 0.0043174514775495641 0.048732819198306847 -0.021362690721428039 -0.0004522912262951629
leaf_weight=508 8216 8407 4482 15558 1592 685 499 5419 2375 1286 4623 3584 5104 2709 334 1486 6617 7008 11436 4808 3039 2603 3744 11342 14505 500 1782 20 80 784
leaf_count=508 8216 8407 4482 15558 1592 685 499 5419 2375 1286 4623 3584 5104 2709 334 1486 6617 7008 11436 4808 3039 2603 3744 11342 14505 500 1782 20 80 784
internal_value=-2.49568e-07 0.001048 -0.00223577 0.00192755 -0.00779322 -0.0136142 -0.000358188 0.00232464 0.00876195 -0.00059886 -0.00125853 0.00281721 -0.00165986 -0.00449679 -0.00792872 -0.0137072 0.000342929 -0.00136676 0.00129542 0.00313846 -0.00101619 0.00197828 -0.00150314 5.00705e-05 -0.0026981 0.00404639 0.000372392 -0.00501879 0.00538708 -0.00585604
internal_weight=135135 34398 7267 27131 2785 1193 100737 8293 2874 92444 54359 4870 49489 9152 4529 1820 38085 13625 24460 13024 40337 5642 34695 15086 19609 11573 3086 1304 8487 1284
internal_count=135135 34398 7267 27131 2785 1193 100737 8293 2874 92444 54359 4870 49489 9152 4529 1820 38085 13625 24460 13024 40337 5642 34695 15086 19609 11573 3086 1304 8487 1284
cat_boundaries=0 3 6 8 11 14 17 20 23 25 28 31 34 37 40 43
cat_threshold=415245610 399665146 641 765284392 3767651641 646 8398112 50472560 1249977930 3841091656 259 8264 0 257 1195546775 189530918 3109 263424 1344430080 792 2962752864 1882194120 848 73736 2155872256 4198548 21234434 3076 1077973140 21234178 3076 412360800 2686699657 658 268518976 9442304 392 268517952 1053832 384 9519104 2148630800 6
is_linear=0
shrinkage=0.13206


Tree=29
num_leaves=31
num_cat=12
split_feature=1 0 0 9 9 0 9 9 6 1 9 11 9 19 19 9 9 2 19 17 9 17 11 1 0 6 19 3 9 17
split_gain=3.36435 6.21438 16.0206 9.63676 5.8105 4.83526 5.72183 4.63892 3.5057 3.47533 7.88223 3.3453 3.31115 3.26347 6.71403 3.01219 3.00616 2.8478 2.35384 2.64207 2.36084 2.33285 2.28777 2.26835 2.2142 2.1618 2.1545 4.32763 4.19635 3.2779
threshold=84.43125000000002 89.418750000000017 88.706250000000011 0 1 105.80625000000002 2 3 4 103.66875000000002 5 58.220652427157624 6 51.603535878809431 48.206057557977836 7 8 13.537500000000017 55.193375540562656 58.426733084108626 9 54.4466868999071 58.579175483830319 87.281250000000014 102.95625000000001 10 51.603535878809431 0.4859242365538376 11 52.015957068867742
decision_type=2 2 2 9 9 2 9 9 1 2 9 2 9 2 2 9 9 2 2 2 9 2 2 2 2 1 2 2 9 2
left_child=7 2 3 -2 -4 6 17 8 18 10 11 -7 21 14 -5 -11 -8 -3 20 -20 -1 -10 -21 -16 -18 -26 27 29 -28 -17
right_child=1 5 4 13 -6 9 16 -9 12 15 -12 -13 -14 -15 23 26 24 -19 19 22 -22 -23 -24 -25 25 -27 28 -29 -30 -31
leaf_value=-0.0070730082340913856 -0.0073977654549505743 0.0069844097296779331 0.00087206897129433688 0.0068210785569030449 -0.027537892745022038 0.0076848387470625995 -0.0062853867438554291 -0.00061644423575119326 0.02129133953292895 0.00055608325005305765 -0.015129637384483014 -0.025193745854886294 0.0083415384038455324 0.0059069735670538 -0.010850574878886753 -0.00051418989848698096 -0.0035948606487756145 0.020186953477112447 0.015454170952943602 -0.0036208870189461226 0.0034016592521485464 0.054583411092414803 0.020931206995449494 -0.0018747747689694407 0.0065492300500684273 -0.00029327146220299512 -2.7403470856353058e-05 -0.0489618626606814 -0.0025214277495592438 0.0016621775675610135
leaf_weight=276 1982 1167 104 746 359 347 503 2398 78 52397 481 36 498 1210 500 28320 528 202 312 200 1092 31 50 730 1240 801 15732 19 12972 9824
leaf_count=276 1982 1167 104 746 359 347 503 2398 78 52397 481 36 498 1210 500 28320 528 202 312 200 1092 31 50 730 1240 801 15732 19 12972 9824
internal_value=-1.79197e-06 -0.00010152 -0.00343746 -0.00179842 -0.0217323 4.92773e-05 0.00337586 0.00262933 0.00567732 -7.3703e-05 -0.00656133 0.00447752 0.0125046 0.00170278 -0.000863031 -2.67038e-05 0.000896705 0.00886771 0.0035595 0.00915317 0.00126151 0.0281749 0.00128953 -0.00552347 0.00232185 0.00386386 -0.000483387 2.19348e-05 -0.0011554 4.63343e-05
internal_weight=135135 130200 5631 5168 463 124569 4441 4935 2537 120128 864 383 607 3186 1976 119264 3072 1369 1930 562 1368 109 250 1230 2569 2041 66867 38163 28704 38144
internal_count=135135 130200 5631 5168 463 124569 4441 4935 2537 120128 864 383 607 3186 1976 119264 3072 1369 1930 562 1368 109 250 1230 2569 2041 66867 38163 28704 38144
cat_boundaries=0 3 6 9 12 13 16 18 21 24 27 28 31
cat_threshold=101220900 1481681283 520 536875008 301989888 260 2168455200 573047824 64 1075380224 2554436363 2616 1 134354945 587988992 1411 524288 2415952384 100956949 3708847569 3372 4112 2147483648 1152 0 2415923969 16 1 3900899394 13457442 578
is_linear=0
shrinkage=0.102663


Tree=30
num_leaves=31
num_cat=4
split_feature=10 0 4 13 1 12 1 1 1 20 8 19 19 10 20 1 17 2 12 0 10 12 20 1 19 20 13 10 12 4
split_gain=7.99609 8.71152 8.24171 6.78417 6.21494 7.896 7.14477 12.5068 7.32326 7.4807 6.02474 5.96353 5.64849 8.95927 23.9588 10.6416 8.50026 5.39608 5.23791 4.92936 10.1046 13.532 10.8352 9.57351 10.0693 7.61571 7.53623 7.50251 14.4481 12.3575
threshold=0 482.00625000000008 0.85469988307132672 58.261625396095958 296.04375000000005 37.986095714630203 181.33125000000004 135.01875000000004 134.30625000000001 54.579016774612235 21.483258955215479 58.861157098733614 55.193375540562656 1 55.749620314890301 142.85625000000002 49.628990010182783 62.70000000000001 47.013681921526761 213.39375000000004 2 53.449457783595726 48.180178226364681 234.76875000000004 55.193375540562656 58.113219316706356 50.232449210290461 3 38.734802611181927 0.58612301020677993
decision_type=9 2 2 2 2 2 2 2 2 2 2 2 2 9 2 2 2 2 2 2 9 2 2 2 2 2 2 9 2 2
left_child=19 2 4 -3 6 -6 7 8 -2 -10 -8 -7 16 -14 -15 -16 -9 -18 -19 27 21 23 -23 24 -21 -26 -24 28 -1 -29
right_child=1 3 -4 -5 5 11 10 12 9 -11 -12 -13 13 14 15 -17 17 18 -20 20 -22 22 26 -25 25 -27 -28 29 -30 -31
leaf_value=-0.020551893751834801 -0.00071746644784950969 -0.0072189481629906698 0.012062912632977044 0.0044184295457343351 -0.015375605031690744 0.0023685085799217023 -0.022027445064361519 0.002187305195276205 -0.0058671696616701555 -0.031728515163884849 -0.0020442154184486102 -0.006406754952641848 0.0040637974783354321 -0.058058178391384024 0.022698430219318007 -0.010330864788546695 0.015246371568148152 0.027514757311822506 -0.001568787012647507 -0.010383095467011726 0.00031302546268622324 -0.049924658912609804 0.015564251632306035 0.00079521728609484982 -0.050974854206972911 -0.014026629190266643 -0.00052933590214193562 0.00071375452757210063 0.0051803358660635441 0.043731286446788094
leaf_weight=189 16046 2720 432 496 230 9509 127 1744 440 119 24464 696 1327 75 109 326 1024 61 346 1397 25318 32 340 568 96 91 860 40391 5506 56
leaf_count=189 16046 2720 432 496 230 9509 127 1744 440 119 24464 696 1327 75 109 326 1024 61 346 1397 25318 32 340 568 96 91 860 40391 5506 56
internal_value=-5.73237e-06 -0.000789959 -0.000528976 -0.00542413 -0.000625011 0.00139211 -0.00108053 0.000133137 -0.00107616 -0.0113725 -0.00214742 0.00177002 0.00413961 0.000100817 -0.0100925 -0.00205456 0.00647639 0.0117036 0.00279017 0.000626027 -0.000315524 -0.00500427 0.00262908 -0.00939754 -0.0130525 -0.0329947 0.00403051 0.00121184 0.00431878 0.000773122
internal_weight=135135 60291 57075 3216 56643 10435 46208 21617 16605 559 24591 10205 5012 1837 510 435 3175 1431 407 74844 28702 3384 1232 2152 1584 187 1200 46142 5695 40447
internal_count=135135 60291 57075 3216 56643 10435 46208 21617 16605 559 24591 10205 5012 1837 510 435 3175 1431 407 74844 28702 3384 1232 2152 1584 187 1200 46142 5695 40447
cat_boundaries=0 1 2 3 4
cat_threshold=218199669 9699456 134225920 8784
is_linear=0
shrinkage=0.0915111


Tree=31
num_leaves=31
num_cat=12
split_feature=21 10 9 9 19 10 11 11 10 12 15 10 9 2 9 2 9 0 9 16 20 11 12 19 2 9 20 10 19 0
split_gain=3.62307 10.1807 7.40089 6.33629 4.39044 14.2093 7.45313 5.80995 3.7563 3.32294 3.50841 3.06132 3.63041 2.97228 3.60049 3.93278 2.84596 2.7181 12.2625 6.22911 7.07892 6.11483 5.28727 6.53858 5.28038 8.50684 6.91997 10.0358 5.21498 5.05353
