tree
version=v4
num_class=1
num_tree_per_iteration=1
label_index=0
max_feature_idx=22
objective=regression
feature_names=base_price total_price diff relative_diff_base relative_diff_total is_featured_sku is_display_sku store_encoded sku_encoded store_id sku_id date end_week_serial month week_serial year weekday weeknum end_weekday end_month end_weeknum end_date end_year
feature_infos=[61.274999999999999:562.16250000000002] [41.325000000000003:562.16250000000002] [-106.875:250.79999999999998] [-0.51515151515151525:0.82370820668693001] [-0.34000000000000008:4.6724137931034475] -1:0:1 -1:0:1 [20.713245542336452:117.98501894501895] [16.914188184696659:98.84331373544488] -1:4:20:63:0:15:33:9:66:44:50:2:69:23:35:48:51:32:17:6:31:29:39:27:5:8:24:12:74:73:65:75:70:18:38:58:56:1:22:64:60:19:43:14:37:62:34:52:72:26:46:30:13:7:71:53:67:54:45:61:47:40:68:36:42:59:11:57:25:16:49:10:41:3:28:55 -1:7:0:13:8:10:5:11:1:2:3:14:12:16:18:15:20:24:9:4:6:21:17:27:23:25:26:19 [40.493269411669417:62.741029114977245] [21.964112956009508:94.366699162906059] [44.959153167006058:60.471934441324997] [21.964112956009508:94.366699162906059] [51.14699693713429:52.49144439492634] [51.096943921826252:52.368868246940146] [38.706855736056603:76.375106276013412] [51.096943921826252:52.368868246940146] [44.562938997184538:59.987631829708754] [39.712039321369772:67.598954187023352] [40.493269411669417:62.741029114977245] [51.193982718471815:52.459405848568387]
tree_sizes=2806 3084 3061 3059 2960 3066 2927 2949 3087 3122 3126 3146 2967 3146 3129 3167 2926 3036 2973 3068 3159 3126 3144 3045 2953 3086 3135 3116 3036 3158 2980 3094 3124 3161 3063 3101 3101 2915 3146 3101 3119 3077 3010 2965 3117 2805 2904 2942 3073 3054 2809 2939 2881 3083 3085 3064 3096 2860 2954 3054 2868 2898 3018 3045 3108 3119 3123 2964 3134 3056 3075 2913 2919 3094 3049 2970 3057 3062 2911 2943 3031 2912 2980 3102 3054 2956 3082 3123 3137 3135 2851 2932 3009 3055 3127 2995 3092 3090 2886 2928 2906 3044 3005 3007 2932 3055 3027 3061 2957 3055 2879 2917 3101 2926 3111 3153 2950 3002 3099 3083 2966 3099 3090 3053 3129 2975 3057 2998 2958 3085 3083 2913 3042 2939 3040 2940 3015 3002 2992 3096 2939 3069 3082 3060 3102 3062 3112 3105 2937 2963 2870 2988 2843 3115 3053 3077 3110 2991 2978 2955 2943 2992 2899 3069 3081 3047 3025 3091 3015 2925 3065 2924 2898 2916 2896 3068 3063 3117 3080 3109 3084 2976 3050 3149 2940 2897 3105 2979 3138 3083 3053 2860 2922 3110 3113 2962 3057 3116 2943 2910 3045 3114 3028 3141 2898 2978 3082 3060 3074 3111 3059 3054 2872 3064 3057 2968 3093 3054 2894 2891 3055 2931 2927 3098 3029 3097 2931 2932 3086 2950 2960 3063 3076 3024 3084 2919 2994 3003 2936 2928 3095 2907 2951 2920 3090 3071 2955 3072 3075 3088 2982 3099 2970 2898 2856 2968 3008 3047 3076 3091 2991 3050 3015 2971 2981 2934 3131 2811 2947 3052 3088 3018 2884 2963 3004 3109 2997 3106 3010 2965 2931 2878 2945 3023 2898 2956 2921 3105 2958 3037 3024 3066 3141 3061 3113 3120 3073 3046 3004 3040 2924 3107 3053 3041 3076 3083 3086 2957 3141 3010 3021 3013 2912 2916 3093 2881 2914 3085 3053 3073 2928 3028 2946 3069 3085 3118 3061 3006 2877 2929 2913 2918 3076 3136 2892 2993 2925 2912 3069 3119 3067 3072 3032 3037 2976 2871 2951 3013 2980 3031 2896 2886 2988 2964 3106 2905 3133 2993 2891 2944 3068 2984 3051 2920 2897 2995 3098 3015 3126 3046 2954 2938 2962 2958 3026 3077 2944 3131 3081 3003 3056 2971 3015 3060 2983 2973 3094 3031 2991 2858 3108 2975 2949 2979 2930 2979 2898 2857 3023 3036 3065 2910 2971 2982 2943 2916 3020 3099 3042 3054 2962 3077 3068 2923 2960 3070 2901 2966 2992 3073 3083 3094 2977 2866 3137 3016 3079 3002 3024 2965 2996 2893 2984 3113 3026 3019 3026 3140 2902 3000 2940 3010 3107 2911 2939 3137 2961 2904 2957 3071 2900 2925 3060 2969 2957 2989 3096 2990 2906 3092 2938 3101 3123 2996 2974 3117 3009 3082 2927 2924 2934 3039 2969 3007 3070 3029 2930 2940 3037 2884 2985 2892 2857 3051 3094 3042 2959 2987 2965 2980 3132 3175 3037 3055 2881 2965 2956 2958 2920 2939 3133 2981 2956 3030 3019 2914 2988 2986 2873 2983 2968 2886 2978 2878 3037 3119 2925 3055 3091 2937 3000 3080 3123 3150 3112 3045 2967 2891 2894 2938 3141 2957 2996 2985 3016 3101 2901 2897 3103 3098 3070 3017 3116 2961 2990 3043 2951 2913 3145 2906 3021 2932 3136 2996 3075 3051 3079 2960 2983 2980 2979 3178 3071 3098 2950 2878 3043 3054 3021 3093 2989 2903 2949 3172 2949

Tree=0
num_leaves=31
num_cat=11
split_feature=8 7 6 3 6 10 8 7 10 7 7 7 7 3 10 0 1 3 6 10 10 7 7 8 7 3 3 10 10 10
split_gain=19759 10406 4554.59 4079.98 2770.53 2104.49 1675.05 1541.13 1486.07 943.572 842.62 835.704 776.781 609.123 567.377 554.607 545.726 501.826 480.607 471.066 369.751 417.463 331.391 327.17 310.263 293.414 282.308 279.459 222.576 210.692
threshold=39.708180425858949 51.44843822863352 0 1.0000000180025095e-35 1 2 93.862546249527099 40.586359321892537 3 50.610171884367652 76.436232621604887 44.16219437820245 76.436232621604887 0.24623463230957673 4 205.55625000000001 226.93125000000001 0.24500651613074825 5 6 7 62.734354404672175 68.498479463233579 50.417695072270369 31.522378518072411 0.010126647182484728 0.32903687295214373 8 9 10
decision_type=2 2 1 2 1 9 2 2 9 2 2 2 2 2 9 2 2 2 1 9 9 2 2 2 2 2 2 9 9 9
left_child=3 2 6 8 5 10 7 16 11 18 -3 -1 25 29 26 22 24 23 -5 -11 21 -10 -13 -6 -2 28 -9 -26 -7 -4
right_child=1 4 13 9 17 12 -8 14 20 19 -12 15 -14 -15 -16 -17 -18 -19 -20 -21 -22 -23 -24 -25 27 -27 -28 -29 -30 -31
leaf_value=0.71549126146661735 0.74161255425629569 0.87160527034001334 0.89966265407041213 0.73343096104077499 0.87005666331261577 0.7765577935550092 0.84146975376824062 0.76317480287276307 0.69365274334148952 0.85030032516215659 0.93299538224248679 0.77400508314428829 0.86551253951131568 0.94553756992781979 0.81241211548987047 0.74096497585200338 0.72867402489088406 1.0159423183218768 0.79574373050789859 0.78599550604652757 0.67251166581576227 0.74607658064999849 0.84841042787618148 0.9430549413581546 0.74478662868532475 0.8582983296497293 0.95079838913089443 0.78241213108134378 0.8161823419344324 0.84648015140497157
leaf_weight=9999 4600 8227 1399 3363 944 2332 5164 4538 7524 3363 4081 2420 5260 1531 12628 6002 6094 957 2741 2368 6772 2459 1046 3628 3041 1525 100 11526 6639 2864
leaf_count=9999 4600 8227 1399 3363 944 2332 5164 4538 7524 3363 4081 2420 5260 1531 12628 6002 6094 957 2741 2368 6772 2459 1046 3628 3041 1525 100 11526 6639 2864
internal_value=0.792183 0.823561 0.793299 0.735328 0.871741 0.857661 0.782064 0.774851 0.716932 0.791633 0.89188 0.737789 0.830843 0.885775 0.800284 0.76128 0.757467 0.943207 0.761412 0.823821 0.69279 0.706651 0.79646 0.927983 0.766621 0.813506 0.767274 0.774518 0.805891 0.864313
internal_weight=135135 87078 53485 48057 33593 28064 47691 42527 36222 11835 12308 19467 15756 5794 17266 9468 25261 5529 6104 5731 16755 9983 3466 4572 19167 10496 4638 14567 8971 4263
internal_count=135135 87078 53485 48057 33593 28064 47691 42527 36222 11835 12308 19467 15756 5794 17266 9468 25261 5529 6104 5731 16755 9983 3466 4572 19167 10496 4638 14567 8971 4263
cat_boundaries=0 1 2 3 4 5 6 7 8 9 10 11
cat_threshold=1 1 1190 9699912 69888 1 311304 16793616 65568 69632 13440
is_linear=0
shrinkage=0.220914


Tree=1
num_leaves=31
num_cat=20
split_feature=8 9 2 9 2 1 10 9 1 10 8 9 14 10 10 9 9 9 10 9 10 9 4 8 9 9 8 9 9 9
split_gain=4943.05 3353.29 1278.07 1187.04 1187.02 1010.26 697.515 695.171 677.309 503.492 475.597 408.173 383.759 363.228 323.95 303.685 286.522 277.124 265.005 300.297 263.487 318.995 227.713 220.657 205.404 171.501 151.033 148.937 133.632 131.075
threshold=39.708180425858949 0 123.26250000000002 1 1.0000000180025095e-35 211.25625000000005 2 3 236.90625000000003 4 70.325979842441498 5 59.380923300837104 6 7 8 9 10 11 12 13 14 0.5074001063863075 22.129740701046675 15 16 61.348530853114731 17 18 19
decision_type=2 9 2 9 2 2 9 9 2 9 2 9 2 9 9 9 9 9 9 9 9 9 2 2 9 9 2 9 9 9
left_child=2 5 3 20 7 6 22 10 15 12 -3 -8 27 17 28 -5 -11 -9 19 -10 21 -1 29 -17 -16 -22 -13 -6 -7 -2
right_child=1 4 -4 8 9 14 11 13 18 16 -12 26 -14 -15 24 23 -18 -19 -20 -21 25 -23 -24 -25 -26 -27 -28 -29 -30 -31
leaf_value=-0.065926178560449772 0.089916649396099321 -0.008373844187141025 0.03831677609200148 0.010524801183669124 0.0067586931973996744 0.0056613690005197148 0.057829832807375643 -0.035817668739502644 -0.003472893619205099 -0.0134181108192351 0.025264163793249497 0.011139603776045275 0.1029246200175721 -0.038561692966370104 0.053156156943896728 -0.043162252662909219 0.024917919217876387 0.0040329575370834396 -0.061869605384596564 -0.047043438885103567 -0.045705288873256734 -0.027706325861970277 0.12721040010587634 -0.009743670469947072 0.014078388231030822 -0.081688009662807384 0.035631472127479254 0.053973694625985322 -0.047888265423481645 0.058371392797780662
leaf_weight=3540 2206 14605 2947 6503 1186 839 6789 2673 2941 3129 6014 4133 1165 9903 1637 2477 5334 5189 3490 3538 2200 6040 787 10452 8095 3929 6670 1607 1076 4041
leaf_count=3540 2206 14605 2947 6503 1186 839 6789 2673 2941 3129 6014 4133 1165 9903 1637 2477 5334 5189 3490 3538 2200 6040 787 10452 8095 3929 6670 1607 1076 4041
internal_value=2.2084e-06 0.0143059 -0.0259156 -0.0301119 -0.00238998 0.0376808 0.0492455 -0.0111441 -0.0181533 0.0246605 0.00143675 0.0384551 0.0542505 -0.0257324 0.0132612 -0.0072152 0.0107449 -0.00954414 -0.0394927 -0.0273014 -0.0524486 -0.0418833 0.0760693 -0.0161337 0.0206994 -0.0688675 0.0262371 0.0341421 -0.0245196 0.0697483
internal_weight=135135 87078 48057 45110 50805 36273 24626 38384 29401 12421 20619 17592 3958 17765 11647 19432 8463 7862 9969 6479 15709 9580 7034 12929 9732 6129 10803 2793 1915 6247
internal_count=135135 87078 48057 45110 50805 36273 24626 38384 29401 12421 20619 17592 3958 17765 11647 19432 8463 7862 9969 6479 15709 9580 7034 12929 9732 6129 10803 2793 1915 6247
cat_boundaries=0 3 6 7 10 11 14 15 16 19 22 25 26 29 30 33 36 39 42 45 48
cat_threshold=2903937845 2769035328 1095 2453740678 693275373 1736 6530 12607554 270734479 2984 12672 2164523297 2148270080 1026 8323 4096 17056257 2183471120 295 1376324744 1221626624 264 268503048 8389136 16 67158016 613425473 2148335616 263 49752 301992064 5245484 512 769 2147483648 2 128 2153 576 13175946 42092340 16 538083861 0 6 2701263137 2148270080 2
is_linear=0
shrinkage=0.100672


Tree=2
num_leaves=31
num_cat=21
split_feature=5 10 9 10 9 9 10 10 9 9 10 9 9 8 12 12 12 1 8 9 1 9 9 9 9 12 10 9 0 9
split_gain=2147.19 1532.59 1021.63 544.002 403.45 378.687 336.412 278.439 242.014 227.559 220.408 207.039 199.911 181.582 150.581 149.565 133.684 133.453 124.478 119.031 111.994 100.01 96.3903 94.5224 81.8952 77.9591 77.3281 76.7073 74.378 87.9999
threshold=0 1 2 3 4 5 6 7 8 9 10 11 12 70.325979842441498 58.644716404285376 34.999026749112957 37.986095714630203 164.23125000000002 80.520461747512357 13 371.56875000000008 14 15 16 17 34.999026749112957 18 19 89.418750000000017 20
decision_type=1 9 9 9 9 9 9 9 9 9 9 9 9 2 2 2 2 2 2 9 2 9 9 9 9 2 9 9 2 9
left_child=1 2 11 14 10 7 12 24 20 -8 19 -1 17 16 -2 -7 -13 -6 -17 -3 -5 -20 -12 -15 -4 -14 -10 -16 29 -23
right_child=3 4 5 8 6 15 9 -9 26 -11 22 13 25 23 27 18 -18 -19 21 -21 -22 28 -24 -25 -26 -27 -28 -29 -30 -31
leaf_value=0.053493450081589254 0.071747049339307728 -0.00076046788238845519 -0.041184929957268079 0.070080377047441897 0.034546583386042579 -0.077276915449182748 -0.067422105808988927 -0.056263452592914785 -0.012129047646579315 -0.02066008312456618 -0.073952689768398111 -0.064176900178913823 -0.086176869153218913 -0.01019372213403627 0.15921520027039179 -0.0017371063714497613 0.015925689208882075 -0.0013063561305752351 0.036861485661706016 -0.032157835661526087 -0.0012644869276082678 -0.10453298462498981 -0.04260336666851948 0.042938917967839357 -0.0036457015224483176 -0.011678040464540381 0.024108564873867679 0.094249112824825662 0.015004636099520194 -0.0039311693299987054
leaf_weight=4736 3088 2767 1332 2838 3258 430 2772 4031 1630 6353 2981 395 264 676 683 19545 15694 4675 3235 11761 475 220 5008 7673 5431 16203 3251 973 2207 550
leaf_count=4736 3088 2767 1332 2838 3258 430 2772 4031 1630 6353 2981 395 264 676 683 19545 15694 4675 3235 11761 475 220 5008 7673 5431 16203 3251 973 2207 550
internal_value=-3.00067e-06 -0.0055808 0.00843669 0.0526783 -0.0221254 -0.00657352 -0.01266 -0.0279958 0.0313279 -0.0349237 -0.0362062 0.0274594 -0.004323 0.0223943 0.0893012 0.00226384 0.0139591 0.0134012 0.00359261 -0.0261825 0.0596712 0.0203617 -0.0543788 0.0386761 -0.0110891 -0.0128646 0.012007 0.122574 0.00230037 -0.0340832
internal_weight=135135 122197 66155 12938 56042 36981 33525 10794 8194 9125 22517 29174 24400 24438 4744 26187 16089 7933 25757 14528 3313 6212 7989 8349 6763 16467 4881 1656 2977 770
internal_count=135135 122197 66155 12938 56042 36981 33525 10794 8194 9125 22517 29174 24400 24438 4744 26187 16089 7933 25757 14528 3313 6212 7989 8349 6763 16467 4881 1656 2977 770
cat_boundaries=0 1 2 5 6 9 12 13 14 17 20 21 24 27 30 33 36 39 41 42 45 48
cat_threshold=1 273575 2845180785 2232184904 1990 275590 3234401430 441605101 2688 302058504 1221591808 24 151081752 8357 3243512099 3761087504 1523 218497312 84443136 1088 9442136 553648129 2147483648 2 218235169 2164563968 2 16 269484100 2176 4771842 33622195 32 1073743888 272777509 128 0 0 384 2056 8388608 136347657 2265231665 2702024768 3450 0 32768 2048
is_linear=0
shrinkage=0.13599


Tree=3
num_leaves=31
num_cat=22
split_feature=6 10 9 9 14 9 10 9 9 9 9 10 10 10 9 7 9 8 10 2 0 10 9 2 0 9 9 10 9 0
split_gain=729.191 486.91 350.519 203.683 202.91 157.005 158.513 151.799 138.098 121.341 99.6549 103.476 95.1541 93.9085 84.9572 84.2649 80.1521 79.3387 74.6533 72.7951 72.1533 95.8748 109.616 66.2451 65.8677 64.1642 63.6216 59.0588 56.9131 52.255
threshold=0 1 2 3 37.986095714630203 4 5 6 7 8 9 10 11 12 13 29.417139097482401 14 31.565253353489251 15 12.824999999999998 226.93125000000001 16 17 64.837500000000034 192.01875000000004 18 19 20 21 225.50625000000005
decision_type=1 9 9 9 2 9 9 9 9 9 9 9 9 9 9 2 9 2 9 2 2 9 9 2 2 9 9 9 9 2
left_child=1 2 10 13 -4 12 7 17 -6 -8 11 -1 14 -2 -3 24 -15 26 -5 -9 21 -12 -23 29 -10 -20 -7 28 -11 -17
right_child=3 5 4 18 8 6 9 19 15 27 20 -13 -14 16 -16 23 -18 -19 25 -21 -22 22 -24 -25 -26 -27 -28 -29 -30 -31
leaf_value=0.027923828119925342 0.017764848164594442 -0.02247970225717991 -0.041639243021572833 0.036530096034819673 0.027809877998115226 0.049249916443686703 0.0015203378098240289 -0.014164898656080029 -0.13400342743252916 -0.0057034469442310606 0.010618886452089098 -0.068600355450684533 -0.017113657366405518 0.07010945919104139 -0.059639303050994824 0.01045868940567209 0.036747434991761169 0.0040073507672443972 -0.011281534091117488 0.016497796783760364 -0.020131901821612726 -0.027629447853468499 0.0017382072854827024 0.040101412966259936 0.00073495464581839617 0.012876317882518293 0.012001024802227145 -0.034897478026214818 -0.026648679121991075 0.00070173473696928277
leaf_weight=210 2807 2137 1158 1381 5977 1324 4229 8224 112 3823 4645 789 13893 1492 1694 26633 4439 5016 2359 1361 5583 3525 4193 959 107 5529 1482 4002 4039 12013
leaf_count=210 2807 2137 1158 1381 5977 1324 4229 8224 112 3823 4645 789 13893 1492 1694 26633 4439 5016 2359 1361 5583 3525 4193 959 107 5529 1482 4002 4039 12013
internal_value=-3.31194e-06 -0.00354052 0.00344062 0.0230048 0.00912907 -0.0125206 -0.00756964 0.000555042 0.0104147 -0.0163526 -0.0106567 -0.0482343 -0.0218688 0.0364469 -0.0390235 0.00779494 0.0452439 0.0132413 0.0102823 -0.00980079 -0.0085392 -0.00331097 -0.0116931 0.00821698 -0.0681723 0.00564649 0.0297951 -0.0227194 -0.016484 0.00742577
internal_weight=135135 117128 65904 18007 46959 51224 33500 17407 45801 16093 18945 999 17724 8738 3831 39824 5931 7822 9269 9585 17946 12363 7718 39605 219 7888 2806 11864 7862 38646
internal_count=135135 117128 65904 18007 46959 51224 33500 17407 45801 16093 18945 999 17724 8738 3831 39824 5931 7822 9269 9585 17946 12363 7718 39605 219 7888 2806 11864 7862 38646
cat_boundaries=0 1 2 5 8 11 12 15 18 21 23 24 25 26 28 31 32 33 36 39 42 43 46
cat_threshold=1 11687 302599296 432152338 20 2266014009 2148512835 383 3229686990 1785725935 24 1331208 621855249 268710912 902 2147614977 2147483648 1026 38273281 67215376 35 268435456 8388608 8192 18219008 213881088 8388676 175 16777505 524289 2 51382992 8322 33570816 406854144 4 593412 281035172 512 537920000 4096 516 92504576 739672576 2164785152 2560
is_linear=0
shrinkage=0.12281


Tree=4
num_leaves=31
num_cat=10
split_feature=14 2 10 10 14 7 7 14 7 10 17 10 10 16 14 10 14 7 7 10 10 19 15 10 10 21 2 19 14 7
split_gain=305.673 257.102 153.751 122.549 105.598 91.5875 72.7603 58.2568 53.4957 45.8306 44.6497 40.5447 37.9548 44.3431 35.4577 54.3812 35.1328 33.8204 33.1756 69.4804 67.2287 31.3717 31.3427 36.1242 30.9103 31.8417 29.5761 29.5518 29.0662 28.9465
threshold=27.129630197388817 12.112500000000006 0 1 52.862388818078479 68.498479463233579 28.773186707320523 49.356354335319857 32.846580359531181 2 59.992585406700918 3 4 51.73290608438321 61.615837093940549 5 39.826612956009519 91.164575135752884 49.55304283698289 6 7 57.43463049909132 51.17048982780306 8 9 51.546220715541828 144.99375000000006 45.561100165383571 71.527475024975033 52.195330671116473
decision_type=2 2 9 9 2 2 2 2 2 9 2 9 9 2 2 9 2 2 2 9 9 2 2 9 9 2 2 2 2 2
left_child=-1 2 6 4 16 8 -2 10 -5 -7 12 -12 13 21 -10 28 -3 -8 20 29 -9 -4 -21 -24 -6 -26 -18 -15 -16 -20
right_child=1 3 7 5 24 9 17 18 14 -11 11 -13 -14 27 15 -17 26 -19 19 22 -22 -23 23 -25 25 -27 -28 -29 -30 -31
leaf_value=-0.062310508658398593 -0.022193020751263413 -0.054950973766083717 -0.023926184521253859 -0.0061848286073658432 -0.011433313347819841 0.0097973118977469614 0.0031769706910380032 0.0011964427431486232 0.011139809286536385 0.037369883212453249 -0.0036774124309099333 -0.070362581529735457 -0.006889404988540869 -0.030640648770036399 0.03161626427480746 0.0029808393927137646 -0.012230168649329224 0.018923398438215468 0.011068644112848958 0.01502173543431197 -0.013401781793565798 -0.075074674905503888 -0.01498652323313986 0.0065692177773272499 0.0026937607669672244 0.022103837835959896 0.020180463606227963 -0.0017523091998367262 0.070396900233512111 -0.018312175612498337
leaf_weight=1042 1476 239 2984 2084 699 1117 39558 8875 11547 3110 217 293 24045 582 1011 795 4720 1907 544 3831 7994 169 1342 4442 1849 2888 408 2506 346 2515
leaf_count=1042 1476 239 2984 2084 699 1117 39558 8875 11547 3110 217 293 24045 582 1011 795 4720 1907 544 3831 7994 169 1342 4442 1849 2888 408 2506 346 2515
internal_value=-4.82232e-07 0.000483712 -0.00227847 0.00974209 -0.000177159 0.0150898 0.00300353 -0.00603697 0.0110539 0.0301953 -0.00955276 -0.0434405 -0.00898211 -0.0170065 0.0136764 0.0272867 -0.0116687 0.00390116 -0.00237412 0.00209081 -0.0057287 -0.0266677 0.00691248 0.00155332 0.0111682 0.0144969 -0.00965148 -0.00719694 0.0412007 -0.0130446
internal_weight=135135 134093 103280 30813 10803 20010 42941 60339 15783 4227 30796 510 30286 6241 13699 2152 5367 41465 29543 12674 16869 3153 9615 5784 5436 4737 5128 3088 1357 3059
internal_count=135135 134093 103280 30813 10803 20010 42941 60339 15783 4227 30796 510 30286 6241 13699 2152 5367 41465 29543 12674 16869 3153 9615 5784 5436 4737 5128 3088 1357 3059
cat_boundaries=0 1 2 3 4 5 6 7 8 9 10
cat_threshold=265606 204186688 1315348 1122353 53002240 23174 53477968 1061457 593920 201523200
is_linear=0
shrinkage=0.11549


Tree=5
num_leaves=31
num_cat=22
split_feature=3 0 9 9 10 9 9 10 10 9 9 9 1 10 10 9 0 7 12 10 9 9 9 9 10 10 16 10 9 8
split_gain=107.081 104.71 202.239 146.356 172.976 202.003 169.293 135.327 111.27 102.207 99.9761 96.1607 76.3309 74.1824 68.7886 62.7774 57.4637 80.3186 54.9928 51.4711 109.242 51.1468 48.5196 45.9435 50.5683 44.8792 45.3812 40.2737 74.38 39.0062
threshold=0.30313044425087116 225.50625000000005 0 1 2 3 4 5 6 7 8 9 177.05625000000001 10 11 12 83.006250000000009 44.003249261204211 45.717992266354344 13 14 15 16 17 18 19 51.73290608438321 20 21 22.129740701046675
decision_type=2 2 9 9 9 9 9 9 9 9 9 9 2 9 9 9 2 2 2 9 9 9 9 9 9 9 2 9 9 2
left_child=1 3 27 8 5 22 14 9 10 -4 12 -9 -1 29 16 -10 17 -6 -15 20 -12 -13 -5 24 -8 26 -25 28 -3 -2
right_child=13 2 7 4 6 -7 23 11 15 -11 19 21 -14 18 -16 -17 -18 -19 -20 -21 -22 -23 -24 25 -26 -27 -28 -29 -30 -31
leaf_value=0.034739410655981101 0.22521019087279689 0.019576426136574222 -0.025594126088633925 0.042541960826218486 -0.004669852474713884 -0.0091644099063496638 0.0093360552665003368 -0.054421549797012317 0.011325181327733139 -0.00010839843781020792 -0.036683791982665651 0.065721383954593968 0.0012734140893162038 -0.037124357473369209 -0.043699326803050102 -0.0049057246976012539 -0.020862505070925141 0.14358346430222607 0.014265154873042871 0.015297031909409609 0.011056969720673174 -0.022309466649575348 0.017918613603690625 -0.039884063907562252 -0.013493565566501399 -0.0045194985660032107 -0.0049879679377029191 0.0062107974182406761 -0.02202005364447094 0.041801699526818621
leaf_weight=6480 23 1200 4300 2323 244 5781 7847 2239 7444 10753 1393 123 1677 455 3029 12409 3799 101 3862 6084 2812 5933 4946 1585 2491 12221 1348 17920 2751 1562
leaf_count=6480 23 1200 4300 2323 244 5781 7847 2239 7444 10753 1393 123 1677 455 3029 12409 3799 101 3862 6084 2812 5933 4946 1585 2491 12221 1348 17920 2751 1562
internal_value=-3.10655e-06 -0.000844168 -0.00626874 0.00207551 -0.00326571 0.0103357 -0.0087011 -0.0153145 0.00844961 -0.00740074 0.0162658 -0.0296494 0.027825 0.0184132 -0.027662 0.00118279 -0.0158628 0.0387318 0.00882839 0.00708375 -0.00480773 -0.0204161 0.0258353 -0.00335707 0.0038274 -0.00825758 -0.0237649 0.00339334 -0.00936882 0.0441844
internal_weight=135135 129233 45219 84014 45715 13050 32665 23348 38299 15053 18446 8295 8157 5902 7173 19853 4144 345 4317 10289 4205 6056 7269 25492 10338 15154 2933 21871 3951 1585
internal_count=135135 129233 45219 84014 45715 13050 32665 23348 38299 15053 18446 8295 8157 5902 7173 19853 4144 345 4317 10289 4205 6056 7269 25492 10338 15154 2933 21871 3951 1585
cat_boundaries=0 3 6 7 10 13 14 15 17 20 23 24 25 28 29 32 34 37 40 41 42 43 46
cat_threshold=3758661749 4030490755 3367 2916489491 2219225180 198 8402896 302047748 403704451 3880 302006276 143656961 264 20288 71850 339806336 138576396 2218922243 67108888 194 71434250 46138896 664 18098832 1443843 546310161 4206596 4 40 546308096 4227072 4 0 32768 301989888 135268352 264 66600 589906944 17 2095 65544 144715904 32848 269484033 2304
is_linear=0
shrinkage=0.139811


Tree=6
num_leaves=31
num_cat=3
split_feature=5 8 0 21 19 21 19 12 7 13 6 21 0 21 8 13 12 0 8 17 8 2 17 17 6 3 2 0 12 3
split_gain=109.33 85.8333 75.9875 60.7735 57.1525 42.4268 41.2787 38.784 35.098 26.3303 24.945 24.6475 22.1241 21.4642 21.4619 20.2236 26.1199 38.1057 50.9678 22.1297 21.9426 20.1661 20.0417 19.3061 23.0842 23.5032 19.2128 18.5186 18.0609 17.7317
threshold=0 63.260713028541069 505.87500000000006 51.105130750143907 57.43463049909132 57.68136941095004 58.861157098733614 27.129630197388817 43.383727002556789 49.066406759603431 1 47.145006681540799 70.893750000000011 52.059432629878316 70.325979842441498 50.129489435915694 45.5205784732509 112.21875000000001 46.101411212096046 66.311778394516168 80.520461747512357 102.95625000000003 47.276981744331081 46.168624395627909 2 0.43134892511221362 16.387499999999999 165.65625000000003 67.084802611181942 0.4051233396584441
decision_type=1 2 2 2 2 2 2 2 2 2 1 2 2 2 2 2 2 2 2 2 2 2 2 2 1 2 2 2 2 2
left_child=2 5 3 4 7 6 11 -1 -3 22 27 -2 -9 -8 21 16 17 -11 -19 -17 -20 -6 -5 -13 25 -25 -21 -10 29 -7
right_child=1 8 -4 9 14 28 13 12 10 15 -12 23 -14 -15 -16 19 -18 18 20 26 -22 -23 -24 24 -26 -27 -28 -29 -30 -31
leaf_value=-0.028042391680458058 -0.013210334827716106 0.014560662163225272 -0.036758176170008018 0.0011966963453488185 0.00077991007267047823 0.029435900558041302 -0.031068308820961229 0.01664864683751803 0.015289553343229132 0.040814893538104413 0.028290614976444344 -0.0076582233813751403 -0.0047645564456279665 0.031754012227679519 0.014863753759177374 0.00064830933222978168 0.00940189083388983 0.014036282384131593 -0.053417976440114562 0.012746863031333829 0.018221480216789335 0.03275830418174492 -0.0085071257391699951 0.017491224377817412 0.0037017380356256934 0.092142750823344263 -0.00848099329855714 0.069187324640210629 0.0067396057667804812 0.10426401349845078
leaf_weight=982 989 1675 818 6831 8400 860 699 674 109 169 1085 1071 51481 84 2173 29806 10062 355 443 3814 68 281 5145 1887 3336 60 695 454 583 46
leaf_count=982 989 1675 818 6831 8400 860 699 674 109 169 1085 1071 51481 84 2173 29806 10062 355 443 3814 68 281 5145 1887 3336 60 695 454 583 46
internal_value=-2.48339e-06 0.010262 -0.00108927 -0.000848885 -0.00333711 0.00463935 0.00130041 -0.00492313 0.0265309 0.00192564 0.0386972 0.0040333 -0.00448783 -0.0243287 0.00442742 0.00321728 0.00757478 -0.0101879 -0.0201411 0.00180812 -0.0438847 0.00181504 -0.00297216 0.00671727 0.00963155 0.0197917 0.00947488 0.0587524 0.0228611 0.0332351
internal_weight=135135 12938 122197 121379 63991 9615 8126 53137 3323 57388 1648 7343 52155 783 10854 45412 11097 1035 866 34315 511 8681 11976 6354 5283 1947 4509 563 1489 906
internal_count=135135 12938 122197 121379 63991 9615 8126 53137 3323 57388 1648 7343 52155 783 10854 45412 11097 1035 866 34315 511 8681 11976 6354 5283 1947 4509 563 1489 906
cat_boundaries=0 1 2 3
cat_threshold=1 1 1
is_linear=0
shrinkage=0.117423


Tree=7
num_leaves=31
num_cat=8
split_feature=8 7 1 2 7 3 10 7 1 10 10 8 10 7 12 3 7 7 10 10 1 10 7 7 7 1 7 7 10 7
split_gain=1647.76 1018.27 403.117 384.055 291.468 286.418 268.155 208.897 192.125 201.152 149.289 144.065 123.355 126.267 100.563 87.5246 84.0451 77.8658 74.8277 72.0757 69.4968 59.6343 53.6942 49.9813 48.8153 48.7465 46.6175 46.3845 90.8493 45.3972
threshold=39.708180425858949 44.71443726327437 212.68125000000001 130.03125000000006 35.164835434264312 0.14516129032258071 0 68.498479463233579 236.90625000000003 1 2 80.520461747512357 3 58.791433708969386 65.367992266354335 0.33660612236467041 33.852091075591083 33.314449208983113 4 5 136.44375000000005 6 76.436232621604887 65.727941029956511 100.71606593220417 213.39375000000004 100.71606593220417 66.035000790861275 7 37.882583405003793
decision_type=2 2 2 2 2 2 9 2 2 9 9 2 9 2 2 2 2 2 9 9 2 9 2 2 2 2 2 2 9 2
left_child=3 5 6 4 19 11 15 27 12 26 25 16 13 20 -7 22 18 -13 -2 -1 -6 -16 -3 -12 -9 -4 -10 -8 -29 -14
right_child=1 2 10 -5 8 14 7 24 9 -11 23 17 29 -15 21 -17 -18 -19 -20 -21 -22 -23 -24 -25 -26 -27 -28 28 -30 -31
leaf_value=-0.010972768152629596 -0.0051534821730038179 0.021590991603608018 0.0064483639656767889 0.015448698498438822 -0.011115309305360957 0.0068205458510189774 0.0089401355024593919 0.019582596510364082 -0.010276615956790545 -0.027085966090132644 0.0035386566117614434 -0.0057380357569951383 0.0029608162641464042 0.01286489456863186 0.040348638183025851 0.046308871867639163 -0.0036127386290200846 0.0087657878808600504 -0.01721361562236004 -0.024787719730048424 0.0012780678228128273 0.011862191216314429 0.034552963476958506 0.013324515666092034 0.033966393731119565 -0.012174296259980307 0.01398793091776236 0.029261642675798272 -0.026082744053319885 -0.01078840064943545
leaf_weight=2235 4533 5689 792 2509 3408 5888 12561 6197 8126 4169 5540 2373 1173 2643 697 942 20715 5281 4620 7331 4849 655 1881 3958 1255 2892 366 178 431 11248
leaf_count=2235 4533 5689 792 2509 3408 5888 12561 6197 8126 4169 5540 2373 1173 2643 697 942 20715 5281 4620 7331 4849 655 1881 3958 1255 2892 366 178 431 11248
internal_value=2.15186e-06 0.00545795 0.0128549 -0.00988361 -0.011279 -0.00153477 0.0172213 0.0130999 -0.00853585 -0.0151315 0.00320449 -0.00387169 -0.00495504 0.000212492 0.0105765 0.0271589 -0.00595785 0.00426911 -0.0112653 -0.0215974 -0.00383718 0.0269341 0.0248118 0.0076086 0.022005 -0.00814861 -0.00921997 0.00807105 -0.00985435 -0.00948233
internal_weight=135135 87078 42316 48057 45548 44762 29134 20622 35982 12661 13182 37522 23321 10900 7240 8512 29868 7654 9153 9566 8257 1352 7570 9498 7452 3684 8492 13170 609 12421
internal_count=135135 87078 42316 48057 45548 44762 29134 20622 35982 12661 13182 37522 23321 10900 7240 8512 29868 7654 9153 9566 8257 1352 7570 9498 7452 3684 8492 13170 609 12421
cat_boundaries=0 1 2 3 4 5 6 7 8
cat_threshold=6530 67158016 12288 8389208 13313 33344 12416 8193
is_linear=0
shrinkage=0.0665077


Tree=8
num_leaves=31
num_cat=15
split_feature=9 8 9 9 8 9 9 16 8 7 5 6 12 9 8 8 9 9 16 9 5 8 9 3 8 9 8 7 9 16
split_gain=134.946 74.3108 77.1361 74.668 48.377 68.6037 58.7463 45.6742 39.4514 35.3404 32.4438 31.0369 22.8076 22.6941 22.2764 20.4546 53.3291 18.6812 28.9084 18.0795 18.728 17.7733 44.2831 17.0646 17.0334 16.7005 19.5818 41.8016 16.4673 16.016
threshold=0 31.565253353489251 1 2 46.101411212096046 3 4 51.73290608438321 47.154161696280447 100.71606593220417 5 6 40.380061231871586 7 80.520461747512357 93.862546249527099 8 9 51.73290608438321 10 11 50.417695072270369 12 0.14945487668954285 39.708180425858949 13 80.520461747512357 43.475218926769521 14 51.73290608438321
decision_type=9 2 9 9 2 9 9 2 2 2 1 1 2 9 2 2 9 9 2 9 1 2 9 2 2 9 2 2 9 2
left_child=1 2 11 9 6 10 7 -2 13 14 21 17 -7 -5 24 23 -17 18 -1 -14 -21 22 -6 25 -3 26 -10 -28 -8 -15
right_child=4 3 -4 8 5 12 28 -9 15 -11 -12 -13 19 29 -16 16 -18 -19 -20 20 -22 -23 -24 -25 -26 -27 27 -29 -30 -31
leaf_value=-0.0013223952657915171 -0.027889753742730231 0.018145796310844273 -0.010888834651606729 0.00055992313017591143 0.0075454411005670703 -0.026950981390009954 0.032100028463070737 -0.0075466114446992453 -0.0014371821377424968 0.026873478156973198 0.019749451586081202 0.024198352621944509 -0.013016353001154501 -0.024198057488292447 0.02158051588224932 -0.021041972863736453 0.032717494889059298 -0.0025834240501295632 0.02443805240436997 -0.0053925239074649346 0.012589296709014189 0.0037690409336553106 -0.019049925563422009 0.013691271424115806 0.006879153013523551 0.0061047453908507528 -0.11253056935453848 -0.011641402241634756 -0.0046703272638986982 -0.004749968693873818
leaf_weight=1787 4734 3166 10561 3754 2413 1119 230 3887 4621 3053 2105 1559 5856 1788 3168 472 1403 4991 1594 12647 1229 17228 2414 2751 14393 6723 96 460 13422 1511
leaf_count=1787 4734 3166 10561 3754 2413 1119 230 3887 4621 3053 2105 1559 5856 1788 3168 472 1403 4991 1594 12647 1229 17228 2414 2751 14393 6723 96 460 13422 1511
internal_value=-9.99575e-07 0.00437489 -0.00262098 0.00740289 -0.00441376 -0.00179129 -0.00971542 -0.0186958 0.00185343 0.0128992 0.00325243 0.00617611 -0.00763334 -0.00685322 0.0108471 0.00557039 0.0192467 0.00282745 0.0107907 -0.00654171 -0.00379713 0.00167938 -0.00577883 0.00382013 0.0089106 0.00153816 -0.00439545 -0.0290611 -0.0040278 -0.0152443
internal_weight=135135 67851 20492 47359 67284 45011 22273 8621 23579 23780 24160 9931 20851 7053 20727 16526 1875 8372 3381 19732 13876 22055 4827 14651 17559 11900 5177 556 13652 3299
internal_count=135135 67851 20492 47359 67284 45011 22273 8621 23579 23780 24160 9931 20851 7053 20727 16526 1875 8372 3381 19732 13876 22055 4827 14651 17559 11900 5177 556 13652 3299
cat_boundaries=0 3 6 9 12 15 16 17 20 23 26 29 30 33 36 38
cat_threshold=2820068149 2215579714 3431 537182977 2147549186 2341 2685538613 2148270080 1090 92283074 829458573 648 301992066 676366861 136 1 1 134512640 67174464 2304 134479872 131072 1 16896 65536 293 268503048 41943040 16 1 83894336 540049413 8 311808 65536 2080 0 33554432
is_linear=0
shrinkage=0.139067


Tree=9
num_leaves=31
num_cat=28
split_feature=1 9 10 9 10 9 9 10 9 9 10 9 9 9 10 9 1 10 9 9 10 9 10 9 9 9 10 9 9 9
split_gain=63.1869 98.2737 102.103 90.9598 111.835 92.2089 73.3206 65.7939 80.6437 74.3044 49.7301 57.2164 43.6804 39.583 36.2435 34.389 34.2467 32.8162 30.8431 27.1514 32.0356 25.4692 41.377 24.4331 22.2298 22.1852 21.4141 75.4632 38.5805 23.2706
threshold=212.68125000000001 0 1 2 3 4 5 6 7 8 9 10 11 12 13 14 177.05625000000001 15 16 17 18 19 20 21 22 23 24 25 26 27
decision_type=2 9 9 9 9 9 9 9 9 9 9 9 9 9 9 9 2 9 9 9 9 9 9 9 9 9 9 9 9 9
left_child=3 2 12 7 5 -5 17 8 -1 16 11 -8 -2 -12 15 -11 -9 -6 -4 20 -7 22 -3 -10 -14 -16 27 -23 -28 -29
right_child=1 21 18 4 6 19 10 9 23 14 13 -13 24 -15 25 -17 -18 -19 -20 -21 -22 26 -24 -25 -26 -27 28 29 -30 -31
leaf_value=0.020888109053025999 -0.05904554561668969 0.063659785564223553 0.0010319089275275873 -0.0040081552077695795 0.0048011999177299978 -0.0027604567839743578 -0.008601037824669526 0.0010064244686712339 -0.0042587905778646044 0.019588506307034386 0.0035805325844368704 -0.030414551262365985 -0.004183104687269886 -0.012833020498246301 0.022344970786697071 -0.015407182835955663 -0.015340214509171352 -0.0053215794982977927 -0.010822457984038273 0.013980169909989851 0.042273474175604099 0.0085085430981704808 0.00068892955816908475 0.0086608430206007499 -0.029391248219562561 0.0079675257310141377 0.0093735190103960767 -0.028485665518810748 -0.0012381539184063714 -0.0097712690745817236
leaf_weight=8111 620 238 5368 4809 10407 302 3986 3582 3209 557 4279 3275 711 4453 2103 1585 4075 8767 8333 5316 1145 3417 426 6741 2095 6735 7021 1379 18514 3576
leaf_count=8111 620 238 5368 4809 10407 302 3986 3582 3209 557 4279 3275 711 4453 2103 1585 4075 8767 8333 5316 1145 3417 426 6741 2095 6735 7021 1379 18514 3576
internal_value=-1.85964e-07 -0.00335052 -0.0109019 0.0020757 -0.00149274 0.00890241 -0.00491491 0.00661911 0.0118639 0.00153278 -0.0110103 -0.0184681 -0.0297099 -0.00479488 0.0079607 -0.00625826 -0.0076831 0.000172362 -0.0061806 0.0180751 0.0329201 0.000393571 0.0238694 0.00449401 -0.0230414 0.01141 -7.30588e-05 -0.00542205 0.00168212 -0.0150265
internal_weight=135135 51698 17127 83437 46739 11572 35167 36698 18061 18637 15993 7261 3426 8732 10980 2142 7657 19174 13701 6763 1447 34571 664 9950 2806 8838 33907 8372 25535 4955
internal_count=135135 51698 17127 83437 46739 11572 35167 36698 18061 18637 15993 7261 3426 8732 10980 2142 7657 19174 13701 6763 1447 34571 664 9950 2806 8838 33907 8372 25535 4955
cat_boundaries=0 3 4 7 8 11 14 15 18 21 22 24 26 29 30 33 34 37 40 41 44 45 48 51 53 54 57 60 63
cat_threshold=356784138 247682364 594 212873216 760617267 2387547404 2114 8403648 3490250888 564159152 1169 3221308040 555770096 1713 68414 88346627 101319688 64 88346658 101581832 64 151060524 565312 1343228418 4194314 33555472 41976836 1073744385 4 143269888 134217728 2151678208 2 134481190 17043466 42024960 528 0 1081344 268 2048 0 0 256 45056 536872960 2285895936 2048 268435456 12587272 2 536872961 260 36704832 1074308117 43139 2080 545259621 3221749761 1 545259520 3223322624 8
is_linear=0
shrinkage=0.12196


Tree=10
num_leaves=31
num_cat=20
split_feature=0 3 9 10 0 9 10 9 10 9 9 8 9 0 0 0 14 9 10 9 9 9 9 10 9 9 10 0 10 0
split_gain=32.4993 31.3013 46.258 32.7102 25.1902 24.9169 34.7731 64.1398 31.5352 134.998 34.1541 28.2864 27.9879 39.8239 30.8041 24.2074 21.5284 20.9289 20.3458 42.654 21.9449 18.6311 16.0533 20.7133 42.3571 41.1048 32.2147 28.7882 24.2707 34.2896
threshold=70.18125000000002 0.14945487668954285 0 1 505.87500000000006 2 3 4 5 6 7 28.502998141779944 8 89.418750000000017 236.19375000000005 118.63125000000001 27.129630197388817 9 10 11 12 13 14 15 16 17 18 199.14375000000004 19 303.88125000000008
decision_type=2 2 9 9 2 9 9 9 9 9 9 2 9 2 2 2 2 9 9 9 9 9 9 9 9 9 9 2 9 2
left_child=21 4 -3 -4 5 6 7 -2 9 17 11 -11 15 -14 18 -10 -8 -7 19 -15 -20 -1 -18 24 27 26 -25 -24 29 -27
right_child=1 2 3 -5 -6 8 16 -9 12 10 -12 -13 13 14 -16 -17 22 -19 20 -21 -22 -23 23 25 -26 28 -28 -29 -30 -31
leaf_value=0.033165162850823569 0.019252441333765507 -0.0051181786621396766 0.015044534594028484 0.0032626067467113099 -0.023247208277823707 -0.031338885299328226 -0.03568703360885523 -0.0015291341452086955 0.0056660088297484541 -0.0089264656455114669 -0.0105424855563292 0.008728178853777864 -0.017340290729390938 0.027539488323992993 -0.006370022203079472 -0.0057717328783922668 0.0031029032320269564 -0.06362554830923027 0.014939809094264315 -0.014439633552156536 0.0043738863253422796 0.002352121325051595 -0.00028261135776623487 0.0086892543171793544 0.0078823255023547922 -0.016547335581543761 -0.0088202025940685696 -0.022021801472969876 -0.0039372917800350434 -0.10550245302431985
leaf_weight=721 4364 6169 6029 9892 806 979 273 5124 3443 2171 5770 4289 1557 482 4027 20075 15032 543 4477 1755 10365 559 2709 4273 7160 4099 2725 1505 3692 70
leaf_count=721 4364 6169 6029 9892 806 979 273 5124 3443 2171 5770 4289 1557 482 4027 20075 15032 543 4477 1755 10365 559 2709 4273 7160 4099 2725 1505 3692 70
internal_value=-6.52715e-08 -0.000191184 0.00414373 0.00773086 -0.00104797 -0.000886712 0.00116003 0.00803955 -0.00262903 -0.00792464 -0.00350325 0.0027907 -0.0010507 0.00210941 0.00354522 -0.00409552 -0.000412933 -0.0431978 0.0058831 -0.00531221 0.00756895 0.019986 -0.000179668 -0.00206104 0.00198593 -0.0051581 0.00186827 -0.00802756 -0.0114075 -0.0179978
internal_weight=135135 133855 22090 15921 111765 110959 51026 9488 59933 13752 12230 6460 46181 22663 21106 23518 41538 1522 17079 2237 14842 1280 41265 26233 11374 14859 6998 4214 7861 4169
internal_count=135135 133855 22090 15921 111765 110959 51026 9488 59933 13752 12230 6460 46181 22663 21106 23518 41538 1522 17079 2237 14842 1280 41265 26233 11374 14859 6998 4214 7861 4169
cat_boundaries=0 3 4 7 8 11 12 15 18 21 24 25 27 30 33 36 37 40 43 44 45
cat_threshold=1107414536 1451246517 772 177488564 3770824505 3037485312 2501 109316352 8389160 2953072640 2181 128354308 301989888 1073775168 8 152846402 6430906 512 151865538 14819387 528 0 1073742400 8 135267328 1048576 33555520 33554436 135299076 32 1638592 138412195 8 2151683073 67635456 324 17892514 1073750296 553648128 1 1073750328 553648128 2049 33373 8793
is_linear=0
shrinkage=0.126026


Tree=11
num_leaves=31
num_cat=11
split_feature=12 3 9 0 9 9 0 9 12 0 13 19 8 9 21 3 8 0 9 20 8 0 0 0 9 9 1 9 9 9
split_gain=165.13 151.146 87.6471 67.9201 82.6914 46.7619 36.0126 42.6849 35.9146 31.1005 26.4986 36.9142 25.4973 85.9812 26.8228 20.6684 22.655 27.3021 18.4801 17.9655 16.9672 23.2834 33.9056 26.8227 26.3461 19.0745 17.4597 19.4539 18.108 16.664
threshold=27.129630197388817 0.10714285714285716 0 466.33125000000007 1 2 70.18125000000002 3 49.016699162906065 179.19375000000005 58.261625396095958 57.43463049909132 24.338923826935844 4 50.578056335308808 0.33943279983928215 93.862546249527099 337.36875000000003 5 64.038003178377835 46.101411212096046 226.21875000000003 236.90625000000003 348.76875000000007 6 7 214.81875000000005 8 9 10
decision_type=2 2 9 2 9 9 2 9 2 2 2 2 2 9 2 2 2 2 9 2 2 2 2 2 9 9 2 9 9 9
left_child=5 3 -3 6 -5 -1 18 20 9 -4 11 -6 13 -9 29 -10 17 19 -2 -17 21 24 25 -24 -8 -23 27 -22 -28 -14
right_child=1 2 8 4 10 -7 7 12 15 -11 -12 -13 14 -15 -16 16 -18 -19 -20 -21 26 22 23 -25 -26 -27 28 -29 -30 -31
leaf_value=-0.011591760495719323 0.023332684567970559 -0.001794149506794998 0.010421755022493448 -0.021741809572433973 -0.0045938858605199633 -0.048848718819666431 -0.0030145589862432751 -0.0178441045733259 0.0098236412182204271 -0.00041508272235815571 0.010056869409809807 -0.06180408129166684 0.001307233483060241 0.0019532931988499752 0.0030167842039949431 0.0042736027120122162 0.041321430675961522 0.032450973400129042 0.0027195019758559482 0.025470663838062325 -0.0045332855299250983 0.015103380554678896 -0.023759287279849585 0.00051746627072556356 -0.012554532758632209 -1.9126538239978333e-05 -0.0007324805995809568 0.0017421445362064314 -0.0088873775484926854 -0.0032570770704121563
leaf_weight=440 658 8074 3289 2452 4344 602 3911 2258 10566 4569 938 83 12085 5253 28644 1112 281 515 614 390 5172 918 646 669 4535 1726 3716 11438 4188 11049
leaf_count=440 658 8074 3289 2452 4344 602 3911 2258 10566 4569 938 83 12085 5253 28644 1112 281 515 614 390 5172 918 646 669 4535 1726 3716 11438 4188 11049
internal_value=1.4893e-06 0.000263347 0.00571894 -0.00122862 -0.00885002 -0.0336965 -0.000617451 -0.000805259 0.008643 0.00412072 -0.00291204 -0.0056665 0.00060732 -0.00401947 0.00127861 0.0114122 0.018716 0.0155667 0.0135874 0.0097775 -0.00307308 -0.00563483 -0.000257535 -0.0114086 -0.00815539 0.00528848 -0.001778 -0.000213571 -0.00506559 -0.000873564
internal_weight=135135 134093 28796 105297 7817 1042 97480 96208 20722 7858 5365 4427 59289 7511 51778 12864 2298 2017 1272 1502 36919 12405 3959 1315 8446 2644 24514 16610 7904 23134
internal_count=135135 134093 28796 105297 7817 1042 97480 96208 20722 7858 5365 4427 59289 7511 51778 12864 2298 2017 1272 1502 36919 12405 3959 1315 8446 2644 24514 16610 7904 23134
cat_boundaries=0 3 6 9 12 15 18 21 24 27 30 33
cat_threshold=109153920 348144565 2564 336480256 843182540 2217 1653129940 1476512167 2604 1377377476 1251020399 1560 2235564066 554172544 2242 1638592 138412067 520 1055744 1107297388 528 1074267136 134285312 16 302579712 1115684896 528 35127364 1074790504 1560 2369946161 353112192 2242
is_linear=0
shrinkage=0.0849778


Tree=12
num_leaves=31
num_cat=2
split_feature=12 5 21 0 17 13 6 2 4 8 17 4 19 21 8 8 12 8 12 18 19 0 12 1 0 12 18 0 8 8
split_gain=38.1884 23.4288 28.9377 20.7562 18.7579 18.6637 16.508 17.3619 16.3953 15.9771 14.1104 13.902 13.3882 14.3333 14.4529 13.1405 21.0386 12.9309 14.4677 13.5705 20.6278 21.2603 14.6785 12.9106 12.6315 12.4778 11.8602 11.6703 11.2204 11.047
threshold=49.356354335319857 0 57.052728871128885 206.26875000000004 41.33944151988333 45.571000386065322 1 18.525000000000023 0.78258503401360568 80.520461747512357 59.992585406700918 0.16067842799770515 58.861157098733614 50.926678058907946 66.356585814937759 66.356585814937759 70.462819852561253 66.356585814937759 34.999026749112957 51.73290608438321 57.43463049909132 348.76875000000007 37.986095714630203 216.95625000000004 226.93125000000001 69.493854335319867 51.73290608438321 213.39375000000004 50.417695072270369 47.154161696280447
decision_type=2 1 2 2 2 2 1 2 2 2 2 2 2 2 2 2 2 2 2 2 2 2 2 2 2 2 2 2 2 2
left_child=3 6 5 4 -1 -3 7 -2 -4 12 17 -8 -7 14 -14 26 25 19 -19 20 -5 -22 29 -15 -20 -17 27 -9 -28 -21
right_child=1 2 8 10 -6 9 11 15 -10 -11 -12 -13 13 23 -16 16 -18 18 24 22 21 -23 -24 -25 -26 -27 28 -29 -30 -31
leaf_value=-0.0071852899211681844 0.001014197296468118 0.042858487636310873 0.013995766368054411 -0.003284770345879531 0.00080024371752387578 0.0029794536096756424 0.002341502961144935 0.0023501033567801394 0.046433122921490835 0.01719163710350198 -0.019684243493722161 0.01240260439559049 -0.011526887278233389 0.025620352620430539 -0.05161318959399197 -0.010356136260475095 -0.046051630185215797 -0.038022486900068243 -0.0027000112895060259 -0.001023876593618474 -0.0090893120155426752 -0.043025967312517857 0.0010779741087701064 -0.016623610632343265 -0.01271183757504175 0.066513261180997735 -0.0067826037841379532 -0.011909132667151965 0.0079842526537091552 -0.033147360331410983
leaf_weight=3149 48637 113 1920 15525 30272 4699 3724 835 164 643 510 2073 569 173 103 821 174 148 2993 199 624 251 10541 118 2065 21 771 1669 1414 217
leaf_count=3149 48637 113 1920 15525 30272 4699 3724 835 164 643 510 2073 569 173 103 821 174 148 2993 199 624 251 10541 118 2065 21 771 1669 1414 217
internal_value=-9.91605e-07 0.00162827 0.00646676 -0.00168286 4.78292e-05 0.00319312 0.000944239 0.000411381 0.0165484 0.00248223 -0.00343176 0.00593934 0.000811768 -0.00976555 -0.0176711 -0.00472783 -0.0148805 -0.00317721 -0.00767545 -0.0023212 -0.00411386 -0.0188243 0.000361978 0.0084905 -0.00678748 -0.00843897 -0.00252797 -0.00715416 0.00277361 -0.0177806
internal_weight=135135 68641 8502 66494 33421 6418 60139 54342 2084 6305 33073 5797 5662 963 672 5705 1016 32563 5206 27357 16400 875 10957 291 5058 842 4689 2504 2185 416
internal_count=135135 68641 8502 66494 33421 6418 60139 54342 2084 6305 33073 5797 5662 963 672 5705 1016 32563 5206 27357 16400 875 10957 291 5058 842 4689 2504 2185 416
cat_boundaries=0 1 2
cat_threshold=1 1
is_linear=0
shrinkage=0.0984712


Tree=13
num_leaves=31
num_cat=28
split_feature=10 9 9 10 9 9 10 15 9 9 9 9 10 10 9 9 9 10 9 10 9 1 10 9 9 10 9 10 9 9
split_gain=22.5165 43.2243 36.663 23.2956 55.6512 27.0655 19.6466 39.7736 33.8164 32.2019 18.9738 17.2137 30.9868 25.5933 41.0601 29.211 15.9404 20.4826 15.9719 15.0932 25.8227 16.2356 14.5894 87.8153 29.7998 42.977 29.3009 23.5223 68.5157 35.2062
threshold=0 1 2 3 4 5 6 51.17048982780306 7 8 9 10 11 12 13 14 15 16 17 18 19 134.30625000000001 20 21 22 23 24 25 26 27
decision_type=9 9 9 9 9 9 9 2 9 9 9 9 9 9 9 9 9 9 9 9 9 2 9 9 9 9 9 9 9 9
left_child=2 6 3 4 5 -1 9 10 -9 -2 -8 12 -3 14 -13 19 -5 18 -18 20 -15 -22 23 -4 25 -24 -25 29 -29 -26
right_child=1 11 22 16 -6 -7 7 8 -10 -11 -12 13 -14 15 -16 -17 17 -19 -20 -21 21 -23 24 26 27 -27 -28 28 -30 -31
leaf_value=0.063221726987447505 -0.0014183008517733122 0.0051010015817713056 0.025651641000155927 0.0025052259072300188 -0.013363699148635035 0.0060436323554054735 0.020122258862180793 -0.028260663268139346 -0.0040185208242386177 0.011360648769481042 0.0011313584631211374 0.0086957928705277496 -0.019065678109952838 -0.0089463035315570823 -0.0079177664986269051 -0.0020198713674609626 0.0064091646447970857 0.0064246958692852187 0.028615021817984258 -0.0095967780856948577 -0.033990249286580197 -0.098162417659546128 0.0012689342921646872 -0.013977797901745614 -0.0083388249709909473 -0.014189640402914011 0.0028451122953510027 0.0088115043180449042 -0.010048702888306889 0.0049599214356347973
leaf_weight=115 5454 1047 1998 14245 3394 3591 1171 1051 4018 6043 2191 4674 2927 949 4012 7046 821 14101 1164 4598 764 62 4662 2337 3520 5958 4198 4100 8801 16123
leaf_count=115 5454 1047 1998 14245 3394 3591 1171 1051 4018 6043 2191 4674 2927 949 4012 7046 821 14101 1164 4598 764 62 4662 2337 3520 5958 4198 4100 8801 16123
internal_value=-6.07242e-07 -0.00216717 0.00111787 0.00399206 -0.00222563 0.00798327 0.00206138 -0.00235951 -0.00910854 0.00530255 0.00780919 -0.00539793 -0.0127018 -0.00407969 0.00102183 -0.00738017 0.00544777 0.00805038 0.0195088 -0.0132941 -0.0227642 -0.0383428 -0.000963544 0.00359064 -0.00186447 -0.00740878 -0.00318314 -5.34951e-05 -0.00405266 0.00257377
internal_weight=135135 46007 89128 37431 7100 3706 19928 8431 5069 11497 3362 26079 3974 22105 8686 13419 30331 16086 1985 6373 1775 826 51697 8533 43164 10620 6535 32544 12901 19643
internal_count=135135 46007 89128 37431 7100 3706 19928 8431 5069 11497 3362 26079 3974 22105 8686 13419 30331 16086 1985 6373 1775 826 51697 8533 43164 10620 6535 32544 12901 19643
cat_boundaries=0 1 4 7 8 11 14 15 18 21 24 27 28 29 32 35 38 39 42 43 46 47 50 53 54 56 57 60 63
cat_threshold=8679411 2484091206 3091896472 3855 1775141689 3342073920 1505 270848 1628078904 19136576 256 0 0 256 36876 2147483654 536870928 1281 1052992 2415956096 2565 67112960 2415955984 515 1107362848 1109393408 32 16777224 185597956 159941265 67461152 16 143016593 67387424 16 17466128 2166620224 288 8388640 671088648 1141899264 1024 131080 134610945 67371008 16 8768 301999104 809534208 2058 302001152 683705088 8 401 2147555330 545820 281730 2214596610 599060 16 67108864 204804 16
is_linear=0
shrinkage=0.120605


Tree=14
num_leaves=31
num_cat=11
split_feature=21 9 9 12 8 11 13 0 9 9 13 8 9 2 3 0 0 9 0 9 9 0 8 15 0 9 11 9 0 9
split_gain=16.1698 25.8119 22.2333 16.2051 14.1869 13.5114 10.7201 12.2186 16.3709 10.5966 10.1821 10.0991 16.209 9.89718 9.6737 9.61354 9.59688 17.782 17.3366 36.6174 23.3155 14.9805 9.67525 9.66293 9.35638 8.81282 8.62688 7.98994 7.97237 13.0493
threshold=51.546220715541828 0 1 37.986095714630203 70.325979842441498 52.287648846094534 50.232449210290461 116.49375000000002 2 3 47.364176400082791 70.325979842441498 4 96.900000000000034 0.40132679105791236 345.20625000000007 118.63125000000001 5 170.64375000000004 6 7 112.93125000000002 21.90643572527344 51.842713556699088 199.14375000000004 8 46.639347340436622 9 251.15625000000003 10
decision_type=2 9 9 2 2 2 2 2 9 9 2 2 9 2 2 2 2 9 2 9 9 2 2 2 2 9 2 9 2 9
left_child=1 3 4 -1 5 -2 10 8 -8 13 14 15 -13 -4 26 28 17 -11 19 -18 -20 -19 -22 -23 -14 -26 -3 -17 -5 -30
right_child=2 6 9 11 -6 -7 7 -9 -10 16 -12 12 24 -15 -16 27 18 21 20 -21 22 23 -24 -25 25 -27 -28 -29 29 -31
leaf_value=-0.018236424435716391 0.018042331414452852 0.0086333044068152721 0.001405041924981228 -0.0021544875595126941 -0.0019936795728761315 0.0061258972938880423 0.010160461233055595 0.00040161162022115245 0.00070339454482769715 0.0066638731800347352 -0.0018530556953634573 -0.013860915669009278 0.0003293167027824991 0.0087582766317957864 0.046885851458538443 -0.00015722168652154453 -0.013995828272363351 -0.0041182810144321296 -0.0032502013830251939 5.455002564351033e-05 -0.0065967051691616157 0.0011400173328221395 0.0026670021293734446 0.024295445975302237 -0.00070033473672321471 -0.020821032142659492 0.00030366250745443357 -0.013273532949525773 -0.005648921873487968 0.0097746535497929502
leaf_weight=445 767 821 23759 9465 918 2373 1986 20874 2544 2979 22907 1263 1584 1170 28 450 1816 2574 8369 2974 731 248 11366 197 257 280 9786 785 523 896
leaf_count=445 767 821 23759 9465 918 2373 1986 20874 2544 2979 22907 1263 1584 1170 28 450 1816 2574 8369 2974 731 248 11366 197 257 280 9786 785 523 896
internal_value=1.28821e-06 -0.00076443 0.000953259 -0.00354904 0.00652533 0.0090367 -1.04411e-05 0.00119902 0.00487345 0.00054954 -0.000926467 -0.00312975 -0.00689964 0.00174945 0.00106934 -0.00207707 -0.000407795 0.0023986 -0.00107444 -0.00530138 -8.51404e-05 -0.00182619 0.00210547 0.0113908 -0.00267642 -0.0115923 0.000948391 -0.00860306 -0.00133657 0.00411907
internal_weight=135135 74894 60241 15948 4058 3140 58946 25404 4530 56183 33542 15503 3384 24929 10635 12119 31254 5998 25256 4790 20466 3019 12097 445 2121 537 10607 1235 10884 1419
internal_count=135135 74894 60241 15948 4058 3140 58946 25404 4530 56183 33542 15503 3384 24929 10635 12119 31254 5998 25256 4790 20466 3019 12097 445 2121 537 10607 1235 10884 1419
cat_boundaries=0 3 6 9 12 15 18 21 24 27 30 33
cat_threshold=1375740938 586155792 393 8200 538968064 257 223936641 487395375 96 1125516615 3410408257 1162 33555464 10485760 385 2353072256 67699774 112 411615872 268453920 2564 2218858624 67699740 112 1342177282 34603264 8 268436482 34603008 8 2 34603776 384
is_linear=0
shrinkage=0.0780508


Tree=15
num_leaves=31
num_cat=20
split_feature=1 0 9 0 9 1 9 10 0 9 1 9 9 10 10 9 0 9 10 9 0 1 10 9 9 7 9 9 10 9
split_gain=11.8466 10.1561 22.3352 21.4265 79.3978 26.8036 60.5628 35.0937 28.2172 69.7742 29.152 43.0137 33.2793 73.9044 47.2036 49.39 27.4017 25.5852 21.7861 26.5944 23.7227 21.23 25.9077 27.838 23.9648 21.8422 20.9676 20.8171 28.4699 26.0384
threshold=513.35625000000016 84.43125000000002 0 99.393750000000011 1 118.63125000000001 2 3 135.01875000000004 4 144.28125000000003 5 6 7 8 9 177.05625000000001 10 11 12 106.51875000000001 325.25625000000008 13 14 15 34.189026779231703 16 17 18 19
decision_type=2 2 9 2 9 2 9 9 2 9 2 9 9 9 9 9 2 9 9 9 2 2 9 9 9 2 9 9 9 9
left_child=1 2 -1 4 -3 6 -5 -7 9 -9 11 -10 13 26 17 16 -16 -14 19 -8 -20 22 24 -24 -19 -23 -12 -15 29 -29
right_child=-2 3 -4 5 -6 7 18 8 10 -11 12 -13 14 27 15 -17 -18 21 20 -21 -22 25 23 -25 -26 -27 -28 28 -30 -31
leaf_value=0.0111766710054583 -0.013733459336168104 -0.017868414953702935 -0.0046198805257786826 0.010768388882068618 0.0012798688838597026 -0.032494107643258489 -0.0076589011838573279 -0.014075962877325095 -0.0051034640451393283 0.0010332226238220625 0.0084590550059902691 0.0098692977317820368 -0.002755538124240414 0.00016744978168313366 0.0037459711115212808 -0.0014178100912158971 -0.011573499109662161 -0.0075767248141377008 0.001287168059346619 0.0058669763500851487 -0.010948129834184877 0.039121340324453725 0.00015313638176295223 0.012283684140712913 0.005436575445523428 -0.0014709401585969234 0.0028681205799400938 -0.033195753893439442 -0.0032315450553566387 -0.010005865183428664
leaf_weight=1826 489 2411 1125 5835 5618 254 1432 3819 2094 6347 7800 5236 10437 5196 1033 14807 7797 1920 2528 5357 2426 105 2155 4746 2578 7544 16048 512 4161 1499
leaf_count=1826 489 2411 1125 5835 5618 254 1432 3819 2094 6347 7800 5236 10437 5196 1033 14807 7797 1920 2528 5357 2426 105 2155 4746 2578 7544 16048 512 4161 1499
internal_value=-1.1289e-06 4.87434e-05 0.00517682 -6.61657e-05 -0.00449076 0.000221101 0.00341785 -0.000308577 -0.00022824 -0.00465558 0.0002422 0.00559845 -0.000202244 0.00190449 -0.00159891 -0.00454082 -0.00977025 0.000760243 -0.000243536 0.0030069 -0.00469504 0.00268709 0.00510567 0.00850134 -0.00012272 -0.000913718 0.00469953 -0.00395799 -0.00742572 -0.016045
internal_weight=135135 134646 2951 131695 8029 123666 17578 106088 105834 10166 95668 7330 88338 35216 53122 23637 8830 29485 11743 6789 4954 19048 11399 6901 4498 7649 23848 11368 6172 2011
internal_count=135135 134646 2951 131695 8029 123666 17578 106088 105834 10166 95668 7330 88338 35216 53122 23637 8830 29485 11743 6789 4954 19048 11399 6901 4498 7649 23848 11368 6172 2011
cat_boundaries=0 3 6 9 10 13 16 19 20 21 24 27 28 31 32 35 38 41 44 45 48
cat_threshold=1638532 407902371 2560 1778402084 1091611329 520 3779137152 1800780557 42 196610 463101956 970414128 2564 562152080 172263599 2304 579527429 3503479328 2820 60061056 136367952 3292794890 587801616 1089 336661648 201589132 8 16908427 278528016 276971552 260 1280 20971584 33555521 18 1207959554 556277779 32 578830848 32768 772 8945925 1074940416 2048 524400 512 2151677984 256
is_linear=0
shrinkage=0.088387


Tree=16
num_leaves=31
num_cat=7
split_feature=0 10 10 0 4 0 16 11 11 10 12 12 0 12 7 12 10 2 0 0 8 2 4 2 10 10 7 21 11 10
split_gain=7.71951 33.8171 15.3402 15.2285 18.7196 16.7085 15.1248 14.4402 23.8968 35.7792 41.937 23.5292 60.5919 12.9822 11.6548 11.1262 11.0946 12.4116 10.4978 10.4871 9.9988 9.88312 7.92395 7.91012 10.2155 8.35476 7.46177 7.37928 13.4775 14.6682
threshold=236.90625000000003 0 1 345.20625000000007 0.25760467268100867 251.15625000000003 51.73290608438321 46.639347340436622 47.104349242094436 2 48.879199162906062 42.725750887043993 177.76875000000004 37.986095714630203 32.846580359531181 50.475750887043993 3 168.50625000000005 340.93125000000003 315.99375000000003 22.129740701046675 164.23125000000005 0.21874999999999997 19.237500000000004 4 5 55.793498292574363 57.052728871128885 58.220652427157624 6
decision_type=2 9 9 2 2 2 2 2 2 9 2 2 2 2 2 2 9 2 2 2 2 2 2 2 9 9 2 2 2 9
left_child=2 13 -1 5 20 -3 18 23 9 10 11 -9 26 16 -15 -12 19 -18 -7 -2 -5 -16 -11 24 -4 -25 -13 -10 -29 -30
right_child=1 3 7 4 -6 6 -8 8 27 22 15 12 -14 14 21 -17 17 -19 -20 -21 -22 -23 -24 25 -26 -27 -28 28 29 -31
leaf_value=0.0081368148713717638 -0.020718498692580654 -0.019828026536620708 0.014047735278660781 -0.032222324139907464 -0.0029867024873274149 -0.0078532918219121704 0.01175360296325509 -0.030121750805897164 -0.00052756898139178041 -0.0044507663619768306 0.014810713450109191 -0.12460360848946868 -0.013903050259260643 -0.007705901744651451 0.00061956923997173805 -0.020540548249885 0.0029478479162916241 -0.060005345018381083 -0.051728905711384415 -0.081611069897494004 -0.085292638218901415 0.015479252802264152 0.019279797413537594 -0.017627280667793073 0.0037570926895452877 0.0025058405018680051 -0.19020888559178661 0.0067123112389380615 -0.0062260028143744919 0.0029421696028482805
leaf_weight=4065 111 1573 1951 108 153 765 747 226 66547 2468 214 87 100 2700 22704 432 343 59 99 77 121 743 249 479 7551 1025 41 7036 4285 8076
leaf_count=4065 111 1573 1951 108 153 765 747 226 66547 2468 214 87 100 2700 22704 432 343 59 99 77 121 743 249 479 7551 1025 41 7036 4285 8076
internal_value=-4.55886e-06 -0.00178685 0.000510636 -0.0133657 -0.037323 -0.0105334 -0.00145809 0.000202164 -0.000329267 -0.0101453 -0.0293161 -0.0591121 -0.0878482 -0.000237453 0.000182118 -0.00882976 -0.0188356 -0.00613884 -0.0128807 -0.0433526 -0.0602638 0.00109045 -0.00226763 0.00453651 0.00588876 -0.00400678 -0.145618 0.00010669 0.0022827 -0.000238678
internal_weight=135135 30303 104832 3566 382 3184 1611 100767 89761 3817 1100 454 228 26737 26147 646 590 402 864 188 229 23447 2717 11006 9502 1504 128 85944 19397 12361
internal_count=135135 30303 104832 3566 382 3184 1611 100767 89761 3817 1100 454 228 26737 26147 646 590 402 864 188 229 23447 2717 11006 9502 1504 128 85944 19397 12361
cat_boundaries=0 1 2 3 4 5 6 7
cat_threshold=102811904 336 6177 256 13824 16789632 25886734
is_linear=0
shrinkage=0.126784


Tree=17
num_leaves=31
num_cat=18
split_feature=9 10 9 9 22 10 10 9 10 9 9 0 10 9 9 9 10 9 0 22 9 1 7 1 22 22 8 3 22 10
split_gain=8.56224 12.3904 43.6843 21.2652 17.0114 16.5574 14.4174 14.3696 11.9493 32.6835 25.7465 11.1466 10.5576 18.0624 13.6718 8.91776 8.58847 29.2591 11.7514 8.89691 8.66935 13.6702 10.913 8.38429 8.11026 9.20306 7.87965 7.69245 7.54266 21.7961
threshold=0 1 2 3 51.830694193713889 4 5 6 7 8 9 112.21875000000001 10 11 12 13 14 15 109.36875000000002 51.197982628665606 16 86.568750000000009 44.003249261204211 469.18125000000003 51.830694193713889 51.197982628665606 66.356585814937759 -0.026578366445916057 51.830694193713889 17
decision_type=9 9 9 9 2 9 9 9 9 9 9 2 9 9 9 9 9 9 2 2 9 2 2 2 2 2 2 2 2 9
left_child=1 3 -3 5 -4 15 11 -8 10 16 -2 -6 14 -14 23 -1 17 19 24 -10 21 22 -18 -5 25 -19 -17 -24 29 -11
right_child=8 2 4 12 6 -7 7 -9 9 28 -12 -13 13 -15 -16 26 20 18 -20 -21 -22 -23 27 -25 -26 -27 -28 -29 -30 -31
leaf_value=0.0058943262880630058 0.0055708905999040381 -0.0092062868522814565 -0.0001931912042340484 -0.0065837064524674992 0.038528633986734798 0.0099094948626514568 0.030716912008675032 0.0091607411254046086 -0.061664641125524999 0.003391990936816251 -0.002128597666075694 -0.02545693721154153 0.002614149798668408 -0.0086230793306358768 0.0057083105225052668 -0.0089971240046970123 0.0053350576877593666 -0.0085491504753740719 -0.021373331762617583 -0.022793178450217746 -0.00069117582504109754 0.0036650401417685778 -0.051081142513978356 -0.05964064249431926 -0.0033592748203447251 0.036162777827696717 0.003917437683194247 0.046471109754904642 -0.011210062459826763 -0.0098997456438022057
leaf_weight=4199 14021 8685 7744 1566 65 10515 752 3514 150 3881 22865 338 5484 5981 7580 2230 306 121 236 551 11126 7278 17 62 316 387 1643 338 6406 6778
leaf_count=4199 14021 8685 7744 1566 65 10515 752 3514 150 3881 22865 338 5484 5981 7580 2230 306 121 236 551 11126 7278 17 62 316 387 1643 338 6406 6778
internal_value=-2.23288e-06 0.00125137 -0.00151393 0.00273743 0.00387125 0.00620957 0.0106208 0.0130236 -0.00101414 -0.00277877 0.000798826 -0.0147702 -0.000385846 -0.00325043 0.00318055 0.00138357 0.000983624 -0.00844372 0.00640646 -0.0306733 0.00185838 0.0054278 0.0249189 -0.00855177 0.0144406 0.0255129 -0.00350946 0.0417996 -0.00736825 -0.00506626
internal_weight=135135 60358 21098 39260 12413 18587 4669 4266 74777 37891 36886 403 20673 11465 9208 8072 20826 1761 1060 701 19065 7939 661 1628 824 508 3873 355 17065 10659
internal_count=135135 60358 21098 39260 12413 18587 4669 4266 74777 37891 36886 403 20673 11465 9208 8072 20826 1761 1060 701 19065 7939 661 1628 824 508 3873 355 17065 10659
cat_boundaries=0 3 4 7 10 11 12 14 15 18 21 22 25 27 29 30 33 36 37
cat_threshold=3290051217 2840517528 1156 1440438 68812944 558120976 4 68812945 541474840 4 107168 76152832 512 36864 161752521 138478662 70329379 2659 830818560 1375731780 280 107168 8192 151525888 1024 8192 6144 68812801 537002000 33619968 0 3153923 32 138412036 2106371 32 67311632
is_linear=0
shrinkage=0.141506


Tree=18
num_leaves=31
num_cat=8
split_feature=1 22 13 1 10 18 19 1 10 18 21 13 13 20 10 10 13 3 10 20 22 10 3 10 1 3 13 21 13 10
split_gain=7.01404 13.6882 11.4785 6.66989 14.6962 15.5647 10.2617 9.58576 21.8298 25.1798 12.916 20.0229 20.8093 21.7239 15.6165 10.2804 14.1382 8.71729 8.68949 15.4426 13.992 27.5375 21.9639 19.6798 13.2477 12.4928 14.9676 11.7669 11.7647 11.1695
threshold=70.893750000000011 51.197982628665606 49.066406759603431 102.24375000000002 0 51.73290608438321 58.861157098733614 118.63125000000001 1 51.73290608438321 49.647007269875807 50.129489435915694 50.232449210290461 58.838723639472931 2 3 60.061136016172021 0.31260809994548971 4 53.637230031096379 51.830694193713889 5 0.10672444505343935 6 142.85625000000002 1.0000000180025095e-35 49.066406759603431 49.305514018853124 49.812888602363167 7
decision_type=2 2 2 2 9 2 2 2 9 2 2 2 2 2 9 9 2 2 9 2 2 9 2 9 2 2 2 2 2 9
left_child=1 -1 -3 4 5 -2 -6 8 9 -5 11 -10 13 14 -13 16 -14 -7 19 -9 23 -22 27 -21 25 -20 -27 -23 -28 -26
right_child=3 2 -4 7 6 17 -8 18 10 -11 -12 12 15 -15 -16 -17 -18 -19 24 20 21 22 -24 -25 29 26 28 -29 -30 -31
leaf_value=-0.0073284150373630862 -0.0047867594870044236 -0.0065131404345400799 0.012632288307698128 -0.01256442185190712 -0.0079233729560086348 0.0099631608516317152 0.01166770917714958 -0.00044988380463469968 0.0088996858717495745 0.0083873655828230857 0.0074454522813630283 -0.053471891442048364 -0.02077073755609805 -0.087875338843382972 -0.0052666798923211343 0.0068972719502528061 0.0082230362501179936 0.097302102464038295 0.013499452954896161 -0.011106685699076777 -2.8897537122913349e-06 -0.066225149769101516 0.0062174434404490397 0.0048022828504236999 -0.0060669604163271582 0.013452348335637947 -0.020147406963881658 -0.028946106446021837 0.00064235289771025347 0.0001540734878750092
leaf_weight=882 1699 501 2178 2215 5335 1639 372 16019 1765 1125 8415 111 589 67 344 940 348 14.999999999999998 1771 2031 940 127 218 1998 3942 1062 416 829 2377 74865
leaf_count=882 1699 501 2178 2215 5335 1639 372 16019 1765 1125 8415 111 589 67 344 940 348 15 1771 2031 940 127 218 1998 3942 1062 416 829 2377 74865
internal_value=3.65113e-07 0.00499477 0.0090519 -0.000134807 -0.00312079 0.00287138 -0.00663474 8.60091e-05 0.00269646 -0.00549087 0.00487087 -0.0003204 -0.00710383 -0.0272455 -0.0183176 -0.00150237 -0.00989688 0.0107552 -0.000303838 -0.00231313 -0.00717565 -0.0146898 -0.0262259 -0.003233 0.000223809 0.00557047 0.00192787 -0.0338984 -0.00245415 -0.000157859
internal_weight=135135 3561 2679 131574 9060 3353 5707 122514 15919 3340 12579 4164 2399 522 455 1877 937 1654 106595 22162 6143 2114 1174 4029 84433 5626 3855 956 2793 78807
internal_count=135135 3561 2679 131574 9060 3353 5707 122514 15919 3340 12579 4164 2399 522 455 1877 937 1654 106595 22162 6143 2114 1174 4029 84433 5626 3855 956 2793 78807
cat_boundaries=0 1 2 3 4 5 6 7 8
cat_threshold=16777220 525316 8 9 151719951 150994945 134217737 32
is_linear=0
shrinkage=0.114047


Tree=19
num_leaves=31
num_cat=18
split_feature=17 10 19 19 10 12 9 9 9 17 10 17 10 21 10 21 10 9 17 9 9 9 10 16 10 12 10 10 21 9
split_gain=7.29053 13.7662 20.3524 25.2652 39.0207 29.5741 17.854 16.3374 9.02565 8.89427 17.275 16.928 78.8384 29.356 31.5885 18.7266 17.0019 22.0937 22.0612 18.1063 12.9167 11.4314 11.2918 11.0286 10.9504 9.94633 9.80319 9.74838 21.603 9.50065
threshold=48.805014060823574 0 49.747969163406118 50.49823761644209 1 49.016699162906065 2 3 4 58.426733084108626 5 54.4466868999071 6 50.578056335308808 7 53.794327354037634 8 9 52.015957068867742 10 11 12 13 51.73290608438321 14 41.21497502497504 15 16 53.794327354037634 17
decision_type=2 9 2 2 9 2 9 9 9 2 9 2 9 2 9 2 9 9 2 9 9 9 9 2 9 2 9 9 2 9
left_child=1 2 7 4 5 -4 -3 -1 -5 11 21 16 15 14 -14 24 17 23 25 -18 -12 -11 -16 -2 -13 -19 -17 28 -15 -20
right_child=9 6 3 8 -6 -7 -8 -9 -10 10 20 12 13 27 22 26 19 18 29 -21 -22 -23 -24 -25 -26 -27 -28 -29 -30 -31
leaf_value=-0.0009204211670474858 -0.0048073990579623116 -0.0067984035898621727 -0.039650020451706541 0.0083935894588734478 0.0058121915090319455 -0.0055893378492416377 -0.00086150603532078661 0.0067200053615720555 -0.0033261504504405806 0.0077124528403845344 0.00060824651320388174 -0.023409190167050023 0.051822803051545067 0.0077820751472718278 -0.010294617209278895 0.026197507609639716 0.0018163415155184365 -0.010046436737388123 0.0059762587725593844 -0.0047955011814475078 -0.0051297834999370056 -0.00030517376670211645 0.02208277444714906 0.0022038130117629146 -0.0052421740826005484 0.0027587358650599594 0.0025850985760183845 0.0061958487049317374 0.046580642314780624 0.014888648212108791
leaf_weight=5807 5954 8362 753 1304 738 508 21563 7803 1923 3625 7843 440 475 509 149 275 8783 770 3139 11213 11531 5071 833 4840 3442 11537 817 2197 257 2674
leaf_count=5807 5954 8362 753 1304 738 508 21563 7803 1923 3625 7843 440 475 509 149 275 8783 770 3139 11213 11531 5071 833 4840 3442 11537 817 2197 257 2674
internal_value=-2.09255e-06 -0.00106849 0.00124168 -0.00454432 -0.0141813 -0.0257245 -0.00252218 0.00346431 0.00142539 0.000599926 -0.000995443 0.001368 0.00560928 0.0161895 0.0289039 -0.00381741 0.000553395 0.00224434 0.004571 -0.00189187 -0.00280779 0.00304206 0.0171159 -0.00166205 -0.0073751 0.00195757 0.00879502 0.00999208 0.0205313 0.0101119
internal_weight=135135 48761 18836 5226 1999 1261 29925 13610 3227 86374 28070 58304 9394 4420 1457 4974 48910 28914 18120 19996 19374 8696 982 10794 3882 12307 1092 2963 766 5813
internal_count=135135 48761 18836 5226 1999 1261 29925 13610 3227 86374 28070 58304 9394 4420 1457 4974 48910 28914 18120 19996 19374 8696 982 10794 3882 12307 1092 2963 766 5813
cat_boundaries=0 1 2 5 8 11 12 13 14 15 18 21 24 27 28 29 30 31 34
cat_threshold=211026221 297 1342450698 1621254228 2739 2589492195 529795619 1098 1074666708 3758734235 2688 35834576 136981929 18087938 2194729 815481360 436821307 548 4165744177 503666992 117 1351699996 3402029768 2824 1284092865 3662809123 3218 4096 2048 139392 100667984 2370080933 2235990212 2064
is_linear=0
shrinkage=0.109086


Tree=20
num_leaves=31
num_cat=23
split_feature=14 14 10 9 10 9 10 9 9 9 10 9 3 10 9 10 10 17 17 10 9 9 9 9 22 10 9 9 9 3
split_gain=55.1499 28.255 39.379 29.4838 32.5901 25.7774 23.9194 34.1001 25.8769 20.4988 14.3016 21.2026 21.2365 13.5011 15.9597 12.9906 12.5842 12.4663 11.1774 10.9258 16.2552 10.715 10.3799 9.95003 9.87006 20.736 12.2254 11.0754 9.74776 9.61625
threshold=27.129630197388817 49.414112956009511 0 1 2 3 4 5 6 7 8 9 0.22386960631305919 10 11 12 13 59.992585406700918 59.992585406700918 14 15 16 17 18 51.197982628665606 19 20 21 22 0.15969304388422031
decision_type=2 2 9 9 9 9 9 9 9 9 9 9 2 9 9 9 9 2 2 9 9 9 9 9 2 9 9 9 9 2
left_child=5 2 9 4 23 -1 8 -8 16 13 11 -10 -13 14 -2 -7 21 19 28 20 -5 -3 -12 -4 25 27 -27 -9 -6 -15
right_child=1 6 3 17 18 15 7 24 10 -11 22 12 -14 29 -16 -17 -18 -19 -20 -21 -22 -23 -24 -25 -26 26 -28 -29 -30 -31
leaf_value=-0.0027861640731168926 0.0031592022881162399 0.0078232110790706598 -0.0051272447850032243 0.0059067789648968166 -0.012609149819533347 -0.036630350852500035 -0.0036463901004414895 -0.0016015618375844996 0.001690618558444939 -0.00083459492827256637 -0.0011881214470663235 -0.0067694294039379183 0.005929295567285788 0.0026807830048556887 -0.0042183360775343032 -0.015221395781212491 0.0021900386456731526 -0.014589571894272475 -0.033722138799284859 -0.0019969971766996769 -0.0015971015214235958 0.003287468308990764 0.002488297119611006 0.0011640090863511694 0.0025118088660519428 -0.0038123463482646739 0.0063665171782530524 -0.016435756711096879 -0.0064967686706884622 0.0087609055027303966
leaf_weight=450 2309 4178 1878 2081 1916 216 9418 380 4005 22031 4265 3646 648 11251 2588 376 11499 287 78 12920 2845 4646 12911 2364 9529 879 1100 492 2746 1203
leaf_count=450 2309 4178 1878 2081 1916 216 9418 380 4005 22031 4265 3646 648 11251 2588 376 11499 287 78 12920 2845 4646 12911 2364 9529 879 1100 492 2746 1203
internal_value=-4.62375e-07 0.000114645 -0.000831347 -0.00272644 -0.00575373 -0.0148134 0.00104526 -0.000717207 0.00188386 0.000474018 0.000510918 -0.0016911 -0.00484181 0.00213512 -0.00074038 -0.0235115 0.00360376 -0.00122455 -0.00943593 -0.0010103 0.00157847 0.00544148 0.00157524 -0.00162674 0.00151229 -0.00182311 0.001849 -0.0100628 -0.00904983 0.00326547
internal_weight=135135 134093 66497 27115 8982 1042 67596 21798 45798 39382 25475 8299 4294 17351 4897 592 20323 18133 4740 17846 4926 8824 17176 4242 12380 2851 1979 872 4662 12454
internal_count=135135 134093 66497 27115 8982 1042 67596 21798 45798 39382 25475 8299 4294 17351 4897 592 20323 18133 4740 17846 4926 8824 17176 4242 12380 2851 1979 872 4662 12454
cat_boundaries=0 1 4 5 8 9 12 15 18 19 22 23 26 27 28 29 32 35 38 41 42 45 48 51
cat_threshold=211028415 1615662104 1914922268 2225 99904 1657324240 1750700327 2604 35716751 2252413412 676858535 1518 2370056703 2856847361 1486 1703809081 4079513756 147 2148360 8617984 87434482 2049 202375297 1695289361 1073758220 18 17924748 2148488 24576 302023238 22315649 334 2285900035 2181562368 1410 8978432 276972560 17 1074594816 1344421888 176 18415616 680543746 385930248 512 1212930 86004752 2560 264192 570515732 145
is_linear=0
shrinkage=0.0646373


Tree=21
num_leaves=31
num_cat=12
split_feature=17 0 11 9 12 9 17 8 11 9 9 13 17 11 9 3 9 20 2 9 13 9 9 11 20 8 9 18 6 9
split_gain=8.19028 12.9728 9.75942 10.7247 9.73153 11.0391 10.7158 12.2804 11.1796 10.4467 9.2359 8.88543 9.67686 9.64838 14.395 11.7538 11.8492 10.7428 8.88102 7.86275 7.54958 8.25622 7.34499 6.92904 9.81015 6.83623 9.23547 6.82757 6.554 6.53341
threshold=66.311778394516168 484.14375000000007 59.129954030543125 0 74.826612956009527 1 59.481369774933505 93.862546249527099 58.579175483830319 2 3 60.061136016172021 53.672729403161689 57.212684289842777 4 0.4051233396584441 5 49.49605659998749 34.912499999999987 6 58.261625396095958 7 8 58.220652427157624 59.326475800856215 46.101411212096046 9 51.73290608438321 10 11
decision_type=2 2 2 9 2 9 2 2 2 9 9 2 2 2 9 2 9 2 2 9 2 9 9 2 2 2 9 2 1 9
left_child=4 2 3 -2 6 28 11 8 9 27 -4 12 20 15 -15 16 -14 -17 29 -10 -1 -22 -9 24 25 26 -11 -8 -6 -13
right_child=1 -3 10 -5 5 -7 7 22 19 23 -12 18 13 14 -16 17 -18 -19 -20 -21 21 -23 -24 -25 -26 -27 -28 -29 -30 -31
leaf_value=-0.0003674893389661617 0.014086411810701076 0.029616496609927472 -0.018888795914137547 0.0016812167314127361 0.018339699216966973 0.00042230408220487331 -0.0055826701168975408 -0.0028091662842415922 -0.0044166894304407765 -0.026951367103257438 0.0021062994598373963 0.010415640759370747 -9.1106838105370577e-05 -0.0091132225505186019 0.0021800816679521939 0.089756436011767499 0.0064697653120489133 -0.012340402499818879 0.024794802457644038 0.0097205301016739052 0.0019272428301600167 -0.012384844090619417 0.015778439290985137 -0.019395691870189972 -0.00214065805591233 -0.006481469800259208 -0.0091299887847043452 0.0019538319998751224 0.056573774963062901 -0.00027852255606027705
leaf_weight=87248 1224 233 412 2671 383 597 2541 423 784 572 632 1155 5911 1984 4290 36 7588 19 274 1181 777 1297 645 543 3309 2286 981 3380 63 1696
leaf_count=87248 1224 233 412 2671 383 597 2541 423 784 572 632 1155 5911 1984 4290 36 7588 19 274 1181 777 1297 645 543 3309 2286 981 3380 63 1696
internal_value=-3.56346e-08 0.00428689 0.00309195 0.00562002 -0.000170638 0.0103975 -0.000256137 -0.00285721 -0.00363849 -0.00475662 -0.00633987 0.000129477 -3.58752e-05 0.00215943 -0.0014022 0.00380807 0.00360159 0.0544866 0.00590491 0.00410702 -0.000523197 -0.00707341 0.00853793 -0.00742312 -0.00652401 -0.0103022 -0.0159263 -0.0012783 0.0232199 0.00408946
internal_weight=135135 5172 4939 3895 129963 1043 128920 16645 15577 13612 1044 112275 109150 19828 6274 13554 13499 55 3125 1965 89322 2074 1068 7691 7148 3839 1553 5921 446 2851
internal_count=135135 5172 4939 3895 129963 1043 128920 16645 15577 13612 1044 112275 109150 19828 6274 13554 13499 55 3125 1965 89322 2074 1068 7691 7148 3839 1553 5921 446 2851
cat_boundaries=0 3 6 9 12 15 18 21 24 27 30 31 34
cat_threshold=3527550096 833487136 1497 1646152277 1230063651 3108 3767617347 2328894527 2570 2773751989 285671528 1586 402863363 2745696304 1475 3784821444 72456238 2136 1972094528 118556071 2608 2521175437 302786112 3779 2621581419 598488577 329 17182880 606085184 1345 1 176362114 1834146605 2608
is_linear=0
shrinkage=0.10985


Tree=22
num_leaves=31
num_cat=26
split_feature=1 9 16 9 1 9 9 10 9 10 9 9 10 9 10 9 1 9 10 10 9 9 9 9 9 9 10 10 9 9
split_gain=8.12018 33.3111 10.3474 15.8283 8.43953 20.9129 7.65051 19.0935 16.1342 13.4934 18.7845 16.1483 18.8883 15.4626 14.5738 12.0518 11.6203 11.3634 11.1385 9.83856 9.56929 9.28972 8.84024 8.49886 7.863 7.80644 14.0362 7.30721 7.27323 7.26633
threshold=469.18125000000003 0 51.73290608438321 1 427.14375000000007 2 3 4 5 6 7 8 9 10 11 12 212.68125000000001 13 14 15 16 17 18 19 20 21 22 23 24 25
decision_type=2 9 2 9 2 9 9 9 9 9 9 9 9 9 9 9 2 9 9 9 9 9 9 9 9 9 9 9 9 9
left_child=4 -2 28 -4 6 -6 7 8 18 11 19 12 13 -8 15 -13 24 -9 29 -11 -16 -10 -14 -18 -15 -12 -27 -17 -3 -1
right_child=1 2 3 -5 5 -7 9 17 21 10 25 14 22 16 20 27 23 -19 -20 -21 -22 -23 -24 -25 -26 26 -28 -29 -30 -31
leaf_value=-0.026767524004213387 -0.013170250022852477 0.0031474656566960477 -0.0018816609133241722 0.015818471432371962 0.017973760681710929 -0.0047551631533928459 -0.017155779732824974 0.0054252132929941835 0.01232416824798277 -0.003547739303686989 0.00091532649515002726 0.011455025306569647 -0.0024223329027697688 0.0095036776025415118 -0.0020589814095277126 -0.00095271212693038513 -0.0050720891414277247 -0.0013700542398119135 0.0019392979260708083 -0.013491636939369432 0.0037263829268678592 0.0037892007574337454 0.0030947721626924142 -0.020199803724146041 -0.0026701679691743425 -0.0091179753935023838 -0.0011663990887560568 0.0086623635592668388 -0.0070869125111246 -0.0066152611507857848
leaf_weight=225 2527 1387 1123 1096 944 835 1103 2997 1516 2192 11132 3168 5275 691 6607 2338 1127 27590 2149 2233 6003 18617 8104 654 3511 3035 12482 1378 1687 1409
leaf_count=225 2527 1387 1123 1096 944 835 1103 2997 1516 2192 11132 3168 5275 691 6607 2338 1127 27590 2149 2233 6003 18617 8104 654 3511 3035 12482 1378 1687 1409
internal_value=-6.98516e-07 -0.00328377 0.00145839 0.00692353 0.000200956 0.00737991 9.92213e-05 0.00103457 0.00325577 -0.000618526 -0.00225872 0.000657216 -0.00140194 -0.00577982 0.00281855 0.0067001 -0.00365747 -0.000702679 -0.00302939 -0.00858486 0.000695916 0.00443768 0.000919333 -0.010769 -0.000651971 -0.00120546 -0.00272653 0.00262651 -0.00248194 -0.00953615
internal_weight=135135 7820 5293 2219 127315 1779 125536 54503 23916 71033 31074 39959 20465 7086 19494 6884 5983 30587 3783 4425 12610 20133 13379 1781 4202 26649 15517 3716 3074 1634
internal_count=135135 7820 5293 2219 127315 1779 125536 54503 23916 71033 31074 39959 20465 7086 19494 6884 5983 30587 3783 4425 12610 20133 13379 1781 4202 26649 15517 3716 3074 1634
cat_boundaries=0 3 6 9 12 13 16 17 20 23 24 26 27 30 32 33 34 37 39 42 45 48 51 52 53 56 58
cat_threshold=68044800 509735374 2177 671130480 553781281 616 2568159911 2253979840 1475 1141305400 895611368 3713 146082636 1073741824 67207168 1024 52622515 302056576 135266305 256 163643910 1116603410 94 16945169 12582912 41943056 50368529 33557888 2565 288 0 67207168 1312772 1049416 537398528 2565 288 8 805306368 65538 1082262530 20 134217732 1074266114 6 0 1073741824 84 29360642 34471952 86 143654976 4097 30418244 2702311425 78 0 32768
is_linear=0
shrinkage=0.104965


Tree=23
num_leaves=31
num_cat=12
split_feature=12 9 8 0 8 2 9 1 9 1 9 16 9 9 4 9 9 8 0 6 15 1 9 5 0 9 8 8 7 0
split_gain=4.82381 18.7057 5.53345 6.60504 4.97594 4.55455 12.7361 3.97312 6.66298 3.83015 3.56177 6.23695 38.4266 32.8448 9.68253 7.7286 7.63025 6.94021 6.06297 9.13429 7.71598 5.62402 5.15306 4.59923 4.5979 5.54393 4.5517 4.33692 4.83567 6.23316
threshold=27.129630197388817 0 39.708180425858949 177.05625000000001 39.708180425858949 144.99375000000006 1 519.76875000000007 2 325.25625000000008 3 51.73290608438321 4 5 0.88823142669296551 6 7 93.862546249527099 214.10625000000002 8 51.17048982780306 497.3250000000001 9 10 158.53125000000003 11 18.851987422911439 24.338923826935844 43.362861925489483 196.29375000000002
decision_type=2 9 2 2 2 2 9 2 9 2 9 2 9 9 2 9 9 2 2 1 2 2 9 1 2 9 2 2 2 2
left_child=1 4 3 -3 -1 7 9 10 -9 -7 11 13 22 14 18 -14 -15 -18 19 27 23 -17 -13 -20 25 -21 -22 28 29 -2
right_child=5 2 -4 -5 -6 6 -8 8 -10 -11 -12 12 15 16 -16 21 17 -19 20 24 26 -23 -24 -25 -26 -27 -28 -29 -30 -31
leaf_value=-0.050094371962104589 -0.024630371887455607 -0.046208513784691201 0.010902698802069778 -0.00070854166182427922 -0.020407944497716841 0.025456793626164223 -0.0017205674854527734 0.01289190467218564 -0.019960322706713909 0.0049463538637194984 -0.00050299281834723119 -0.00054778655745751112 0.0094220991417678507 -0.0069456994932833409 -0.07963665285458553 0.0033043667248217647 -0.0026573679058673047 0.0095683619281163122 -0.0043886644389988299 0.0053703339205408186 -0.05098975965779548 0.026368950026911021 -0.0054104596002419779 0.0099104005395193144 0.0068501617153574586 -0.013746460875635174 0.0065599265069310837 0.0090852137961804653 0.0084979018221441344 0.0034248316812948818
leaf_weight=121 187 56 450 200 215 442 1061 110 306 174 76045 6744 6205 6621 19 7083 9590 682 2777 310 19 148 5370 347 470 609 2321 5702 492 259
leaf_count=121 187 56 450 200 215 442 1061 110 306 174 76045 6744 6205 6621 19 7083 9590 682 2777 310 19 148 5370 347 470 609 2321 5702 492 259
internal_value=-2.11206e-06 -0.00793887 0.00304026 -0.0106617 -0.0301998 5.95623e-05 0.00612394 -1.72408e-05 -0.0114433 0.0193492 1.87688e-05 0.000727823 0.00207662 -0.000405366 0.00389664 0.00638597 -0.00384639 -0.00184386 0.00401715 0.00606489 0.00100812 0.00377122 -0.00270604 -0.00280039 -0.0025709 -0.00738907 0.00609264 0.00787139 0.000492665 -0.00833822
internal_weight=135135 1042 706 256 336 134093 1677 132416 416 616 132000 55955 25550 30405 13512 13436 16893 10272 13493 8029 5464 7231 12114 3124 1389 919 2340 6640 938 446
internal_count=135135 1042 706 256 336 134093 1677 132416 416 616 132000 55955 25550 30405 13512 13436 16893 10272 13493 8029 5464 7231 12114 3124 1389 919 2340 6640 938 446
cat_boundaries=0 3 6 9 12 15 18 20 22 23 25 26 29
cat_threshold=2365600035 2166366296 467 609013828 554631297 1026 2281832480 67633152 258 1615291190 2322765012 1409 1078206774 6422608 1024 1078206774 6422544 1024 536953344 34608128 536953344 1053696 1 1074003990 4194384 1 1073750320 0 1024
is_linear=0
shrinkage=0.117102


Tree=24
num_leaves=31
num_cat=3
split_feature=1 1 6 6 5 2 1 15 7 2 8 1 22 8 8 13 19 13 12 1 12 8 7 19 1 16 8 7 1 15
split_gain=2.82443 6.03972 4.80091 3.59706 12.6568 13.7087 14.1331 8.62514 7.02268 6.19839 7.61294 6.88406 6.56585 12.6866 11.3059 8.13351 7.94533 6.45196 7.52548 6.30539 6.77893 6.20875 6.13939 6.08058 7.81887 5.92673 6.35713 8.15696 9.6652 7.28845
threshold=84.43125000000002 85.143750000000011 0 1 2 29.924999999999994 177.76875000000004 51.842713556699088 113.18863028600258 17.812499999999996 66.356585814937759 89.418750000000017 51.830694193713889 63.260713028541069 21.483258955215479 49.812888602363167 58.861157098733614 60.061136016172021 53.449457783595726 371.56875000000008 53.323595714630208 80.520461747512357 31.522378518072411 55.193375540562656 170.64375000000004 51.73290608438321 50.417695072270369 49.010760942406883 348.76875000000007 51.17048982780306
decision_type=2 2 1 1 1 2 2 2 2 2 2 2 2 2 2 2 2 2 2 2 2 2 2 2 2 2 2 2 2 2
left_child=2 -2 -1 4 9 -6 -7 -8 22 -3 11 -11 13 19 -14 -15 23 18 -12 25 -21 -19 -5 24 -17 26 27 28 -13 -28
right_child=1 3 -4 8 5 6 7 -9 -10 10 17 12 14 15 -16 16 -18 21 -20 20 -22 -23 -24 -25 -26 -27 29 -29 -30 -31
leaf_value=0.00073815527375718304 -0.016982876791596831 0.00020410869188848462 0.0094369930164790415 -0.011290561680676362 -0.0020182061202885771 0.021584048408316434 0.010829917382621736 -0.004871590607853196 0.018915914233386111 -0.027798535936527414 -0.012836369037225785 -0.0007271299681123291 -0.026352689889383153 -0.029167081607370936 0.0048662715331539404 -0.025103266953252674 -0.043918795342338758 -0.035193483927457622 0.0043892944850866551 -0.029464348403092349 0.0065920931087652679 0.010862583194457823 -0.0014077550244271627 0.0052635570610149876 -0.0030783626127928367 -0.011083310738463021 0.0044111030947496851 -0.0095348373875055008 0.027287697640143375 0.02357752792202901
leaf_weight=3777 294 96882 1150 925 1886 1085 1307 774 227 135 1004 677 170 304 3109 357 81 218 543 193 116 50 15665 455 601 453 1222 890 229 356
leaf_count=3777 294 96882 1150 925 1886 1085 1307 774 227 135 1004 677 170 304 3109 357 81 218 543 193 116 50 15665 455 601 453 1222 890 229 356
internal_value=-1.85076e-06 -0.000106681 0.00276853 -6.84891e-05 0.000170691 0.00593754 0.0106768 0.00498995 -0.00167701 -9.89569e-05 -0.00272922 -0.00137279 -0.000985572 -0.0033248 0.00324772 -0.0115914 -0.00801504 -0.00971536 -0.00679013 0.000268835 -0.0159286 -0.0266009 -0.00195879 -0.00595686 -0.011286 0.00157665 0.0032764 -0.0015197 0.00635388 0.00873509
internal_weight=135135 130208 4927 129914 113097 5052 3166 2081 16817 108045 11163 9348 9213 5934 3279 1798 1494 1815 1547 4136 309 268 16590 1413 958 3827 3374 1796 906 1578
internal_count=135135 130208 4927 129914 113097 5052 3166 2081 16817 108045 11163 9348 9213 5934 3279 1798 1494 1815 1547 4136 309 268 16590 1413 958 3827 3374 1796 906 1578
cat_boundaries=0 1 2 3
cat_threshold=1 1 1
is_linear=0
shrinkage=0.117877


Tree=25
num_leaves=31
num_cat=25
split_feature=10 9 15 10 10 9 9 9 9 9 9 10 9 15 8 10 9 9 9 10 10 9 9 6 9 9 16 9 10 7
split_gain=3.08915 41.3503 12.2038 15.3182 11.8259 14.9151 11.7848 10.5751 9.98398 9.74677 9.31326 9.00046 12.4605 7.61339 7.39567 6.72993 24.5209 7.79746 7.39067 7.94085 5.75373 17.9909 13.8069 6.24215 5.76523 5.51364 5.33588 6.58447 6.68406 5.78468
threshold=0 1 51.17048982780306 2 3 4 5 6 7 8 9 10 11 51.842713556699088 39.708180425858949 12 13 14 15 16 17 18 19 20 21 22 51.73290608438321 23 24 51.44843822863352
decision_type=9 9 2 9 9 9 9 9 9 9 9 9 9 2 2 9 9 9 9 9 9 9 9 1 9 9 2 9 9 2
left_child=1 8 3 7 5 13 -6 -3 14 -5 11 12 -2 -4 -1 16 25 -18 19 -17 22 -22 23 -13 -25 -12 27 28 29 -23
right_child=10 2 4 9 6 -7 -8 -9 -10 -11 15 20 -14 -15 -16 18 17 -19 -20 -21 21 26 -24 24 -26 -27 -28 -29 -30 -31
leaf_value=0.0076409833890803283 0.032816976900181892 0.043875103208043158 -0.013421344730730783 0.014552837873051583 -0.0027502756239291258 -0.019308944311685866 0.011425558070654016 0.013690681572105956 -0.0073673793587505296 -0.0012045323014504457 0.011896693676617838 0.0077850876571740899 0.003953884000655123 0.02064181203247439 -0.032773522354636493 0.0050607786218009728 -0.019275712576907383 -0.0066982142071970079 -0.0014536937176150096 -0.00097214692058819781 0.0043038154764360398 -0.019215350163745031 -0.00057260978587774034 0.010973214749589866 -0.0079907629358606513 0.00085371106080776014 -0.00062189319866446519 -0.0043295817755843588 -0.010061062423520138 -0.06027873837056056
leaf_weight=119 469 416 220 1459 2657 1206 2460 708 9078 2062 1646 10837 1058 411 585 9997 1283 6776 33538 9095 10648 187 11655 500 1109 2464 5778 5455 1134 125
leaf_count=119 469 416 220 1459 2657 1206 2460 708 9078 2062 1646 10837 1058 411 585 9997 1283 6776 33538 9095 10648 187 11655 500 1109 2464 5778 5455 1134 125
internal_value=-1.16012e-06 -0.00163047 0.00433634 0.0102052 0.000422427 -0.0097177 0.00407376 0.0251505 -0.00870282 0.00534759 0.000305199 0.0018434 0.0129747 0.00862884 -0.0255788 -0.000856999 -0.00398757 -0.00872197 -0.000132536 0.00218782 0.00148235 -0.00017236 0.00308333 0.00650463 -0.00207913 0.00529442 -0.00393194 -0.00670905 -0.0155481 -0.0345594
internal_weight=135135 21381 11599 4645 6954 1837 5117 1124 9782 3521 113754 48955 1527 631 704 64799 12169 8059 52630 19092 47428 23327 24101 12446 1609 4110 12679 6901 1446 312
internal_count=135135 21381 11599 4645 6954 1837 5117 1124 9782 3521 113754 48955 1527 631 704 64799 12169 8059 52630 19092 47428 23327 24101 12446 1609 4110 12679 6901 1446 312
cat_boundaries=0 1 4 5 6 9 12 14 16 19 22 23 26 27 30 32 35 36 37 40 43 44 46 48 50 51
cat_threshold=53149728 189141 675834223 943 65536 589824 688914432 1114240 2048 634456096 1359315072 3072 84152608 17039488 16384 134217761 3368293408 1159861264 1024 553773713 677423471 1933 1048576 512 8 516 143659009 1451492416 1074872832 34 4194560 318767104 2152857606 2467037312 32 67388446 142652549 16850945 543170851 1153 536922768 134252644 268 1 16400 134250560 1107297280 1074872320 18944 2048 24
is_linear=0
shrinkage=0.147779


Tree=26
num_leaves=31
num_cat=12
split_feature=11 9 0 12 9 0 1 9 11 1 9 1 9 9 20 11 9 12 12 9 12 9 9 1 9 1 9 1 13 11
split_gain=2.18325 10.1592 4.21372 3.75483 8.6824 3.86395 5.7497 3.55192 3.15971 7.82873 8.05219 6.86624 8.66355 6.86063 4.20889 4.1606 4.98493 4.54301 5.48071 4.99701 4.10884 10.1021 4.0756 7.16505 8.85875 7.02385 8.21519 5.14447 4.72282 4.11644
threshold=59.129954030543125 0 505.87500000000006 74.826612956009527 1 169.93125000000001 180.61875000000001 2 54.244631420452755 119.34375000000001 3 295.33125000000007 4 5 45.445084677741271 55.630810763440174 6 71.527475024975033 67.084802611181942 7 66.130492266354352 8 9 284.64375000000007 10 228.35625000000002 11 427.14375000000007 60.061136016172021 47.145006681540799
decision_type=2 9 2 2 9 2 2 9 2 2 9 2 9 9 2 2 9 2 2 9 2 9 9 2 9 2 9 2 2 2
left_child=3 -2 7 8 5 -5 -7 -3 20 13 -11 15 -13 -10 -15 16 -12 18 -17 -19 22 -22 23 25 27 -1 -27 -25 -26 -29
right_child=1 2 -4 4 -6 6 -8 -9 9 10 11 12 -14 14 -16 17 -18 19 -20 -21 21 -23 -24 24 28 26 -28 29 -30 -31
leaf_value=0.0012169704295858814 0.0093293594972688066 -0.0046977110836180719 -0.034342065192267311 0.0029128932449896932 -0.0013853992381276847 0.039250078911797825 0.012415094013073157 0.0016004964182824029 0.0066823098415082598 0.0004750117973509754 -0.002036608268917767 0.008811858570759331 -0.0044641016235034267 0.0083982040596732276 -0.002837931866341026 -0.0050798621410217317 -0.017670335893583418 -3.6794872038731353e-05 0.0053462585966681068 -0.022694322053438951 0.0053960281273628058 -0.011699782754632324 -0.00046927057680520108 -0.012017736625105468 -0.00026225604098694652 0.00082297336522535068 0.01157030123363707 -0.012967218754161795 0.014186834246541848 0.0039139141083887139
leaf_weight=30479 1978 1774 52 271 1247 162 385 4505 2856 8376 470 1161 1743 562 3114 7542 812 224 796 387 797 1273 52451 1619 4680 1939 2143 293 347 697
leaf_count=30479 1978 1774 52 271 1247 162 385 4505 2856 8376 470 1161 1743 562 3114 7542 812 224 796 387 797 1273 52451 1619 4680 1939 2143 293 347 697
internal_value=1.66777e-06 0.00187827 -0.000463691 -0.000121277 0.00493282 0.0144055 0.0203626 -0.000183863 -0.000204931 -0.00132179 -0.00242206 -0.0042666 0.000858511 0.00230159 -0.00111707 -0.0057255 -0.0120925 -0.00481338 -0.00408452 -0.0147598 0.000118898 -0.00514794 0.000234087 0.00110821 -0.00220438 0.00184042 0.00649555 -0.00783815 0.000733666 -0.00108222
internal_weight=135135 8309 6331 126826 2065 818 547 6279 124761 28043 21511 13135 2904 6532 3676 10231 1282 8949 8338 611 96718 2070 94648 42197 7636 34561 4082 2609 5027 990
internal_count=135135 8309 6331 126826 2065 818 547 6279 124761 28043 21511 13135 2904 6532 3676 10231 1282 8949 8338 611 96718 2070 94648 42197 7636 34561 4082 2609 5027 990
cat_boundaries=0 3 6 9 12 15 18 20 22 25 28 31 34
cat_threshold=75336 3772917824 275 840814292 1067305 2740 1079036048 294962 2080 84069046 407765376 2924 1879061512 3305113195 146 2500930608 3864329263 1280 676335681 84981772 2156466497 2751485984 2738974761 2296068160 103 2219744033 2535724602 3280 4360224 268435504 3264 71438849 2264925194 144
is_linear=0
shrinkage=0.119501


Tree=27
num_leaves=31
num_cat=21
split_feature=14 9 10 21 9 10 9 10 10 9 9 14 9 10 14 10 10 9 3 10 9 9 9 10 9 13 10 3 21 17
split_gain=11.8192 17.47 10.6729 7.62542 20.2942 21.493 17.4597 22.8941 9.32169 15.0493 12.1103 8.8671 8.76469 14.2446 12.6552 12.8941 11.4236 10.0593 9.44037 8.73422 10.9556 8.37375 7.43008 6.88388 8.22102 7.4698 6.59145 6.41665 6.22076 7.05717
threshold=27.129630197388817 0 1 51.546220715541828 2 3 4 5 6 7 8 37.986095714630203 9 10 45.889543990492271 11 12 13 0.47040383551539749 14 15 16 17 18 19 50.232449210290461 20 0.17802414673786868 52.287648846094534 50.572153034285613
decision_type=2 9 9 2 9 9 9 9 9 9 9 2 9 9 2 9 9 9 2 9 9 9 9 9 9 2 9 2 2 2
left_child=1 -1 -3 6 5 28 7 11 10 -10 23 -2 16 18 15 17 -6 -15 21 20 -9 -14 -16 24 -8 -25 -7 -12 -5 -30
right_child=3 2 -4 4 12 26 8 19 9 -11 27 -13 13 14 22 -17 -18 -19 -20 -21 -22 -23 -24 25 -26 -27 -28 -29 29 -31
leaf_value=0.0030231926342633025 -0.025013272514362115 -0.002601897352061731 -0.019407746379731632 0.016175352680811078 -0.0023038982593982836 0.0036317206255880663 0.0044197715838259722 -0.0018330409968185198 0.00066188416541724886 -0.0024423714587669711 -0.00068331461013378158 0.0016027657831999501 0.0006232936099557179 -0.017042110080060915 -0.0011957549103515641 -0.0010474402264538415 0.00042771272501916446 -0.003829302516440862 0.022039269050494931 -0.0037570012024923964 -0.013037228412014677 0.0033922488370247156 0.0016790349911301188 0.0011792825236205838 -0.0020550205917068843 0.0041236060293356079 -0.0025850141558120148 0.0023448410715069101 0.0018944476988778875 0.011102962610973949
leaf_weight=429 47 242 371 428 9261 1485 954 505 10869 12330 21794 3219 7816 421 6228 1552 14568 462 88 4345 961 8397 7122 7296 2928 5665 1084 2939 485 844
leaf_count=429 47 242 371 428 9261 1485 954 505 10869 12330 21794 3219 7816 421 6228 1552 14568 462 88 4345 961 8397 7122 7296 2928 5665 1084 2939 485 844
internal_value=2.20007e-06 -0.00645187 -0.0129214 5.23529e-05 0.000560299 0.00456969 -0.000361979 -0.00285916 -1.16017e-05 -0.000988333 0.000533512 0.00121602 0.000249241 0.000905504 -0.000397146 -0.00443067 -0.000634433 -0.0102492 0.00216639 -0.00514772 -0.00921624 0.00205986 0.000338259 0.00179121 -0.000456575 0.00246429 0.00100869 -0.000323351 0.00974123 0.00774244
internal_weight=135135 1042 613 134093 60241 4326 73852 9077 64775 23199 41576 3266 55915 32086 15785 2435 23829 883 16301 5811 1466 16213 13350 16843 3882 12961 2569 24733 1757 1329
internal_count=135135 1042 613 134093 60241 4326 73852 9077 64775 23199 41576 3266 55915 32086 15785 2435 23829 883 16301 5811 1466 16213 13350 16843 3882 12961 2569 24733 1757 1329
cat_boundaries=0 3 4 7 8 11 12 13 16 19 22 23 24 25 28 29 32 35 38 39 42 43
cat_threshold=1623769813 1209634855 2596 292897 8200 547356672 257 2143512 301999112 580911616 385 74040 26528231 2220016610 424315374 1096 1635876881 1141209133 2612 2730613392 336141356 2612 201907128 34612288 187327272 218497313 2198085649 1216 16793728 301989888 33554432 128 219284544 155501443 64 1074528293 3360817362 1160 34848 8388609 24576 2560 84001
is_linear=0
shrinkage=0.0608351


Tree=28
num_leaves=31
num_cat=11
split_feature=2 9 2 9 3 3 9 3 9 13 3 12 12 17 5 13 16 8 9 9 9 20 19 12 9 3 8 9 12 9
split_gain=2.64969 12.823 5.78091 12.2512 5.30508 4.58097 4.49627 3.88039 13.4805 3.56532 4.39415 3.92086 4.05448 3.44569 3.35918 4.2373 3.31876 6.68765 4.69679 4.42421 4.34857 3.60321 3.17333 3.08644 4.31024 3.08085 2.85461 2.85346 2.7045 15.8217
threshold=108.65625000000003 0 70.893750000000026 1 0.24273496676211578 0.20081144249127661 2 0.18336216839677047 3 49.812888602363167 0.38621979286536257 43.021009507733652 42.234802611181927 41.33944151988333 4 51.319295118418019 51.73290608438321 66.356585814937759 5 6 7 53.637230031096379 58.861157098733614 90.506785369802628 8 0.37342565273944367 47.154161696280447 9 43.021009507733652 10
decision_type=2 9 2 9 2 2 9 2 9 2 2 2 2 2 1 2 2 2 9 9 9 2 2 2 9 2 2 9 2 9
left_child=2 4 7 5 -2 22 -3 23 16 11 -11 12 -5 -10 -12 -16 17 18 -9 -19 -18 -21 -4 28 -25 -14 -13 -15 29 -1
right_child=1 6 3 9 -6 -7 -8 8 13 10 14 26 25 27 15 -17 20 19 -20 21 -22 -23 -24 24 -26 -27 -28 -29 -30 -31
leaf_value=-0.0067053088104046272 0.036222804277828306 -0.016187361427681079 -0.04504937694238019 -0.0078140996499561719 0.0084902032775958473 -0.011411298423560484 -0.0010746703046184435 0.015791580748937856 -0.020195340776069482 -0.0050199388722117662 -0.0025739331653062587 0.01777490807709909 0.03410280431541822 -0.0074754281439152913 -0.0079701839304867923 0.031206532689708931 0.013412086519913971 0.0091174373200157456 0.00074544498834888098 0.0214704552945508 -0.0017591558272764807 0.048582499608620953 -0.010642680574926929 -0.023768071419492779 -0.002214974839772559 0.10941169590994035 -0.0084723005783098656 0.00068339715896717924 0.00016011370160432903 0.001627627315601819
leaf_weight=6548 127 397 130 17 2279 1362 2227 666 175 1288 197 184 20 973 66 178 526 236 793 173 855 169 73 216 597 18 119 3120 101327 10079
leaf_count=6548 127 397 130 17 2279 1362 2227 666 175 1288 197 184 20 973 66 178 526 236 793 173 855 169 73 216 597 18 119 3120 101327 10079
internal_value=-4.49474e-07 0.00297359 -0.000115429 -0.00529533 0.00991286 -0.0140797 -0.00341393 3.41678e-05 0.00290985 0.00135288 -0.00112436 0.0133548 0.0457932 -0.00204383 0.0102532 0.0206096 0.00907486 0.0124897 0.00772701 0.0245116 0.0041037 0.0338774 -0.0326765 -0.000151932 -0.00826085 0.0697754 0.0074666 -0.00127274 -9.60412e-05 -0.00165708
internal_weight=135135 5030 130105 3652 2406 1565 2624 126453 7686 2087 1729 358 55 4268 441 244 3418 2037 1459 578 1381 342 203 118767 813 38 303 4093 117954 16627
internal_count=135135 5030 130105 3652 2406 1565 2624 126453 7686 2087 1729 358 55 4268 441 244 3418 2037 1459 578 1381 342 203 118767 813 38 303 4093 117954 16627
cat_boundaries=0 3 6 9 12 13 16 19 22 25 28 31
cat_threshold=3038549204 2281777307 3630 558517155 2546651680 101 1073741824 35700804 256 2304123171 156116079 1235 1 2299920672 134479904 1089 2152734976 525356 64 1188128 151135245 1 6049924 854088 98 1116276224 1115685504 8 453260554 2750284371 1419
is_linear=0
shrinkage=0.13206


Tree=29
num_leaves=31
num_cat=14
split_feature=21 9 20 9 1 9 11 19 19 9 9 11 9 9 17 19 20 1 21 21 9 1 1 9 9 9 9 0 9 9
split_gain=2.36067 8.1146 3.54476 5.58075 3.53612 12.3502 7.59771 4.94102 5.78203 4.84301 4.50482 3.94109 3.90076 3.89656 4.63545 3.44413 3.25516 8.03604 6.29908 7.96593 7.34308 6.10447 11.4354 13.0775 9.7005 8.78961 5.9093 4.55042 4.47089 4.0757
threshold=46.639347340436622 0 40.370626437193685 1 469.18125000000003 2 46.639347340436622 49.747969163406118 50.49823761644209 3 4 61.042345961378857 5 6 49.918684459987027 49.549171370908823 47.439901092428094 371.56875000000008 47.145006681540799 47.787347928887733 7 159.24375000000001 110.79375000000002 8 9 10 11 120.05625000000002 12 13
decision_type=2 9 2 9 2 9 2 2 2 9 9 2 9 9 2 2 2 2 2 2 9 2 2 9 9 9 9 2 9 9
left_child=1 -1 3 -2 16 -6 13 12 10 -10 -9 -11 -8 -7 -15 -3 17 18 20 26 -4 22 25 -24 -23 -21 -20 -25 -29 -18
right_child=2 15 4 -5 5 6 7 8 9 11 -12 -13 -14 14 -16 -17 29 -19 19 21 -22 24 23 27 -26 -27 -28 28 -30 -31
leaf_value=-0.0022349992084638574 0.0028571752338614463 0.0077803216426316118 -0.0012231473744007966 -0.012339260465044426 -0.0113438536508308 0.0043697539108798547 0.0027367276453241943 0.019822224031912011 0.0068168649745929842 -0.0011714635985345062 0.0042414455279399946 -0.020727520387497467 -0.0066274946302019083 -0.012640243811801946 -0.042401189518673277 0.0022148441482558669 0.00057967956787907454 0.013214770759357349 0.0031965954674453944 0.0048879734490254907 0.011958510425271822 0.0026606610021970502 -0.0013239349809714307 0.018952910252084596 -0.0027101945730472077 -0.0048112812454508555 -0.0094174504847330549 0.014639351349996013 0.0053773365966973911 -0.00080906556041444118
leaf_weight=3358 434 1868 756 605 1287 107 735 327 889 1515 511 117 1272 275 69 3145 38544 561 540 1648 1083 6241 1476 549 8176 2416 1402 853 1639 52737
leaf_count=3358 434 1868 756 605 1287 107 735 327 889 1515 511 117 1272 275 69 3145 38544 561 540 1648 1083 6241 1476 549 8176 2416 1402 853 1639 52737
internal_value=-6.8692e-07 0.00166908 -0.000110952 -0.00608283 -6.15996e-05 -0.00228642 -0.000262522 0.000812667 0.00322071 0.000764964 0.0106085 -0.00255779 -0.00321753 -0.0130609 -0.018084 0.00428018 7.16406e-05 0.00105431 0.00079956 0.000372 0.006598 0.000905166 0.00307317 0.00662802 -0.00038523 -0.00087793 -0.00594197 0.0104576 0.008628 -0.000222684
internal_weight=135135 8371 126764 1039 125725 7104 5817 5366 3359 2521 838 1632 2007 451 344 5013 118621 27340 26779 24940 1839 22998 8581 4517 14417 4064 1942 3041 2492 91281
internal_count=135135 8371 126764 1039 125725 7104 5817 5366 3359 2521 838 1632 2007 451 344 5013 118621 27340 26779 24940 1839 22998 8581 4517 14417 4064 1942 3041 2492 91281
cat_boundaries=0 3 6 9 12 15 18 21 24 27 30 33 36 39 42
cat_threshold=2374108546 398593840 3806 1313770082 219784217 348 67389440 440463684 1 948510880 537528323 1802 152080662 786560 1316 2425948100 70385696 1038 537428484 2147745793 4 189182381 258736385 2784 294675076 2084589800 2616 193555012 1481687907 2845 76918864 1045404733 512 620842856 302010432 1480 2151682344 33562880 1475 1212599699 526664640 3265
is_linear=0
shrinkage=0.102663


Tree=30
num_leaves=31
num_cat=7
split_feature=10 1 22 10 0 1 10 1 16 17 8 13 0 22 10 13 10 17 19 5 0 1 0 2 13 0 0 0 19 10
split_gain=10.831 10.8618 25.0839 18.8855 15.6145 19.3147 17.0384 15.3803 14.4607 12.3193 12.0455 17.7525 11.2148 10.6879 16.2173 17.1617 13.4164 16.7204 12.5686 11.6783 10.4322 11.0236 9.00506 8.36181 8.44401 8.08017 7.9368 10.4199 8.86036 11.2369
threshold=0 118.63125000000001 51.197982628665606 1 135.01875000000004 134.30625000000001 2 147.13125000000005 51.73290608438321 59.992585406700918 20.617563177563181 54.222243669286975 112.21875000000001 51.830694193713889 3 49.066406759603431 4 40.815467437809893 46.734510760422559 5 189.88125000000005 229.06875000000005 177.05625000000001 34.912499999999987 50.232449210290461 127.89375000000001 98.68125000000002 152.83125000000004 57.43463049909132 6
decision_type=9 2 2 9 2 2 9 2 2 2 2 2 2 2 9 2 9 2 2 1 2 2 2 2 2 2 2 2 2 9
left_child=26 2 9 8 5 -3 -6 -8 -4 -2 -11 -12 -5 14 15 19 20 -18 -19 -9 -15 -22 -16 24 -17 -10 -1 -28 -29 -30
right_child=1 4 3 12 6 -7 7 13 25 10 11 -13 -14 16 22 23 17 18 -20 -21 21 -23 -24 -25 -26 -27 27 28 29 -31
leaf_value=-0.0028082015804703044 -0.0029558909618395022 -0.003268063865477679 0.0014622275765331779 0.0013828428517245618 -0.033986338475927677 -0.016695359532457904 0.0056184148170488769 -0.005761609795952599 0.016732714343431355 0.0279039341296984 -0.055262082188847927 -0.013131997308516989 -0.010343245938329741 0.007837591097152612 0.010647555439151028 0.016422324394866693 -0.025592270954110791 0.0032620353506063572 -0.0066486568578386336 0.049523311356143102 -0.0039230977678287758 0.0028363703146968532 -0.0010071392823553932 -0.0064815384063446084 0.0057749335387773208 0.0073310739598778261 0.0050027898142773267 0.0013908048540809111 -0.0059420197857268028 0.0014110585347091114
leaf_weight=4250 3529 8877 2145 10207 118 998 3164 1053 1300 48 99 544 732 1095 568 1249 339 1320 5694 33 5936 3063 24595 249 1246 1862 5679 38188 3372 3583
leaf_count=4250 3529 8877 2145 10207 118 998 3164 1053 1300 48 99 544 732 1095 568 1249 339 1320 5694 33 5936 3063 24595 249 1246 1862 5679 38188 3372 3583
internal_value=2.84799e-06 -0.000676598 0.0011422 0.00277501 -0.0013013 -0.00462507 -0.000641181 -0.000554895 0.00724835 -0.00514377 -0.0163175 -0.0196186 0.000597627 -0.000975608 0.000101323 0.00564074 -0.00276523 -0.00573507 -0.00478351 -0.00408168 -0.000595561 -0.00162237 -0.000743764 0.00950916 0.011105 0.0111964 0.000990561 0.00130843 0.000843676 -0.00216046
internal_weight=135135 80063 20466 16246 59597 9875 49722 49604 5307 4220 691 643 10939 46440 28993 3830 17447 7353 7014 1086 10094 8999 25163 2744 2495 3162 55072 50822 45143 6955
internal_count=135135 80063 20466 16246 59597 9875 49722 49604 5307 4220 691 643 10939 46440 28993 3830 17447 7353 7014 1086 10094 8999 25163 2744 2495 3162 55072 50822 45143 6955
cat_boundaries=0 1 2 3 4 5 6 7
cat_threshold=8408930 17301641 131072 67112960 169123856 1 2336
is_linear=0
shrinkage=0.0915111


Tree=31
num_leaves=31
num_cat=25
split_feature=9 10 9 9 10 10 9 10 9 9 0 9 10 9 9 10 9 10 15 1 10 9 0 9 9 10 10 15 10 9
split_gain=2.96653 11.9817 15.4338 11.9799 10.0438 7.24523 8.24914 6.61914 8.07334 7.18957 6.86083 6.30171 6.19245 13.5742 13.464 10.1338 6.85732 8.17556 14.6847 6.21264 6.03032 5.90884 5.37666 4.9055 4.81778 5.93367 5.22029 4.94436 4.8104 18.1756
threshold=0 1 2 3 4 5 6 7 8 9 152.83125000000004 10 11 12 13 14 15 16 51.842713556699088 357.31875000000008 17 18 232.63125000000005 19 20 21 22 51.842713556699088 23 24
decision_type=9 9 9 9 9 9 9 9 9 9 2 9 9 9 9 9 9 9 2 2 9 9 2 9 9 9 9 2 9 9
left_child=1 2 -1 4 -3 11 -7 8 -4 -9 -11 -5 14 19 15 21 17 18 -17 -14 -13 -2 -12 -19 25 -6 27 -26 29 -16
right_child=12 3 7 5 24 6 -8 9 -10 10 22 20 13 -15 28 16 -18 23 -20 -21 -22 -23 -24 -25 26 -27 -28 -29 -30 -31
