tree
version=v4
num_class=1
num_tree_per_iteration=1
label_index=0
max_feature_idx=22
objective=regression
feature_names=base_price total_price diff relative_diff_base relative_diff_total is_featured_sku is_display_sku store_encoded sku_encoded store_id sku_id date end_week_serial month week_serial year weekday weeknum end_weekday end_month end_weeknum end_date end_year
feature_infos=[61.274999999999999:562.16250000000002] [41.325000000000003:562.16250000000002] [-106.875:250.79999999999998] [-0.51515151515151525:0.82370820668693001] [-0.34000000000000008:4.6724137931034475] -1:0:1 -1:0:1 [20.713245542336452:117.98501894501895] [16.914188184696659:98.84331373544488] -1:4:20:63:0:15:33:9:66:23:69:48:50:51:2:32:44:35:6:17:5:8:39:27:31:24:29:65:75:73:12:74:58:38:56:18:70:43:60:22:64:19:1:30:34:37:72:14:46:13:62:26:52:61:7:47:45:53:54:67:71:68:36:40:11:57:42:59:25:10:49:16:41:3:28:55 -1:7:0:13:8:10:5:11:1:2:3:14:12:16:15:18:20:24:9:4:6:21:27:17:23:25:26:19 [40.493269411669417:62.741029114977245] [21.964112956009508:94.366699162906059] [44.959153167006058:60.471934441324997] [21.964112956009508:94.366699162906059] [51.14699693713429:52.49144439492634] [51.096943921826252:52.368868246940146] [38.706855736056603:76.375106276013412] [51.096943921826252:52.368868246940146] [44.562938997184538:59.987631829708754] [39.712039321369772:67.598954187023352] [40.493269411669417:62.741029114977245] [51.193982718471815:52.459405848568387]
tree_sizes=2822 3049 3074 3111 2964 3104 3018 2934 3074 3135 3145 3103 3006 3096 3105 3109 2972 3167 2955 3080 3108 3133 3093 2987 2921 3108 2993 3158 3011 3105 2950 3041 3121 3077 3114 3184 3007 2981 3120 3141 3167 3102 2962 2913 3080 2826 2910 2933 3085 3070 2888 2914 2924 3088 3030 3111 3028 2858 2971 3013 2856 2904 2987 3039 3063 3044 3049 2966 3087 3088 3067 2909 2956 3124 3048 2966 3034 3040 2905 2970 2995 2956 2996 3054 3095 2926 3086 3124 3122 3142 2866 3033 3041 3014 3089 2959 3045 3143 2938 2934 2913 3053 3040 3045 2929 3139 3032 3064 2947 3049 2866 2938 3104 2946 3068 3121 2916 3017 3141 3125 2946 3133 3061 3089 3124 2957 3132 3008 2943 3074 3083 2879 2887 2926 3004 2936 3007 3081 3046 3110 2959 3088 3075 3088 3090 3071 3086 3085 2894 2944 2849 2980 2866 3111 3044 3079 3079 2958 2990 2959 2924 3028 2857 3078 3040 3080 3159 3068 3102 2930 3060 2906 2911 2919 2852 3083 3106 3071 3049 3081 3092 3028 3047 3093 2896 2912 3077 3011 3064 3080 3079 2928 2873 3108 3136 2922 3035 3062 2925 2950 3046 3117 3039 3165 2903 2993 3102 3033 3088 3116 3036 3019 2948 3124 3042 2980 3100 3074 2879 2966 3020 2950 2916 3074 3090 3067 2893 2943 3050 2912 2932 3001 3065 2991 3078 2913 3063 3033 2961 3056 3078 2931 2979 2927 3069 3052 2877 3040 3125 3015 2978 3113 3035 2951 2893 2912 3041 3121 3049 3135 2987 3003 3028 3082 2954 2932 3158 2919 2948 3044 3060 3135 2924 2941 3024 3106 2943 3057 3110 2935 2936 2921 2951 3055 2967 2951 2893 3069 2909 2965 3049 3034 3140 2976 3110 3089 2971 3083 2954 3024 2923 3001 3067 3094 3085 3089 3137 3050 3102 3117 3098 3084 2935 2927 3061 2933 2875 3076 3065 2926 2954 3038 2874 3056 2949 3111 3023 3030 2917 2909 2941 2939 3078 3125 2867 2995 2920 2896 3067 3121 2936 3083 3055 3179 2867 2995 2975 3055 2950 3092 3064 2929 3017 3028 3080 2918 3115 3014 2908 2937 2977 2981 3056 2929 2917 2954 3118 2980 3152 3040 2963 2925 3051 2941 3080 3080 2885 3061 3074 3017 3102 3013 3016 2956 2956 2948 3054 2955 2918 2875 3083 3075 2941 3016 3039 2978 3040 2889 3073 3106 3093 2943 2961 3031 2978 2926 3021 3152 3061 3055 2968 3128 3138 2886 3064 3100 2964 2980 2996 3109 2930 3040 2952 3008 3091 3060 2944 3046 2978 2946 2970 2899 2946 3123 3021 2971 3044 3127 2923 3032 3044 2931 3083 2946 3020 3113 2934 2935 2867 3135 2911 2914 3100 3020 3039 2990 3100 2983 2888 3059 3034 3090 3142 2924 2935 3090 3052 3047 2918 2965 2901 3056 3062 2955 3006 3089 2901 2976 3069 2916 3001 2994 2903 3006 3062 2885 2959 3026 3060 3032 3157 3202 3046 2977 2918 3061 2910 2911 2929 2885 3117 3032 3026 3073 3050 2950 3013 3062 2899 3039 2968 2914 2902 2894 2967 3126 2941 3065 3082 2885 2972 3086 3101 3138 3159 3039 2971 2877 3021 3005 3087 2910 2998 3014 2922 3070 2872 2977 3043 3119 3068 3066 3167 2930 2912 3091 3040 2900 3154 2925 3080 3021 3142 2973 3064 3097 3064 3006 2923 2965 2975 3160 3062 3090 2970 2946 3031 3104 3052 3090 2976 2850 2937 3133 2983

Tree=0
num_leaves=31
num_cat=10
split_feature=8 7 6 3 6 10 8 7 10 7 7 7 7 3 10 0 1 3 6 10 7 7 8 7 10 3 3 8 10 10
split_gain=19783.4 10488.5 4575.98 4113.97 2769.07 2084.54 1698.05 1525.68 1511.56 918.304 844.117 836.213 780.677 633.179 565.901 543.694 543.452 494.71 476.79 473.862 344.416 338.332 335.477 318.476 327.641 293.981 283.917 263.475 256.128 229.294
threshold=39.708180425858949 51.44843822863352 0 1.0000000180025095e-35 1 2 93.862546249527099 40.586359321892537 3 50.610171884367652 44.16219437820245 76.436232621604887 76.436232621604887 0.25480788987055686 4 205.55625000000001 226.93125000000001 0.24500651613074825 5 6 66.035000790861275 68.498479463233579 50.417695072270369 27.562016838123711 7 0.32921094884930041 1.0000000180025095e-35 21.90643572527344 8 9
decision_type=2 2 1 2 1 9 2 2 9 2 2 2 2 2 9 2 2 2 1 9 2 2 2 2 9 2 2 2 9 9
left_child=3 2 6 8 5 11 7 16 10 18 -1 -3 26 29 25 21 23 22 -5 -11 27 -12 -6 -2 -25 -9 -7 -10 -22 -4
right_child=1 4 13 9 17 12 -8 14 20 19 15 -13 -14 -15 -16 -17 -18 -19 -20 -21 28 -23 -24 24 -26 -27 -28 -29 -30 -31
leaf_value=0.71566994275411122 0.71898573541809452 0.87165308068935921 0.90115934311001 0.73443815291081005 0.86939934064334101 0.80605508168051454 0.84167594556814851 0.7628686992085858 0.65005091696465145 0.85089389417293793 0.77358087261896236 0.93279176712369927 0.86563518324189126 0.94814042776706775 0.8120489910342078 0.74141797391992914 0.72862618011960123 1.0158504790444123 0.79646357178597993 0.78607345133531203 0.74977833164845953 0.84860716356769517 0.9433268612543162 0.74046831531417456 0.77832558876943092 0.94893691902795696 0.85798268680063061 0.6909910506549487 0.69450306301407416 0.84601615356348303
leaf_weight=10095 1579 8225 1412 3365 941 8912 5178 4576 2363 3310 2400 4085 5294 1485 12649 5948 6097 948 2746 2354 1956 1056 3669 3479 14057 106 1501 10182 2276 2891
leaf_count=10095 1579 8225 1412 3365 941 8912 5178 4576 2363 3310 2400 4085 5294 1485 12649 5948 6097 948 2746 2354 1956 1056 3669 3479 14057 106 1501 10182 2276 2891
internal_value=0.792173 0.823567 0.793202 0.735278 0.87196 0.857832 0.781952 0.774683 0.716864 0.792006 0.737879 0.891861 0.831074 0.885951 0.799912 0.761663 0.757341 0.943181 0.762309 0.824047 0.692531 0.796506 0.928237 0.766499 0.770778 0.767135 0.81354 0.683279 0.71972 0.864489
internal_weight=135135 87084 53509 48051 33575 28017 47721 42543 36276 11775 19499 12310 15707 5788 17331 9404 25212 5558 6111 5664 16777 3456 4610 19115 17536 4682 10413 12545 4232 4303
internal_count=135135 87084 53509 48051 33575 28017 47721 42543 36276 11775 19499 12310 15707 5788 17331 9404 25212 5558 6111 5664 16777 3456 4610 19115 17536 4682 10413 12545 4232 4303
cat_boundaries=0 1 2 3 4 5 6 7 8 9 10
cat_threshold=1 1 1190 9699912 69888 1 311304 65568 151011328 13440
is_linear=0
shrinkage=0.220914


Tree=1
num_leaves=31
num_cat=19
split_feature=8 9 1 9 9 6 10 2 10 10 9 9 9 2 10 4 10 14 9 8 1 9 7 9 10 9 10 9 7 1
split_gain=5065.21 3284.33 1410.5 1387.35 988.63 887.071 737.276 735.88 558.523 379.689 373.774 335.992 333.602 319.839 304.19 298.327 284.691 264.252 249.324 237.288 226.958 197.552 197.156 178.555 177.612 154.643 167.192 153.924 151.852 150.671
threshold=46.101411212096046 0 211.96875000000003 1 2 3 4 1.0000000180025095e-35 5 6 7 8 9 108.65625000000003 10 0.41834702008293351 11 59.380923300837104 12 80.520461747512357 363.73125000000005 13 33.852091075591083 14 15 16 17 18 100.71606593220417 236.90625000000003
decision_type=2 9 2 9 9 1 9 2 9 9 9 9 9 2 9 2 9 2 9 2 2 9 2 9 9 9 9 9 2 2
left_child=3 7 4 13 16 6 11 10 22 23 24 -5 -11 25 17 -10 -3 -9 29 -12 -7 -16 -6 -4 27 -1 -27 -2 -18 -8
right_child=1 2 9 5 8 20 18 14 15 12 19 -13 -14 -15 21 -17 28 -19 -20 -21 -22 -23 -24 -25 -26 26 -28 -29 -30 -31
leaf_value=-0.073562697827567303 -0.051699935251831204 0.089526505310735388 -0.05199043352176981 0.019789540657593162 -0.1168208620294868 0.030244571451143395 -0.0086862276647887652 0.024626901485490276 0.042199338661465441 0.039312872929490289 -0.015618670893452986 -0.014642780507292175 0.0053958581703063445 0.0051341786959689635 -0.021479985960655944 0.099871183772657302 0.050966303685665612 0.10020898800893629 -0.054998396377466098 0.01683841548737474 -0.02340080736332156 0.018456257811317257 0.016792393785217054 -0.0024449314505186875 -0.048884028218516049 -0.069182194915006059 -0.040537043789633916 -0.011613436947989447 0.091519343516188012 -0.040704813284321219
leaf_weight=3150 1287 3675 1323 3463 113 5038 2795 1458 8290 4068 10153 16636 10563 1005 1960 1021 7822 691 5928 2945 950 3452 11775 1664 4564 2836 8315 3943 1063 3189
leaf_count=3150 1287 3675 1323 3463 113 5038 2795 1458 8290 4068 10153 16636 10563 1005 1960 1021 7822 691 5928 2945 950 3452 11775 1664 4564 2836 8315 3943 1063 3189
internal_value=1.00198e-06 0.0157318 0.031256 -0.0241478 0.0433123 -0.0138267 -0.020483 -0.0104656 0.0300029 0.00817188 -0.0194629 -0.0087033 0.0148465 -0.0497298 0.0167611 0.0484713 0.0657 0.0487033 -0.0403176 -0.00831456 0.0217337 0.00398008 0.0155093 -0.0244898 -0.0343287 -0.0536201 -0.0478777 -0.0215578 0.0557553 -0.0257066
internal_weight=135135 81830 51377 53305 33759 37999 32011 30453 21199 17618 22892 20099 14631 15306 7561 9311 12560 2149 11912 13098 5988 5412 11888 2987 9794 14301 11151 5230 8885 5984
internal_count=135135 81830 51377 53305 33759 37999 32011 30453 21199 17618 22892 20099 14631 15306 7561 9311 12560 2149 11912 13098 5988 5412 11888 2987 9794 14301 11151 5230 8885 5984
cat_boundaries=0 3 6 9 10 11 12 13 16 19 22 23 24 27 30 33 34 37 38 40
cat_threshold=1380535432 1523765044 24 3523284102 676367341 648 2702573873 2148278272 1090 1 9781272 1061 4096 302058632 146801440 16 620756993 2147745808 2 2701263649 2147483648 1282 12416 2434 1606465 3288408080 311 302582912 146801408 8 2298744864 2217541704 1025 8327 2176 139461124 8 162660352 8 8389120
is_linear=0
shrinkage=0.100672


Tree=2
num_leaves=31
num_cat=22
split_feature=5 10 9 10 9 10 9 10 1 9 9 9 9 12 12 9 8 10 9 9 9 10 1 12 9 1 9 2 9 10
split_gain=2237.51 1358.29 1370.99 574.98 406.912 395.087 289.131 314.793 264.891 252.931 230.177 170.537 168.542 165.355 152.725 127.585 126.473 120.879 150.125 121.669 114.031 147.476 108.409 102.279 97.5849 90.7315 79.6834 76.3568 74.15 73.3264
threshold=0 1 2 3 4 5 6 7 236.90625000000003 8 9 10 11 37.986095714630203 34.999026749112957 12 63.260713028541069 13 14 15 16 17 369.43125000000003 59.089543990492274 18 147.13125000000005 19 42.750000000000021 20 21
decision_type=1 9 9 9 9 9 9 9 2 9 9 9 9 2 2 9 2 9 9 9 9 9 2 2 9 2 9 2 9 9
left_child=1 2 5 12 17 11 14 24 15 22 -7 25 23 -12 -4 -6 -16 19 -19 -3 -10 26 -5 -2 -8 -1 -22 -20 -18 -11
right_child=3 4 6 9 8 10 7 -9 20 29 13 -13 -14 -15 16 -17 28 18 27 -21 21 -23 -24 -25 -26 -27 -28 -29 -30 -31
leaf_value=0.064635863528324788 0.099656342588998068 0.0045246550092317298 -0.084658021711821629 0.068891564261718788 0.01050564117731002 0.037371807473925579 -0.071868360410234713 -0.043822219553197601 -0.065338692080430152 -0.015152998785315093 -0.07636334333799788 0.024253288643006781 0.069368648717567816 0.005497496269909607 -0.010207020716710504 -0.015973045909456664 -0.0050721350506228438 -0.066419461445683045 -0.034688896860105192 -0.084499110207720232 0.014649247997325626 -0.051990913541333124 0.00088951235791915359 0.16671753890194771 -0.0075531383909643226 0.036085607452554049 -0.025506761141740334 0.011348754364326294 0.017942941333827851 0.02151676855726814
leaf_weight=4456 1286 332 414 2770 5647 4601 444 8886 1882 1594 468 9018 3406 18306 13496 8302 4117 2964 7123 2272 1473 2626 514 625 11499 3826 2380 735 6960 2713
leaf_count=4456 1286 332 414 2770 5647 4601 444 8886 1882 1594 468 9018 3406 18306 13496 8302 4117 2964 7123 2272 1473 2626 514 625 11499 3826 2380 735 6960 2713
internal_value=-1.27457e-05 -0.00569934 0.00351658 0.0538342 -0.0279976 0.0216851 -0.0126145 -0.0244445 -0.0167223 0.0296766 0.0101441 0.037264 0.0881021 0.00345502 -0.00274724 -0.00525755 -0.00136835 -0.0467073 -0.0402769 -0.073175 -0.0358695 -0.0271666 0.0580713 0.120956 -0.0100023 0.0513846 -0.010157 -0.0303441 0.00940052 0.0079418
internal_weight=135135 122227 86491 12908 35736 40675 45816 20829 22310 7591 23375 17300 5317 18774 24987 13949 24573 13426 10822 2604 8361 6479 3284 1911 11943 8282 3853 7858 11077 4307
internal_count=135135 122227 86491 12908 35736 40675 45816 20829 22310 7591 23375 17300 5317 18774 24987 13949 24573 13426 10822 2604 8361 6479 3284 1911 11943 8282 3853 7858 11077 4307
cat_boundaries=0 1 2 5 6 9 10 13 14 17 20 23 26 29 30 33 35 38 39 41 44 47 48
cat_threshold=1 339375 2908132145 2769039428 1223 33568134 2236029230 1936326892 1232 2214 8413262 304333960 2856 8359 3847491875 3794641936 1507 16777505 2147483648 2 2302808321 2232156160 66 2231644465 2838339649 1386 302040577 134570256 815 70385664 4196360 574750764 128 0 268435496 302531728 22784 2560 67158016 0 8388608 537919489 2147745792 262 10 35750912 2048 136478729
is_linear=0
shrinkage=0.13599


Tree=3
num_leaves=31
num_cat=22
split_feature=2 10 9 9 9 10 14 1 10 10 14 14 9 9 14 9 9 10 9 9 9 10 10 10 9 14 9 1 10 9
split_gain=522.347 313.147 362.201 274.44 196.666 151.557 127.291 121.846 119.949 116.144 101.924 91.1893 86.0526 84.8511 82.5871 76.3568 75.932 74.7658 71.5944 67.4756 65.7124 182.115 63.9742 62.9855 56.9711 52.2297 48.4965 48.2134 46.9127 52.5348
threshold=1.0000000180025095e-35 0 1 2 3 4 34.999026749112957 89.418750000000017 5 6 60.394716404285376 37.986095714630203 7 8 27.129630197388817 9 10 11 12 13 14 15 16 17 18 34.999026749112957 19 369.43125000000003 20 21
decision_type=2 9 9 9 9 9 2 2 9 9 2 2 9 9 2 9 9 9 9 9 9 9 9 9 9 2 9 2 9 9
left_child=1 2 7 6 5 11 -2 26 -5 16 12 -3 -10 22 -6 -4 -8 -16 -9 -19 21 -13 -7 24 -15 -14 -1 -11 -21 -30
right_child=3 4 15 8 14 13 9 18 10 27 -12 20 25 23 17 -17 -18 19 -20 28 -22 -23 -24 -25 -26 -27 -28 -29 29 -31
leaf_value=-0.068722411020370092 -0.05985376568828165 -0.046831641097705913 0.027082854760692152 -0.026702760919984317 -0.073121606260788688 -0.0049652818510533868 0.054357752349863106 0.025195293294699012 -0.018070210043226818 0.016020804125258001 0.027600872742288396 0.02051986788007348 -0.05528961487451315 0.029043845104477259 -0.028966182652259621 0.01029463777712848 0.028403300052713916 -0.020088195703295689 -0.013246923449608882 -0.0049205285370911549 0.011510152495195772 -0.019154596849667482 -0.039689386652480486 -0.015330556815117984 -0.0057768147490480848 0.0079655317048637278 -0.025953615311550202 -0.027135163967515488 -0.022702403855821812 -0.0065407226797902524
leaf_weight=715 265 495 7414 1895 344 1218 2254 882 2698 6130 2706 2936 201 1217 3913 9190 7423 9934 4047 20457 13636 4271 2398 3633 1675 9596 995 417 6030 6150
leaf_count=715 265 495 7414 1895 344 1218 2254 882 2698 6130 2706 2936 201 1217 3913 9190 7423 9934 4047 20457 13636 4271 2398 3633 1675 9596 995 417 6030 6150
internal_value=-1.42111e-05 -0.0044052 0.0081107 0.0132627 -0.00812016 -0.000612251 0.0245602 -0.0161191 0.00235058 0.0259541 0.00598763 0.00526216 0.00131172 -0.0129658 -0.013166 0.0178027 0.0344986 -0.0127251 -0.0063438 -0.0112228 0.00650186 -0.00298591 -0.028039 -0.00458246 0.00892587 0.00666096 -0.0443901 0.0132518 -0.00851906 -0.014554
internal_weight=135135 101550 23243 33585 78307 31479 16489 6639 17096 16224 15201 21338 12495 10141 46828 16604 9677 46484 4929 42571 20843 7207 3616 6525 2892 9797 1710 6547 32637 12180
internal_count=135135 101550 23243 33585 78307 31479 16489 6639 17096 16224 15201 21338 12495 10141 46828 16604 9677 46484 4929 42571 20843 7207 3616 6525 2892 9797 1710 6547 32637 12180
cat_boundaries=0 1 4 7 10 11 12 13 15 18 21 24 25 28 30 33 34 35 36 39 42 43 46
cat_threshold=1158 1376070664 1626374912 2457 2299961635 2752455755 1451 1309041465 3769409536 2335 92612969 153813008 31151 302058504 281018916 1275461928 1076101120 16 2710569489 2248937579 1542 16777505 2148007936 2 117604352 33554432 1081600 2056 273156224 167774219 33579024 545259520 2332 270656 134365712 1085440 33554960 32768 268 33554432 1073774592 2056 334689 2684355586 16995636 1568
is_linear=0
shrinkage=0.12281


Tree=4
num_leaves=31
num_cat=8
split_feature=6 14 10 7 2 8 10 7 14 10 17 8 15 14 14 14 22 10 2 7 10 10 7 7 15 2 16 10 13 2
split_gain=250.742 159.267 129.15 136.754 116.03 103.668 82.6829 79.0411 75.7349 52.4366 59.4395 51.4411 49.4202 45.6095 45.578 44.6315 43.8915 92.5628 42.3061 41.7006 33.2661 32.2404 39.4383 31.1306 30.6418 35.4018 29.8205 25.3103 34.597 24.6301
threshold=0 27.129630197388817 1 51.44843822863352 126.46875000000001 93.862546249527099 2 78.79467919875826 49.356354335319857 3 59.992585406700918 93.862546249527099 51.842713556699088 49.26497502497503 71.527475024975033 43.021009507733652 51.197982628665606 4 136.44375000000005 25.632884438151617 5 6 51.590073972228524 34.291652554357476 51.842713556699088 78.375000000000028 51.73290608438321 7 49.066406759603431 73.031250000000028
decision_type=1 2 9 2 2 2 9 2 2 9 2 2 2 2 2 2 2 9 2 2 9 9 2 2 2 2 2 9 2 2
left_child=1 -1 3 11 8 6 18 13 9 12 -11 -3 23 20 -7 -5 17 -10 -2 -13 26 -14 -23 -4 -21 -26 -8 28 -19 -17
right_child=5 2 4 15 -6 14 7 -9 16 10 -12 19 21 -15 -16 29 -18 27 -20 24 -22 22 -24 -25 25 -27 -28 -29 -30 -31
leaf_value=-0.050250024320857047 -0.011580335714831911 -0.0039905931650701066 -0.019729054516448082 -0.0040300766040943237 0.032338154404039109 0.038371618150951865 -0.0021583577206922334 0.035520875141576376 -0.023917630146389247 -0.013209031489815778 -0.070739624414909011 -0.041005618158124812 0.0089405487468356346 0.016926015500099614 0.10474115383423299 0.015232828393787994 0.001034082403745033 -0.024025957494859876 0.017051913287940128 0.0182033703822112 -0.0097684081824865841 0.002832802547231989 -0.015717197911416531 -0.0068602971429315386 -0.0033461114875290537 0.095188192024401083 0.023192776451229708 -0.0019824699360669741 0.039885155330100355 0.071416242423290477
leaf_weight=904 2769 19220 3151 1749 1138 519 1221 2125 3196 13085 244 213 3993 7173 188 11788 29085 152 916 3090 1852 4006 2472 12273 1780 50 1255 4983 440 105
leaf_count=904 2769 19220 3151 1749 1138 519 1221 2125 3196 13085 244 213 3993 7173 188 11788 29085 152 916 3090 1852 4006 2472 12273 1780 50 1255 4983 440 105
internal_value=-1.06633e-05 -0.00196193 -0.00158631 0.00393719 -0.00426935 0.0126726 0.0109022 0.0150466 -0.00481037 -0.00836679 -0.0142515 -0.00124755 -0.00533018 0.0112767 0.0560201 0.0131956 -0.00112544 -0.0082865 -0.00445099 0.00902349 0.00191377 0.000791167 -0.00423932 -0.00948928 0.0111894 -0.000653917 0.0106483 0.000716034 0.0230856 0.0157289
internal_weight=135135 117117 116213 37995 78218 18018 17311 13626 77080 39224 13329 24353 25895 11501 707 13642 37856 8771 3685 5133 4328 10471 6478 15424 4920 1830 2476 5575 592 11893
internal_count=135135 117117 116213 37995 78218 18018 17311 13626 77080 39224 13329 24353 25895 11501 707 13642 37856 8771 3685 5133 4328 10471 6478 15424 4920 1830 2476 5575 592 11893
cat_boundaries=0 1 2 3 4 5 6 7 8
cat_threshold=1 8390819 204898560 135603980 54362116 25166391 1036 4096
is_linear=0
shrinkage=0.11549


Tree=5
num_leaves=31
num_cat=26
split_feature=3 0 9 9 10 9 9 10 9 9 10 10 9 10 9 10 9 9 9 9 10 1 9 9 10 9 12 9 9 10
split_gain=117.852 121.208 215.202 163.558 156.021 206.234 88.305 185.067 92.9269 81.0681 74.8889 68.3667 76.1379 64.4286 57.3491 56.769 78.5758 77.2313 54.7612 52.0508 70.5127 59.3061 51.4037 50.0493 52.0411 48.2581 46.6746 45.5898 43.9472 39.2885
threshold=0.30347917233152355 225.50625000000005 0 1 2 3 4 5 6 7 8 9 10 11 12 13 14 15 16 17 18 199.14375000000004 19 20 21 22 44.99385433531986 23 24 25
decision_type=2 2 9 9 9 9 9 9 9 9 9 9 9 9 9 9 9 9 9 9 9 2 9 9 9 9 2 9 9 9
left_child=1 3 11 13 5 22 -6 9 -9 -8 -2 14 -13 19 -3 17 -17 -4 29 20 -1 23 -5 24 -21 -10 -12 -15 -23 -7
right_child=10 2 15 4 6 18 7 8 25 -11 26 12 -14 27 -16 16 -18 -19 -20 21 -22 28 -24 -25 -26 -27 -28 -29 -30 -31
leaf_value=0.048112416977449515 0.038184060421750335 -0.024929637530895169 -0.025917054466950404 -0.10514694597937625 0.0078213740702803031 0.030293516427658408 0.029302753405440092 -0.0045508024817824972 -0.094696224864430106 -0.0010007491540231183 -0.045178248502393339 -0.0053576457784813196 -0.043079726819197355 0.011019559268385841 -0.0043985498561922602 0.018865383386635837 -0.0007443825192744272 0.0055547749184352915 -0.011720598614323648 0.036812679791649344 0.0134484081229736 0.021133698102501808 -0.037705761138142876 0.02265357092018017 -0.01616105364933413 -0.026425359124745577 0.011240751798716659 -0.003177630168098273 -0.011241188315415668 -0.0085703917864838036
leaf_weight=1970 2413 4690 3314 232 18951 1390 3107 6485 204 3873 315 1456 3830 8275 6160 5141 17789 2814 3683 474 2791 1098 4090 7056 1435 5503 3182 9476 3141 797
leaf_count=1970 2413 4690 3314 232 18951 1390 3107 6485 204 3873 315 1456 3830 8275 6160 5141 17789 2814 3683 474 2791 1098 4090 7056 1435 5503 3182 9476 3141 797
internal_value=-7.65167e-06 -0.000890624 -0.0067293 0.00224956 -0.00305395 -0.018411 0.00105542 -0.00563313 -0.0160224 0.0125108 0.019299 -0.0196698 -0.0327191 0.00942214 -0.0132881 0.000463215 0.00365851 -0.0114796 -0.00132475 0.0153247 0.0278624 0.0107863 -0.0415603 0.0172376 -0.00288452 -0.0290271 0.00614112 0.00344316 -0.002832 0.0161559
internal_weight=135135 129225 45194 84031 48315 10192 38123 19172 12192 6980 5910 16136 5286 35716 10850 29058 22930 6128 5870 17965 4761 13204 4322 8965 1909 5707 3497 17751 4239 2187
internal_count=135135 129225 45194 84031 48315 10192 38123 19172 12192 6980 5910 16136 5286 35716 10850 29058 22930 6128 5870 17965 4761 13204 4322 8965 1909 5707 3497 17751 4239 2187
cat_boundaries=0 3 6 7 10 13 14 17 20 21 22 25 26 28 29 32 35 38 41 42 45 48 49 50 53 56 57
cat_threshold=391581314 113415964 532 2908098305 2248643932 518 152502272 1073745926 691011585 1512 1073754166 691535875 1273 8402064 590024 1073766560 2048 302039040 272632320 2304 19163776 167792448 1049728 33036 4 1379490 339807232 12747020 178270336 1073754125 537460736 1025 3355447340 3777830944 1249 8404992 268451872 2048 537920001 33559552 512 1310722 0 0 264 3072 33028 4 1310848 268435456 83889409 2214691148 2 16910336 32832 4 1310720
is_linear=0
shrinkage=0.139811


Tree=6
num_leaves=31
num_cat=1
split_feature=5 8 0 12 21 19 21 19 21 7 8 0 12 0 0 8 8 0 21 17 13 19 15 0 7 0 13 0 0 0
split_gain=109.953 71.9495 66.5702 62.0305 42.2501 49.0851 36.7321 31.1311 29.7135 23.8022 34.226 26.8764 23.2688 72.6315 21.0702 20.5611 19.7275 23.4275 19.2691 17.4917 19.9571 17.2579 16.9705 26.6576 19.6208 26.4314 16.6169 16.3538 16.0613 27.7087
threshold=0 63.260713028541069 505.87500000000006 39.826612956009519 52.95520939972775 58.861157098733614 51.105130750143907 57.43463049909132 50.926678058907946 47.4101281863298 25.951021561839916 89.418750000000017 47.301181921526755 466.33125000000007 70.893750000000011 47.154161696280447 24.728489810206458 284.64375000000007 49.305514018853124 59.481369774933505 54.222243669286975 50.49823761644209 51.842713556699088 213.39375000000004 53.642897334114799 169.21875000000003 49.066406759603431 80.86875000000002 442.81875000000008 236.19375000000005
decision_type=1 2 2 2 2 2 2 2 2 2 2 2 2 2 2 2 2 2 2 2 2 2 2 2 2 2 2 2 2 2
left_child=2 4 3 15 5 -2 7 14 18 26 16 -12 13 -9 -5 21 -11 -18 -3 22 -21 -1 23 24 25 -16 -8 -28 29 -14
right_child=1 8 -4 6 -6 -7 9 12 -10 10 11 -13 28 -15 19 -17 17 -19 -20 20 -22 -23 -24 -25 -26 -27 27 -29 -30 -31
leaf_value=0.0042028588053180512 0.0032508060400185013 0.021709431664228594 -0.03490023963239057 0.018556738764317869 0.016359608023513068 -0.030012059232817613 -0.0059218368338595749 -0.00182203580977744 0.034552683346700024 -0.0037013461639337671 -0.015837541306169222 0.0070135800566058157 0.0078034962419580569 -0.094478962099445535 -0.010753425197766285 -0.018944605376175445 -0.024079246777279677 -0.13320852307746725 -0.0079747163103604333 -0.0169077969464046 -0.0037272299932540262 -0.014625243392648788 -0.00027543288172753987 -0.010008519892540986 0.00397533776989823 0.0020306238320374316 0.02167687800010807 0.00054764692209937434 0.023384520060882253 -0.013229117196930526
leaf_weight=1369 5787 918 798 585 3126 684 5960 2659 1944 3663 734 21421 6334 122 5086 3218 178 32 449 2844 3575 1317 18043 9156 5069 3971 516 23863 714 1000
leaf_count=1369 5787 918 798 585 3126 684 5960 2659 1944 3663 734 21421 6334 122 5086 3218 178 32 449 2844 3575 1317 18043 9156 5069 3971 516 23863 714 1000
internal_value=-7.61411e-06 0.0102993 -0.00109609 -0.000873942 0.00514997 -0.000265157 -0.00027397 -0.0023178 0.0252247 0.00187106 0.00447619 0.00625652 0.00337275 -0.00588681 -0.00359287 -0.0126137 -0.00570793 -0.0407085 0.0119595 -0.00386427 -0.00956701 -0.00502894 -0.00297846 -0.00507325 -0.00187437 -0.00514832 -0.000363901 0.000994863 0.00657241 0.00493567
internal_weight=135135 12908 122227 121429 9597 6471 115525 59158 3311 56367 26028 22155 10829 2781 48329 5904 3873 210 1367 47744 6419 2686 41325 23282 14126 9057 30339 24379 8048 7334
internal_count=135135 12908 122227 121429 9597 6471 115525 59158 3311 56367 26028 22155 10829 2781 48329 5904 3873 210 1367 47744 6419 2686 41325 23282 14126 9057 30339 24379 8048 7334
cat_boundaries=0 1
cat_threshold=1
is_linear=0
shrinkage=0.117423


Tree=7
num_leaves=31
num_cat=9
split_feature=8 7 7 1 6 7 10 10 3 10 7 7 10 1 10 7 1 8 7 10 12 10 7 1 7 1 10 15 7 3
split_gain=1642.21 802.205 406.717 393.895 333.231 302.862 279.682 211.721 180.327 143.159 127.459 104.897 97.7045 96.6446 96.0347 78.1108 66.6905 62.5962 61.7202 58.052 57.7128 55.9292 55.4802 49.3662 49.0894 76.6292 48.9454 48.5754 47.663 41.7844
threshold=46.101411212096046 44.003249261204211 35.164835434264312 211.96875000000003 0 32.126860370553672 1 2 0.14511457180193613 3 68.498479463233579 76.436232621604887 4 213.39375000000004 5 100.71606593220417 363.73125000000005 28.502998141779944 100.71606593220417 6 65.367992266354335 7 68.498479463233579 181.33125000000004 44.16219437820245 84.43125000000002 8 51.842713556699088 21.288824874620332 0.29981273408239706
decision_type=2 2 2 2 1 2 9 9 2 9 2 2 9 2 9 2 2 2 2 9 2 9 2 2 2 2 9 2 2 2
left_child=2 5 21 7 6 12 11 22 13 27 19 -4 28 14 -7 -11 29 -13 -12 -9 -10 -1 24 -24 25 -3 -22 -5 -2 -6
right_child=1 3 4 9 16 8 -8 10 20 15 18 17 -14 -15 -16 -17 -18 -19 -20 -21 26 -23 23 -25 -26 -27 -28 -29 -30 -31
leaf_value=-0.014515520158285977 -0.024933275262190756 0.091760317309067099 -0.0063744392869966695 -0.0047256978183526418 0.007045321984795596 0.0092421079344505441 -0.016399501508046151 0.019273559216155325 0.010200639339738275 0.0051399446663447073 0.018165244483460345 -0.012385249938420943 -0.019132625452598841 -0.0057715702621744169 -0.00074114857334435296 0.028480643864093279 -0.0081407214470155392 0.0091478722654851838 0.035720876022991885 0.0073972244509632225 0.0097897489177451412 -0.024718778819111772 0.039891505471765551 0.018974333885080363 0.021165840364351891 0.016043365251341611 0.040223067533393358 -0.025294817849427019 -0.0026542759358841811 0.020351890494144431
leaf_weight=3964 474 113 18857 1452 4228 6596 13291 2222 4230 11275 5314 725 4101 8460 12015 672 1022 3386 1063 10256 423 6446 1923 674 4991 124 583 781 4088 1386
leaf_count=3964 474 113 18857 1452 4228 6596 13291 2222 4230 11275 5314 725 4101 8460 12015 672 1022 3386 1063 10256 423 6446 1923 674 4991 124 583 781 4088 1386
internal_value=5.41184e-06 0.00592279 -0.00907852 0.0125167 -0.00621661 -0.000653399 -0.00872438 0.0172772 0.00230766 0.00355958 0.0134355 -0.00427398 -0.0116961 0.000122403 0.00280163 0.00644743 0.00748576 0.00535037 0.0210916 0.00953346 0.0136058 -0.0208712 0.0264834 0.0344629 0.0225702 0.0521447 0.0279237 -0.0118667 -0.00495824 0.0103305
internal_weight=135135 81830 53305 40860 42895 40970 36259 26680 32307 14180 18855 22968 8663 27071 18611 11947 6636 4111 6377 12478 5236 10410 7825 2597 5228 237 1006 2233 4562 5614
internal_count=135135 81830 53305 40860 42895 40970 36259 26680 32307 14180 18855 22968 8663 27071 18611 11947 6636 4111 6377 12478 5236 10410 7825 2597 5228 237 1006 2233 4562 5614
cat_boundaries=0 1 2 3 4 5 6 7 8 9
cat_threshold=1 9781272 2434 4096 12419 8322 12288 1081936 1318
is_linear=0
shrinkage=0.0665077


Tree=8
num_leaves=31
num_cat=15
split_feature=9 8 9 9 3 8 9 9 9 9 8 8 9 8 8 8 9 9 9 9 9 5 8 8 9 12 7 8 8 12
split_gain=106.665 77.3758 111.947 83.4804 50.4546 44.8838 42.9989 41.6028 36.9317 35.536 33.4199 39.4331 27.9099 27.4296 27.3167 26.1301 36.381 31.8638 24.8429 23.1959 23.0416 19.5359 19.2241 17.4856 21.4859 16.84 16.7415 28.25 16.6235 15.7921
threshold=0 27.008265998922802 1 2 0.16723573351357027 46.101411212096046 3 4 5 6 50.417695072270369 56.874652179366826 7 21.483258955215479 39.708180425858949 24.338923826935844 8 9 10 11 12 13 80.520461747512357 50.417695072270369 14 59.067992266354345 31.522378518072411 70.325979842441498 50.417695072270369 70.462819852561253
decision_type=9 2 9 9 2 2 9 9 9 9 2 2 9 2 2 2 9 9 9 9 9 1 2 2 9 2 2 2 2 2
left_child=5 2 6 4 8 9 -2 -7 22 -1 18 20 -4 -14 19 17 -17 -15 -9 -11 -12 26 -3 24 -10 -6 27 -5 -23 -30
right_child=1 3 12 21 25 7 -8 10 23 14 11 -13 13 15 -16 16 -18 -19 -20 -21 -22 28 -24 -25 -26 -27 -28 -29 29 -31
leaf_value=0.0079655816475801763 0.02532668737721494 0.015181997278688629 -0.02438945462293618 0.013163674832806322 0.016478090136970998 0.001688861381702737 0.0013532566155238267 -0.017980441375903333 0.0065404647891012212 -0.026522155992026137 -0.096859152955252187 -0.011272497916428072 -0.029493573280896787 0.01172504005247238 -0.051902016952718483 0.0094595205382086434 -0.027669688079551107 -0.012092566321820883 0.013234443850350068 -0.010294994243667805 -0.031933677185050247 -0.0021400493997237014 0.04304873971958452 0.0078912391814070365 -0.0040395951435112914 0.034487053544827721 -0.0011640746018000269 -0.088745658161172067 0.012965501173556018 0.051799711446969744
leaf_weight=1072 1758 3652 3732 100 4025 11798 7992 693 7666 2907 122 6579 1171 2219 461 700 1863 2109 1645 4214 816 1471 551 17770 7180 1338 37245 111 1949 226
leaf_count=1072 1758 3652 3732 100 4025 11798 7992 693 7666 2907 122 6579 1171 2219 461 700 1863 2109 1645 4214 816 1471 551 17770 7180 1338 37245 111 1949 226
internal_value=-8.51164e-07 0.00210004 -0.00532835 0.00402188 0.00836698 -0.00726585 0.00569737 -0.00388489 0.00653336 -0.0157337 -0.0105486 -0.0150757 -0.0144358 -0.00980365 -0.0190698 -0.00647193 -0.0176001 0.000118061 0.00396183 -0.0169711 -0.0417512 -0.000439333 0.0187905 0.00494658 0.00142529 0.0209711 -0.00138537 -0.0404474 0.00927825 0.0170007
internal_weight=135135 104828 21544 83284 42182 30307 9750 21653 36819 8654 9855 7517 11794 8062 7582 6891 2563 4328 2338 7121 938 41102 4203 32616 14846 5363 37456 211 3646 2175
internal_count=135135 104828 21544 83284 42182 30307 9750 21653 36819 8654 9855 7517 11794 8062 7582 6891 2563 4328 2338 7121 938 41102 4203 32616 14846 5363 37456 211 3646 2175
cat_boundaries=0 3 6 9 12 15 18 21 24 27 30 32 35 36 37 40
cat_threshold=302058634 181453349 152 1619964737 3221291266 289 2836824405 2685141066 3654 524288 65792 289 130 5292069 136 536870913 0 2 268436488 33554432 16 2218786820 822085696 3136 16 524288 514 17842192 67375104 4 268500992 142606336 33556480 139460612 8 268435456 1 17203476 2685140992 64
is_linear=0
shrinkage=0.139067


Tree=9
num_leaves=31
num_cat=27
split_feature=1 9 9 10 9 10 9 9 1 10 9 9 9 10 9 10 9 9 9 9 9 10 10 16 9 10 9 9 9 9
split_gain=43.849 176.953 83.2573 121.251 149.078 72.8491 85.3772 82.4282 69.0802 62.7936 107.264 61.2551 51.6522 50.8726 99.0957 48.5561 47.6016 37.5337 31.6602 30.2133 28.1026 27.7714 27.7606 27.3937 27.3774 25.5372 31.7478 28.2414 25.315 24.2099
threshold=118.63125000000001 0 1 2 3 4 5 6 110.79375000000002 7 8 9 10 11 12 13 14 15 16 17 18 19 20 51.73290608438321 21 22 23 24 25 26
decision_type=2 9 9 9 9 9 9 9 2 9 9 9 9 9 9 9 9 9 9 9 9 9 9 2 9 9 9 9 9 9
left_child=1 8 3 4 29 6 25 13 12 10 22 -6 -1 17 -15 28 -3 -7 -12 -16 21 -11 -5 -10 -17 27 -27 -4 -8 -2
right_child=2 16 5 9 11 7 15 -9 23 20 18 -13 -14 14 19 24 -18 -19 -20 -21 -22 -23 -24 -25 -26 26 -28 -29 -30 -31
leaf_value=-0.048017607033668613 0.005114623831044096 0.016027562899695234 -0.012889831807121239 -0.047313564064106216 0.049268831802106186 1.2663995292327381e-05 0.022743262855868057 -0.0022148517143493977 -0.005106800219166042 0.0022969421444159277 -0.038506779823072802 0.019826346657525334 -0.013364919674337688 -0.049610936463214649 -0.002791819062967832 0.011572469021484484 0.0043053481457729342 -0.018040659077801658 -0.01562536575193308 -0.023142530174366349 0.0033693769949510871 -0.01584573910864237 0.010138528026119711 0.025175939153191357 -0.0028011823592072652 -0.0036450925881423737 -0.018826523865820132 0.0064904870107139866 0.0067551404732347532 -0.013948300214479471
leaf_weight=724 2121 10303 1755 121 1385 3534 2794 12865 907 2576 1200 4539 5307 1649 1886 2570 10348 3323 3771 2584 27945 2438 2957 871 8341 3832 4436 3043 3165 1845
leaf_count=724 2121 10303 1755 121 1385 3534 2794 12865 907 2576 1200 4539 5307 1649 1886 2570 10348 3323 3771 2584 27945 2438 2957 871 8341 3832 4436 3043 3165 1845
internal_value=-6.0351e-06 0.00424727 -0.00114078 0.00242586 0.0145399 -0.00439509 -0.000299148 -0.00913815 -0.0113838 -0.000498545 -0.0101489 0.0267813 -0.0176266 -0.0159952 -0.0240871 0.00543152 0.0101586 -0.00874976 -0.0212152 -0.0145815 0.00186055 -0.00653871 0.00773411 0.009728 0.000591914 -0.00769672 -0.0118032 -0.000610461 0.014277 -0.00376631
internal_weight=135135 28460 106675 50898 9890 55777 29936 25841 7809 41008 8049 5924 6031 12976 6119 16870 20651 6857 4971 4470 32959 5014 3078 1778 10911 13066 8268 4798 5959 3966
internal_count=135135 28460 106675 50898 9890 55777 29936 25841 7809 41008 8049 5924 6031 12976 6119 16870 20651 6857 4971 4470 32959 5014 3078 1778 10911 13066 8268 4798 5959 3966
cat_boundaries=0 3 6 7 10 11 14 17 18 21 24 27 28 30 31 34 37 40 42 45 46 47 49 50 52 54 56 59
cat_threshold=1912652300 1487981056 908 1645396821 3492841666 4007 270464 1073873217 3145730 1187 161501040 352332928 683692813 8 147134602 654976048 80 145424430 1073742145 2149580992 1187 33554944 32768 260 33554432 8388608 264 33587341 4200450 33555472 8390768 2236619811 592385053 2 4528130 101187584 80 571490304 2048 4 142606464 536870944 33554432 268468416 128 1054480 720898 134221832 83886112 27263808 83896448 536887304 67111040 536887816 2160398370 33686544 131137 2 34
is_linear=0
shrinkage=0.12196


Tree=10
num_leaves=31
num_cat=25
split_feature=5 9 10 0 9 10 9 9 9 10 9 9 0 9 16 10 10 9 9 9 9 21 9 10 9 9 0 9 10 9
split_gain=48.1171 38.6187 37.0241 26.1936 69.7721 71.1712 70.7358 70.571 66.0822 51.1296 56.0502 37.3524 28.6167 41.734 25.1279 37.2855 34.1915 40.1211 29.7588 28.7979 23.5324 22.3881 22.3245 41.1934 44.5324 33.9355 28.6393 26.5814 22.0339 21.4748
threshold=0 1 2 212.68125000000001 3 4 5 6 7 8 9 10 89.418750000000017 11 51.73290608438321 12 13 14 15 16 17 57.68136941095004 18 19 20 21 177.05625000000001 22 23 24
decision_type=1 9 9 2 9 9 9 9 9 9 9 9 2 9 2 9 9 9 9 9 9 2 9 9 9 9 2 9 9 9
left_child=3 -2 20 4 9 7 29 12 -5 11 -11 -1 13 -6 16 -16 17 -10 -17 -18 -3 -4 26 25 -25 -24 -8 -28 -21 -7
right_child=1 2 21 8 5 6 22 -9 14 10 -12 -13 -14 -15 15 18 19 -19 -20 28 -22 -23 23 24 -26 -27 27 -29 -30 -31
leaf_value=0.017364244705315109 0.016151734864542418 -0.023613975810436675 -0.0074921981509655199 -0.0083131457590147027 -0.10386971896116684 -0.033213867175078252 0.0048108053324571239 0.0097709653122486865 0.013624189455604105 -0.013278424406501815 0.0049534862529268149 0.0047582335778007991 -0.0047681004218935036 -0.014724785147775284 -0.011670770768972175 0.018310056234891209 -0.0016831601739495208 -0.0037904182850902902 0.0037589210354348288 -0.031577011862623544 0.01820880934269194 0.014280150953566606 0.00923692372241618 -0.0035259628396725117 -0.027833185819863791 -0.013699666264997617 -0.025841284344854793 0.00064887842588012834 -0.010096277322063342 -0.014861198066124839
leaf_weight=7034 4869 228 4581 21321 104 1458 7222 10910 3540 3675 9792 7998 5495 354 1877 2973 5331 5143 8942 1046 2333 897 2823 2362 2442 1595 1062 1379 2826 3523
leaf_count=7034 4869 228 4581 21321 104 1458 7222 10910 3540 3675 9792 7998 5495 354 1877 2973 5331 5143 8942 1046 2333 897 2823 2362 2442 1595 1062 1379 2826 3523
internal_value=-9.56683e-06 0.00730826 0.00192951 -0.000782379 0.000831863 -0.00251485 -0.00694211 0.00375139 -0.00289092 0.00561369 -2.79678e-05 0.0106647 -0.0072785 -0.0375567 0.000760911 0.00480322 -0.00235571 0.0033169 0.00740199 -0.00770304 0.0144081 -0.00391991 -0.00341293 -0.00784557 -0.0159141 0.000944047 0.000821159 -0.0109793 -0.0159656 -0.020289
internal_weight=135135 12908 8039 122227 69228 40729 23866 16863 52999 28499 13467 15032 5953 458 31678 13792 17886 8683 11915 9203 2561 5478 18885 9222 4804 4418 9663 2441 3872 4981
internal_count=135135 12908 8039 122227 69228 40729 23866 16863 52999 28499 13467 15032 5953 458 31678 13792 17886 8683 11915 9203 2561 5478 18885 9222 4804 4418 9663 2441 3872 4981
cat_boundaries=0 1 4 5 8 9 12 15 18 19 22 25 28 29 30 33 36 39 42 45 46 49 52 55 56 59
cat_threshold=1 3277107277 152084545 1211 144510086 760679459 369327388 596 8403667 1107820612 135299073 264 268460296 2710307456 2179 121969834 1178852636 596 26481254 1048576 268587024 532 1051651 268588056 516 0 0 2048 76820480 209729920 276832577 2954887872 1290 147969 1572929 1153 1746460949 151265315 33 268436480 1082130944 256 12552 2712404096 2179 135529476 2147483648 1077936706 1024 8438288 4194336 32 4096 554172544 2 262736 33554432 134217729 8
is_linear=0
shrinkage=0.126026


Tree=11
num_leaves=31
num_cat=12
split_feature=3 12 1 9 8 9 9 8 9 1 9 9 9 0 9 9 12 0 0 8 9 1 0 9 5 8 8 1 21 11
split_gain=136.378 117.784 90.9659 67.4443 60.734 117.172 64.7689 54.4897 43.0649 40.9877 40.728 38.4733 37.5006 52.1313 36.3896 31.9337 29.91 28.3535 27.7008 24.141 44.5448 26.1689 22.9125 26.4817 21.877 21.5662 21.4318 20.373 20.0507 19.3899
threshold=0.27618325023484364 27.129630197388817 236.19375000000005 0 80.520461747512357 1 2 93.862546249527099 3 180.61875000000001 4 5 6 89.418750000000017 7 8 71.527475024975033 83.006250000000009 88.706250000000011 31.565253353489251 9 236.90625000000003 132.88125000000005 10 11 25.951021561839916 18.851987422911439 228.35625000000002 50.926678058907946 47.104349242094436
decision_type=2 2 2 9 2 9 9 2 9 2 9 9 9 2 9 9 2 2 2 2 9 2 2 9 1 2 2 2 2 2
left_child=1 8 4 25 6 12 9 10 -1 11 29 18 13 -6 17 -11 -9 -7 -3 21 -21 -5 23 -20 -8 -4 -12 -17 -26 -2
right_child=7 2 3 19 5 14 24 16 -10 15 26 -13 -14 -15 -16 27 -18 -19 22 20 -22 -23 -24 -25 28 -27 -28 -29 -30 -31
leaf_value=-0.0097552156782069657 -0.0043518915082211241 0.015567790695031244 -0.0080131713313670479 0.023433050505054984 -0.072006130739754454 0.06485816517548014 -0.0025736335332600391 0.022185292610481716 -0.04724332631179784 0.002814056867748303 -0.018775665868680586 0.0085708103813427299 -0.00066492827605172083 -0.011463564017984706 0.010096174008902151 -0.008102391282059241 0.061747823272186496 0.022040071003124006 -0.019052270547630989 -0.011634210536869399 -0.00061765591378058001 -0.013779312723344615 0.0034254746595227307 -0.0015566499734716013 -0.002134752744667818 0.0021700994971042683 0.0046921615626260146 0.0039678933921538651 0.011096350189994031 0.018027282137354952
leaf_weight=420 309 874 1811 140 119 141 47053 418 506 7360 308 10837 5688 750 8763 4742 206 537 795 5103 5518 5405 4982 2819 1631 8796 3207 1283 1678 2936
leaf_count=420 309 874 1811 140 119 141 47053 418 506 7360 308 10837 5688 750 8763 4742 206 537 795 5103 5518 5405 4982 2819 1631 8796 3207 1283 1678 2936
internal_value=-9.64616e-06 -0.000658666 -0.000438186 -0.00483772 0.000739089 0.00553814 -0.000174313 0.0112191 -0.0308556 0.00270926 0.00900122 0.0051164 -0.00319098 -0.0195295 0.0115918 -0.00094069 0.035246 0.0304949 0.00115307 -0.00828985 -0.00592224 -0.0128398 -0.000311206 -0.00546232 -0.00210354 0.000431039 0.00262833 -0.00552291 0.00457476 0.0158474
internal_weight=135135 127751 126825 26773 100052 15998 84054 7384 926 33692 6760 20307 6557 869 9441 13385 624 678 9470 16166 10621 5545 8596 3614 50362 10607 3515 6025 3309 3245
internal_count=135135 127751 126825 26773 100052 15998 84054 7384 926 33692 6760 20307 6557 869 9441 13385 624 678 9470 16166 10621 5545 8596 3614 50362 10607 3515 6025 3309 3245
cat_boundaries=0 3 6 9 12 15 18 21 23 26 29 32 33
cat_threshold=4027589453 1639719569 3481 1443179592 1623369620 3033 219614467 2427073806 2514 1620689620 269603247 2604 2538926189 3372493377 1219 135398400 2426408970 386 268437512 8388608 2048 545260032 1 18025472 278925570 2434 88427536 168019244 32 1048576 268439552 256 1
is_linear=0
shrinkage=0.0849778


Tree=12
num_leaves=31
num_cat=0
split_feature=17 12 2 1 1 12 22 0 0 12 13 8 8 1 17 8 15 17 0 21 21 15 0 8 12 2 1 4 8 12
split_gain=42.9299 29.4748 34.3876 26.1047 22.7602 22.1361 21.8532 21.3801 25.9847 19.2454 29.013 29.09 21.2227 19.7167 48.5465 16.5739 47.1306 16.3018 16.2672 20.8335 29.3311 51.294 39.5276 22.3787 16.3468 16.1756 15.5718 15.47 14.8672 13.8674
threshold=66.311778394516168 27.129630197388817 144.99375000000006 514.06875000000014 70.893750000000011 90.506785369802628 51.197982628665606 99.393750000000011 106.51875000000001 49.356354335319857 50.232449210290461 80.520461747512357 24.338923826935844 110.79375000000002 59.992585406700918 46.101411212096046 51.17048982780306 54.4466868999071 205.55625000000001 47.104349242094436 46.639347340436622 51.17048982780306 177.05625000000001 46.101411212096046 41.011095714630208 76.950000000000017 333.09375000000006 0.28854242062638163 70.325979842441498 71.527475024975033
decision_type=2 2 2 2 2 2 2 2 2 2 2 2 2 2 2 2 2 2 2 2 2 2 2 2 2 2 2 2 2 2
left_child=1 -1 3 4 6 25 -3 28 15 18 12 27 -11 14 -14 16 -9 -15 19 20 24 22 23 -22 -10 -2 -4 -12 -6 -29
right_child=5 2 26 -5 7 -7 -8 8 9 10 11 -13 13 17 -16 -17 -18 -19 -20 -21 21 -23 -24 -25 -26 -27 -28 29 -30 -31
leaf_value=-0.016831846678464542 0.010462254848271369 -0.0062084727453911226 0.019694416783724272 -0.023599484511663167 -0.014068967049323021 -0.0040680641198702358 0.012352010127704628 0.029300941068562573 -0.020163799247695711 -0.0042367434127341475 -0.0028161984791808502 0.0083466824673963935 -0.0012277410741192447 0.0039885131080351754 -0.072966300183527594 0.002888749695968305 -0.004646879083968867 0.011308774893751905 -0.0031105031329006728 0.0014945108580029639 -0.035135481989528074 -0.0056589934313318402 -0.0028850107647259947 -0.10095333985837418 0.0049710656662006279 0.036798249623843822 -0.0018204595634756112 0.0055826603023230014 -0.0033491652139546533 -0.02162744916029823
leaf_weight=1045 3916 818 1207 469 1606 1042 2480 927 310 2914 26174 2898 817 14061 103 3811 693 3733 35242 18610 78 655 101 140 1316 240 447 3358 5732 192
leaf_count=1045 3916 818 1207 469 1606 1042 2480 927 310 2914 26174 2898 817 14061 103 3811 693 3733 35242 18610 78 655 101 140 1316 240 447 3358 5732 192
internal_value=-9.6742e-06 -0.000360715 -0.000227174 -0.000410556 -0.000324765 0.00876546 0.00774847 -0.000540407 -0.000214689 -0.00054094 0.000783508 -0.0010707 0.00358025 0.00479745 -0.00925934 0.00643541 0.0147788 0.00552423 -0.00181373 0.000340968 -0.00791574 -0.0214292 -0.0538101 -0.0774038 0.000179056 0.0119831 0.0138799 -0.00198887 -0.00569531 0.00411101
internal_weight=135135 129937 128892 127238 126769 5198 3298 123471 116133 110702 54250 32622 21628 18714 920 5431 1620 17794 56452 21210 2600 974 319 218 1626 4156 1654 29724 7338 3550
internal_count=135135 129937 128892 127238 126769 5198 3298 123471 116133 110702 54250 32622 21628 18714 920 5431 1620 17794 56452 21210 2600 974 319 218 1626 4156 1654 29724 7338 3550
is_linear=0
shrinkage=0.0984712


Tree=13
num_leaves=31
num_cat=22
split_feature=10 9 9 10 9 9 0 0 9 10 9 9 9 0 10 1 10 9 9 1 9 1 9 15 9 10 10 12 9 10
split_gain=12.7952 80.4178 46.4845 33.7363 70.3893 35.0629 27.509 23.5699 32.8897 22.8598 38.3436 26.6556 23.7649 22.5233 20.0763 23.0922 19.8911 62.0342 45.6815 33.4478 23.5036 21.2406 52.4827 19.7695 19.5667 18.7838 18.7285 18.5544 25.0606 19.5424
threshold=0 1 2 3 4 5 236.90625000000003 251.15625000000003 6 7 8 9 10 83.006250000000009 11 285.35625000000005 12 13 14 175.63125000000005 15 138.58125000000004 16 51.842713556699088 17 18 19 37.986095714630203 20 21
decision_type=9 9 9 9 9 9 2 2 9 9 9 9 9 2 9 2 9 9 9 2 9 2 9 2 9 9 9 2 9 9
left_child=2 3 6 4 -2 25 9 24 14 10 -1 -11 -12 -13 15 -9 17 20 19 -18 -3 22 23 -19 -8 -5 -21 28 -4 -30
right_child=1 16 27 5 -6 -7 7 8 -10 11 12 13 -14 -15 -16 -17 18 21 -20 26 -22 -23 -24 -25 -26 -27 -28 -29 29 -31
leaf_value=0.061051526583561021 0.020787046133046643 0.033721373708926784 0.0057897987972141017 -0.00050286110482506482 0.0004594496422096088 0.0033676208940172335 0.018611458535788657 -0.013306061466330824 0.0094452931398518406 0.003149407648670608 0.0041934931410283214 0.055594156434393291 -0.017189167503121657 0.011116582953847759 -0.0036410991512217591 -0.079851686500902297 -0.0084104141949490913 -0.050412689768672893 -0.0046633358004715651 -0.023110077640998861 0.0072089530369966875 -0.0025179928583184833 -0.0016001844728431248 -0.016309412357308848 -0.019486584465208935 -0.020509661505398458 -0.051345631871935582 -0.0010271796512709311 -0.052360850210673049 -0.011758982133386187
leaf_weight=120 4301 584 463 1181 5839 8553 221 235 3786 9510 1606 168 1416 11631 3254 112 2327 661 14823 1779 2801 3445 1381 395 1421 1630 445 50323 318 406
leaf_count=120 4301 584 463 1181 5839 8553 221 235 3786 9510 1606 168 1416 11631 3254 112 2327 661 14823 1779 2801 3445 1381 395 1421 1630 445 50323 318 406
internal_value=-5.92436e-06 -0.00153358 0.000895481 0.00403934 0.00909362 -0.000474575 0.00439338 -0.00129434 0.00161087 0.00649547 -0.00310862 0.00790934 -0.0058493 0.0117399 -0.00663386 -0.0338104 -0.00571774 -0.00111787 -0.00791624 -0.0184778 0.0118689 -0.00859901 -0.0172306 -0.037303 -0.0143642 -0.0121357 -0.0290945 -0.00137846 -0.0162827 -0.0300628
internal_weight=135135 50145 84990 21504 10140 11364 33480 9029 7387 24451 3142 21309 3022 11799 3601 347 28641 9267 19374 4551 3385 5882 2437 1056 1642 2811 2224 51510 1187 724
internal_count=135135 50145 84990 21504 10140 11364 33480 9029 7387 24451 3142 21309 3022 11799 3601 347 28641 9267 19374 4551 3385 5882 2437 1056 1642 2811 2224 51510 1187 724
cat_boundaries=0 1 4 7 8 11 14 17 18 21 24 27 28 29 32 35 38 40 43 44 45 48 49
cat_threshold=41971699 1024860170 424604824 2838 3771209493 3321970759 1256 1314820 269492224 272789512 2564 8192 272650240 2580 2152203024 2181120004 160 8192 0 0 8 4720404 1073741890 72 3225945620 1073741891 1088 576 203456520 2151684384 2721054788 1153 3221755904 1107296320 1161 2151677952 33554432 128 8914624 2081 524545 2147500034 1024 18939904 17829888 1097792 403741064 2564 9600
is_linear=0
shrinkage=0.120605


Tree=14
num_leaves=31
num_cat=12
split_feature=9 0 2 9 0 9 0 0 9 9 2 7 9 8 9 8 9 19 8 11 9 21 21 9 12 8 9 9 8 21
split_gain=11.0098 9.72414 6.76542 8.83987 7.07738 20.0452 9.61461 19.3727 14.711 8.86016 7.87675 6.96946 6.77855 12.5189 20.7797 11.757 8.85587 6.56275 13.3885 12.1868 9.74235 8.19946 12.3233 8.01313 7.11078 8.97103 31.0341 8.55801 7.49149 7.39311
threshold=0 505.87500000000006 130.03125000000006 1 466.33125000000007 2 388.31250000000006 344.49375000000003 3 4 1.4250000000000045 37.882583405003793 5 21.90643572527344 6 66.356585814937759 7 57.43463049909132 80.520461747512357 58.220652427157624 8 55.630810763440174 54.244631420452755 9 58.989543990492272 93.862546249527099 10 11 66.356585814937759 52.95520939972775
decision_type=9 2 2 9 2 9 2 2 9 9 2 2 9 2 9 2 9 2 2 2 9 2 2 9 2 2 9 9 2 2
left_child=2 17 4 -4 6 11 7 12 -8 -7 -10 -6 13 14 -1 -15 -17 21 19 20 -19 22 24 -21 25 29 -27 -28 -26 -2
right_child=1 -3 3 -5 5 9 8 -9 10 -11 -12 -13 -14 15 -16 16 -18 18 -20 23 -22 -23 -24 -25 28 26 27 -29 -30 -31
leaf_value=0.005564850515626248 -0.00078072434132756691 -0.011536809980800998 -0.0012902392816056579 0.010661704084963718 -0.034506740207720515 0.0043723994155387795 -0.01045584231779002 -0.016597728488591125 0.014613610592169264 -0.0031745534223573801 0.0010026680246462735 -0.011548971079125135 0.00027153839971485495 0.0040088152235873377 -0.020898802798703819 0.004041253079421334 -0.0036450345949793051 0.0038039246805939967 0.0078689484976831245 -0.021483738942958529 -0.0012661740383105311 0.00080248806644967537 -0.0078915612407482478 -0.0043068998958957711 -0.0063181029419721365 0.0045357280507300236 -0.021816882670304426 -0.0085560100090737289 0.0014144849568076645 0.0040302229100840159
leaf_weight=354 37301 496 636 923 93 1585 238 391 869 2325 369 602 37655 10946 356 1400 2584 4111 1551 206 5244 13502 1705 785 2923 1207 401 1291 1033 2053
leaf_count=354 37301 496 636 923 93 1585 238 391 869 2325 369 602 37655 10946 356 1400 2584 4111 1551 206 5244 13502 1705 785 2923 1207 401 1291 1033 2053
internal_value=-2.83608e-06 -0.000644969 0.000769983 0.00584598 0.000637707 -0.00230189 0.000883108 0.00071225 0.00709767 -0.000111889 0.0104721 -0.0144136 0.000839245 0.00220448 -0.00792022 0.00268744 -0.000943035 -0.000571368 0.00110648 9.2695e-05 0.000964564 -0.000896386 -0.00137512 -0.00813771 -0.00113468 -0.000838423 -0.00502867 -0.0118085 -0.00429895 -0.000529749
internal_weight=135135 73809 61326 1559 59767 4605 55162 53686 1476 3910 1238 695 53295 15640 710 14930 3984 73313 11897 10346 9355 61416 47914 991 46209 42253 2899 1692 3956 39354
internal_count=135135 73809 61326 1559 59767 4605 55162 53686 1476 3910 1238 695 53295 15640 710 14930 3984 73313 11897 10346 9355 61416 47914 991 46209 42253 2899 1692 3956 39354
cat_boundaries=0 3 6 9 12 15 18 21 24 27 29 32 34
cat_threshold=3959850737 2333620608 3347 671253040 33558784 2305 393216 8448 2049 263184 16785664 2048 2147483840 2165835776 1282 393745 8448 2049 262656 0 2048 17 0 2048 16847114 883311632 736 4200452 268763200 26755332 268550182 556 8200 545260560
is_linear=0
shrinkage=0.0780508


Tree=15
num_leaves=31
num_cat=23
split_feature=10 9 9 10 9 3 16 9 9 10 10 9 10 10 10 9 9 0 3 22 9 10 22 10 9 9 10 9 10 1
split_gain=10.2938 92.2167 68.5068 34.3295 24.2721 23.7411 20.1068 30.3497 30.1787 29.8983 22.6826 27.6022 20.5709 20.566 19.7417 38.6479 26.1263 18.4692 18.0957 16.8396 16.2339 22.6063 17.9499 19.7199 17.6517 15.816 15.5747 15.4836 14.1874 13.9438
threshold=0 1 2 3 4 0.33229326894994066 51.73290608438321 5 6 7 8 9 10 11 12 13 14 99.393750000000011 0.49598223615464998 51.197982628665606 15 16 51.830694193713889 17 18 19 20 21 22 239.75625000000005
decision_type=9 9 9 9 9 2 2 9 9 9 9 9 9 9 9 9 9 2 2 2 9 9 2 9 9 9 9 9 9 2
left_child=1 5 3 17 14 20 8 12 13 -9 11 -10 27 -4 15 -3 28 -2 -7 26 21 -1 -22 24 -24 -19 -5 -8 -16 -30
right_child=2 4 6 19 -6 18 7 9 10 -11 -12 -13 -14 -15 16 -17 -18 25 -20 -21 22 -23 23 -25 -26 -27 -28 -29 29 -31
leaf_value=0.0016685543239502096 -0.005970521552885342 0.0037527590951766682 0.0024546292834070511 -0.014923222476568996 0.0025376011495997198 0.011615527555700037 0.003458770384800997 -0.00011198414704938957 -0.0050114260000267575 -0.0095811688529757535 -0.0042956132643516953 -0.017483949929812344 0.0049065226066548912 -0.004693835924782651 -0.00068098214774339944 0.02236363486651435 0.0079487798007673392 0.0086966753731475884 -0.067720157084820529 0.00044020687276926865 -0.00088634607343319896 -0.014731614625750403 -0.029282511559704801 -0.0037046723057253821 -0.0092744217576913694 0.0034540623321556623 -0.0015768807983986381 -0.0081256439684456953 -0.013420520782537679 -0.056029713765653452
leaf_weight=921 1241 1741 6098 1189 23070 957 1584 6064 2674 4563 8506 2931 7869 6472 701 1766 3517 6616 23 10126 9967 2307 478 4278 1298 14158 1610 2072 260 78
leaf_count=921 1241 1741 6098 1189 23070 957 1584 6064 2674 4563 8506 2931 7869 6472 701 1766 3517 6616 23 10126 9967 2307 478 4278 1298 14158 1610 2072 260 78
internal_value=-4.27246e-06 0.000980814 -0.000608282 0.00237946 0.00399924 -0.00366431 -0.00274606 -0.000778291 -0.00438083 -0.00418303 -0.00718451 -0.0115532 0.00236274 -0.00122675 0.00817297 0.0131615 0.00431264 0.00450179 0.00975357 -0.00123618 -0.00434934 -0.0100617 -0.00319011 -0.00698818 -0.0147933 0.00512955 -0.00730528 -0.00311083 -0.00795408 -0.0225852
internal_weight=135135 51362 83773 34940 31133 20229 48833 22152 26681 10627 14111 5605 11525 12570 8063 3507 4556 22015 980 12925 19249 3228 16021 6054 1776 20774 2799 3656 1039 338
internal_count=135135 51362 83773 34940 31133 20229 48833 22152 26681 10627 14111 5605 11525 12570 8063 3507 4556 22015 980 12925 19249 3228 16021 6054 1776 20774 2799 3656 1039 338
cat_boundaries=0 1 4 7 8 11 14 17 18 19 22 23 24 25 27 30 33 34 35 38 41 42 45 46
cat_threshold=75791040 2773825576 3322619732 1105 2756515899 3859359060 1105 1339 167804928 281315330 260 1091749568 135305353 2216 1234313668 19284000 2050 51414030 66588 49152 402657418 416 134349090 137429282 274432 134250496 268697602 33554432 8421376 256 67373064 1040 1 2624 67375168 2151682048 100663296 1024 2147485704 1107362836 1 18415616 1073874432 1052680 168 16512
is_linear=0
shrinkage=0.088387


Tree=16
num_leaves=31
num_cat=5
split_feature=0 10 22 10 21 0 0 12 12 8 13 12 4 0 10 2 10 4 0 10 12 13 19 2 12 19 12 0 7 19
split_gain=8.44129 39.6338 17.5435 18.1496 29.6005 13.5584 24.2538 17.7269 17.4552 18.3076 11.881 11.1343 10.8683 22.7615 15.8761 12.6548 13.6719 12.2372 18.7178 11.3656 11.2008 10.8168 20.1887 10.5692 10.0061 11.3937 9.80676 9.28841 11.4086 9.11954
threshold=118.63125000000001 0 51.197982628665606 1 48.515345926577858 135.01875000000004 142.14375000000004 66.130492266354352 66.580923300837114 46.101411212096046 50.129489435915694 53.068854335319863 0.19004132231404949 207.69375000000005 2 1.0000000180025095e-35 3 0.53201249268007034 181.33125000000004 4 70.462819852561253 58.261625396095958 52.681359744561782 19.237500000000004 46.447302611181932 49.747969163406118 53.383078473250897 134.30625000000001 66.035000790861275 55.193375540562656
decision_type=2 9 2 9 2 2 2 2 2 2 2 2 2 2 9 2 9 2 2 9 2 2 2 2 2 2 2 2 2 2
left_child=2 -2 11 4 10 7 -7 27 9 -9 -4 23 14 17 -8 -16 24 -14 -19 20 -15 -5 -23 -1 -17 26 -26 -3 -29 -13
right_child=1 5 3 21 -6 6 12 8 -10 -11 -12 29 13 19 15 16 -18 18 -20 -21 -22 22 -24 -25 25 -27 -28 28 -30 -31
leaf_value=0.0010654952340014583 -0.030640806991216154 -0.001129474482368576 0.045977922343850883 0.0009930137987564007 0.022111441632568611 0.013710996786276079 -0.0075365759468616275 -0.11579657621259611 -0.013170620233956432 -0.018377769033642331 -0.014623619068681945 -0.020095457727477714 0.011213332312582003 0.0044748409374040111 0.00028639560981306311 -0.0120537768650931 -0.0136105882332488 0.14732369463400216 0.026817168403847739 -0.001410673083277382 0.027987678518303249 0.052054595271255562 0.0069131339760491886 -0.05351364749872408 0.0033550286339905267 -0.0035094869060725603 0.027931771550643716 -0.0185776474360521 0.0070080527595070743 -0.0031121874991356384
leaf_weight=3417 686 10024 57 14110 1864 2097 5110 57 1284 68 593 1023 2818 3327 66065 1031 2231 26 102 10537 361 170 2519 58 692 1919 419 1082 378 1010
leaf_count=3417 686 10024 57 14110 1864 2097 5110 57 1284 68 593 1023 2818 3327 66065 1031 2231 26 102 10537 361 170 2519 58 692 1919 419 1082 378 1010
internal_value=-6.36733e-06 -0.00048168 0.0021061 0.00390615 0.0139321 -0.000290137 0.000224582 -0.00415225 -0.0175736 -0.0628007 -0.00930933 -0.00420551 -7.42515e-05 0.0028116 -0.000713916 -0.000231012 -0.00566408 0.0129548 0.0512951 0.00071093 0.00675807 0.00239603 0.009767 0.000154534 -0.00126187 0.00240607 0.0126238 -0.00250556 -0.0119534 -0.0116581
internal_weight=135135 110314 24821 19313 2514 109628 96735 12893 1409 125 650 5508 94638 17171 77467 72357 6292 2946 128 14225 3688 16799 2689 3475 4061 3030 1111 11484 1460 2033
internal_count=135135 110314 24821 19313 2514 109628 96735 12893 1409 125 650 5508 94638 17171 77467 72357 6292 2946 128 14225 3688 16799 2689 3475 4061 3030 1111 11484 1460 2033
cat_boundaries=0 1 2 3 4 5
cat_threshold=196614 9 524320 25206464 11539088
is_linear=0
shrinkage=0.126784


Tree=17
num_leaves=31
num_cat=26
split_feature=12 10 9 9 0 9 10 9 10 9 9 9 10 9 10 9 9 9 10 9 9 10 9 10 9 10 9 0 9 8
split_gain=7.5492 15.8435 39.4874 36.061 20.466 17.4477 16.9081 18.2626 13.7272 17.0619 16.6015 11.6225 22.0193 25.3414 18.0644 37.7152 19.7109 17.7966 15.934 20.6778 14.0295 13.0563 12.0591 26.1373 11.4235 10.825 10.458 10.0314 9.60501 12.4134
threshold=48.784802611181924 0 1 2 226.93125000000001 3 4 5 6 7 8 9 10 11 12 13 14 15 16 17 18 19 20 21 22 23 24 284.64375000000007 25 31.565253353489251
decision_type=2 9 9 9 2 9 9 9 9 9 9 9 9 9 9 9 9 9 9 9 9 9 9 9 9 9 9 2 9 2
left_child=1 3 8 6 -4 -6 24 -8 9 -3 -10 12 13 -2 15 27 18 21 19 -16 -20 -14 23 -17 -1 -18 -5 -13 -29 -30
right_child=11 2 4 26 5 -7 7 -9 10 -11 -12 14 17 -15 16 22 25 -19 20 -21 -22 -23 -24 -25 -26 -27 -28 28 29 -31
leaf_value=-0.00099373518638884114 0.018809306644334146 -0.00068076912137561747 -0.0038094076918018965 0.0097242930824181003 -0.022649820282142918 -0.0079530275637974598 0.014451960739777383 -0.0072678485009962908 0.0054975883208529409 0.011230508558818096 -0.010204831487252918 0.0072866815663438569 0.00092783481954503979 0.0040239881211888116 0.018419781538258385 0.0095646181354744186 -0.012793857300004246 0.0016021618992013422 -0.0058890322372315796 0.0029889965557651174 0.0063571117409720315 -0.020743879483196715 -0.0073074106844722275 -0.029760673035650002 -0.015980450142886456 -0.00064138599781714647 0.0024461218222537376 -0.028608403318708977 -0.024319414570390392 0.0037646301134982079
leaf_weight=1475 3041 4468 14651 6727 2469 4776 1331 1828 2444 5221 2986 4996 951 9786 3277 448 1695 13971 3392 3722 4159 1347 8390 1366 3352 10575 9623 263 373 2032
leaf_count=1475 3041 4468 14651 6727 2469 4776 1331 1828 2444 5221 2986 4996 951 9786 3277 448 1695 13971 3392 3722 4159 1347 8390 1366 3352 10575 9623 263 373 2032
internal_value=-5.75025e-06 -0.00116562 -0.00300899 0.0016387 -0.00684852 -0.0130037 -0.0061506 0.00190021 0.00255243 0.00574269 -0.00314018 0.000958678 0.00315908 0.00754118 -0.000474588 -0.00395903 0.00184743 -0.000298419 0.00536875 0.0102298 0.000855484 -0.0118101 -0.00959001 -0.0200494 -0.0114124 -0.0023292 0.00544475 0.00354089 -0.00346009 -0.000588577
internal_weight=135135 61351 37015 24336 21896 7245 7986 3159 15119 9689 5430 73784 29096 12827 44688 17868 26820 16269 14550 6999 7551 2298 10204 1814 4827 12270 16350 7664 2668 2405
internal_count=135135 61351 37015 24336 21896 7245 7986 3159 15119 9689 5430 73784 29096 12827 44688 17868 26820 16269 14550 6999 7551 2298 10204 1814 4827 12270 16350 7664 2668 2405
cat_boundaries=0 1 4 7 10 11 14 15 18 21 24 25 28 29 32 35 38 39 41 43 44 46 47 50 51 54 56
cat_threshold=210045816 819036868 2350422949 844 835822080 1276676865 780 1074014216 1659003984 161 2680 562037248 1140884224 512 1238145 12615872 67637665 64 272662656 201857153 76 1313092891 1252426497 1939 52490841 1107304704 1216380928 256 50873209 2147616928 2233017428 104 563102404 2957007082 4 1107296256 1073774592 256 144051328 545276416 2415939616 545276416 2415939680 131488 276840960 268435488 16777472 4292608 1573120 264 135659520 67915816 859971738 2224 2048 4
is_linear=0
shrinkage=0.141506


Tree=18
num_leaves=31
num_cat=9
split_feature=10 21 20 20 3 1 13 3 10 11 7 15 10 1 6 10 13 11 10 15 10 11 1 1 15 10 11 20 10 19
split_gain=9.89218 9.23814 9.8484 8.89814 18.5102 14.3714 8.25391 9.19847 8.25314 16.4053 9.75887 9.35317 11.4308 7.79433 8.06683 7.44269 9.22333 7.26015 8.74611 8.10885 8.80449 10.9484 11.4884 7.4211 14.2167 7.17419 9.98313 7.6975 16.7887 25.8875
threshold=0 57.052728871128885 67.053984875146895 47.460779928084449 0.40021881838074408 147.13125000000005 51.319295118418019 0.45929694727104536 1 43.588291362815873 58.791433708969386 51.17048982780306 2 80.86875000000002 3 4 49.066406759603431 58.220652427157624 5 51.17048982780306 6 58.579175483830319 119.34375000000001 204.13125000000005 51.842713556699088 7 45.926891766633567 49.791088997395697 8 49.747969163406118
decision_type=9 2 2 2 2 2 2 2 9 2 2 2 9 2 1 9 2 2 9 2 9 2 2 2 2 9 2 2 9 2
left_child=13 2 3 4 8 -6 15 17 9 10 -2 12 -10 14 -1 16 -3 -8 23 -20 21 22 -21 -19 -25 -5 -27 28 -28 -30
right_child=1 6 -4 25 5 -7 7 -9 11 -11 -12 -13 -14 -15 -16 -17 -18 18 19 20 -22 -23 -24 24 -26 26 27 -29 29 -31
leaf_value=0.0032330710440497401 -0.0061513909191958311 0.042192886140164615 0.0087937601045507529 0.00019486859140396763 0.01813002115594859 0.10001360291398008 0.0047437360329723515 0.018551475091952312 -0.0089179720628481778 0.0031486018713769688 -0.035529906558320404 -0.0062232795113259963 0.0064765291254768979 0.00080545127773567679 0.016635999735803621 0.0026398088267728576 0.0091560842210870238 0.0096099947211962453 -0.00059570755546254457 -0.027771153221994985 -0.006733518889256644 -0.012459762328978772 -0.087887872339674489 0.0057954609584265227 -0.024739711570969741 0.0031819532882579392 0.00097147844353384129 -0.0027776002229244002 -0.0040013519292570032 -0.018616845205171848
leaf_weight=2217 502 120 1193 9312 92 40 1738 304 875 10609 208 4404 2149 55541 793 5638 1308 971 1563 144 1582 400 58 567 305 2746 2628 20555 3950 2623
leaf_count=2217 502 120 1193 9312 92 40 1738 304 875 10609 208 4404 2149 55541 793 5638 1308 971 1563 144 1582 400 58 567 305 2746 2628 20555 3950 2623
internal_value=-4.2684e-06 -0.00085741 -0.00146796 -0.00166967 0.00038545 0.0429432 0.00171272 -0.000887752 8.57949e-05 0.00202359 -0.0147581 -0.00286595 0.00201403 0.00111159 0.00676414 0.0045215 0.0118493 -0.00169418 -0.00369581 -0.0068489 -0.0113554 -0.0230073 -0.0450324 0.00273703 -0.00488485 -0.00259755 -0.00339661 -0.00400484 -0.0067465 -0.00981883
internal_weight=135135 76584 61886 60693 18879 132 14698 7632 18747 11319 710 7428 3024 58551 3010 7066 1428 7328 5590 3747 2184 602 202 1843 872 41814 32502 29756 9201 6573
internal_count=135135 76584 61886 60693 18879 132 14698 7632 18747 11319 710 7428 3024 58551 3010 7066 1428 7328 5590 3747 2184 602 202 1843 872 41814 32502 29756 9201 6573
cat_boundaries=0 1 2 3 4 5 6 7 8 9
cat_threshold=109079158 136447369 16809984 1 134221832 135533568 65544 19103744 135532544
is_linear=0
shrinkage=0.114047


Tree=19
num_leaves=31
num_cat=24
split_feature=20 10 9 9 10 9 9 9 0 10 1 9 9 10 10 9 9 16 9 10 10 9 9 1 1 9 10 10 9 9
split_gain=8.20786 14.4328 9.07911 7.76479 6.14198 58.6597 46.4496 16.4809 13.5958 11.6672 16.4938 11.2959 11.2028 25.875 8.57874 15.143 11.7967 8.83612 8.5639 15.4852 8.08898 19.2803 12.8304 12.3092 10.6918 7.98385 7.84491 7.6146 15.5256 12.1508
threshold=42.939823691038747 0 1 2 3 4 5 6 89.418750000000017 7 285.35625000000005 8 9 10 11 12 13 51.73290608438321 14 15 16 17 18 236.90625000000003 212.68125000000001 19 20 21 22 23
decision_type=2 9 9 9 9 9 9 9 2 9 2 9 9 9 9 9 9 2 9 9 9 9 9 2 2 9 9 9 9 9
left_child=1 2 -1 -3 5 18 14 8 -7 10 11 -10 13 25 15 17 -16 -6 19 -2 21 -20 24 -23 -22 -8 -13 28 -14 -29
right_child=4 3 -4 -5 6 7 12 -9 9 -11 -12 26 27 -15 16 -17 -18 -19 20 -21 22 23 -24 -25 -26 -27 -28 29 -30 -31
leaf_value=-0.0052585903992411814 -0.020656514282229099 -0.0021464530636266469 0.0074124366260031526 -0.011393424512200467 0.0070470355182958343 0.024664582642258747 -0.018317448580028862 0.0027157590192468445 0.029546967753497844 0.0033269969358380933 -0.038296453636122711 0.021648987298719898 -0.00086867674479162071 0.0089960826047439744 -0.0077975457019229897 -0.0042159432974861908 -0.0025181009921505242 -0.0016456586089777126 0.0021194048073502432 -0.0041245783401303356 0.0015146672458324457 -0.0076018520025556546 0.0021129668905561735 -0.027086331180952435 -0.013457698543563303 -0.00077622335626199314 0.0070102607880550179 0.003578809234896954 0.0067457282818657533 -0.0023171659054092189
leaf_weight=1087 889 1908 1736 2534 3063 581 332 23395 455 3873 74 584 6187 6909 8865 8428 11723 2550 2780 2767 971 4186 6997 425 1366 3210 1785 6161 6563 12751
leaf_count=1087 889 1908 1736 2534 3063 581 332 23395 455 3873 74 584 6187 6909 8865 8428 11723 2550 2780 2767 971 4186 6997 425 1366 3210 1785 6161 6563 12751
internal_value=-2.23136e-06 -0.00356894 0.0025321 -0.00743526 0.000200413 0.00112653 -0.000416689 0.00413433 0.00863857 0.00727618 0.0124994 0.0138747 0.00201676 0.00511231 -0.00337578 -0.00129425 -0.00479406 0.00309241 -0.00341087 -0.0081899 -0.00236193 -0.00505606 -0.000225483 -0.00937742 -0.007206 -0.00246734 0.0106948 0.000993684 0.00305302 -0.000395546
internal_weight=135135 7265 2823 4442 127870 51128 76742 30747 7352 6771 2898 2824 42113 10451 34629 14041 20588 5613 20381 3656 16725 7391 9334 4611 2337 3542 2369 31662 12750 18912
internal_count=135135 7265 2823 4442 127870 51128 76742 30747 7352 6771 2898 2824 42113 10451 34629 14041 20588 5613 20381 3656 16725 7391 9334 4611 2337 3542 2369 31662 12750 18912
cat_boundaries=0 1 4 7 8 11 14 17 18 20 22 23 24 27 30 32 33 34 37 40 41 42 43 45 48
cat_threshold=33935969 830550315 2456832379 3 1032898 3546937349 2381 125848284 848563916 3766798157 522 1208668595 441135250 2300 134348835 268435458 2096 16779856 1 268435456 839909888 3758129472 561186 1118242 168114 659472 192 134348850 272760850 228 805306888 8421440 2128 16777804 265216 263940 514 3072 1796 512 512 528 2139138 84223052 68437004 67372040 1328140 512
is_linear=0
shrinkage=0.109086


Tree=20
num_leaves=31
num_cat=19
split_feature=14 14 9 10 9 9 2 6 9 10 5 3 10 2 10 9 9 10 14 10 9 9 8 11 10 22 17 17 9 9
split_gain=35.0277 21.6366 26.7637 22.0156 28.4254 25.6189 20.883 17.2131 49.8057 21.5041 20.1204 41.9178 16.4691 15.983 26.7982 17.4425 16.647 15.7917 19.6776 15.3209 14.4399 14.2923 13.1864 12.7917 12.468 39.2719 29.683 31.0103 28.7071 26.0334
threshold=48.784802611181924 27.129630197388817 0 1 2 3 130.03125000000006 4 5 6 7 0.22392930780559653 8 17.812500000000011 9 10 11 12 48.599457783595717 13 14 15 66.356585814937759 47.104349242094436 16 51.197982628665606 54.4466868999071 57.695840617266114 17 18
decision_type=2 2 9 9 9 9 2 1 9 9 1 2 9 2 9 9 9 9 2 9 9 9 2 2 9 2 2 2 9 9
left_child=1 2 -1 4 -3 17 7 10 12 -10 13 21 -9 24 16 -16 -15 18 -5 -4 -11 -12 -13 -8 25 28 -27 -28 -2 -26
right_child=6 3 19 5 -6 -7 23 8 9 20 11 22 -14 14 15 -17 -18 -19 -20 -21 -22 -23 -24 -25 29 26 27 -29 -30 -31
leaf_value=0.0018048479815788211 -0.014141254484350311 0.0022486703871287921 -0.0054369812415010852 -0.0043938467506407387 -0.001576345786540586 -0.004001785947249442 -0.010328562204755039 -0.0021445141682486317 0.0070556699204660815 -0.0082690171359136883 0.0058013297946685116 0.011552827481907417 0.010377961482151636 -0.021664479533304776 -0.0060700942287737585 0.0019599552339551836 -0.0054713259445340378 0.0010905317019226646 -0.053291751902565521 -0.027405525073530012 -0.00028839977231514109 -0.0041670041539162168 0.028040045832826422 0.0087408907168361558 0.0032154258360209452 -0.0024023438554065996 0.012680087284418388 0.0015432508233160804 -0.0025769925078588498 -0.0003632254901457674
leaf_weight=445 1380 14771 233 1954 17995 16025 159 504 1286 1252 1087 822 3521 448 1778 3064 686 9526 35 367 3814 1319 269 1942 14497 6431 1310 5156 2571 20488
leaf_count=445 1380 14771 233 1954 17995 16025 159 504 1286 1252 1087 822 3521 448 1778 3064 686 9526 35 367 3814 1319 269 1942 14497 6431 1310 5156 2571 20488
internal_value=-2.94251e-06 -0.00114418 -0.0103654 -0.00098439 0.000148142 -0.00233104 0.000945989 0.000759821 0.00319438 -0.000376327 0.000347734 0.00510875 0.0088085 5.97289e-05 -0.00310556 -0.000995141 -0.0120021 -4.4666e-06 -0.00522801 -0.0191034 -0.00227312 0.000343354 0.015618 0.00729775 0.000424665 -0.00101964 0.00070702 0.00379955 -0.00665846 0.00112018
internal_weight=135135 61351 1045 60306 32766 27540 73784 71683 10377 6352 61306 3497 4025 57809 5976 4842 1134 11515 1989 600 5066 2406 1091 2101 51833 16848 12897 6466 3951 34985
internal_count=135135 61351 1045 60306 32766 27540 73784 71683 10377 6352 61306 3497 4025 57809 5976 4842 1134 11515 1989 600 5066 2406 1091 2101 51833 16848 12897 6466 3951 34985
cat_boundaries=0 3 4 7 10 11 14 15 16 17 18 21 24 25 26 29 32 33 36 39
cat_threshold=546949332 407230603 2600 92342975 2370083107 925589534 1136 2995807820 3380910689 774 1 1459619113 1075623747 319 41946776 1 36864296 134849043 3523748892 633973130 310 2164692750 539034648 1142 528448 338977 545344004 268451972 2560 253039965 20562116 1595 62751316 2717933675 2855800913 459 2361864999 3861383232 1474
is_linear=0
shrinkage=0.0646373


Tree=21
num_leaves=31
num_cat=8
split_feature=17 9 2 0 17 17 17 9 17 9 9 17 17 17 8 13 0 8 9 9 13 17 8 0 9 11 17 17 13 9
split_gain=5.5635 6.5464 5.39168 5.08147 5.5361 5.13088 9.37745 15.2501 11.4208 10.6751 10.3907 9.90998 11.1432 8.6139 10.4911 9.75607 15.4332 8.61383 13.7619 8.1428 8.02584 7.93644 7.77811 7.70587 10.9853 9.72005 7.95892 7.7861 7.40754 7.32977
threshold=44.151769651788392 0 175.63125000000005 505.87500000000006 50.088579547253907 59.481369774933505 52.015957068867742 1 57.695840617266114 2 3 49.90009656373342 49.628990010182783 54.4466868999071 31.565253353489251 58.261625396095958 212.68125000000001 93.862546249527099 4 5 50.655702264372493 52.594976686380583 21.90643572527344 315.99375000000003 6 47.145006681540799 44.546586066475221 48.596360527080996 49.812888602363167 7
decision_type=2 9 2 2 2 2 2 9 2 9 9 2 2 2 2 2 2 2 9 9 2 2 2 2 9 2 2 2 2 9
left_child=1 -1 3 5 -5 6 9 13 10 -2 20 12 23 -8 15 -15 22 19 -19 -7 -9 -22 -17 25 -25 -11 -27 28 -26 -10
right_child=2 -3 -4 4 -6 17 7 8 29 11 -12 -13 -14 14 -16 16 -18 18 -20 -21 21 -23 -24 24 27 26 -28 -29 -30 -31
leaf_value=0.00054319070994102441 -0.00282092281639218 -0.0035951630073907288 0.012267215283393366 -0.018814514250337814 -0.00061389837799136833 0.0010658017158102766 -0.0030452897185652824 0.020031442777469811 -0.006718108977383056 0.0059365820116041206 0.0048107404203704225 -0.0017656298960069532 0.0061068064714929829 0.0042419953212903512 -0.00030955510850872136 -0.01179028392054904 0.0051482716203495402 0.018840702560866802 -0.0023280046642825932 -0.0034091933250298195 0.027044761950287564 0.00064654173756247338 0.048701739384864419 -0.012686687601862258 0.0016192297090044507 0.0068899738717363912 -0.00030442832809110515 0.0090560801210530558 -0.011610605326615715 0.0031225422537989041
leaf_weight=8283 13668 10402 451 351 474 7763 7190 1070 1467 4832 10179 14447 5683 1363 4856 29 313 643 858 13319 171 700 222 1148 1310 2071 17833 818 837 2384
leaf_count=8283 13668 10402 451 351 474 7763 7190 1070 1467 4832 10179 14447 5683 1363 4856 29 313 643 858 13319 171 700 222 1148 1310 2071 17833 818 837 2384
internal_value=-2.68194e-06 -0.00176228 0.000279654 0.000233047 -0.00835743 0.000294581 0.000656678 0.00225569 0.00457294 -0.000107619 0.00623164 0.000649994 0.0016608 -0.000395889 0.0024119 0.00926991 0.0214207 -0.00119003 0.00685028 -0.00176248 0.0135884 0.0058292 0.0417126 0.000784971 -0.00361784 0.00151705 0.000444145 -6.35335e-05 -0.00353837 -0.000635492
internal_weight=135135 18685 116450 115999 825 115174 92591 29944 15971 62647 12120 48979 34532 13973 6783 1927 564 22583 1501 21082 1941 871 251 28849 4113 24736 19904 2965 2147 3851
internal_count=135135 18685 116450 115999 825 115174 92591 29944 15971 62647 12120 48979 34532 13973 6783 1927 564 22583 1501 21082 1941 871 251 28849 4113 24736 19904 2965 2147 3851
cat_boundaries=0 3 6 9 12 15 18 21 24
cat_threshold=2168892140 1831084225 1335 546528148 2454543470 2144 1375739976 2860515345 441 301998088 547356672 257 538367877 3427899744 3118 1879658242 2726700083 2507 21235746 271597868 3138 1342186506 622985744 1411
is_linear=0
shrinkage=0.10985


Tree=22
num_leaves=31
num_cat=23
split_feature=10 9 9 1 9 9 10 10 9 9 10 0 10 6 3 9 10 10 9 10 22 9 9 9 10 22 9 7 17 10
split_gain=5.35916 54.1913 23.4169 14.7615 19.1243 16.397 13.5879 12.8004 15.5587 15.0684 14.3641 11.8381 11.5819 11.443 11.1769 10.0479 11.0612 10.0171 9.68994 9.60623 14.6811 23.2586 18.4226 10.5855 9.25888 9.1801 9.80771 8.90718 8.70146 8.23309
threshold=0 1 2 179.90625000000003 3 4 5 6 7 8 9 152.83125000000004 10 11 -0.04345773381294965 12 13 14 15 16 51.830694193713889 17 18 19 20 51.197982628665606 21 28.773186707320523 54.982540031656562 22
decision_type=9 9 9 2 9 9 9 9 9 9 9 2 9 1 2 9 9 9 9 9 2 9 9 9 9 2 9 2 2 9
left_child=1 29 7 4 19 13 27 9 10 -2 -9 -3 -7 -5 -11 17 -17 -8 -13 20 21 -4 -22 -21 25 -16 -27 -6 -14 -1
right_child=2 11 3 5 6 12 15 8 -10 14 -12 18 28 -15 24 16 -18 -19 -20 23 22 -23 -24 -25 -26 26 -28 -29 -30 -31
leaf_value=-0.0067393417735081892 0.0026066728753111777 0.014950963006459157 0.015085496844656954 0.0010031729284248555 -0.023762668835466589 -0.013781249050107285 -0.0019490739306929458 0.013247488646711563 0.0013955863140662542 0.049720462758422915 0.0034398387501273974 0.012574014407129528 -0.0032449033869471613 -0.017028099814707445 -0.01276733767078916 -0.011311168612586003 -0.0017858881843909118 -0.018381364581279119 0.0032934155249537429 0.004396615369481824 0.0084854761908583157 0.0007583615480035678 -0.0080596772922850134 -0.0029001979408460952 -0.0085581437508208333 0.015200381454505882 -0.0017349965826421179 0.0026546168108472243 -0.0091656275271149012 -0.0018147525136268127
leaf_weight=5586 5991 1120 2656 8638 145 1601 673 2729 16526 41 4181 1316 13448 406 479 1620 7709 1078 19855 3565 1297 2362 1704 5646 3585 542 1186 4658 3433 11359
leaf_count=5586 5991 1120 2656 8638 145 1601 673 2729 16526 41 4181 1316 13448 406 479 1620 7709 1078 19855 3565 1297 2362 1704 5646 3585 542 1186 4658 3433 11359
internal_value=-1.3936e-06 0.00103187 -0.000424204 -0.00167485 -0.000181971 -0.00347136 -0.00280834 0.00172649 0.00314675 -0.00108884 0.00732677 0.00443217 -0.00526199 0.000193506 -0.00488242 -0.00482891 -0.00345031 -0.0121125 0.0038778 0.00223941 0.00489388 0.00837321 -0.000907621 -7.43541e-05 -0.00527737 9.0212e-05 0.00365483 0.00185323 -0.00444634 -0.00344118
internal_weight=135135 39236 95899 60639 33113 27526 15883 35260 23436 11824 6910 22291 18482 9044 5833 11080 9329 1751 21171 17230 8019 5018 3001 9211 5792 2207 1728 4803 16881 16945
internal_count=135135 39236 95899 60639 33113 27526 15883 35260 23436 11824 6910 22291 18482 9044 5833 11080 9329 1751 21171 17230 8019 5018 3001 9211 5792 2207 1728 4803 16881 16945
cat_boundaries=0 1 4 7 10 13 14 15 18 21 22 23 24 27 28 29 32 33 36 39 42 43 45 46
cat_threshold=109103728 856746520 1549048677 778 823192080 1549048677 258 239146339 587801736 1104 8847372 2157985792 2700 1447044 16973838 536904192 1207992384 256 16785424 340006945 2 137363585 1179648 1 8388612 8388608 2048 589824 73729 1073741825 0 128 196746 71307554 587210752 1088 33625154 34079880 64 134284609 73728 1040 65544 1048576 1081348 67141664
is_linear=0
shrinkage=0.104965


Tree=23
num_leaves=31
num_cat=12
split_feature=1 9 1 2 9 21 9 8 6 0 9 13 0 9 0 0 15 8 9 15 9 1 8 9 16 6 9 6 21 8
split_gain=6.30261 9.28739 5.55393 5.43896 12.6835 5.5894 5.46242 8.66677 4.93099 4.64313 4.55233 4.40154 4.38993 5.66805 6.07034 5.11091 4.27407 5.84533 6.40216 4.26011 4.47696 5.22079 4.56545 4.12057 3.79745 6.41879 5.95537 4.35546 3.69326 3.6587
threshold=84.43125000000002 0 85.143750000000011 120.05625000000002 1 47.104349242094436 2 21.90643572527344 3 484.14375000000007 4 45.571000386065322 205.55625000000001 5 204.84375000000003 103.66875000000002 51.17048982780306 70.325979842441498 6 51.842713556699088 7 115.06875000000001 23.281794020100381 8 51.73290608438321 9 10 11 59.129954030543125 18.851987422911439
decision_type=2 9 2 2 9 2 9 2 1 2 9 2 2 9 2 2 2 2 9 2 9 2 2 9 2 1 9 1 2 2
left_child=1 11 -2 6 8 9 7 10 -5 -6 -4 -1 13 14 15 -9 17 -13 -19 -17 22 -22 -21 -7 27 26 -26 -3 -25 -8
right_child=2 24 3 4 5 23 29 12 -10 -11 -12 16 -14 -15 -16 19 -18 18 -20 20 21 -23 -24 28 25 -27 -28 -29 -30 -31
leaf_value=-0.0086104269454427926 -0.01642822750990942 -0.0037242345310022225 -0.00050902360030908797 0.027488531570720336 0.0010088924641959674 -0.0044152052576096916 0.0069512607082849124 -0.005392410440517679 0.0098360035408710106 -0.031109871142345317 -0.01108618191455445 0.0012950245964525424 3.259421638936329e-05 0.0011863623246471499 0.02985829519433137 0.0035665874519281516 0.0072674165065253725 0.039811649237562308 0.0083157073966478121 0.040395859054450346 0.040156468801369159 0.013515955433861226 0.0028486758060396367 0.0045374411835339889 0.0068651504877180617 0.018991727499897946 -0.010875741644662412 -0.02493448435505962 0.035729005876845944 -0.00096129427734948508
leaf_weight=192 287 663 1017 335 113 884 810 579 616 136 1247 181 26927 16094 138 2885 2061 214 178 47 118 695 805 1445 517 251 502 166 54 74978
leaf_count=192 287 663 1017 335 113 884 810 579 616 136 1247 181 26927 16094 138 2885 2061 214 178 47 118 695 805 1445 517 251 502 166 54 74978
internal_value=-6.34224e-07 0.00411141 -0.000156166 -0.000120221 0.00437887 0.000159666 -0.000247815 0.000694918 0.0158872 -0.0165339 -0.00638609 0.00847691 0.00102706 0.00228065 0.00561146 0.00497002 0.00975463 0.0187008 0.0267377 0.00628867 0.0110053 0.0171714 0.00486286 0.00190465 -0.00179792 0.0022177 -0.00191408 -0.0079714 0.00562357 -0.000876612
internal_weight=135135 4925 130210 129923 3583 2632 126340 50552 951 249 2264 2826 48288 21361 5267 5129 2634 573 392 4550 1665 813 852 2383 2099 1270 1019 829 1499 75788
internal_count=135135 4925 130210 129923 3583 2632 126340 50552 951 249 2264 2826 48288 21361 5267 5129 2634 573 392 4550 1665 813 852 2383 2099 1270 1019 829 1499 75788
cat_boundaries=0 3 6 9 10 13 15 18 20 23 24 27 28
cat_threshold=1083801744 2148604203 52 1347178564 462995 14 3951192625 19432212 3432 1 562045440 524288 2048 18433 16810260 589968 65571 32 1 16777232 2818714112 338740588 2224 1 536870916 138428544 2568 1
is_linear=0
shrinkage=0.117102


Tree=24
num_leaves=31
num_cat=3
split_feature=17 1 11 11 17 1 1 2 12 6 7 2 5 6 2 8 8 2 16 1 7 8 17 17 8 1 11 1 19 1
split_gain=3.52859 10.7206 5.42232 4.23921 9.27 4.85723 4.39736 4.22271 4.10875 5.78236 3.79746 3.74267 6.07793 5.6038 7.32141 5.13294 4.42311 5.25187 4.69438 3.88166 3.57037 3.25297 3.13113 8.30461 23.6005 19.1896 19.0675 10.1031 9.57361 6.32366
threshold=66.311778394516168 479.15625000000006 52.059432629878316 59.129954030543125 61.601403754746705 519.76875000000007 103.66875000000002 146.41875000000007 74.826612956009527 0 62.734354404672175 16.387499999999999 1 2 31.706250000000001 66.356585814937759 66.356585814937759 25.650000000000023 51.73290608438321 236.90625000000003 47.4101281863298 22.129740701046675 57.695840617266114 54.4466868999071 31.565253353489251 109.36875000000002 53.794327354037634 412.89375000000007 58.861157098733614 228.35625000000002
decision_type=2 2 2 2 2 2 2 2 2 1 2 2 1 1 2 2 2 2 2 2 2 2 2 2 2 2 2 2 2 2
left_child=3 11 -3 4 8 6 -5 21 22 -10 -9 19 16 14 -14 -16 18 -18 -13 -2 -11 -8 23 28 27 -26 -27 -25 -1 -24
right_child=1 2 -4 5 -6 -7 7 10 9 20 -12 12 13 -15 15 -17 17 -19 -20 -21 -22 -23 29 24 25 26 -28 -29 -30 -31
leaf_value=-7.3387140604726965e-05 0.0058733541111607732 0.063546532952997517 0.017912256366046219 -0.0067313026679716942 -0.0080761288382209268 -0.031930175930758635 -0.0061788420329918535 0.0038842712147059734 0.0032652148890883691 0.043674203651711423 0.074854391585438496 -0.025026885149008693 -0.016226866563546084 -0.0039130233629383971 0.018440922207314771 0.062261268450752749 -0.0069683064087025974 -0.043242668319372596 0.0021246397993602843 -0.003600221697082268 0.010093576162312998 0.0042716231968123819 -0.0028986039092139745 0.02056167865759231 0.014132043512518564 -0.0082658648333058856 0.0088785465003293415 -0.00022858740639878348 -0.0082069495584853273 0.0020491542758818656
leaf_weight=91526 2961 53 114 601 2085 56 444 20 870 87 22 117 61 371 130 52 114 108 363 754 89 6100 13833 1367 1081 3167 1260 426 2056 4847
leaf_count=91526 2961 53 114 601 2085 56 444 20 870 87 22 117 61 371 130 52 114 108 363 754 89 6100 13833 1367 1081 3167 1260 426 2056 4847
internal_value=7.71801e-07 0.00301236 0.032395 -0.000119704 -0.000283293 0.00265144 0.00292089 0.0038017 -0.000148576 0.00720719 0.0410591 0.00203703 -0.00336486 0.00520087 0.0191155 0.030961 -0.0108568 -0.0246153 -0.00449354 0.00395059 0.0266931 0.00356258 -0.000212928 4.66464e-05 0.00387565 5.18725e-05 -0.00338627 0.0156221 -0.000252082 -0.00161478
internal_weight=135135 5198 167 129937 122694 7243 7187 6586 120609 1046 42 5031 1316 614 243 182 702 222 480 3715 176 6544 119563 100883 7301 5508 4427 1793 93582 18680
internal_count=135135 5198 167 129937 122694 7243 7187 6586 120609 1046 42 5031 1316 614 243 182 702 222 480 3715 176 6544 119563 100883 7301 5508 4427 1793 93582 18680
cat_boundaries=0 1 2 3
cat_threshold=1 1 1
is_linear=0
shrinkage=0.117877


Tree=25
num_leaves=31
num_cat=28
split_feature=10 9 10 9 9 10 9 9 9 10 9 9 10 9 9 10 9 10 9 9 9 22 9 10 10 9 8 10 9 9
split_gain=2.81309 38.4396 17.7999 15.7634 13.5822 12.9538 17.922 11.8867 11.5821 11.2416 18.5099 14.8819 10.6685 17.3825 12.9601 10.2013 24.8501 9.90826 12.9839 9.63532 9.60442 8.97654 7.87906 10.6295 7.14351 6.42641 6.33008 6.3152 28.7825 19.5621
threshold=0 1 2 3 4 5 6 7 8 9 10 11 12 13 14 15 16 17 18 19 20 51.197982628665606 21 22 23 24 56.874652179366826 25 26 27
decision_type=9 9 9 9 9 9 9 9 9 9 9 9 9 9 9 9 9 9 9 9 9 2 9 9 9 9 2 9 9 9
left_child=1 2 7 5 21 6 -2 -1 17 10 -6 -11 13 26 -14 16 27 18 -7 24 -4 25 23 -17 -19 -3 -10 28 -5 -29
right_child=3 4 20 15 9 8 -8 -9 12 11 -12 -13 14 -15 -16 22 -18 19 -20 -21 -22 -23 -24 -25 -26 -27 -28 29 -30 -31
leaf_value=0.015278133012259351 -0.00031031388332312108 -0.014224785670046539 0.0076404307154145853 -0.03295703569268639 0.011593266960364357 0.0040589594741313635 0.010763533774844868 0.0045945566024422806 0.008716123177692171 -0.00058461590547644721 -0.0048804972210953609 -0.011135030214513102 -0.015986583476303787 0.0052345959493904594 0.0024844114439057487 0.011371224516128531 0.00093224234998899938 -0.010069236142805834 -0.01905617748276877 -0.0034265490424717207 -0.0056043780803250202 -0.0085028345203860042 -0.00068161130641052428 -0.00068119066161119511 0.0097804091656002803 -0.038391760546999061 0.037051087302060463 -0.021331190412229511 0.0033305189282366631 -0.0043592693917865596
leaf_weight=3416 5244 683 1638 588 2571 808 8165 6860 244 5980 3514 5709 932 4700 6941 3020 10724 464 1539 7046 4352 3895 30911 3387 2479 404 585 2819 2362 3155
leaf_count=3416 5244 683 1638 588 2571 808 8165 6860 244 5980 3514 5709 932 4700 6941 3020 10724 464 1539 7046 4352 3895 30911 3387 2479 404 585 2819 2362 3155
internal_value=4.83786e-07 -0.00105753 0.00442692 0.000430105 -0.00497805 0.00271274 0.00643576 0.00815745 0.000771378 -0.00306229 0.00208751 -0.00574264 0.00377769 0.00874825 0.000280323 -0.00113872 -0.00386329 -0.00249513 -0.0111149 -0.000460757 -0.00197581 -0.011793 0.000296418 0.0050087 0.00662737 -0.0236909 0.028369 -0.0096207 -0.0039893 -0.0123902
internal_weight=135135 39022 16266 96113 22756 39147 13409 10276 25738 17774 6085 11689 13402 5529 7873 56966 19648 12336 2347 9989 5990 4982 37318 6407 2943 1087 829 8924 2950 5974
internal_count=135135 39022 16266 96113 22756 39147 13409 10276 25738 17774 6085 11689 13402 5529 7873 56966 19648 12336 2347 9989 5990 4982 37318 6407 2943 1087 829 8924 2950 5974
cat_boundaries=0 1 4 5 8 11 12 15 18 21 22 25 27 28 31 34 35 38 39 42 44 47 50 51 52 55 56 59 62
cat_threshold=186384397 1828826640 1076557612 2868 1310725 449466477 3146777808 1227 273170436 2291138688 9 67322928 34078824 956301328 11 1610614800 16676 2320 146935809 2189427904 1216 184549384 131371 373293072 1216 2190737610 604309507 2109696 268435456 1048576 8 268435464 0 8 67310640 1073783312 4780577 820 2101824 4198400 192 1024 8388609 2181038080 134225920 700928 272 512 4718593 772 8415234 8192 4194308 2155872384 1 4112 512 32 512 16 4235265 292
is_linear=0
shrinkage=0.147779


Tree=26
num_leaves=31
num_cat=10
split_feature=1 9 16 9 9 1 9 1 0 9 9 13 9 20 12 12 11 0 11 12 1 9 0 2 9 0 2 6 0 16
split_gain=2.92003 27.8261 16.8897 8.90166 7.90921 5.79743 19.4766 6.16697 5.92096 6.67615 5.4051 5.12425 4.99323 4.88399 3.79465 3.36457 5.1869 3.32172 3.2629 3.95965 2.82462 11.9985 4.92487 4.46112 3.14808 4.6309 4.39192 4.24498 3.76973 4.40003
threshold=469.18125000000003 0 51.73290608438321 1 2 392.23125000000005 3 375.84375000000006 429.99375000000003 4 5 60.061136016172021 6 48.436806468439606 44.745578473250895 48.784802611181924 47.351275264527864 513.35625000000016 45.926891766633567 47.239975024975031 227.64375000000004 7 482.71875000000006 -1.0000000180025095e-35 8 85.143750000000011 -0.71249999999999847 9 68.756250000000009 51.73290608438321
decision_type=2 9 2 9 9 2 9 2 2 9 9 2 9 2 2 2 2 2 2 2 2 9 2 2 9 2 2 1 2 2
left_child=5 10 4 17 -3 7 -7 12 -8 11 -2 14 20 -9 -10 16 -16 -4 19 -6 24 22 -22 -23 25 26 -1 -28 -29 -30
right_child=1 2 3 -5 18 6 8 13 9 -11 -12 -13 -14 -15 15 -17 -18 -19 -20 -21 21 23 -24 -25 -26 -27 27 28 29 -31
leaf_value=-0.019001819171871246 -0.019089504219382301 0.0067499292420360318 0.0064027795452951276 0.019794005640994265 -0.011644528235353108 -0.019674485938805317 0.024896337883710595 0.0033491109043617385 0.024312585770918875 0.00020163735052874341 -0.0078785113495601494 0.031998979804713119 -0.00044477808094211613 -0.019933902336635813 0.019786215300667105 0.010224966291513633 -0.030006511718386676 -0.014011349233410804 -0.0052338680702101199 -0.051382186559747446 0.0093413198259273515 0.043215406772335201 -0.010270710153095696 -0.00085899364539374946 0.0014039592315605203 -0.0018398036449972651 0.0086465123326743294 0.082004444477797561 0.071678982524940177 0.004539381171537381
leaf_weight=58 919 886 915 974 141 360 326 192 198 932 1997 193 84233 390 47 416 82 130 1806 48 3477 33 193 5299 21999 8553 250 22 20 46
leaf_count=58 919 886 915 974 141 360 326 192 198 932 1997 193 84233 390 47 416 82 130 1806 48 3477 33 193 5299 21999 8553 250 22 20 46
internal_value=-2.69521e-06 -0.0022447 0.00325901 0.0116465 -0.00260765 0.00013494 0.00577106 1.95656e-05 0.0099904 0.00744253 -0.0114649 0.0144955 7.70822e-05 -0.0122529 0.0101439 0.00499634 -0.011865 0.0038266 -0.00676339 -0.0217366 0.00117722 0.00304064 0.00828737 -0.000585118 0.000635579 -0.00125347 0.0113788 0.0165921 0.0391646 0.0248847
internal_weight=135135 7816 4900 2019 2881 127319 2554 124765 2194 1868 2916 936 124183 582 743 545 129 1045 1995 189 39950 9002 3670 5332 30948 8949 396 338 88 66
internal_count=135135 7816 4900 2019 2881 127319 2554 124765 2194 1868 2916 936 124183 582 743 545 129 1045 1995 189 39950 9002 3670 5332 30948 8949 396 338 88 66
cat_boundaries=0 3 6 9 12 15 18 21 24 27 28
cat_threshold=805168 375517679 2208 537962049 2702837760 1097 5251140 554827776 588 9192464 808501504 2080 2231566758 2403926087 198 0 274751820 160 937528 287352137 2083 524312 270540801 33 525320 270540801 1 1
is_linear=0
shrinkage=0.119501


Tree=27
num_leaves=31
num_cat=21
split_feature=14 10 9 9 10 9 9 18 9 9 10 22 10 0 9 10 9 9 19 20 3 15 9 10 10 9 10 0 9 9
split_gain=6.69437 8.2685 25.3608 15.464 10.0844 16.7648 9.68196 8.41613 8.64543 7.87471 13.0629 10.8983 16.6878 18.2808 13.785 11.3301 11.8804 9.64981 9.06406 8.4933 8.18747 7.47642 18.8245 13.1621 11.2543 11.1328 10.469 8.93296 8.2651 7.76321
threshold=49.356354335319857 0 1 2 3 4 5 51.73290608438321 6 7 8 51.830694193713889 9 327.39375000000007 10 11 12 13 48.206057557977836 50.928781276360539 0.40919696408229372 51.842713556699088 14 15 16 17 18 110.08125000000001 19 20
decision_type=2 9 9 9 9 9 9 2 9 9 9 2 9 2 9 9 9 9 2 2 2 2 9 9 9 9 9 2 9 9
left_child=1 2 -1 4 -3 -6 -4 -7 -9 10 -2 15 19 14 -14 16 18 -17 -11 -13 -16 25 23 -23 28 26 29 -27 -24 -5
right_child=9 3 6 21 5 7 -8 8 -10 11 -12 12 13 -15 20 17 -18 -19 -20 -21 -22 22 24 -25 -26 27 -28 -29 -30 -31
leaf_value=-0.0044253632052019976 -0.0020598228484925338 0.00023583441340856626 0.0024370625371487181 -0.00020475634422107894 -0.0094481337828254928 -0.0037829711020877423 -0.00091863930795862514 -0.0035098199274239154 0.0034459900017156388 -0.010264041815990404 0.00063991993613687307 0.005079814787604664 0.0012235192203593841 -0.025078037724991779 -0.0044079491166251214 0.0024819904798948694 0.0050157637901312715 -0.00056755691940272115 0.001461598219236917 0.00039588814450549806 0.0087835830262814885 0.0094282393276765141 -0.011214043885598508 0.0025390265039583046 0.0014036274327788097 0.0039373974474752613 -0.00075278063461313785 0.00014841593565248048 -0.0015057176816396175 -0.01044468988851183
leaf_weight=6974 10461 5964 4270 416 1275 3519 12394 1082 1668 263 18088 2158 3276 127 4586 6647 6065 9072 3374 4263 181 1678 459 2684 5627 3050 4187 9400 1089 838
leaf_count=6974 10461 5964 4270 416 1275 3519 12394 1082 1668 263 18088 2158 3276 127 4586 6647 6065 9072 3374 4263 181 1678 459 2684 5627 3050 4187 9400 1089 838
internal_value=2.37789e-07 -0.000434284 -0.00134772 6.88983e-05 -0.00163446 -0.0031114 -5.7825e-05 -0.00180962 0.000708963 0.000422166 -0.000349702 0.000972747 -0.000352241 -0.00217475 -0.00181581 0.00173364 0.00336725 0.000722745 0.000612007 0.00196702 -0.0038989 0.00085106 0.00205886 0.00520471 0.000138911 7.26862e-05 -0.00222046 0.00107578 -0.00443785 -0.00707621
internal_weight=135135 66574 23638 42936 13508 7544 16664 6269 2750 68561 28549 40012 14591 8170 8043 25421 9702 15719 3637 6421 4767 29428 11537 4362 7175 17891 5441 12450 1548 1254
internal_count=135135 66574 23638 42936 13508 7544 16664 6269 2750 68561 28549 40012 14591 8170 8043 25421 9702 15719 3637 6421 4767 29428 11537 4362 7175 17891 5441 12450 1548 1254
cat_boundaries=0 1 4 7 8 11 14 16 19 20 21 24 25 28 31 34 35 36 39 40 43 46
cat_threshold=70938753 21260315 849552688 145 1510052870 1288735360 1358 50397560 301989888 1074823168 8 33588740 135301248 332 1073779716 138412544 848906372 940924927 4 184631593 35702093 1224869450 2181169152 993 128676544 2147492442 36306944 497 2168725817 2760704 3201 537020993 2181583932 129 184815120 25231362 537004608 2181567749 160 134283844 1048592 2105408 2576 133632 256 32
is_linear=0
shrinkage=0.0608351


Tree=28
num_leaves=31
num_cat=9
split_feature=20 3 9 12 9 20 9 12 8 2 13 9 8 9 11 2 8 8 8 8 5 19 8 8 9 13 9 5 12 11
split_gain=2.79294 7.12502 5.48851 6.05804 8.32743 3.09857 6.01533 4.81092 8.78093 8.14141 6.52555 5.78315 5.55983 7.19394 5.63166 8.08383 9.15542 6.14809 5.72343 11.3999 6.42937 5.5303 11.1758 9.46739 5.04243 4.43647 4.70062 4.49781 4.38263 5.97431
threshold=42.939823691038747 0.38246681016425182 0 37.986095714630203 1 47.460779928084449 2 43.021009507733652 39.708180425858949 32.062500000000021 45.571000386065322 3 31.565253353489251 4 57.212684289842777 19.950000000000035 39.708180425858949 56.874652179366826 66.356585814937759 93.862546249527099 5 46.734510760422559 61.348530853114731 56.874652179366826 6 45.571000386065322 7 8 48.784802611181924 46.639347340436622
decision_type=2 2 9 2 9 2 9 2 2 2 2 9 2 9 2 2 2 2 2 2 1 2 2 2 9 2 9 1 2 2
left_child=1 2 3 4 -1 6 -2 8 9 25 -11 -10 13 -9 24 -16 -17 -18 20 -20 -19 -13 23 -23 -14 27 -27 -8 29 -7
right_child=5 -3 -4 -5 -6 28 7 12 11 10 -12 21 14 -15 15 16 17 18 19 -21 -22 22 -24 -25 -26 26 -28 -29 -30 -31
leaf_value=-0.032818632830175741 0.0041218538155693343 -0.075906368124364923 0.00053963043740721888 -0.0030360684004754088 -0.0049218732798478847 0.0025822162901869943 -0.0084859930052203075 -0.012884270609321053 -0.001838569120780429 0.0083768257135932202 0.056469537318051211 -0.0064194290365201705 0.00090074080320454565 0.00029580927294726875 0.0012084456974351745 0.011776890610867259 -0.068579184789587314 -0.033448339415448142 -0.095528739493144763 -0.0078264732017527209 0.019834986495361258 -0.029258309607842134 -0.0071639901956010331 -0.087151910725298196 0.0069390521085397686 0.012761556201758277 -0.0037332709286331833 -0.077952545609758173 0.00038549661774951992 -0.0023252345937570802
leaf_weight=319 9231 23 4520 1942 461 5191 371 975 1561 115 86 921 4890 2714 1173 118 62 78 46 59 80 256 398 61 4772 606 586 17 67531 25972
leaf_count=319 9231 23 4520 1942 461 5191 371 975 1561 115 86 921 4890 2714 1173 118 62 78 46 59 80 256 398 61 4772 606 586 17 67531 25972
internal_value=-1.95844e-06 -0.0025207 -0.00228763 -0.00695885 -0.0168148 0.000141145 0.00133678 4.56993e-05 -0.00351065 0.00392044 0.0289538 -0.00765041 0.00122857 -0.0032218 0.00268427 -0.00453155 -0.0197302 -0.0311697 -0.0223508 -0.0462484 -0.00646944 -0.0131045 -0.0218988 -0.0403987 0.00389114 0.000735818 0.00472826 -0.0115296 -0.00021231 -0.00150777
internal_weight=135135 7265 7242 2722 780 127870 29176 19945 4978 1781 201 3197 14967 3689 11278 1616 443 325 263 105 158 1636 715 317 9662 1580 1192 388 98694 31163
internal_count=135135 7265 7242 2722 780 127870 29176 19945 4978 1781 201 3197 14967 3689 11278 1616 443 325 263 105 158 1636 715 317 9662 1580 1192 388 98694 31163
cat_boundaries=0 3 6 9 12 15 16 19 22 23
cat_threshold=415248683 582092792 1683 4387 35782736 3 612452360 3233934779 512 2283045491 320081924 2284 2185404418 554696772 1224 1 3641836501 353112580 3104 2316964693 570953732 81 1
is_linear=0
shrinkage=0.13206


Tree=29
num_leaves=31
num_cat=13
split_feature=9 18 9 9 9 19 3 15 0 1 9 1 9 9 1 1 9 3 9 9 18 1 9 21 1 9 0 1 1 9
split_gain=2.0016 6.1073 12.9989 12.5417 3.88238 5.50133 3.65323 3.58909 8.40628 5.95257 9.13835 6.3588 6.33057 3.05681 2.77506 8.28135 17.1398 7.77808 6.83 5.03108 4.99326 4.33441 7.81616 5.47262 4.41052 8.23969 4.69291 4.26352 4.10993 9.35093
threshold=0 51.73290608438321 1 2 3 48.206057557977836 0.46974491607079466 51.17048982780306 80.86875000000002 132.16875000000002 4 84.43125000000002 5 6 181.33125000000004 207.69375000000005 7 0.36557821373257621 8 9 51.73290608438321 225.50625000000005 10 51.105130750143907 228.35625000000002 11 233.34375000000003 68.043750000000017 138.58125000000004 12
decision_type=9 2 9 9 9 2 2 2 2 2 9 2 9 9 2 2 9 2 9 9 2 2 9 2 2 9 2 2 2 9
left_child=1 3 13 4 5 -1 7 8 -5 10 11 -9 -11 -3 19 16 -16 18 -17 27 -19 22 -20 -24 25 -23 -26 -2 -21 -30
right_child=14 2 -4 6 -6 -7 -8 9 -10 12 -12 -13 -14 -15 15 17 -18 20 21 28 -22 24 23 -25 26 -27 -28 -29 29 -31
leaf_value=0.0031383070365621725 -0.02158881512966844 0.0095151847455879988 -0.00092729139532210937 0.068867811029976925 -0.0043626511306698252 -0.01860230009874083 -0.040139894149949146 0.0283344871158984 -0.0013489541017356764 -0.0010901460787078729 -0.0078253980304570474 0.001741194398945505 0.0063230580023875948 0.00356684432803268 0.0018922057838498456 -0.0014854715295649756 -0.0064330585226906557 -0.0079434802024392799 0.0071890651231832905 -0.0010840091954779497 0.050079910727007217 0.0037302384974662616 -0.0045845707609553851 0.0045798259417838107 0.0075011928191221627 -0.0096231157973550117 0.0007114947032196158 0.0023141681982016974 -0.0025468969974748513 0.0047516680739382077
leaf_weight=166 79 1108 14805 18 7087 470 24 128 10763 1951 1299 365 3209 5268 4643 13055 5927 22 3277 15084 54 845 1446 1308 1155 1131 15097 17661 3079 4611
leaf_count=166 79 1108 14805 18 7087 470 24 128 10763 1951 1299 365 3209 5268 4643 13055 5927 22 3277 15084 54 845 1446 1308 1155 1131 15097 17661 3079 4611
internal_value=-1.6425e-06 -0.000545636 0.000742456 -0.00161661 -0.0050671 -0.0127277 -0.000112989 -5.88801e-05 -0.00123172 0.00175993 -0.00333767 0.00847386 0.00353026 0.00461381 0.000285288 -0.000243129 -0.00278038 0.000474141 0.000407316 0.000910893 0.0332837 0.00142595 0.00381223 -0.000231142 0.00063719 -0.00394262 0.00119403 0.00220648 -9.92408e-05 0.00183226
internal_weight=135135 46661 21181 25480 7723 636 17757 17733 10781 6952 1792 493 5160 6376 88474 47960 10570 37390 37314 40514 76 24259 6031 2754 18228 1976 16252 17740 22774 7690
internal_count=135135 46661 21181 25480 7723 636 17757 17733 10781 6952 1792 493 5160 6376 88474 47960 10570 37390 37314 40514 76 24259 6031 2754 18228 1976 16252 17740 22774 7690
cat_boundaries=0 3 6 9 10 13 16 18 21 24 27 30 33 36
cat_threshold=948766852 1615879483 148 805373952 1053704 128 805373952 1053704 128 65536 8388608 49 16 142606336 49 4 65536 1024 18006528 310444740 2592 88134146 42115588 2594 121639987 251699716 2082 2148664577 220463168 1288 1107427680 2415919296 73 3221258304 852160 264
is_linear=0
shrinkage=0.102663


Tree=30
num_leaves=31
num_cat=5
split_feature=10 22 10 0 19 0 13 10 5 12 19 12 0 20 0 10 2 0 12 16 8 0 0 1 0 4 0 0 1 12
split_gain=6.65965 13.7761 13.4374 7.87125 9.09198 8.5549 7.75261 7.6718 5.62674 6.1199 5.51003 6.33254 8.2558 5.30605 5.20959 17.3553 6.71669 5.80143 5.57353 5.12862 20.6616 17.8557 9.54719 8.22053 4.8436 4.81355 4.99564 13.6765 10.1697 11.9514
threshold=0 51.197982628665606 1 99.393750000000011 58.861157098733614 118.63125000000001 50.129489435915694 2 3 46.447302611181932 55.193375540562656 54.288250887043993 177.05625000000001 55.749620314890301 112.21875000000001 4 78.375000000000028 110.08125000000001 27.129630197388817 51.73290608438321 70.325979842441498 89.418750000000017 88.706250000000011 88.706250000000011 102.95625000000001 0.98406071325737321 170.64375000000004 205.55625000000001 181.33125000000004 67.084802611181942
decision_type=9 2 9 2 2 2 2 9 1 2 2 2 2 2 2 9 2 2 2 2 2 2 2 2 2 2 2 2 2 2
left_child=1 2 6 4 -2 8 -1 -4 -5 -10 11 -8 24 -6 17 16 -16 19 -17 20 21 23 -22 -3 -13 26 -7 28 29 -28
right_child=3 14 7 5 13 25 10 -9 9 -11 -12 12 -14 -15 15 18 -18 -19 -20 -21 22 -23 -24 -25 -26 -27 27 -29 -30 -31
leaf_value=-0.0067248172131096568 -0.0046148439706876409 -0.0028495444641693192 0.012444427397863288 0.0040926107740391869 0.035309641223854993 -0.0010014577116758414 -0.01811023082849321 -0.0033389067338427847 -0.045653900168873225 -0.004148707028470435 -0.011012102512980829 -0.031890397774649741 -0.014122392427303619 0.0055040546410316865 -0.019995887297501225 -0.026387554300751487 0.0062765666159999072 0.013421167353473991 -0.00043730984485966274 0.0025942451218211944 -0.0009714435381721182 0.012482360515850633 -0.012178526921609969 -0.036265012948765135 -0.078401584106425823 -0.013511353560281025 0.0056581204810468369 0.0001216792721670169 0.0015823968522326319 0.021992618559791021
leaf_weight=1105 4087 579 275 6622 65 20852 274 2733 34 238 411 30 52 217 573 70 95 311 7031 5480 1199 1186 1357 69 50 213 3253 69355 6895 424
leaf_count=1105 4087 579 275 6622 65 20852 274 2733 34 238 411 30 52 217 573 70 95 311 7031 5480 1199 1186 1357 69 50 213 3253 69355 6895 424
internal_value=-4.71458e-07 -0.00142307 -0.00570836 0.000289586 -0.00351828 0.000443818 -0.0116616 -0.0018595 0.00356276 -0.00933686 -0.0184814 -0.0260428 -0.0425088 0.0123741 -0.000246902 -0.00203156 -0.0160197 0.00111495 -0.000692147 0.000727188 -0.00160344 0.00580802 -0.00692137 -0.00640767 -0.0609599 0.000230911 0.000259955 0.000589043 0.00365507 0.00754167
internal_weight=135135 22880 4930 112255 4369 107886 1922 3008 6894 272 817 406 132 282 17950 7769 668 10181 7101 9870 4390 1834 2556 648 80 100992 100779 79927 10572 3677
internal_count=135135 22880 4930 112255 4369 107886 1922 3008 6894 272 817 406 132 282 17950 7769 668 10181 7101 9870 4390 1834 2556 648 80 100992 100779 79927 10572 3677
cat_boundaries=0 1 2 3 4 5
cat_threshold=251854868 16842752 67239936 1 196608
is_linear=0
shrinkage=0.0915111


Tree=31
num_leaves=31
num_cat=21
split_feature=9 10 9 10 9 9 10 9 10 9 9 10 9 10 9 10 6 0 9 9 0 9 9 12 0 0 3 0 19 19
split_gain=2.75915 9.26898 22.251 7.81629 21.0623 11.9041 14.1808 17.8725 13.7326 19.5159 16.1875 9.94813 9.0593 7.93396 7.52138 8.36343 8.03572 6.72549 5.69158 5.61188 5.45521 5.44238 5.34571 5.01416 5.004 4.92072 4.84973 4.76172 4.74841 4.63217
threshold=0 1 2 3 4 5 6 7 8 9 10 11 12 13 14 15 16 310.29375000000005 17 18 237.61875000000001 19 20 34.999026749112957 84.43125000000002 228.35625000000002 0.16457661765862108 110.08125000000001 45.561100165383571 58.861157098733614
decision_type=9 9 9 9 9 9 9 9 9 9 9 9 9 9 9 9 1 2 9 9 2 9 9 2 2 2 2 2 2 2
left_child=1 2 -1 4 13 8 7 21 9 26 11 -10 -8 27 15 19 20 28 -4 29 25 -7 -12 -9 -16 -17 -5 -2 -15 -6
right_child=3 -3 18 5 14 6 12 23 10 -11 22 -13 -14 17 24 16 -18 -19 -20 -21 -22 -23 -24 -25 -26 -27 -28 -29 -30 -31
